{"learner":{"attributes":{"scikit_learn":"{\"_estimator_type\": \"classifier\"}"},"feature_names":[],"feature_types":[],"gradient_booster":{"model":{"gbtree_model_param":{"num_parallel_tree":"1","num_trees":"700"},"iteration_indptr":[0,7,14,21,28,35,42,49,56,63,70,77,84,91,98,105,112,119,126,133,140,147,154,161,168,175,182,189,196,203,210,217,224,231,238,245,252,259,266,273,280,287,294,301,308,315,322,329,336,343,350,357,364,371,378,385,392,399,406,413,420,427,434,441,448,455,462,469,476,483,490,497,504,511,518,525,532,539,546,553,560,567,574,581,588,595,602,609,616,623,630,637,644,651,658,665,672,679,686,693,700],"tree_info":[0,1,2,3,4,5,6,0,1,2,3,4,5,6,0,1,2,3,4,5,6,0,1,2,3,4,5,6,0,1,2,3,4,5,6,0,1,2,3,4,5,6,0,1,2,3,4,5,6,0,1,2,3,4,5,6,0,1,2,3,4,5,6,0,1,2,3,4,5,6,0,1,2,3,4,5,6,0,1,2,3,4,5,6,0,1,2,3,4,5,6,0,1,2,3,4,5,6,0,1,2,3,4,5,6,0,1,2,3,4,5,6,0,1,2,3,4,5,6,0,1,2,3,4,5,6,0,1,2,3,4,5,6,0,1,2,3,4,5,6,0,1,2,3,4,5,6,0,1,2,3,4,5,6,0,1,2,3,4,5,6,0,1,2,3,4,5,6,0,1,2,3,4,5,6,0,1,2,3,4,5,6,0,1,2,3,4,5,6,0,1,2,3,4,5,6,0,1,2,3,4,5,6,0,1,2,3,4,5,6,0,1,2,3,4,5,6,0,1,2,3,4,5,6,0,1,2,3,4,5,6,0,1,2,3,4,5,6,0,1,2,3,4,5,6,0,1,2,3,4,5,6,0,1,2,3,4,5,6,0,1,2,3,4,5,6,0,1,2,3,4,5,6,0,1,2,3,4,5,6,0,1,2,3,4,5,6,0,1,2,3,4,5,6,0,1,2,3,4,5,6,0,1,2,3,4,5,6,0,1,2,3,4,5,6,0,1,2,3,4,5,6,0,1,2,3,4,5,6,0,1,2,3,4,5,6,0,1,2,3,4,5,6,0,1,2,3,4,5,6,0,1,2,3,4,5,6,0,1,2,3,4,5,6,0,1,2,3,4,5,6,0,1,2,3,4,5,6,0,1,2,3,4,5,6,0,1,2,3,4,5,6,0,1,2,3,4,5,6,0,1,2,3,4,5,6,0,1,2,3,4,5,6,0,1,2,3,4,5,6,0,1,2,3,4,5,6,0,1,2,3,4,5,6,0,1,2,3,4,5,6,0,1,2,3,4,5,6,0,1,2,3,4,5,6,0,1,2,3,4,5,6,0,1,2,3,4,5,6,0,1,2,3,4,5,6,0,1,2,3,4,5,6,0,1,2,3,4,5,6,0,1,2,3,4,5,6,0,1,2,3,4,5,6,0,1,2,3,4,5,6,0,1,2,3,4,5,6,0,1,2,3,4,5,6,0,1,2,3,4,5,6,0,1,2,3,4,5,6,0,1,2,3,4,5,6,0,1,2,3,4,5,6,0,1,2,3,4,5,6,0,1,2,3,4,5,6,0,1,2,3,4,5,6,0,1,2,3,4,5,6,0,1,2,3,4,5,6,0,1,2,3,4,5,6,0,1,2,3,4,5,6,0,1,2,3,4,5,6,0,1,2,3,4,5,6,0,1,2,3,4,5,6,0,1,2,3,4,5,6,0,1,2,3,4,5,6,0,1,2,3,4,5,6,0,1,2,3,4,5,6,0,1,2,3,4,5,6,0,1,2,3,4,5,6,0,1,2,3,4,5,6,0,1,2,3,4,5,6,0,1,2,3,4,5,6,0,1,2,3,4,5,6,0,1,2,3,4,5,6],"trees":[{"base_weights":[1.8397853E0,-5.021763E-1,3.4882197E0,-5.7135236E-1,3.0402145E-1,3.491826E-1,1.0275229E-1,-5.818036E-2,1.4770642E-1],"categories":[],"categories_nodes":[],"categories_segments":[],"categories_sizes":[],"default_left":[0,0,0,0,0,0,0,0,0],"id":0,"left_children":[1,3,5,7,-1,-1,-1,-1,-1],"loss_changes":[3.6304514E3,9.710094E1,1.3085938E0,9.049194E0,0E0,0E0,0E0,0E0,0E0],"parents":[2147483647,0,0,1,1,2,2,3,3],"right_children":[2,4,6,8,-1,-1,-1,-1,-1],"split_conditions":[2.89E2,4.5895576E-4,1.399E3,4.45E2,3.0402145E-1,3.491826E-1,1.0275229E-1,-5.818036E-2,1.4770642E-1],"split_indices":[4,6,1,10,0,0,0,0,0],"split_type":[0,0,0,0,0,0,0,0,0],"sum_hessian":[9.3893884E2,3.881633E2,5.507756E2,3.8155106E2,6.6122456E0,5.495511E2,1.2244899E0,3.8032657E2,1.2244899E0],"tree_param":{"num_deleted":"0","num_feature":"46","num_nodes":"9","size_leaf_vector":"1"}},{"base_weights":[-4.0397766E-1,-1.0904372E-1,-5.627318E-1,2.7605632E-1,-1.7829853E-1,-5.692013E-1,4.5161286E-1,-2.109437E-1,7.478397E-1,-6.0758043E-2,-5.320082E-1,-3.9189804E-1,-5.8229815E-2,-3.862069E-2,1.2727273E-1,7.368421E-2,-3.0926085E-1,9.804113E-1,-1.627907E-1,-2.0660576E-1,3.1247264E-1,-5.7451405E-2,1.834061E-1,-2.8140703E-1,-5.4982413E-2,-3.935135E-2,-1.4554622E-9,1.15748025E-1,-1.54696135E-2,-4.3523315E-2,2.2292992E-2,-1.3929903E-2,-4.3809097E-2,-3.6842104E-2,6.275862E-2,-3.322957E-2,2.2292992E-2],"categories":[],"categories_nodes":[],"categories_segments":[],"categories_sizes":[],"default_left":[0,0,0,0,0,0,0,0,0,0,0,0,0,0,0,0,0,0,0,0,0,0,0,0,0,0,0,0,0,0,0,0,0,0,0,0,0],"id":1,"left_children":[1,3,5,7,9,11,13,15,17,19,21,23,-1,-1,-1,-1,25,27,29,31,-1,-1,33,35,-1,-1,-1,-1,-1,-1,-1,-1,-1,-1,-1,-1,-1],"loss_changes":[4.3948425E1,8.854141E0,4.2652893E0,1.1809792E1,1.1626552E1,1.18219E0,3.5381536E0,2.6259274E0,5.6617355E0,9.8959724E1,2.2284355E0,6.2765026E-1,0E0,0E0,0E0,0E0,6.2587714E-1,4.3670807E0,7.4255896E-1,3.1062708E0,0E0,0E0,1.3767331E0,8.0369925E-1,0E0,0E0,0E0,0E0,0E0,0E0,0E0,0E0,0E0,0E0,0E0,0E0,0E0],"parents":[2147483647,0,0,1,1,2,2,3,3,4,4,5,5,6,6,7,7,8,8,9,9,10,10,11,11,16,16,17,17,18,18,19,19,22,22,23,23],"right_children":[2,4,6,8,10,12,14,16,18,20,22,24,-1,-1,-1,-1,26,28,30,32,-1,-1,34,36,-1,-1,-1,-1,-1,-1,-1,-1,-1,-1,-1,-1,-1],"split_conditions":[5.7935715E-5,1.51E2,5.9231663E0,3.385544E-5,1.53E2,5.888939E-5,2.25758E0,5.130768E-4,2.002716E-5,1.06E2,4.4107437E-5,1.53E2,-5.8229815E-2,-3.862069E-2,1.2727273E-1,7.368421E-2,8.711815E-4,2.3841858E-5,1.0819435E-3,4.8160553E-5,3.1247264E-1,-5.7451405E-2,5.564464E0,1.270771E-4,-5.4982413E-2,-3.935135E-2,-1.4554622E-9,1.15748025E-1,-1.54696135E-2,-4.3523315E-2,2.2292992E-2,-1.3929903E-2,-4.3809097E-2,-3.6842104E-2,6.275862E-2,-3.322957E-2,2.2292992E-2],"split_indices":[12,10,18,21,13,15,21,18,9,13,15,13,0,0,0,0,18,15,18,9,0,0,0,21,0,0,0,0,0,0,0,0,0,0,0,0,0],"split_type":[0,0,0,0,0,0,0,0,0,0,0,0,0,0,0,0,0,0,0,0,0,0,0,0,0,0,0,0,0,0,0,0,0,0,0,0,0],"sum_hessian":[9.3893884E2,3.2914288E2,6.0979596E2,4.971429E1,2.794286E2,6.063674E2,3.4285717E0,2.4734695E1,2.4979593E1,2.1061226E2,6.881633E1,4.383674E1,5.6253064E2,1.9591838E0,1.4693879E0,1.7142859E0,2.302041E1,1.9836737E1,5.1428576E0,2.0228574E2,8.326531E0,6.514286E1,3.6734695E0,2.7428574E1,1.6408165E1,1.7877552E1,5.1428576E0,1.7142859E1,2.6938777E0,2.9387758E0,2.2040818E0,1.579592E2,4.4326534E1,1.7142859E0,1.9591838E0,2.5224491E1,2.2040818E0],"tree_param":{"num_deleted":"0","num_feature":"46","num_nodes":"37","size_leaf_vector":"1"}},{"base_weights":[-3.9546648E-1,-1.2958205E-1,-5.822761E-2,-2.8357896E-1,3.3097267E-1,-5.433393E-3,-3.8463002E-1,3.2405445E-1,-1.3201243E-1,3.7532532E-1,-3.7230307E-1,-3.0867448E-1,-5.7365388E-2,-2.0187332E-1,1.4696132E0,-2.8665787E-2,7.7328935E-2,3.6842104E-2,-4.143531E-2,-1.2132886E-2,-3.758305E-2,-1.6914831E-9,-3.57174E-2,2.0826446E-1,1.2844035E-2],"categories":[],"categories_nodes":[],"categories_segments":[],"categories_sizes":[],"default_left":[0,0,0,0,0,0,0,0,0,0,0,0,0,0,0,0,0,0,0,0,0,0,0,0,0],"id":2,"left_children":[1,3,-1,5,7,9,11,-1,13,15,17,19,-1,21,23,-1,-1,-1,-1,-1,-1,-1,-1,-1,-1],"loss_changes":[4.6611084E1,2.7694878E1,0E0,8.210289E0,1.3241498E2,1.1158047E1,2.899807E0,0E0,9.862214E0,1.0549807E1,1.4195313E0,1.9050303E0,0E0,2.59574E0,2.7695408E0,0E0,0E0,0E0,0E0,0E0,0E0,0E0,0E0,0E0,0E0],"parents":[2147483647,0,0,1,1,3,3,4,4,5,5,6,6,8,8,9,9,10,10,11,11,13,13,14,14],"right_children":[2,4,-1,6,8,10,12,-1,14,16,18,20,-1,22,24,-1,-1,-1,-1,-1,-1,-1,-1,-1,-1],"split_conditions":[2.89E2,2.15E2,-5.822761E-2,2.76E2,2.68E2,9.4890594E-5,1.06E2,3.2405445E-1,2.499E3,6.1511993E-4,9.536743E-7,3.2901764E-5,-5.7365388E-2,7.1525574E-6,3.539E3,-2.8665787E-2,7.7328935E-2,3.6842104E-2,-4.143531E-2,-1.2132886E-2,-3.758305E-2,-1.6914831E-9,-3.57174E-2,2.0826446E-1,1.2844035E-2],"split_indices":[4,13,0,7,13,6,13,0,28,18,15,9,0,15,22,0,0,0,0,0,0,0,0,0,0],"split_type":[0,0,0,0,0,0,0,0,0,0,0,0,0,0,0,0,0,0,0,0,0,0,0,0,0],"sum_hessian":[9.3893884E2,3.881633E2,5.507756E2,2.911837E2,9.69796E1,7.7877556E1,2.1330614E2,1.2489797E1,8.44898E1,3.8204082E1,3.9673473E1,1.5404083E2,5.9265312E1,8.179592E1,2.6938777E0,1.444898E1,2.3755104E1,1.7142859E0,3.7959187E1,4.1387756E1,1.1265307E2,3.6000004E1,4.579592E1,1.4693879E0,1.2244899E0],"tree_param":{"num_deleted":"0","num_feature":"46","num_nodes":"25","size_leaf_vector":"1"}},{"base_weights":[-4.1461667E-1,5.636279E-1,-4.6225962E-1,-3.3267328E-1,8.1290317E-1,-2.726737E-1,-5.804625E-1,-5.090909E-2,1.6568045E-1,1.2024539E0,2.2838483E-2,-3.3030945E-1,-3.3442833E-2,-5.822733E-2,1.2844035E-2,-3.211009E-2,5.7798166E-2,4.128686E-1,1.4908199E0,-4.9201276E-2,4.813753E-1,8.066579E-2,-3.5386875E-1,1.8510354E-1,-4.7121346E-1,1.0880828E-1,-2.4454148E-2,1.6937618E-1,9.554896E-2,1.2727273E-1,5.0541502E-3,5.518672E-2,-1.1884551E-2,-2.924241E-2,-4.814725E-2,-1.611955E-2,2.703971E-1,5.7798166E-2,-5.565949E-2],"categories":[],"categories_nodes":[],"categories_segments":[],"categories_sizes":[],"default_left":[0,0,0,0,0,0,0,0,0,0,0,0,0,0,0,0,0,0,0,0,0,0,0,0,0,0,0,0,0,0,0,0,0,0,0,0,0,0,0],"id":3,"left_children":[1,3,5,7,9,11,13,-1,15,17,19,21,23,-1,-1,-1,-1,25,27,-1,29,31,33,35,37,-1,-1,-1,-1,-1,-1,-1,-1,-1,-1,-1,-1,-1,-1],"loss_changes":[4.4067795E1,1.0123961E1,1.9939484E1,9.904443E-1,1.068169E1,4.763912E0,7.827606E-1,0E0,8.7780255E-1,4.686409E0,3.1902301E0,2.7295074E0,6.626193E0,0E0,0E0,0E0,0E0,3.6451015E0,1.9304276E-1,0E0,2.3640108E0,1.5639914E0,1.9292755E0,4.0827843E1,2.3857403E0,0E0,0E0,0E0,0E0,0E0,0E0,0E0,0E0,0E0,0E0,0E0,0E0,0E0,0E0],"parents":[2147483647,0,0,1,1,2,2,3,3,4,4,5,5,6,6,8,8,9,9,10,10,11,11,12,12,17,17,18,18,20,20,21,21,22,22,23,23,24,24],"right_children":[2,4,6,8,10,12,14,-1,16,18,20,22,24,-1,-1,-1,-1,26,28,-1,30,32,34,36,38,-1,-1,-1,-1,-1,-1,-1,-1,-1,-1,-1,-1,-1,-1],"split_conditions":[6.914139E-5,5.2309036E-4,2.89E2,6.914139E-6,1.0967255E-5,1.6999245E-3,2.875391E0,-5.090909E-2,4.7683716E-6,5.564464E0,5.607509E0,5.470714E0,1.71E2,-5.822733E-2,1.2844035E-2,-3.211009E-2,5.7798166E-2,2.193451E-5,6.4492226E-4,-4.9201276E-2,2.0980835E-5,8.821487E-6,2.2172928E-5,1.53E2,5.464615E0,1.0880828E-1,-2.4454148E-2,1.6937618E-1,9.554896E-2,1.2727273E-1,5.0541502E-3,5.518672E-2,-1.1884551E-2,-2.924241E-2,-4.814725E-2,-1.611955E-2,2.703971E-1,5.7798166E-2,-5.565949E-2],"split_indices":[6,18,4,15,15,18,24,0,12,0,0,0,13,0,0,0,0,21,18,0,9,12,12,13,0,0,0,0,0,0,0,0,0,0,0,0,0,0,0],"split_type":[0,0,0,0,0,0,0,0,0,0,0,0,0,0,0,0,0,0,0,0,0,0,0,0,0,0,0,0,0,0,0,0,0,0,0,0,0,0,0],"sum_hessian":[9.3893884E2,4.3102043E1,8.958368E2,9.306123E0,3.379592E1,3.4530615E2,5.5053064E2,6.8571434E0,2.4489799E0,2.2285715E1,1.1510205E1,2.779592E2,6.734695E1,5.4930615E2,1.2244899E0,1.2244899E0,1.2244899E0,6.6122456E0,1.56734705E1,5.3877554E0,6.1224494E0,1.4938777E1,2.6302042E2,4.5306126E1,2.2040817E1,2.9387758E0,3.6734695E0,9.795919E0,5.8775516E0,1.4693879E0,4.6530614E0,3.9183676E0,1.1020409E1,1.7975511E2,8.326531E1,4.0653065E1,4.6530614E0,1.2244899E0,2.0816328E1],"tree_param":{"num_deleted":"0","num_feature":"46","num_nodes":"39","size_leaf_vector":"1"}},{"base_weights":[-4.1142496E-1,-1.6812629E-1,-5.822761E-2,1.5370919E0,-1.982855E-1,4.628099E-2,1.7433962E0,-2.2066814E-1,1.5684646E0,1.9463414E-1,5.7798166E-2,2.9942194E-1,-2.4537219E-1,2.1952663E-1,5.785123E-3,-3.032491E-2,5.384615E-2,-1.8319076E-2,-4.6332736E-2],"categories":[],"categories_nodes":[],"categories_segments":[],"categories_sizes":[],"default_left":[0,0,0,0,0,0,0,0,0,0,0,0,0,0,0,0,0,0,0],"id":4,"left_children":[1,3,-1,5,7,-1,9,11,13,-1,-1,15,17,-1,-1,-1,-1,-1,-1],"loss_changes":[3.8973343E1,2.0318695E1,0E0,7.174015E-1,1.5502962E1,0E0,1.5416336E-1,4.947708E0,4.5299797E0,0E0,0E0,2.7064276E0,4.830906E0,0E0,0E0,0E0,0E0,0E0,0E0],"parents":[2147483647,0,0,1,1,3,3,4,4,6,6,7,7,8,8,11,11,12,12],"right_children":[2,4,-1,6,8,-1,10,12,14,-1,-1,16,18,-1,-1,-1,-1,-1,-1],"split_conditions":[2.89E2,9.2E1,-5.822761E-2,5.556804E0,5.84E3,4.628099E-2,1.9080639E-3,9.059906E-6,2.2697449E-4,1.9463414E-1,5.7798166E-2,5.558365E0,1.85E2,2.1952663E-1,5.785123E-3,-3.032491E-2,5.384615E-2,-1.8319076E-2,-4.6332736E-2],"split_indices":[4,7,0,0,16,0,18,9,6,0,0,0,13,0,0,0,0,0,0],"split_type":[0,0,0,0,0,0,0,0,0,0,0,0,0,0,0,0,0,0,0],"sum_hessian":[9.3893884E2,3.881633E2,5.507756E2,5.8775516E0,3.8228574E2,1.4693879E0,4.4081635E0,3.7836737E2,3.9183676E0,3.1836736E0,1.2244899E0,1.6653063E1,3.6171432E2,2.4489799E0,1.4693879E0,4.6530614E0,1.2000001E1,2.8285718E2,7.885715E1],"tree_param":{"num_deleted":"0","num_feature":"46","num_nodes":"19","size_leaf_vector":"1"}},{"base_weights":[-8.480797E-2,6.1817604E-1,-5.8046377E-1,8.341417E-1,5.0141357E-2,-5.822738E-2,1.2844035E-2,7.528688E-1,2.8052928E0,3.941389E-1,-4.0181267E-1,1.1254017E-1,9.690793E-1,3.0175054E-1,8.677686E-2,4.4007838E-2,2.0055451E0,-5.0253105E-1,8.3419687E-1,-2.4671596E-3,1.3237822E-1,1.0781087E-1,2.5343953E-2,-2.9683886E-2,3.8319197E-2,2.8808662E-1,9.169329E-2,-9.695292E-3,-5.6797422E-2,-1.0979803E-9,1.4770642E-1],"categories":[],"categories_nodes":[],"categories_segments":[],"categories_sizes":[],"default_left":[0,0,0,0,0,0,0,0,0,0,0,0,0,0,0,0,0,0,0,0,0,0,0,0,0,0,0,0,0,0,0],"id":5,"left_children":[1,3,5,7,9,-1,-1,11,13,15,17,19,21,-1,-1,23,25,27,29,-1,-1,-1,-1,-1,-1,-1,-1,-1,-1,-1,-1],"loss_changes":[3.2786935E2,4.7699173E1,7.827606E-1,4.3048386E1,1.6990496E1,0E0,0E0,3.7562332E1,1.820427E0,3.488084E1,6.3057547E0,1.16359005E1,1.5588287E1,0E0,0E0,6.1183777E0,7.8790703E0,1.1220036E0,2.1122785E0,0E0,0E0,0E0,0E0,0E0,0E0,0E0,0E0,0E0,0E0,0E0,0E0],"parents":[2147483647,0,0,1,1,2,2,3,3,4,4,7,7,8,8,9,9,10,10,11,11,12,12,15,15,16,16,17,17,18,18],"right_children":[2,4,6,8,10,-1,-1,12,14,16,18,20,22,-1,-1,24,26,28,30,-1,-1,-1,-1,-1,-1,-1,-1,-1,-1,-1,-1],"split_conditions":[2.89E2,1.84E2,1.399E3,1.8E2,1.84E2,-5.822738E-2,1.2844035E-2,8.2969666E-5,1.20162964E-4,1.69E2,1.40768E0,3.7908554E-5,1.06E2,3.0175054E-1,8.677686E-2,1.2874603E-5,1.72E2,1.72E2,1.114E3,-2.4671596E-3,1.3237822E-1,1.0781087E-1,2.5343953E-2,-2.9683886E-2,3.8319197E-2,2.8808662E-1,9.169329E-2,-9.695292E-3,-5.6797422E-2,-1.0979803E-9,1.4770642E-1],"split_indices":[4,13,1,13,10,0,0,6,12,10,18,12,13,0,0,9,10,7,16,0,0,0,0,0,0,0,0,0,0,0,0],"split_type":[0,0,0,0,0,0,0,0,0,0,0,0,0,0,0,0,0,0,0,0,0,0,0,0,0,0,0,0,0,0,0],"sum_hessian":[9.3893884E2,3.881633E2,5.507756E2,2.8089798E2,1.0726531E2,5.495511E2,1.2244899E0,2.7110205E2,9.795919E0,6.0979595E1,4.6285717E1,6.881633E1,2.0228574E2,8.326531E0,1.4693879E0,5.0938778E1,1.0040817E1,4.3346943E1,2.9387758E0,6.2693882E1,6.1224494E0,1.7510205E2,2.7183676E1,2.5469389E1,2.5469389E1,4.6530614E0,5.3877554E0,6.3673472E0,3.6979595E1,1.7142859E0,1.2244899E0],"tree_param":{"num_deleted":"0","num_feature":"46","num_nodes":"31","size_leaf_vector":"1"}},{"base_weights":[-1.2949173E-1,5.102522E-1,-5.8046377E-1,1.4380089E0,4.5195132E-1,-5.822738E-2,1.2844035E-2,2.1505506E0,-4.9851634E-2,4.8804212E-1,-3.6191678E-1,-3.6842104E-2,2.4638472E0,5.9684134E-1,3.2413888E-1,-4.7748977E-1,5.7798166E-2,2.7552E-1,5.350318E-2,3.464245E-2,7.76865E-2,5.477905E-2,-2.8601363E-2,1.2844035E-2,-5.408618E-2],"categories":[],"categories_nodes":[],"categories_segments":[],"categories_sizes":[],"default_left":[0,0,0,0,0,0,0,0,0,0,0,0,0,0,0,0,0,0,0,0,0,0,0,0,0],"id":6,"left_children":[1,3,5,7,9,-1,-1,11,-1,13,15,-1,17,19,21,23,-1,-1,-1,-1,-1,-1,-1,-1,-1],"loss_changes":[2.714748E2,2.0399551E1,7.827606E-1,3.2189228E1,1.0974564E1,0E0,0E0,1.4066177E1,0E0,6.0912323E0,2.033962E0,0E0,6.9324265E0,9.226402E0,1.9642838E1,6.4388704E-1,0E0,0E0,0E0,0E0,0E0,0E0,0E0,0E0,0E0],"parents":[2147483647,0,0,1,1,2,2,3,3,4,4,7,7,9,9,10,10,12,12,13,13,14,14,15,15],"right_children":[2,4,6,8,10,-1,-1,12,-1,14,16,-1,18,20,22,24,-1,-1,-1,-1,-1,-1,-1,-1,-1],"split_conditions":[2.89E2,5.2309036E-4,1.399E3,5.94E2,7.510185E-5,-5.822738E-2,1.2844035E-2,6.0081482E-5,-4.9851634E-2,2.76E2,4.178E3,-3.6842104E-2,5.662349E0,1.50203705E-5,1.2819767E-3,9.059906E-6,5.7798166E-2,2.7552E-1,5.350318E-2,3.464245E-2,7.76865E-2,5.477905E-2,-2.8601363E-2,1.2844035E-2,-5.408618E-2],"split_indices":[4,18,1,16,15,0,0,6,0,10,16,0,0,12,18,9,0,0,0,0,0,0,0,0,0],"split_type":[0,0,0,0,0,0,0,0,0,0,0,0,0,0,0,0,0,0,0,0,0,0,0,0,0],"sum_hessian":[9.3893884E2,3.881633E2,5.507756E2,2.1551022E1,3.6661227E2,5.495511E2,1.2244899E0,1.56734705E1,5.8775516E0,3.514286E2,1.5183675E1,1.7142859E0,1.3959185E1,2.0963268E2,1.4179593E2,1.3959185E1,1.2244899E0,1.1755103E1,2.2040818E0,8.8897964E1,1.207347E2,1.0383674E2,3.7959187E1,1.2244899E0,1.27346945E1],"tree_param":{"num_deleted":"0","num_feature":"46","num_nodes":"25","size_leaf_vector":"1"}},{"base_weights":[1.4744705E0,-4.9409607E-1,2.4897685E0,-5.653948E-1,2.3585156E-1,2.4918234E-1,6.216973E-2,-5.763003E-2,1.584274E-1],"categories":[],"categories_nodes":[],"categories_segments":[],"categories_sizes":[],"default_left":[0,0,0,0,0,0,0,0,0],"id":7,"left_children":[1,3,5,7,-1,-1,-1,-1,-1],"loss_changes":[2.1857327E3,7.714254E1,1.2192383E0,9.456848E0,0E0,0E0,0E0,0E0,0E0],"parents":[2147483647,0,0,1,1,2,2,3,3],"right_children":[2,4,6,8,-1,-1,-1,-1,-1],"split_conditions":[2.89E2,4.5895576E-4,2.297E3,5.74E2,2.3585156E-1,2.4918234E-1,6.216973E-2,-5.763003E-2,1.584274E-1],"split_indices":[4,6,7,10,0,0,0,0,0],"split_type":[0,0,0,0,0,0,0,0,0],"sum_hessian":[1.0919716E3,3.7173196E2,7.202397E2,3.6344962E2,8.282332E0,7.1911475E2,1.1249101E0,3.6234335E2,1.1062866E0],"tree_param":{"num_deleted":"0","num_feature":"46","num_nodes":"9","size_leaf_vector":"1"}},{"base_weights":[-3.9261183E-1,-1.0356229E-1,-5.554267E-1,2.5244242E-1,-1.702127E-1,-5.621884E-1,4.207295E-1,-2.0515758E-1,6.6620195E-1,-5.6028645E-2,-5.2534294E-1,-3.8179204E-1,-5.7584506E-2,-3.8711302E-2,1.1842411E-1,7.019671E-2,-3.0318096E-1,8.6069125E-1,-1.5858212E-1,-1.9730675E-1,2.4237779E-1,-5.6919526E-2,1.7084374E-1,-2.7059555E-1,-5.4361433E-2,-3.8662568E-2,-5.439538E-4,1.0229887E-1,-1.8063389E-2,-4.297356E-2,2.1351663E-2,-1.3141543E-2,-4.2886604E-2,-3.6404055E-2,5.8304828E-2,-4.553261E-2,-1.0790064E-2],"categories":[],"categories_nodes":[],"categories_segments":[],"categories_sizes":[],"default_left":[0,0,0,0,0,0,0,0,0,0,0,0,0,0,0,0,0,0,0,0,0,0,0,0,0,0,0,0,0,0,0,0,0,0,0,0,0],"id":8,"left_children":[1,3,5,7,9,11,13,15,17,19,21,23,-1,-1,-1,-1,25,27,29,31,-1,-1,33,35,-1,-1,-1,-1,-1,-1,-1,-1,-1,-1,-1,-1,-1],"loss_changes":[4.2468964E1,7.797833E0,4.0503693E0,9.97105E0,1.1157719E1,1.1949005E0,3.262913E0,2.473915E0,4.549855E0,7.400838E1,2.142807E0,6.335139E-1,0E0,0E0,0E0,0E0,5.854075E-1,3.9736233E0,7.066323E-1,2.987452E0,0E0,0E0,1.2572318E0,7.835102E-1,0E0,0E0,0E0,0E0,0E0,0E0,0E0,0E0,0E0,0E0,0E0,0E0,0E0],"parents":[2147483647,0,0,1,1,2,2,3,3,4,4,5,5,6,6,7,7,8,8,9,9,10,10,11,11,16,16,17,17,18,18,19,19,22,22,23,23],"right_children":[2,4,6,8,10,12,14,16,18,20,22,24,-1,-1,-1,-1,26,28,30,32,-1,-1,34,36,-1,-1,-1,-1,-1,-1,-1,-1,-1,-1,-1,-1,-1],"split_conditions":[5.7935715E-5,1.51E2,5.9231663E0,3.385544E-5,1.53E2,5.888939E-5,7.432246E0,5.130768E-4,2.002716E-5,1.06E2,4.4107437E-5,1.53E2,-5.7584506E-2,-3.8711302E-2,1.1842411E-1,7.019671E-2,8.711815E-4,1.4770031E-3,1.0819435E-3,4.8160553E-5,2.4237779E-1,-5.6919526E-2,5.564464E0,1.4710426E-4,-5.4361433E-2,-3.8662568E-2,-5.439538E-4,1.0229887E-1,-1.8063389E-2,-4.297356E-2,2.1351663E-2,-1.3141543E-2,-4.2886604E-2,-3.6404055E-2,5.8304828E-2,-4.553261E-2,-1.0790064E-2],"split_indices":[12,10,18,21,13,15,24,18,9,13,15,13,0,0,0,0,18,18,18,9,0,0,0,6,0,0,0,0,0,0,0,0,0,0,0,0,0],"split_type":[0,0,0,0,0,0,0,0,0,0,0,0,0,0,0,0,0,0,0,0,0,0,0,0,0,0,0,0,0,0,0,0,0,0,0,0,0],"sum_hessian":[9.0263525E2,3.2582523E2,5.7681006E2,5.0941284E1,2.7488394E2,5.732632E2,3.5468407E0,2.4428543E1,2.6512741E1,2.0888083E2,6.6003105E1,4.2381737E1,5.308815E2,1.9629264E0,1.5839143E0,1.7814538E0,2.2647089E1,2.1418571E1,5.09417E0,1.9849284E2,1.0387986E1,6.226358E1,3.7395258E0,2.6704126E1,1.5677609E1,1.7456282E1,5.1908073E0,1.8545708E1,2.872863E0,2.8571956E0,2.2369745E0,1.5574295E2,4.2749905E1,1.6784208E0,2.061105E0,1.1662918E1,1.5041207E1],"tree_param":{"num_deleted":"0","num_feature":"46","num_nodes":"37","size_leaf_vector":"1"}},{"base_weights":[-3.8409388E-1,-1.23718634E-1,-5.7578117E-2,-2.7354738E-1,3.0226097E-1,-2.3645188E-3,-3.7474343E-1,2.4330829E-1,-1.2678328E-1,3.5133004E-1,-3.6202237E-1,-2.9832673E-1,-5.683543E-2,-1.9511406E-1,1.2979505E0,-2.7541831E-2,6.995601E-2,3.5331666E-2,-4.047024E-2,-1.1616048E-2,-3.6519665E-2,-2.9253613E-5,-3.4877386E-2,1.7906305E-1,1.1852549E-2],"categories":[],"categories_nodes":[],"categories_segments":[],"categories_sizes":[],"default_left":[0,0,0,0,0,0,0,0,0,0,0,0,0,0,0,0,0,0,0,0,0,0,0,0,0],"id":9,"left_children":[1,3,-1,5,7,9,11,-1,13,15,17,19,-1,21,23,-1,-1,-1,-1,-1,-1,-1,-1,-1,-1],"loss_changes":[4.5064957E1,2.4638294E1,0E0,7.824463E0,9.2266426E1,1.0112877E1,2.9027176E0,0E0,8.49695E0,8.941267E0,1.3463116E0,1.7969046E0,0E0,2.4448597E0,2.1155791E0,0E0,0E0,0E0,0E0,0E0,0E0,0E0,0E0,0E0,0E0],"parents":[2147483647,0,0,1,1,3,3,4,4,5,5,6,6,8,8,9,9,10,10,11,11,13,13,14,14],"right_children":[2,4,-1,6,8,10,12,-1,14,16,18,20,-1,22,24,-1,-1,-1,-1,-1,-1,-1,-1,-1,-1],"split_conditions":[2.89E2,2.15E2,-5.7578117E-2,2.76E2,2.68E2,9.4890594E-5,1.06E2,2.4330829E-1,2.499E3,6.1511993E-4,9.536743E-7,3.2901764E-5,-5.683543E-2,7.1525574E-6,3.539E3,-2.7541831E-2,6.995601E-2,3.5331666E-2,-4.047024E-2,-1.1616048E-2,-3.6519665E-2,-2.9253613E-5,-3.4877386E-2,1.7906305E-1,1.1852549E-2],"split_indices":[4,13,0,7,13,6,13,0,28,18,15,9,0,15,22,0,0,0,0,0,0,0,0,0,0],"split_type":[0,0,0,0,0,0,0,0,0,0,0,0,0,0,0,0,0,0,0,0,0,0,0,0,0],"sum_hessian":[9.033403E2,3.8373953E2,5.196007E2,2.8415295E2,9.958658E1,7.749826E1,2.066547E2,1.5908257E1,8.367832E1,3.908473E1,3.8413532E1,1.4999408E2,5.6660618E1,8.0672295E1,3.0060215E0,1.4034452E1,2.5050276E1,1.7530625E0,3.666047E1,4.1010597E1,1.0898348E2,3.601353E1,4.4658768E1,1.7547772E0,1.2512443E0],"tree_param":{"num_deleted":"0","num_feature":"46","num_nodes":"25","size_leaf_vector":"1"}},{"base_weights":[-4.032632E-1,5.186153E-1,-4.5189676E-1,-3.2120517E-1,7.3288554E-1,-2.629546E-1,-5.7387424E-1,-5.006012E-2,1.584968E-1,1.0548298E0,2.3897795E-2,-3.2444173E-1,-4.3601863E-2,-5.7577986E-2,1.3151054E-2,-3.458941E-2,6.950701E-2,3.8098434E-1,1.284506E0,1.15842156E-1,-1.8174347E-1,8.878253E-2,-3.4921455E-1,1.4286035E-1,-4.6814647E-1,9.7753175E-2,-2.4098236E-2,1.07050136E-1,1.9036633E-1,-3.9597284E-2,3.2688145E-2,3.9330564E-2,-1.8355064E-2,-2.8618304E-2,-4.914561E-2,-2.0398512E-2,2.3019202E-1,5.4354336E-2,-5.523197E-2],"categories":[],"categories_nodes":[],"categories_segments":[],"categories_sizes":[],"default_left":[0,0,0,0,0,0,0,0,0,0,0,0,0,0,0,0,0,0,0,0,0,0,0,0,0,0,0,0,0,0,0,0,0,0,0,0,0,0,0],"id":10,"left_children":[1,3,5,7,9,11,13,-1,15,17,19,21,23,-1,-1,-1,-1,25,27,-1,29,31,33,35,37,-1,-1,-1,-1,-1,-1,-1,-1,-1,-1,-1,-1,-1,-1],"loss_changes":[4.0697586E1,8.457502E0,1.9618912E1,9.3846345E-1,8.353603E0,4.549671E0,7.7531433E-1,0E0,1.1813889E0,3.4140778E0,3.1237175E0,2.734911E0,6.0229635E0,0E0,0E0,0E0,0E0,3.1418748E0,3.9865875E-1,0E0,1.375418E0,1.3772676E0,2.0954075E0,4.019268E1,2.2754178E0,0E0,0E0,0E0,0E0,0E0,0E0,0E0,0E0,0E0,0E0,0E0,0E0,0E0,0E0],"parents":[2147483647,0,0,1,1,2,2,3,3,4,4,5,5,6,6,8,8,9,9,10,10,11,11,12,12,17,17,18,18,20,20,21,21,22,22,23,23,24,24],"right_children":[2,4,6,8,10,12,14,-1,16,18,20,22,24,-1,-1,-1,-1,26,28,-1,30,32,34,36,38,-1,-1,-1,-1,-1,-1,-1,-1,-1,-1,-1,-1,-1,-1],"split_conditions":[6.914139E-5,5.2309036E-4,2.89E2,6.914139E-6,1.0967255E-5,1.6400814E-3,2.875391E0,-5.006012E-2,1.8E2,5.564464E0,1.692772E-5,5.470714E0,1.71E2,-5.7577986E-2,1.3151054E-2,-3.458941E-2,6.950701E-2,2.193451E-5,2.2888184E-5,1.15842156E-1,5.650554E0,1.21593475E-5,2.2172928E-5,1.53E2,5.464615E0,9.7753175E-2,-2.4098236E-2,1.07050136E-1,1.9036633E-1,-3.9597284E-2,3.2688145E-2,3.9330564E-2,-1.8355064E-2,-2.8618304E-2,-4.914561E-2,-2.0398512E-2,2.3019202E-1,5.4354336E-2,-5.523197E-2],"split_indices":[6,18,4,15,15,18,24,0,13,0,9,0,13,0,0,0,0,21,9,0,0,12,12,13,0,0,0,0,0,0,0,0,0,0,0,0,0,0,0],"split_type":[0,0,0,0,0,0,0,0,0,0,0,0,0,0,0,0,0,0,0,0,0,0,0,0,0,0,0,0,0,0,0,0,0,0,0,0,0,0,0],"sum_hessian":[9.015075E2,4.4691383E1,8.568161E2,8.9831915E0,3.5708195E1,3.3737717E2,5.1943896E2,6.5064006E0,2.4767914E0,2.4221607E1,1.1486587E1,2.6313754E2,7.4239624E1,5.1822266E2,1.2162652E0,1.4598573E0,1.0169339E0,6.8330235E0,1.7388582E1,1.0516138E0,1.0434973E1,1.4736751E1,2.4840079E2,5.204478E1,2.2194843E1,3.195981E0,3.6370425E0,1.4950189E1,2.4383945E0,7.4982467E0,2.9367266E0,6.747493E0,7.9892583E0,1.7421349E2,7.41873E1,4.5621384E1,6.423396E0,1.2856001E0,2.0909243E1],"tree_param":{"num_deleted":"0","num_feature":"46","num_nodes":"39","size_leaf_vector":"1"}},{"base_weights":[-3.9995286E-1,-1.6001575E-1,-5.7578117E-2,1.3336917E0,-1.8956323E-1,1.6858617E-2,1.5031117E0,-2.115757E-1,1.3625538E0,5.547005E-1,1.8401808E-1,2.7227342E-1,-2.3569988E-1,-2.9748995E-2,1.8166135E-1,6.827142E-2,1.6529158E-2,-2.9806325E-2,4.868384E-2,-1.7448818E-2,-4.5466665E-2],"categories":[],"categories_nodes":[],"categories_segments":[],"categories_sizes":[],"default_left":[0,0,0,0,0,0,0,0,0,0,0,0,0,0,0,0,0,0,0,0,0],"id":11,"left_children":[1,3,-1,5,7,-1,9,11,13,15,-1,17,19,-1,-1,-1,-1,-1,-1,-1,-1],"loss_changes":[3.7993652E1,1.7164066E1,0E0,1.2382879E0,1.31555605E1,0E0,1.0479927E0,4.408787E0,4.6114035E0,4.310119E-2,0E0,2.365059E0,4.6797867E0,0E0,0E0,0E0,0E0,0E0,0E0,0E0,0E0],"parents":[2147483647,0,0,1,1,3,3,4,4,6,6,7,7,8,8,9,9,11,11,12,12],"right_children":[2,4,-1,6,8,-1,10,12,14,16,-1,18,20,-1,-1,-1,-1,-1,-1,-1,-1],"split_conditions":[2.89E2,9.2E1,-5.7578117E-2,2.4080276E-5,5.84E3,1.6858617E-2,5.589615E0,9.059906E-6,1.87E2,5.527115E0,1.8401808E-1,5.558365E0,1.85E2,-2.9748995E-2,1.8166135E-1,6.827142E-2,1.6529158E-2,-2.9806325E-2,4.868384E-2,-1.7448818E-2,-4.5466665E-2],"split_indices":[4,7,0,21,16,0,0,9,13,0,0,0,13,0,0,0,0,0,0,0,0],"split_type":[0,0,0,0,0,0,0,0,0,0,0,0,0,0,0,0,0,0,0,0,0],"sum_hessian":[9.0176904E2,3.8216833E2,5.196007E2,6.55699E0,3.7561133E2,1.0856977E0,5.4712925E0,3.7121045E2,4.400903E0,2.1283665E0,3.3429263E0,1.7140661E1,3.5406976E2,1.0192701E0,3.3816333E0,1.0349364E0,1.09343E0,4.579284E0,1.2561377E1,2.7811905E2,7.595074E1],"tree_param":{"num_deleted":"0","num_feature":"46","num_nodes":"21","size_leaf_vector":"1"}},{"base_weights":[-7.799995E-2,5.5379224E-1,-5.7387733E-1,7.352292E-1,4.6273243E-2,-5.757788E-2,1.2680307E-2,1.2970841E-1,9.033275E-1,3.6191007E-1,-3.9330566E-1,-6.520149E-2,7.369338E-1,8.338619E-1,2.148562E0,3.938083E-2,1.6761914E0,-4.9568656E-1,7.649793E-1,6.6467844E-2,-2.7363155E-2,1.0783042E-1,-2.6877344E-2,9.2917986E-2,1.9201035E-2,2.2838211E-1,7.896821E-2,-2.8970256E-2,3.5196196E-2,-3.0230403E-2,1.8822984E-1,-9.470001E-3,-5.6281734E-2,-6.565583E-3,1.6089307E-1],"categories":[],"categories_nodes":[],"categories_segments":[],"categories_sizes":[],"default_left":[0,0,0,0,0,0,0,0,0,0,0,0,0,0,0,0,0,0,0,0,0,0,0,0,0,0,0,0,0,0,0,0,0,0,0],"id":12,"left_children":[1,3,5,7,9,-1,-1,11,13,15,17,19,21,23,25,27,29,31,33,-1,-1,-1,-1,-1,-1,-1,-1,-1,-1,-1,-1,-1,-1,-1,-1],"loss_changes":[2.9119604E2,3.7608093E1,7.6672363E-1,3.0527344E1,1.5227118E1,0E0,0E0,7.928726E0,1.8577606E1,2.6979614E1,5.8244863E0,7.9898477E0,5.8724623E0,1.3566971E1,3.6681366E-1,5.4771543E0,5.6859207E0,1.0987101E0,2.9954407E0,0E0,0E0,0E0,0E0,0E0,0E0,0E0,0E0,0E0,0E0,0E0,0E0,0E0,0E0,0E0,0E0],"parents":[2147483647,0,0,1,1,2,2,3,3,4,4,7,7,8,8,9,9,10,10,11,11,12,12,13,13,14,14,15,15,16,16,17,17,18,18],"right_children":[2,4,6,8,10,-1,-1,12,14,16,18,20,22,24,26,28,30,32,34,-1,-1,-1,-1,-1,-1,-1,-1,-1,-1,-1,-1,-1,-1,-1,-1],"split_conditions":[2.89E2,1.84E2,1.449E3,8.08239E-5,1.84E2,-5.757788E-2,1.2680307E-2,1.8119812E-5,1.8E2,1.69E2,1.40768E0,2.0980835E-5,7.4863434E-5,1.06E2,1.20162964E-4,1.2874603E-5,2.87E2,1.72E2,1.135E3,6.6467844E-2,-2.7363155E-2,1.0783042E-1,-2.6877344E-2,9.2917986E-2,1.9201035E-2,2.2838211E-1,7.896821E-2,-2.8970256E-2,3.5196196E-2,-3.0230403E-2,1.8822984E-1,-9.470001E-3,-5.6281734E-2,-6.565583E-3,1.6089307E-1],"split_indices":[4,13,7,6,10,0,0,12,13,10,18,21,6,13,12,9,4,7,13,0,0,0,0,0,0,0,0,0,0,0,0,0,0,0,0],"split_type":[0,0,0,0,0,0,0,0,0,0,0,0,0,0,0,0,0,0,0,0,0,0,0,0,0,0,0,0,0,0,0,0,0,0,0],"sum_hessian":[9.27459E2,4.077861E2,5.1967285E2,3.0006488E2,1.0772123E2,5.1844415E2,1.2286639E0,6.558552E1,2.3447937E2,6.280278E1,4.491845E1,5.0324696E1,1.5260819E1,2.2367145E2,1.0807915E1,5.125467E1,1.1548112E1,4.1796135E1,3.1223118E0,1.0692554E1,3.963214E1,1.13396E1,3.9212203E0,1.9436037E2,2.931108E1,9.210465E0,1.5974494E0,2.500391E1,2.6250761E1,1.0454762E0,1.0502635E1,6.339516E0,3.545662E1,2.038339E0,1.0839728E0],"tree_param":{"num_deleted":"0","num_feature":"46","num_nodes":"35","size_leaf_vector":"1"}},{"base_weights":[-1.210403E-1,4.606072E-1,-5.7387733E-1,1.2085842E0,4.0997985E-1,1.4862575E-2,-5.7579197E-2,1.7349501E0,-4.9417987E-2,4.4134355E-1,-3.5087425E-1,-3.637969E-2,1.9531033E0,5.0930685E-1,2.276035E-1,-4.6906447E-1,5.547836E-2,2.1138692E-1,3.361108E-2,4.1722637E-2,9.287245E-2,4.3696973E-2,-3.5378434E-2,2.0575216E-2,-5.3498834E-2],"categories":[],"categories_nodes":[],"categories_segments":[],"categories_sizes":[],"default_left":[0,0,0,0,0,0,0,0,0,0,0,0,0,0,0,0,0,0,0,0,0,0,0,0,0],"id":13,"left_children":[1,3,5,7,9,-1,-1,11,-1,13,15,-1,17,19,21,23,-1,-1,-1,-1,-1,-1,-1,-1,-1],"loss_changes":[2.4396645E2,1.4862816E1,8.0584717E-1,2.3441658E1,9.255692E0,0E0,0E0,9.624653E0,0E0,5.211235E0,1.9360096E0,0E0,3.9150238E0,1.0327217E1,1.114402E1,7.502482E-1,0E0,0E0,0E0,0E0,0E0,0E0,0E0,0E0,0E0],"parents":[2147483647,0,0,1,1,2,2,3,3,4,4,7,7,9,9,10,10,12,12,13,13,14,14,15,15],"right_children":[2,4,6,8,10,-1,-1,12,-1,14,16,-1,18,20,22,24,-1,-1,-1,-1,-1,-1,-1,-1,-1],"split_conditions":[2.89E2,5.2309036E-4,8.583069E-5,5.94E2,7.510185E-5,1.4862575E-2,-5.7579197E-2,6.0081482E-5,-4.9417987E-2,1.5449524E-3,4.178E3,-3.637969E-2,5.681804E0,4.4107437E-5,1.06E2,7.867813E-6,5.547836E-2,2.1138692E-1,3.361108E-2,4.1722637E-2,9.287245E-2,4.3696973E-2,-3.5378434E-2,2.0575216E-2,-5.3498834E-2],"split_indices":[4,18,6,16,15,0,0,6,0,18,16,0,0,9,13,9,0,0,0,0,0,0,0,0,0],"split_type":[0,0,0,0,0,0,0,0,0,0,0,0,0,0,0,0,0,0,0,0,0,0,0,0,0],"sum_hessian":[9.2424664E2,4.045738E2,5.1967285E2,2.4197886E1,3.803759E2,1.1709701E0,5.185019E2,1.8469584E1,5.728301E0,3.6572025E2,1.4655662E1,1.6761867E0,1.6793398E1,2.7643796E2,8.928228E1,1.3390276E1,1.2653856E0,1.4995245E1,1.7981521E0,2.2830896E2,4.8128994E1,6.5825836E1,2.345644E1,1.0029297E0,1.2387346E1],"tree_param":{"num_deleted":"0","num_feature":"46","num_nodes":"25","size_leaf_vector":"1"}},{"base_weights":[1.2426986E0,-4.8668242E-1,1.9645679E0,-5.598683E-1,1.9388919E-1,1.9658489E0,5.747701E-2,-5.7122618E-2,1.443231E-1,5.8291394E-2,1.9670044E-1],"categories":[],"categories_nodes":[],"categories_segments":[],"categories_sizes":[],"default_left":[0,0,0,0,0,0,0,0,0,0,0],"id":14,"left_children":[1,3,5,7,-1,9,-1,-1,-1,-1,-1],"loss_changes":[1.5095153E3,6.439996E1,3.881836E-1,8.71888E0,0E0,2.1411133E-1,0E0,0E0,0E0,0E0,0E0],"parents":[2147483647,0,0,1,1,2,2,3,3,5,5],"right_children":[2,4,6,8,-1,10,-1,-1,-1,-1,-1],"split_conditions":[2.89E2,4.5895576E-4,2.297E3,5.74E2,1.9388919E-1,1.73E2,5.747701E-2,-5.7122618E-2,1.443231E-1,5.8291394E-2,1.9670044E-1],"split_indices":[4,6,7,10,0,7,0,0,0,0,0],"split_type":[0,0,0,0,0,0,0,0,0,0,0],"sum_hessian":[1.2074066E3,3.5566544E2,8.5174115E2,3.4599506E2,9.670384E0,8.5054266E2,1.1984694E0,3.4475507E2,1.2399853E0,1.1321032E0,8.494106E2],"tree_param":{"num_deleted":"0","num_feature":"46","num_nodes":"11","size_leaf_vector":"1"}},{"base_weights":[-3.8165694E-1,-9.823369E-2,-5.486164E-1,2.3138158E-1,-1.6234589E-1,-5.5567884E-1,3.9196756E-1,-1.9904386E-1,5.968736E-1,-5.1284984E-2,-5.190264E-1,-3.7249488E-1,-5.699374E-2,-3.8092323E-2,1.0647136E-1,6.692264E-2,-2.967742E-1,7.403867E-1,-2.637282E-1,-1.8798791E-1,1.9984291E-1,-5.642577E-2,1.5760213E-1,-2.615192E-1,-5.3767283E-2,-3.7939634E-2,-1.0330438E-3,3.378676E-2,1.3729869E-1,-4.261388E-2,1.0775383E-2,-1.2359831E-2,-4.1946612E-2,-3.6014337E-2,5.4110557E-2,-3.136167E-2,2.2818437E-2],"categories":[],"categories_nodes":[],"categories_segments":[],"categories_sizes":[],"default_left":[0,0,0,0,0,0,0,0,0,0,0,0,0,0,0,0,0,0,0,0,0,0,0,0,0,0,0,0,0,0,0,0,0,0,0,0,0],"id":15,"left_children":[1,3,5,7,9,11,13,15,17,19,21,23,-1,-1,-1,-1,25,27,29,31,-1,-1,33,35,-1,-1,-1,-1,-1,-1,-1,-1,-1,-1,-1,-1,-1],"loss_changes":[4.104058E1,6.866523E0,3.8466492E0,8.461704E0,1.07133045E1,1.2050323E0,2.8273354E0,2.3287454E0,3.7682848E0,5.861682E1,2.0557442E0,6.306181E-1,0E0,0E0,0E0,0E0,5.464704E-1,5.9165783E0,3.3986533E-1,2.8661013E0,0E0,0E0,1.1496346E0,7.6326454E-1,0E0,0E0,0E0,0E0,0E0,0E0,0E0,0E0,0E0,0E0,0E0,0E0,0E0],"parents":[2147483647,0,0,1,1,2,2,3,3,4,4,5,5,6,6,7,7,8,8,9,9,10,10,11,11,16,16,17,17,18,18,19,19,22,22,23,23],"right_children":[2,4,6,8,10,12,14,16,18,20,22,24,-1,-1,-1,-1,26,28,30,32,-1,-1,34,36,-1,-1,-1,-1,-1,-1,-1,-1,-1,-1,-1,-1,-1],"split_conditions":[5.7935715E-5,1.51E2,5.9231663E0,3.385544E-5,1.53E2,5.888939E-5,7.432246E0,5.130768E-4,1.4770031E-3,1.06E2,4.4107437E-5,1.53E2,-5.699374E-2,-3.8092323E-2,1.0647136E-1,6.692264E-2,8.711815E-4,1.0428429E-3,2.6299953E-3,4.8160553E-5,1.9984291E-1,-5.642577E-2,5.564464E0,1.270771E-4,-5.3767283E-2,-3.7939634E-2,-1.0330438E-3,3.378676E-2,1.3729869E-1,-4.261388E-2,1.0775383E-2,-1.2359831E-2,-4.1946612E-2,-3.6014337E-2,5.4110557E-2,-3.136167E-2,2.2818437E-2],"split_indices":[12,10,18,21,13,15,24,18,18,13,15,13,0,0,0,0,18,18,18,9,0,0,0,21,0,0,0,0,0,0,0,0,0,0,0,0,0],"split_type":[0,0,0,0,0,0,0,0,0,0,0,0,0,0,0,0,0,0,0,0,0,0,0,0,0,0,0,0,0,0,0,0,0,0,0,0,0],"sum_hessian":[8.674343E2,3.2215173E2,5.452826E2,5.2032402E1,2.7011932E2,5.41625E2,3.657599E0,2.4102844E1,2.7929556E1,2.0685417E2,6.3265152E1,4.1073E1,5.0055197E2,1.9039761E0,1.7536228E0,1.8468764E0,2.2255968E1,2.4057446E1,3.8721101E0,1.9477238E2,1.2081796E1,5.945667E1,3.8084836E0,2.6112461E1,1.496054E1,1.7021706E1,5.234262E0,1.5639948E1,8.417499E0,2.5918367E0,1.2802734E0,1.5358426E2,4.1188126E1,1.6465225E0,2.161961E0,2.392659E1,2.1858702E0],"tree_param":{"num_deleted":"0","num_feature":"46","num_nodes":"37","size_leaf_vector":"1"}},{"base_weights":[-3.7322417E-1,-1.1820529E-1,-5.698362E-2,-2.6377368E-1,2.7833855E-1,8.945013E-4,-3.6507368E-1,1.9699465E-1,-1.2157622E-1,3.2958984E-1,-3.5142258E-1,-2.8820786E-1,-5.63523E-2,-1.8823485E-1,1.1582829E0,-2.6433578E-2,6.364875E-2,3.40064E-2,-3.9477017E-2,-1.1105916E-2,-3.5476595E-2,2.328145E-2,-2.5639473E-2,1.5610619E-1,1.1182549E-2],"categories":[],"categories_nodes":[],"categories_segments":[],"categories_sizes":[],"default_left":[0,0,0,0,0,0,0,0,0,0,0,0,0,0,0,0,0,0,0,0,0,0,0,0,0],"id":16,"left_children":[1,3,-1,5,7,9,11,-1,13,15,17,19,-1,21,23,-1,-1,-1,-1,-1,-1,-1,-1,-1,-1],"loss_changes":[4.353224E1,2.1997921E1,0E0,7.462866E0,6.956348E1,9.153482E0,2.9081783E0,0E0,7.3692408E0,7.621546E0,1.277811E0,1.6955252E0,0E0,2.3708878E0,1.6333709E0,0E0,0E0,0E0,0E0,0E0,0E0,0E0,0E0,0E0,0E0],"parents":[2147483647,0,0,1,1,3,3,4,4,5,5,6,6,8,8,9,9,10,10,11,11,13,13,14,14],"right_children":[2,4,-1,6,8,10,12,-1,14,16,18,20,-1,22,24,-1,-1,-1,-1,-1,-1,-1,-1,-1,-1],"split_conditions":[2.89E2,2.15E2,-5.698362E-2,2.76E2,2.68E2,9.4890594E-5,1.06E2,1.9699465E-1,2.499E3,6.1511993E-4,9.536743E-7,3.2901764E-5,-5.63523E-2,2.1457672E-6,3.539E3,-2.6433578E-2,6.364875E-2,3.40064E-2,-3.9477017E-2,-1.1105916E-2,-3.5476595E-2,2.328145E-2,-2.5639473E-2,1.5610619E-1,1.1182549E-2],"split_indices":[4,13,0,7,13,6,13,0,28,18,15,9,0,15,22,0,0,0,0,0,0,0,0,0,0],"split_type":[0,0,0,0,0,0,0,0,0,0,0,0,0,0,0,0,0,0,0,0,0,0,0,0,0],"sum_hessian":[8.6856085E2,3.7881445E2,4.897464E2,2.773398E2,1.01474625E2,7.704204E1,2.0029779E2,1.8652042E1,8.2822586E1,3.989054E1,3.71515E1,1.4614384E2,5.4153934E1,7.9533195E1,3.2893856E0,1.3637388E1,2.6253153E1,1.7877668E0,3.5363735E1,4.064176E1,1.0550209E2,1.074452E1,6.878868E1,2.0200968E0,1.2692888E0],"tree_param":{"num_deleted":"0","num_feature":"46","num_nodes":"25","size_leaf_vector":"1"}},{"base_weights":[-3.922534E-1,4.8224223E-1,-4.418734E-1,-3.089061E-1,6.685268E-1,-2.5361535E-1,-5.678272E-1,-4.9204897E-2,1.5544519E-1,9.404358E-1,2.625068E-2,-3.0140585E-1,1.4943236E-2,-5.698358E-2,1.3444084E-2,-3.4113146E-2,6.6453844E-2,3.5328493E-1,1.1301765E0,-4.832042E-2,4.478928E-1,-1.3668358E-1,-3.5583794E-1,8.0327564E-1,-1.3492326E-1,8.888235E-2,-2.3784775E-2,9.460588E-2,1.6655909E-1,7.654098E-2,-3.6972906E-2,8.130785E-3,-3.276262E-2,-4.1540552E-2,-2.7250677E-2,-6.990974E-3,1.11244656E-1,3.7181259E-3,-5.3237256E-2],"categories":[],"categories_nodes":[],"categories_segments":[],"categories_sizes":[],"default_left":[0,0,0,0,0,0,0,0,0,0,0,0,0,0,0,0,0,0,0,0,0,0,0,0,0,0,0,0,0,0,0,0,0,0,0,0,0,0,0],"id":17,"left_children":[1,3,5,7,9,11,13,-1,15,17,19,21,23,-1,-1,-1,-1,25,27,-1,29,31,33,35,37,-1,-1,-1,-1,-1,-1,-1,-1,-1,-1,-1,-1,-1,-1],"loss_changes":[3.7803116E1,7.1322374E0,1.9306503E1,8.9630526E-1,6.673237E0,4.247919E0,7.687073E-1,0E0,1.1081245E0,2.5994034E0,2.887783E0,2.4683895E0,6.1219206E0,0E0,0E0,0E0,0E0,2.7530494E0,3.8479614E-1,0E0,2.1842182E0,2.9964242E0,9.3107414E-1,2.311576E0,3.003891E0,0E0,0E0,0E0,0E0,0E0,0E0,0E0,0E0,0E0,0E0,0E0,0E0,0E0,0E0],"parents":[2147483647,0,0,1,1,2,2,3,3,4,4,5,5,6,6,8,8,9,9,10,10,11,11,12,12,17,17,18,18,20,20,21,21,22,22,23,23,24,24],"right_children":[2,4,6,8,10,12,14,-1,16,18,20,22,24,-1,-1,-1,-1,26,28,-1,30,32,34,36,38,-1,-1,-1,-1,-1,-1,-1,-1,-1,-1,-1,-1,-1,-1],"split_conditions":[6.914139E-5,5.2309036E-4,2.89E2,6.914139E-6,1.0967255E-5,1.8630028E-3,2.875391E0,-4.9204897E-2,6.914139E-6,5.564464E0,5.607509E0,5.556804E0,1.9359589E-3,-5.698358E-2,1.3444084E-2,-3.4113146E-2,6.6453844E-2,2.193451E-5,2.2888184E-5,-4.832042E-2,3.0040741E-5,1.3113022E-5,4.3153763E-5,1.3589859E-4,1.180172E-4,8.888235E-2,-2.3784775E-2,9.460588E-2,1.6655909E-1,7.654098E-2,-3.6972906E-2,8.130785E-3,-3.276262E-2,-4.1540552E-2,-2.7250677E-2,-6.990974E-3,1.11244656E-1,3.7181259E-3,-5.3237256E-2],"split_indices":[6,18,4,15,15,18,24,0,12,0,0,0,18,0,0,0,0,21,9,0,21,12,21,6,12,0,0,0,0,0,0,0,0,0,0,0,0,0,0],"split_type":[0,0,0,0,0,0,0,0,0,0,0,0,0,0,0,0,0,0,0,0,0,0,0,0,0,0,0,0,0,0,0,0,0,0,0,0,0,0,0],"sum_hessian":[8.652798E2,4.5992702E1,8.192871E2,8.640093E0,3.735261E1,3.2962442E2,4.896627E2,6.1534777E0,2.4866152E0,2.5916557E1,1.1436053E1,2.797246E2,4.9899822E1,4.8845425E2,1.2084514E0,1.4257966E0,1.0608184E0,7.0285883E0,1.8887968E1,5.112636E0,6.3234177E0,7.034816E1,2.0937643E2,7.2744727E0,4.2625347E1,3.423481E0,3.6051073E0,1.6113754E1,2.7742147E0,4.60065E0,1.7227676E0,3.3115604E1,3.723256E1,1.1977365E2,8.960278E1,2.1045403E0,5.1699324E0,3.0377607E1,1.224774E1],"tree_param":{"num_deleted":"0","num_feature":"46","num_nodes":"39","size_leaf_vector":"1"}},{"base_weights":[-3.887636E-1,-1.522139E-1,-5.698362E-2,1.1733122E0,-1.8109153E-1,1.3213879E0,1.41994925E-2,-2.0261465E-1,1.1894326E0,4.5384195E-1,1.6695178E-1,5.8774203E-1,-2.1630712E-1,1.5589468E-1,-2.9567508E-2,5.8656543E-2,1.169998E-2,1.0615062E-1,5.058518E-3,2.4990864E-2,-2.4095139E-2],"categories":[],"categories_nodes":[],"categories_segments":[],"categories_sizes":[],"default_left":[0,0,0,0,0,0,0,0,0,0,0,0,0,0,0,0,0,0,0,0,0],"id":18,"left_children":[1,3,-1,5,7,9,-1,11,13,15,-1,17,19,-1,-1,-1,-1,-1,-1,-1,-1],"loss_changes":[3.7051056E1,1.4654669E1,0E0,1.0612812E0,1.1158745E1,1.3657904E0,0E0,4.079852E0,3.6811924E0,8.27837E-2,0E0,1.5976658E0,4.193714E0,0E0,0E0,0E0,0E0,0E0,0E0,0E0,0E0],"parents":[2147483647,0,0,1,1,3,3,4,4,5,5,7,7,8,8,9,9,11,11,12,12],"right_children":[2,4,-1,6,8,10,-1,12,14,16,-1,18,20,-1,-1,-1,-1,-1,-1,-1,-1],"split_conditions":[2.89E2,9.2E1,-5.698362E-2,2.74992E-3,5.84E3,9.150505E-4,1.41994925E-2,9.536743E-7,1.72E2,4.1007996E-5,1.6695178E-1,2.76E2,9.059906E-6,1.5589468E-1,-2.9567508E-2,5.8656543E-2,1.169998E-2,1.0615062E-1,5.058518E-3,2.4990864E-2,-2.4095139E-2],"split_indices":[4,7,0,18,16,18,0,12,4,12,0,10,9,0,0,0,0,0,0,0,0],"split_type":[0,0,0,0,0,0,0,0,0,0,0,0,0,0,0,0,0,0,0,0,0],"sum_hessian":[8.660434E2,3.76297E2,4.897464E2,7.1781626E0,3.6911884E2,6.0309772E0,1.1471851E0,3.642507E2,4.868139E0,2.3867674E0,3.64421E0,5.4890203E0,3.587617E2,3.858399E0,1.0097401E0,1.1803262E0,1.2064412E0,2.3979282E0,3.091092E0,1.7553185E1,3.412085E2],"tree_param":{"num_deleted":"0","num_feature":"46","num_nodes":"21","size_leaf_vector":"1"}},{"base_weights":[-7.18943E-2,4.9932933E-1,-5.678342E-1,6.5453297E-1,4.1876346E-2,-5.698372E-2,2.0509383E-2,1.6657579E-1,8.085261E-1,3.315245E-1,-3.8500956E-1,4.9301676E-2,1.1169256E0,7.499367E-1,1.7755757E-1,3.5120104E-2,1.4211648E0,-4.889896E-1,7.042001E-1,6.3896604E-2,-7.976006E-3,1.3650505E-1,-3.080072E-2,7.786652E-2,-4.8737E-2,-3.575988E-2,2.7706726E-2,1.6336489E-1,-3.0556924E-3,-9.223904E-3,-5.5796552E-2,-6.8472563E-3,1.4422444E-1],"categories":[],"categories_nodes":[],"categories_segments":[],"categories_sizes":[],"default_left":[0,0,0,0,0,0,0,0,0,0,0,0,0,0,0,0,0,0,0,0,0,0,0,0,0,0,0,0,0,0,0,0,0],"id":19,"left_children":[1,3,5,7,9,-1,-1,11,13,15,17,19,21,23,-1,25,27,29,31,-1,-1,-1,-1,-1,-1,-1,-1,-1,-1,-1,-1,-1,-1],"loss_changes":[2.5983777E2,3.0240456E1,8.768616E-1,2.3779327E1,1.3613412E1,0E0,0E0,8.593843E0,1.2359955E1,2.1109936E1,5.3900566E0,5.387646E0,3.4179869E0,8.539963E0,0E0,5.0903797E0,4.3638744E0,1.0776405E0,2.5464678E0,0E0,0E0,0E0,0E0,0E0,0E0,0E0,0E0,0E0,0E0,0E0,0E0,0E0,0E0],"parents":[2147483647,0,0,1,1,2,2,3,3,4,4,7,7,8,8,9,9,10,10,11,11,12,12,13,13,15,15,16,16,17,17,18,18],"right_children":[2,4,6,8,10,-1,-1,12,14,16,18,20,22,24,-1,26,28,30,32,-1,-1,-1,-1,-1,-1,-1,-1,-1,-1,-1,-1,-1,-1],"split_conditions":[2.89E2,1.84E2,2.297E3,8.4877014E-5,1.84E2,-5.698372E-2,2.0509383E-2,3.7908554E-5,1.8E2,1.69E2,1.40768E0,2.0980835E-5,1.1310577E-3,2.7418137E-4,1.7755757E-1,1.1205673E-5,2.69413E-5,1.72E2,1.135E3,6.3896604E-2,-7.976006E-3,1.3650505E-1,-3.080072E-2,7.786652E-2,-4.8737E-2,-3.575988E-2,2.7706726E-2,1.6336489E-1,-3.0556924E-3,-9.223904E-3,-5.5796552E-2,-6.8472563E-3,1.4422444E-1],"split_indices":[4,13,7,6,10,0,0,12,13,10,18,21,18,12,0,12,9,7,13,0,0,0,0,0,0,0,0,0,0,0,0,0,0],"split_type":[0,0,0,0,0,0,0,0,0,0,0,0,0,0,0,0,0,0,0,0,0,0,0,0,0,0,0,0,0,0,0,0,0],"sum_hessian":[9.1520557E2,4.2531772E2,4.8988788E2,3.1725076E2,1.0806696E2,4.8888367E2,1.004189E0,7.660251E1,2.4064825E2,6.45156E1,4.355136E1,6.912437E1,7.4781394E0,2.2857533E2,1.2072916E1,5.1530487E1,1.2985114E1,4.0259136E1,3.2922268E0,1.1703216E1,5.7421154E1,6.4048767E0,1.0732627E0,2.2375084E2,4.8244915E0,1.946221E1,3.206828E1,1.121787E1,1.7672443E0,6.3086967E0,3.395044E1,2.051596E0,1.2406309E0],"tree_param":{"num_deleted":"0","num_feature":"46","num_nodes":"33","size_leaf_vector":"1"}},{"base_weights":[-1.1311487E-1,4.182538E-1,-5.6783044E-1,8.7816656E-1,3.5397387E-1,1.4950003E-2,-5.698475E-2,1.0566969E0,-4.89283E-2,4.923224E-1,1.07368834E-1,2.86286E-1,1.5936006E0,1.3437703E-1,6.772887E-1,3.5817772E-1,-4.500007E-1,1.3147245E-1,1.0412754E-2,9.898523E-2,2.0622812E-1,-2.9721474E-3,6.5742694E-2,7.250475E-2,-1.910302E-2,-5.4435976E-2,4.914593E-2,-4.707338E-2,1.8703768E-2],"categories":[],"categories_nodes":[],"categories_segments":[],"categories_sizes":[],"default_left":[0,0,0,0,0,0,0,0,0,0,0,0,0,0,0,0,0,0,0,0,0,0,0,0,0,0,0,0,0],"id":20,"left_children":[1,3,5,7,9,-1,-1,11,-1,13,15,17,19,21,23,25,27,-1,-1,-1,-1,-1,-1,-1,-1,-1,-1,-1,-1],"loss_changes":[2.2015446E2,1.21141205E1,7.954407E-1,1.2934238E1,1.2585007E1,0E0,0E0,1.8283867E1,0E0,1.5601398E1,1.8950106E1,3.5772185E0,5.451561E0,7.0575433E0,6.608612E0,1.1484822E1,6.448078E-1,0E0,0E0,0E0,0E0,0E0,0E0,0E0,0E0,0E0,0E0,0E0,0E0],"parents":[2147483647,0,0,1,1,2,2,3,3,4,4,7,7,9,9,10,10,11,11,12,12,13,13,14,14,15,15,16,16],"right_children":[2,4,6,8,10,-1,-1,12,-1,14,16,18,20,22,24,26,28,-1,-1,-1,-1,-1,-1,-1,-1,-1,-1,-1,-1],"split_conditions":[2.89E2,5.9580803E-4,8.583069E-5,5.94E2,1.06E2,1.4950003E-2,-5.698475E-2,1.73E2,-4.89283E-2,9.7990036E-5,3.4093857E-5,9E1,1.84E2,2.002716E-5,1.9598007E-4,1.75E2,4.178E3,1.3147245E-1,1.0412754E-2,9.898523E-2,2.0622812E-1,-2.9721474E-3,6.5742694E-2,7.250475E-2,-1.910302E-2,-5.4435976E-2,4.914593E-2,-4.707338E-2,1.8703768E-2],"split_indices":[4,18,6,16,13,0,0,13,0,6,9,13,10,12,6,13,16,0,0,0,0,0,0,0,0,0,0,0,0],"split_type":[0,0,0,0,0,0,0,0,0,0,0,0,0,0,0,0,0,0,0,0,0,0,0,0,0,0,0,0,0],"sum_hessian":[9.0917096E2,4.1928534E2,4.8988565E2,4.986286E1,3.6942245E2,1.168612E0,4.8871704E2,4.4305687E1,5.557174E0,2.3601736E2,1.334051E2,1.8825676E1,2.5480011E1,8.099773E1,1.5501964E2,9.225083E1,4.115427E1,1.8971548E0,1.692852E1,1.24954815E1,1.29845295E1,6.2372524E1,1.8625204E1,1.4709424E2,7.9253902E0,1.1473293E1,8.077754E1,4.0109913E1,1.0443593E0],"tree_param":{"num_deleted":"0","num_feature":"46","num_nodes":"29","size_leaf_vector":"1"}},{"base_weights":[1.0800085E0,-4.7993746E-1,1.6367435E0,-5.54735E-1,1.6489033E-1,1.6376985E0,5.004239E-2,-5.6653302E-2,1.3101953E-1,1.6386472E-1,5.238647E-2],"categories":[],"categories_nodes":[],"categories_segments":[],"categories_sizes":[],"default_left":[0,0,0,0,0,0,0,0,0,0,0],"id":21,"left_children":[1,3,5,7,-1,9,-1,-1,-1,-1,-1],"loss_changes":[1.1243569E3,5.52212E1,2.1533203E-1,8.008057E0,0E0,1.4770508E-1,0E0,0E0,0E0,0E0,0E0],"parents":[2147483647,0,0,1,1,2,2,3,3,5,5],"right_children":[2,4,6,8,-1,10,-1,-1,-1,-1,-1],"split_conditions":[2.89E2,4.5895576E-4,5.5699644E0,5.74E2,1.6489033E-1,1.501E3,5.004239E-2,-5.6653302E-2,1.3101953E-1,1.6386472E-1,5.238647E-2],"split_indices":[4,6,30,10,0,1,0,0,0,0,0],"split_type":[0,0,0,0,0,0,0,0,0,0,0],"sum_hessian":[1.2927269E3,3.400527E2,9.526742E2,3.292247E2,1.0827998E1,9.5143335E2,1.24085E0,3.2784686E2,1.3778288E0,9.50153E2,1.2803307E0],"tree_param":{"num_deleted":"0","num_feature":"46","num_nodes":"11","size_leaf_vector":"1"}},{"base_weights":[-3.708454E-1,-9.317358E-2,-5.4209405E-1,2.1555933E-1,-1.5520631E-1,-5.49477E-1,3.6902478E-1,1.2740648E-1,1.8301772E-1,-4.7619507E-2,-5.127595E-1,-3.6297974E-1,-5.6442108E-2,-3.8111765E-2,1.0027758E-1,-2.6637527E-1,4.5316347E-1,-1.7947954E-1,1.7080389E-1,-5.5957537E-2,1.5220179E-1,-2.5141212E-1,-5.3227752E-2,-4.3567967E-2,1.9599436E-2,-4.5889545E-2,5.929282E-2,-1.169966E-2,-4.0991377E-2,-3.5383467E-2,5.1087018E-2,-6.322085E-4,-3.733013E-2],"categories":[],"categories_nodes":[],"categories_segments":[],"categories_sizes":[],"default_left":[0,0,0,0,0,0,0,0,0,0,0,0,0,0,0,0,0,0,0,0,0,0,0,0,0,0,0,0,0,0,0,0,0],"id":22,"left_children":[1,3,5,7,9,11,13,15,-1,17,19,21,-1,-1,-1,23,25,27,-1,-1,29,31,-1,-1,-1,-1,-1,-1,-1,-1,-1,-1,-1],"loss_changes":[3.9598907E1,6.148293E0,3.6706696E0,7.4298177E0,1.0225323E1,1.2215424E0,2.6366234E0,6.807291E0,0E0,4.797759E1,2.0005493E0,6.3625336E-1,0E0,0E0,0E0,1.9820533E0,3.9557223E0,2.7228441E0,0E0,0E0,1.0579495E0,7.8840876E-1,0E0,0E0,0E0,0E0,0E0,0E0,0E0,0E0,0E0,0E0,0E0],"parents":[2147483647,0,0,1,1,2,2,3,3,4,4,5,5,6,6,7,7,9,9,10,10,11,11,15,15,16,16,17,17,20,20,21,21],"right_children":[2,4,6,8,10,12,14,16,-1,18,20,22,-1,-1,-1,24,26,28,-1,-1,30,32,-1,-1,-1,-1,-1,-1,-1,-1,-1,-1,-1],"split_conditions":[5.7935715E-5,1.51E2,5.9231663E0,9.9E1,1.53E2,5.888939E-5,2.25758E0,3.385544E-5,1.8301772E-1,1.06E2,4.4107437E-5,1.53E2,-5.6442108E-2,-3.8111765E-2,1.0027758E-1,5.66391E0,2.861023E-6,4.8160553E-5,1.7080389E-1,-5.5957537E-2,5.564464E0,6.198883E-5,-5.3227752E-2,-4.3567967E-2,1.9599436E-2,-4.5889545E-2,5.929282E-2,-1.169966E-2,-4.0991377E-2,-3.5383467E-2,5.1087018E-2,-6.322085E-4,-3.733013E-2],"split_indices":[12,10,18,10,13,15,21,21,0,13,15,13,0,0,0,0,15,9,0,0,0,21,0,0,0,0,0,0,0,0,0,0,0],"split_type":[0,0,0,0,0,0,0,0,0,0,0,0,0,0,0,0,0,0,0,0,0,0,0,0,0,0,0,0,0,0,0,0,0],"sum_hessian":[8.3283026E2,3.1828687E2,5.145434E2,5.2838436E1,2.6544843E2,5.1080124E2,3.742177E0,5.112603E1,1.712406E0,2.0492133E2,6.05271E1,3.9770256E1,4.7103098E2,1.8962746E0,1.8459024E0,2.3228832E1,2.7897198E1,1.914408E2,1.3480534E1,5.66941E1,3.8329997E0,2.54703E1,1.4299954E1,1.7045177E1,6.1836543E0,3.403529E0,2.449367E1,1.5179015E2,3.9650642E1,1.5954686E0,2.237531E0,8.809123E0,1.6661179E1],"tree_param":{"num_deleted":"0","num_feature":"46","num_nodes":"33","size_leaf_vector":"1"}},{"base_weights":[-3.626232E-1,-1.1302119E-1,-5.6429464E-2,-2.5478467E-1,2.6092103E-1,1.9139941E-3,-3.5570687E-1,1.671928E-1,-1.1438795E-1,3.036945E-1,-3.405798E-1,-2.782626E-1,-5.5922043E-2,-1.7945689E-1,1.0464319E0,-2.5603293E-2,5.745689E-2,3.2865394E-2,-3.846293E-2,4.059976E-2,-2.9391915E-2,8.8592706E-4,-3.3367895E-2,1.3858776E-1,1.0595747E-2],"categories":[],"categories_nodes":[],"categories_segments":[],"categories_sizes":[],"default_left":[0,0,0,0,0,0,0,0,0,0,0,0,0,0,0,0,0,0,0,0,0,0,0,0,0],"id":23,"left_children":[1,3,-1,5,7,9,11,-1,13,15,17,19,-1,21,23,-1,-1,-1,-1,-1,-1,-1,-1,-1,-1],"loss_changes":[4.198149E1,1.992059E1,0E0,7.049282E0,5.4973667E1,8.142212E0,2.9225273E0,0E0,6.4305806E0,6.4958887E0,1.2142577E0,1.6562204E0,0E0,2.300687E0,1.3003783E0,0E0,0E0,0E0,0E0,0E0,0E0,0E0,0E0,0E0,0E0],"parents":[2147483647,0,0,1,1,3,3,4,4,5,5,6,6,8,8,9,9,10,10,11,11,13,13,14,14],"right_children":[2,4,-1,6,8,10,12,-1,14,16,18,20,-1,22,24,-1,-1,-1,-1,-1,-1,-1,-1,-1,-1],"split_conditions":[2.89E2,2.15E2,-5.6429464E-2,2.76E2,2.68E2,9.4890594E-5,1.06E2,1.671928E-1,2.499E3,6.1511993E-4,9.536743E-7,6.0081482E-5,-5.5922043E-2,1.039505E-4,3.539E3,-2.5603293E-2,5.745689E-2,3.2865394E-2,-3.846293E-2,4.059976E-2,-2.9391915E-2,8.8592706E-4,-3.3367895E-2,1.3858776E-1,1.0595747E-2],"split_indices":[4,13,0,7,13,6,13,0,28,18,15,6,0,6,22,0,0,0,0,0,0,0,0,0,0],"split_type":[0,0,0,0,0,0,0,0,0,0,0,0,0,0,0,0,0,0,0,0,0,0,0,0,0],"sum_hessian":[8.342656E2,3.7352567E2,4.6073996E2,2.7107742E2,1.02448235E2,7.677612E1,1.943013E2,2.0798742E1,8.164949E1,4.0874123E1,3.5902E1,1.4245811E2,5.1843185E1,7.811615E1,3.533341E0,1.3347665E1,2.7526457E1,1.8181548E0,3.4083847E1,2.628976E0,1.3982915E2,3.559485E1,4.2521305E1,2.2482765E0,1.2850646E0],"tree_param":{"num_deleted":"0","num_feature":"46","num_nodes":"25","size_leaf_vector":"1"}},{"base_weights":[-3.8131735E-1,4.4516522E-1,-4.3179587E-1,-2.9939154E-1,6.086878E-1,-2.442251E-1,-5.621735E-1,-4.8555493E-2,1.5428728E-1,8.058282E-1,-1.0414581E-1,-3.0477217E-1,-3.6218535E-2,-5.6429356E-2,1.3469072E-2,-3.3393677E-2,6.3063E-2,3.119513E-1,1.0422453E0,-3.54937E-1,4.1347104E-1,9.4195634E-2,-3.299263E-1,1.3933913E-1,-4.5759523E-1,6.123184E-2,-1.2915886E-2,1.5957616E-1,7.822969E-2,-4.7674414E-2,6.8384656E-3,1.1402687E-1,-3.5263903E-2,-1.3025239E-2,4.3149814E-2,-2.6542768E-2,-4.782472E-2,-1.9014692E-2,1.8397282E-1,4.8821364E-2,-5.4501295E-2],"categories":[],"categories_nodes":[],"categories_segments":[],"categories_sizes":[],"default_left":[0,0,0,0,0,0,0,0,0,0,0,0,0,0,0,0,0,0,0,0,0,0,0,0,0,0,0,0,0,0,0,0,0,0,0,0,0,0,0,0,0],"id":24,"left_children":[1,3,5,7,9,11,13,-1,15,17,19,21,23,-1,-1,-1,-1,25,27,29,31,33,35,37,39,-1,-1,-1,-1,-1,-1,-1,-1,-1,-1,-1,-1,-1,-1,-1,-1],"loss_changes":[3.4874542E1,6.0681744E0,1.9034851E1,8.667807E-1,5.700548E0,4.059963E0,7.581482E-1,0E0,1.0214823E0,3.3439102E0,1.3857452E0,2.5423298E0,5.538889E0,0E0,0E0,0E0,0E0,1.6160095E0,1.7478752E0,3.918653E-1,2.3937888E0,1.2386588E0,2.1270561E0,3.0050003E1,2.0850825E0,0E0,0E0,0E0,0E0,0E0,0E0,0E0,0E0,0E0,0E0,0E0,0E0,0E0,0E0,0E0,0E0],"parents":[2147483647,0,0,1,1,2,2,3,3,4,4,5,5,6,6,8,8,9,9,10,10,11,11,12,12,17,17,18,18,19,19,20,20,21,21,22,22,23,23,24,24],"right_children":[2,4,6,8,10,12,14,-1,16,18,20,22,24,-1,-1,-1,-1,26,28,30,32,34,36,38,40,-1,-1,-1,-1,-1,-1,-1,-1,-1,-1,-1,-1,-1,-1,-1,-1],"split_conditions":[6.914139E-5,5.2309036E-4,2.89E2,6.914139E-6,1.001358E-5,1.6400814E-3,2.875391E0,-4.8555493E-2,6.914139E-6,5.588054E0,5.650554E0,5.470714E0,1.71E2,-5.6429356E-2,1.3469072E-2,-3.3393677E-2,6.3063E-2,2.0980835E-5,1.50203705E-5,1.7166138E-5,6.508827E-5,1.06E2,2.2172928E-5,1.53E2,5.464615E0,6.123184E-2,-1.2915886E-2,1.5957616E-1,7.822969E-2,-4.7674414E-2,6.8384656E-3,1.1402687E-1,-3.5263903E-2,-1.3025239E-2,4.3149814E-2,-2.6542768E-2,-4.782472E-2,-1.9014692E-2,1.8397282E-1,4.8821364E-2,-5.4501295E-2],"split_indices":[6,18,4,15,12,18,24,0,12,0,0,0,13,0,0,0,0,9,9,15,6,13,12,13,0,0,0,0,0,0,0,0,0,0,0,0,0,0,0,0,0],"split_type":[0,0,0,0,0,0,0,0,0,0,0,0,0,0,0,0,0,0,0,0,0,0,0,0,0,0,0,0,0,0,0,0,0,0,0,0,0,0,0,0,0],"sum_hessian":[8.3031915E2,4.7343723E1,7.829754E2,8.37581E0,3.896791E1,3.2224435E2,4.6073105E2,5.8890324E0,2.4867778E0,3.0423553E1,8.544359E0,2.4923204E2,7.301231E1,4.5952332E2,1.2077453E0,1.3757102E0,1.1110675E0,1.0599859E1,1.9823694E1,5.967382E0,2.5769773E0,1.4618857E1,2.3461319E2,5.201195E1,2.1000353E1,6.075031E0,4.5248284E0,4.692672E0,1.51310215E1,4.535991E0,1.4313908E0,1.071794E0,1.5051832E0,9.146458E0,5.4723997E0,1.6545374E2,6.915945E1,4.431346E1,7.6984887E0,1.3888605E0,1.9611492E1],"tree_param":{"num_deleted":"0","num_feature":"46","num_nodes":"41","size_leaf_vector":"1"}},{"base_weights":[-3.775791E-1,-1.4445782E-1,-5.6429464E-2,1.0570071E0,-1.7273399E-1,1.2602973E-2,1.187208E0,-1.936962E-1,1.0515856E0,4.459453E-1,1.4505944E-1,5.470749E-1,-2.072135E-1,-3.0305961E-2,1.3767953E-1,5.9196766E-2,1.0490731E-2,9.591834E-2,5.023257E-3,2.3325274E-2,-2.314169E-2],"categories":[],"categories_nodes":[],"categories_segments":[],"categories_sizes":[],"default_left":[0,0,0,0,0,0,0,0,0,0,0,0,0,0,0,0,0,0,0,0,0],"id":25,"left_children":[1,3,-1,5,7,-1,9,11,13,15,-1,17,19,-1,-1,-1,-1,-1,-1,-1,-1],"loss_changes":[3.614128E1,1.2801601E1,0E0,9.026747E-1,9.539468E0,0E0,8.168926E-1,3.7029457E0,3.1833725E0,1.0768622E-1,0E0,1.3234506E0,3.8149433E0,0E0,0E0,0E0,0E0,0E0,0E0,0E0,0E0],"parents":[2147483647,0,0,1,1,3,3,4,4,6,6,7,7,8,8,9,9,11,11,12,12],"right_children":[2,4,-1,6,8,-1,10,12,14,16,-1,18,20,-1,-1,-1,-1,-1,-1,-1,-1],"split_conditions":[2.89E2,9.2E1,-5.6429464E-2,2.4080276E-5,5.84E3,1.2602973E-2,5.589615E0,9.536743E-7,1.87E2,1.2278557E-4,1.4505944E-1,2.76E2,9.059906E-6,-3.0305961E-2,1.3767953E-1,5.9196766E-2,1.0490731E-2,9.591834E-2,5.023257E-3,2.3325274E-2,-2.314169E-2],"split_indices":[4,7,0,21,16,0,0,12,13,6,0,10,9,0,0,0,0,0,0,0,0],"split_type":[0,0,0,0,0,0,0,0,0,0,0,0,0,0,0,0,0,0,0,0,0],"sum_hessian":[8.311843E2,3.7044437E2,4.6073996E2,7.6813087E0,3.6276303E2,1.1839153E0,6.4973936E0,3.5748416E2,5.2788806E0,2.4094536E0,4.0879397E0,5.6989646E0,3.517852E2,1.0351449E0,4.243736E0,1.171899E0,1.2375546E0,2.6064622E0,3.092502E0,1.787366E1,3.3391153E2],"tree_param":{"num_deleted":"0","num_feature":"46","num_nodes":"21","size_leaf_vector":"1"}},{"base_weights":[-6.604769E-2,4.526445E-1,-5.621843E-1,5.855338E-1,4.0452436E-2,-5.6429274E-2,1.9428698E-2,1.0786733E-1,7.054256E-1,3.071672E-1,-3.7543002E-1,-6.678443E-2,6.056563E-1,6.5466243E-1,1.5240538E0,3.2750025E-2,1.2390782E0,-4.8140812E-1,6.5415436E-1,4.2476986E-2,-3.2935023E-2,8.802369E-2,-2.7660578E-2,6.9774516E-2,-2.2904448E-2,1.6166854E-1,6.0218222E-2,-2.7930144E-2,3.104884E-2,1.740512E-1,5.7387806E-2,-8.43523E-3,-5.5290665E-2,-6.8486305E-3,1.3050751E-1],"categories":[],"categories_nodes":[],"categories_segments":[],"categories_sizes":[],"default_left":[0,0,0,0,0,0,0,0,0,0,0,0,0,0,0,0,0,0,0,0,0,0,0,0,0,0,0,0,0,0,0,0,0,0,0],"id":26,"left_children":[1,3,5,7,9,-1,-1,11,13,15,17,19,21,23,25,27,29,31,33,-1,-1,-1,-1,-1,-1,-1,-1,-1,-1,-1,-1,-1,-1,-1,-1],"loss_changes":[2.3261456E2,2.4186249E1,8.464203E-1,1.9060295E1,1.2186736E1,0E0,0E0,5.971799E0,1.0094803E1,1.7056421E1,5.003836E0,6.7744746E0,4.560152E0,9.795837E0,2.9310226E-1,4.651899E0,4.064884E0,1.0758152E0,2.1752648E0,0E0,0E0,0E0,0E0,0E0,0E0,0E0,0E0,0E0,0E0,0E0,0E0,0E0,0E0,0E0,0E0],"parents":[2147483647,0,0,1,1,2,2,3,3,4,4,7,7,8,8,9,9,10,10,11,11,12,12,13,13,14,14,15,15,16,16,17,17,18,18],"right_children":[2,4,6,8,10,-1,-1,12,14,16,18,20,22,24,26,28,30,32,34,-1,-1,-1,-1,-1,-1,-1,-1,-1,-1,-1,-1,-1,-1,-1,-1],"split_conditions":[2.89E2,1.84E2,1.501E3,8.08239E-5,1.84E2,-5.6429274E-2,1.9428698E-2,1.8119812E-5,1.8E2,1.69E2,1.40768E0,2.2888184E-5,7.4863434E-5,1.73E2,1.20162964E-4,1.2874603E-5,1.72E2,1.72E2,1.135E3,4.2476986E-2,-3.2935023E-2,8.802369E-2,-2.7660578E-2,6.9774516E-2,-2.2904448E-2,1.6166854E-1,6.0218222E-2,-2.7930144E-2,3.104884E-2,1.740512E-1,5.7387806E-2,-8.43523E-3,-5.5290665E-2,-6.8486305E-3,1.3050751E-1],"split_indices":[4,13,1,6,10,0,0,12,13,10,18,21,6,13,12,9,10,7,13,0,0,0,0,0,0,0,0,0,0,0,0,0,0,0,0],"split_type":[0,0,0,0,0,0,0,0,0,0,0,0,0,0,0,0,0,0,0,0,0,0,0,0,0,0,0,0,0,0,0,0,0,0,0],"sum_hessian":[9.019227E2,4.4098114E2,4.609416E2,3.3315317E2,1.0782798E2,4.5991376E2,1.0278201E0,6.722372E1,2.6592944E2,6.585506E1,4.1972923E1,5.0404785E1,1.6818933E1,2.5209663E2,1.3832815E1,5.1673927E1,1.4181131E1,3.853847E1,3.4344518E0,1.7334599E1,3.3070187E1,1.2828651E1,3.990281E0,2.4057834E2,1.1518301E1,1.1884897E1,1.9479182E0,2.4331158E1,2.734277E1,7.1641836E0,7.0169477E0,6.213354E0,3.2325115E1,2.051594E0,1.3828579E0],"tree_param":{"num_deleted":"0","num_feature":"46","num_nodes":"35","size_leaf_vector":"1"}},{"base_weights":[-1.05408445E-1,3.8159695E-1,-5.62176E-1,7.6616555E-1,3.189114E-1,1.5089027E-2,-5.643062E-2,1.4306188E0,5.658726E-1,4.2700592E-1,1.3153408E-1,1.5071489E0,4.538275E-2,3.4190103E-1,1.0756513E0,1.3877656E-1,6.189548E-1,4.8214743E-1,-2.9039487E-1,6.388405E-2,1.6845563E-1,-4.453708E-2,4.295375E-2,1.7550115E-1,4.8251983E-2,-2.671117E-3,6.442594E-2,9.2900895E-2,4.6819806E-2,-5.3559404E-2,6.395075E-2,6.692812E-3,-4.5180958E-2],"categories":[],"categories_nodes":[],"categories_segments":[],"categories_sizes":[],"default_left":[0,0,0,0,0,0,0,0,0,0,0,0,0,0,0,0,0,0,0,0,0,0,0,0,0,0,0,0,0,0,0,0,0],"id":27,"left_children":[1,3,5,7,9,-1,-1,11,13,15,17,19,-1,21,23,25,27,29,31,-1,-1,-1,-1,-1,-1,-1,-1,-1,-1,-1,-1,-1,-1],"loss_changes":[1.9917657E2,1.0205444E1,7.8681946E-1,7.1811028E0,7.5278206E0,0E0,0E0,3.066883E-1,5.0885963E0,1.3026638E1,2.0618135E1,7.5061035E-1,0E0,2.5831637E0,4.8433437E0,8.050384E0,6.2014046E0,1.2510687E1,3.6897712E0,0E0,0E0,0E0,0E0,0E0,0E0,0E0,0E0,0E0,0E0,0E0,0E0,0E0,0E0],"parents":[2147483647,0,0,1,1,2,2,3,3,4,4,7,7,8,8,9,9,10,10,11,11,13,13,14,14,15,15,16,16,17,17,18,18],"right_children":[2,4,6,8,10,-1,-1,12,14,16,18,20,-1,22,24,26,28,30,32,-1,-1,-1,-1,-1,-1,-1,-1,-1,-1,-1,-1,-1,-1],"split_conditions":[2.89E2,3.8146973E-6,8.583069E-5,5.4717064E-4,1.06E2,1.5089027E-2,-5.643062E-2,2.9087067E-5,9.689331E-4,1.0204315E-4,1.0008812E-3,6.198883E-6,4.538275E-2,9.536743E-7,3.504753E-5,2.002716E-5,1.2819767E-3,1.75E2,2.8848648E-5,6.388405E-2,1.6845563E-1,-4.453708E-2,4.295375E-2,1.7550115E-1,4.8251983E-2,-2.671117E-3,6.442594E-2,9.2900895E-2,4.6819806E-2,-5.3559404E-2,6.395075E-2,6.692812E-3,-4.5180958E-2],"split_indices":[4,15,6,18,13,0,0,21,18,6,18,12,0,15,21,12,18,13,9,0,0,0,0,0,0,0,0,0,0,0,0,0,0],"split_type":[0,0,0,0,0,0,0,0,0,0,0,0,0,0,0,0,0,0,0,0,0,0,0,0,0,0,0,0,0,0,0,0,0],"sum_hessian":[8.934194E2,4.3247705E2,4.6094232E2,5.9041565E1,3.734355E2,1.164911E0,4.597774E2,1.2252478E1,4.678909E1,2.36008E2,1.3742749E2,1.0858751E1,1.393726E0,3.3667805E1,1.3121284E1,9.5031784E1,1.4097621E2,7.4978966E1,6.244853E1,2.622768E0,8.235984E0,2.963502E0,3.0704302E1,5.202995E0,7.9182887E0,7.230676E1,2.2725023E1,4.4432247E1,9.654396E1,9.7187E0,6.526026E1,1.9614143E1,4.2834385E1],"tree_param":{"num_deleted":"0","num_feature":"46","num_nodes":"33","size_leaf_vector":"1"}},{"base_weights":[9.5892715E-1,-4.7373867E-1,1.4121255E0,-5.49986E-1,1.4492151E-1,1.4128717E0,4.6127465E-2,-5.622313E-2,1.20936945E-1,1.4136386E-1,4.7879092E-2],"categories":[],"categories_nodes":[],"categories_segments":[],"categories_sizes":[],"default_left":[0,0,0,0,0,0,0,0,0,0,0],"id":28,"left_children":[1,3,5,7,-1,9,-1,-1,-1,-1,-1],"loss_changes":[8.7922546E2,4.8583733E1,7.788086E-2,7.449356E0,0E0,5.883789E-2,0E0,0E0,0E0,0E0,0E0],"parents":[2147483647,0,0,1,1,2,2,3,3,5,5],"right_children":[2,4,6,8,-1,10,-1,-1,-1,-1,-1],"split_conditions":[2.89E2,4.5895576E-4,5.5699644E0,5.74E2,1.4492151E-1,2.297E3,4.6127465E-2,-5.622313E-2,1.20936945E-1,1.4136386E-1,4.7879092E-2],"split_indices":[4,6,30,10,0,7,0,0,0,0,0],"split_type":[0,0,0,0,0,0,0,0,0,0,0],"sum_hessian":[1.3521208E3,3.2492175E2,1.0271991E3,3.1321637E2,1.1705403E1,1.025908E3,1.2910907E0,3.1172714E2,1.4892144E0,1.0245533E3,1.3545597E0],"tree_param":{"num_deleted":"0","num_feature":"46","num_nodes":"11","size_leaf_vector":"1"}},{"base_weights":[-3.601606E-1,-8.8477165E-2,-5.3582853E-1,2.0289628E-1,-1.4872883E-1,-5.4354435E-1,3.4483713E-1,1.1904945E-1,1.640068E-1,-4.4345066E-2,-5.0705904E-1,-3.5359737E-1,-5.5925317E-2,-3.760078E-2,9.166364E-2,-2.5715473E-1,4.138515E-1,-1.7127769E-1,1.4984927E-1,-5.5540603E-2,1.441892E-1,-2.4239622E-1,-5.2672148E-2,-4.2703994E-2,1.8567985E-2,-4.5203295E-2,5.3824283E-2,-4.55462E-2,-1.1895016E-2,6.939601E-2,-1.8102417E-2,-4.383296E-2,-7.4274763E-3],"categories":[],"categories_nodes":[],"categories_segments":[],"categories_sizes":[],"default_left":[0,0,0,0,0,0,0,0,0,0,0,0,0,0,0,0,0,0,0,0,0,0,0,0,0,0,0,0,0,0,0,0,0],"id":29,"left_children":[1,3,5,7,9,11,13,15,-1,17,19,21,-1,-1,-1,23,25,27,-1,-1,29,31,-1,-1,-1,-1,-1,-1,-1,-1,-1,-1,-1],"loss_changes":[3.8131958E1,5.566081E0,3.4873352E0,6.3668146E0,9.77273E0,1.2398834E0,2.3353562E0,5.9325576E0,0E0,4.0186928E1,1.9371567E0,6.3317776E-1,0E0,0E0,0E0,1.8620028E0,3.4568763E0,2.760745E0,0E0,0E0,9.9632823E-1,8.2116497E-1,0E0,0E0,0E0,0E0,0E0,0E0,0E0,0E0,0E0,0E0,0E0],"parents":[2147483647,0,0,1,1,2,2,3,3,4,4,5,5,6,6,7,7,9,9,10,10,11,11,15,15,16,16,17,17,20,20,21,21],"right_children":[2,4,6,8,10,12,14,16,-1,18,20,22,-1,-1,-1,24,26,28,-1,-1,30,32,-1,-1,-1,-1,-1,-1,-1,-1,-1,-1,-1],"split_conditions":[5.7935715E-5,1.51E2,5.9231663E0,9.9E1,1.53E2,5.888939E-5,2.25758E0,3.385544E-5,1.640068E-1,1.06E2,4.4107437E-5,1.53E2,-5.5925317E-2,-3.760078E-2,9.166364E-2,5.66391E0,2.861023E-6,6.6804886E-4,1.4984927E-1,-5.5540603E-2,9.150505E-4,1.4710426E-4,-5.2672148E-2,-4.2703994E-2,1.8567985E-2,-4.5203295E-2,5.3824283E-2,-4.55462E-2,-1.1895016E-2,6.939601E-2,-1.8102417E-2,-4.383296E-2,-7.4274763E-3],"split_indices":[12,10,18,10,13,15,21,21,0,13,15,13,0,0,0,0,15,18,0,0,18,6,0,0,0,0,0,0,0,0,0,0,0],"split_type":[0,0,0,0,0,0,0,0,0,0,0,0,0,0,0,0,0,0,0,0,0,0,0,0,0,0,0,0,0,0,0,0,0],"sum_hessian":[7.989686E2,3.1433307E2,4.8463553E2,5.3455933E1,2.6087714E2,4.8080585E2,3.8296876E0,5.1532295E1,1.9236383E0,2.0289606E2,5.7981094E1,3.852157E1,4.4228427E2,1.8455226E0,1.9841651E0,2.269647E1,2.8835823E1,1.882937E2,1.4602348E1,5.4111187E1,3.8699074E0,2.4917E1,1.360457E1,1.642933E1,6.267138E0,3.2912898E0,2.5544533E1,2.8081652E1,1.6021205E2,1.0169312E0,2.852976E0,1.0764516E1,1.4152483E1],"tree_param":{"num_deleted":"0","num_feature":"46","num_nodes":"33","size_leaf_vector":"1"}},{"base_weights":[-3.5222378E-1,-1.08231336E-1,-5.591007E-2,-2.4605745E-1,2.4562946E-1,3.506074E-3,-3.4660769E-1,1.4579204E-1,-1.0706758E-1,2.8187707E-1,-3.2970905E-1,-2.686822E-1,-5.5531025E-2,-1.7060786E-1,9.601789E-1,-2.4700796E-2,5.2267473E-2,3.148149E-2,-3.7436154E-2,-9.783181E-3,-3.3531327E-2,1.5209753E-3,-3.2469667E-2,1.2532601E-1,1.0272322E-2],"categories":[],"categories_nodes":[],"categories_segments":[],"categories_sizes":[],"default_left":[0,0,0,0,0,0,0,0,0,0,0,0,0,0,0,0,0,0,0,0,0,0,0,0,0],"id":30,"left_children":[1,3,-1,5,7,9,11,-1,13,15,17,19,-1,21,23,-1,-1,-1,-1,-1,-1,-1,-1,-1,-1],"loss_changes":[4.039547E1,1.8056667E1,0E0,6.6776104E0,4.45952E1,7.2723827E0,2.9352627E0,0E0,5.686657E0,5.568362E0,1.145014E0,1.5613289E0,0E0,2.2301025E0,1.059228E0,0E0,0E0,0E0,0E0,0E0,0E0,0E0,0E0,0E0,0E0],"parents":[2147483647,0,0,1,1,3,3,4,4,5,5,6,6,8,8,9,9,10,10,11,11,13,13,14,14],"right_children":[2,4,-1,6,8,10,12,-1,14,16,18,20,-1,22,24,-1,-1,-1,-1,-1,-1,-1,-1,-1,-1],"split_conditions":[2.89E2,2.15E2,-5.591007E-2,2.76E2,2.68E2,9.4890594E-5,1.06E2,1.4579204E-1,2.499E3,6.1511993E-4,9.536743E-7,3.2901764E-5,-5.5531025E-2,7.1525574E-6,3.539E3,-2.4700796E-2,5.2267473E-2,3.148149E-2,-3.7436154E-2,-9.783181E-3,-3.3531327E-2,1.5209753E-3,-3.2469667E-2,1.2532601E-1,1.0272322E-2],"split_indices":[4,13,0,7,13,6,13,0,28,18,15,9,0,15,22,0,0,0,0,0,0,0,0,0,0],"split_type":[0,0,0,0,0,0,0,0,0,0,0,0,0,0,0,0,0,0,0,0,0,0,0,0,0],"sum_hessian":[8.0048303E2,3.6799255E2,4.3249045E2,2.650588E2,1.02933754E2,7.640022E1,1.8865857E2,2.249168E1,8.044208E1,4.170966E1,3.4690563E1,1.3903352E2,4.9625042E1,7.6714874E1,3.7272046E0,1.3040931E1,2.8668728E1,1.8556309E0,3.2834934E1,3.9701683E1,9.933185E1,3.5185513E1,4.1529358E1,2.4337406E0,1.293464E0],"tree_param":{"num_deleted":"0","num_feature":"46","num_nodes":"25","size_leaf_vector":"1"}},{"base_weights":[-3.7050933E-1,-1.4738275E-1,-5.5689204E-1,4.1854036E-1,-2.3519982E-1,-5.591343E-2,1.3532931E-2,-2.8003156E-1,5.5750203E-1,9.478269E-3,-2.8574535E-1,-4.821164E-2,2.2557771E-1,7.6916814E-1,1.3139554E-2,-2.2772245E-1,3.5829285E-1,-2.049348E-1,-4.2136285E-1,-2.9865274E-2,6.612594E-2,3.004014E-2,9.1110565E-2,-4.782973E-2,3.925382E-2,4.5475416E-2,-4.703195E-2,1.7774414E-1,-2.0435506E-3,-3.3342104E-2,1.9611885E-1,-1.7525373E-2,-5.465829E-2],"categories":[],"categories_nodes":[],"categories_segments":[],"categories_sizes":[],"default_left":[0,0,0,0,0,0,0,0,0,0,0,0,0,0,0,0,0,0,0,0,0,0,0,0,0,0,0,0,0,0,0,0,0],"id":31,"left_children":[1,3,5,7,9,-1,-1,11,13,15,17,-1,19,21,23,25,27,29,31,-1,-1,-1,-1,-1,-1,-1,-1,-1,-1,-1,-1,-1,-1],"loss_changes":[3.3059143E1,1.819163E1,7.490845E-1,4.9384756E0,3.908331E0,0E0,0E0,1.0119429E0,4.763027E0,4.6352477E0,2.7824001E0,0E0,9.295957E-1,1.7097244E0,2.5398643E0,5.7389693E0,1.2218439E1,4.684688E1,2.887104E0,0E0,0E0,0E0,0E0,0E0,0E0,0E0,0E0,0E0,0E0,0E0,0E0,0E0,0E0],"parents":[2147483647,0,0,1,1,2,2,3,3,4,4,7,7,8,8,9,9,10,10,12,12,13,13,14,14,15,15,16,16,17,17,18,18],"right_children":[2,4,6,8,10,-1,-1,12,14,16,18,-1,20,22,24,26,28,30,32,-1,-1,-1,-1,-1,-1,-1,-1,-1,-1,-1,-1,-1,-1],"split_conditions":[2.89E2,6.914139E-5,2.875391E0,5.2309036E-4,5.533214E0,-5.591343E-2,1.3532931E-2,8.106232E-6,1.0967255E-5,1.53E2,1.71E2,-4.821164E-2,3.8146973E-6,5.564464E0,5.607509E0,8.821487E-6,1.71E2,1.53E2,1.56E2,-2.9865274E-2,6.612594E-2,3.004014E-2,9.1110565E-2,-4.782973E-2,3.925382E-2,4.5475416E-2,-4.703195E-2,1.7774414E-1,-2.0435506E-3,-3.3342104E-2,1.9611885E-1,-1.7525373E-2,-5.465829E-2],"split_indices":[4,6,24,18,0,0,0,12,15,13,13,0,15,0,0,12,13,13,10,0,0,0,0,0,0,0,0,0,0,0,0,0,0],"split_type":[0,0,0,0,0,0,0,0,0,0,0,0,0,0,0,0,0,0,0,0,0,0,0,0,0,0,0,0,0,0,0,0,0],"sum_hessian":[7.959143E2,3.6306488E2,4.3284943E2,4.8264694E1,3.1480017E2,4.316435E2,1.205916E0,7.8395348E0,4.042516E1,5.403635E1,2.6076382E2,5.634121E0,2.2054136E0,2.8809937E1,1.1615223E1,3.2370758E1,2.1665594E1,1.6497256E2,9.579126E1,1.1437372E0,1.0616765E0,7.4202037E0,2.1389732E1,4.9468603E0,6.668363E0,8.259767E0,2.411099E1,3.7859445E0,1.787965E1,1.5653366E2,8.438908E0,3.3112026E1,6.267923E1],"tree_param":{"num_deleted":"0","num_feature":"46","num_nodes":"33","size_leaf_vector":"1"}},{"base_weights":[-3.6640924E-1,-1.3704455E-1,-5.591007E-2,9.553415E-1,-1.6462536E-1,1.0810566E0,9.378145E-3,-1.8503073E-1,9.4681334E-1,3.8831344E-1,1.34191E-1,5.0887954E-1,-1.9833863E-1,-3.0096633E-2,1.2288971E0,6.7187674E-2,1.331395E-3,8.745618E-2,4.721377E-3,2.1769896E-2,-2.2206869E-2,1.3769776E-1,4.5371108E-2],"categories":[],"categories_nodes":[],"categories_segments":[],"categories_sizes":[],"default_left":[0,0,0,0,0,0,0,0,0,0,0,0,0,0,0,0,0,0,0,0,0,0,0],"id":32,"left_children":[1,3,-1,5,7,9,-1,11,13,15,-1,17,19,-1,21,-1,-1,-1,-1,-1,-1,-1,-1],"loss_changes":[3.5204094E1,1.1177731E1,0E0,8.901825E-1,8.285815E0,9.0541077E-1,0E0,3.351575E0,2.6967297E0,3.7031364E-1,0E0,1.124318E0,3.4653177E0,0E0,1.6768456E-2,0E0,0E0,0E0,0E0,0E0,0E0,0E0,0E0],"parents":[2147483647,0,0,1,1,3,3,4,4,5,5,7,7,8,8,9,9,11,11,12,12,14,14],"right_children":[2,4,-1,6,8,10,-1,12,14,16,-1,18,20,-1,22,-1,-1,-1,-1,-1,-1,-1,-1],"split_conditions":[2.89E2,9.2E1,-5.591007E-2,2.74992E-3,5.84E3,9.150505E-4,9.378145E-3,9.536743E-7,1.87E2,6.351471E-4,1.34191E-1,2.76E2,9.059906E-6,-3.0096633E-2,5.3400993E-3,6.7187674E-2,1.331395E-3,8.745618E-2,4.721377E-3,2.1769896E-2,-2.2206869E-2,1.3769776E-1,4.5371108E-2],"split_indices":[4,7,0,18,16,18,0,12,13,18,0,10,9,0,12,0,0,0,0,0,0,0,0],"split_type":[0,0,0,0,0,0,0,0,0,0,0,0,0,0,0,0,0,0,0,0,0,0,0],"sum_hessian":[7.972674E2,3.6477692E2,4.3249045E2,8.154782E0,3.5662216E2,6.894064E0,1.260718E0,3.5101132E2,5.610842E0,2.5666065E0,4.3274574E0,5.9043293E0,3.4510696E2,1.0222121E0,4.58863E0,1.010684E0,1.5559225E0,2.7955961E0,3.1087332E0,1.8181055E1,3.2692593E2,3.200864E0,1.3877659E0],"tree_param":{"num_deleted":"0","num_feature":"46","num_nodes":"23","size_leaf_vector":"1"}},{"base_weights":[-6.029118E-2,4.1249356E-1,-5.5687225E-1,5.270863E-1,3.9993837E-2,-5.59098E-2,1.8656604E-2,9.803997E-2,6.306301E-1,2.883491E-1,-3.6660478E-1,-5.881118E-3,8.1359965E-1,5.860288E-1,1.3331819E0,3.1982612E-2,1.1090797E0,-4.74336E-1,6.108681E-1,5.4310817E-2,-1.6026216E-2,1.256209E-1,-1.6403468E-2,6.520984E-2,1.064467E-2,1.4095023E-1,5.4969784E-2,-3.4597017E-2,2.479459E-2,6.0711685E-3,1.320052E-1,-7.81136E-3,-5.483387E-2,-6.9164634E-3,1.1967587E-1],"categories":[],"categories_nodes":[],"categories_segments":[],"categories_sizes":[],"default_left":[0,0,0,0,0,0,0,0,0,0,0,0,0,0,0,0,0,0,0,0,0,0,0,0,0,0,0,0,0,0,0,0,0,0,0],"id":33,"left_children":[1,3,5,7,9,-1,-1,11,13,15,17,19,21,23,25,27,29,31,33,-1,-1,-1,-1,-1,-1,-1,-1,-1,-1,-1,-1,-1,-1,-1,-1],"loss_changes":[2.0881865E2,1.9431236E1,8.22052E-1,1.5416649E1,1.1041108E1,0E0,0E0,5.129933E0,8.007965E0,1.4227609E1,4.6603045E0,5.271792E0,3.9911456E0,8.344307E0,1.79533E-1,4.3859663E0,3.4818802E0,1.0698204E0,1.8985171E0,0E0,0E0,0E0,0E0,0E0,0E0,0E0,0E0,0E0,0E0,0E0,0E0,0E0,0E0,0E0,0E0],"parents":[2147483647,0,0,1,1,2,2,3,3,4,4,7,7,8,8,9,9,10,10,11,11,12,12,13,13,14,14,15,15,16,16,17,17,18,18],"right_children":[2,4,6,8,10,-1,-1,12,14,16,18,20,22,24,26,28,30,32,34,-1,-1,-1,-1,-1,-1,-1,-1,-1,-1,-1,-1,-1,-1,-1,-1],"split_conditions":[2.89E2,1.84E2,2.297E3,8.08239E-5,1.84E2,-5.59098E-2,1.8656604E-2,3.7908554E-5,1.8E2,1.69E2,1.40768E0,2.0980835E-5,7.390976E-5,1.06E2,1.20162964E-4,3.0040741E-5,2.8133392E-5,1.72E2,1.135E3,5.4310817E-2,-1.6026216E-2,1.256209E-1,-1.6403468E-2,6.520984E-2,1.064467E-2,1.4095023E-1,5.4969784E-2,-3.4597017E-2,2.479459E-2,6.0711685E-3,1.320052E-1,-7.81136E-3,-5.483387E-2,-6.9164634E-3,1.1967587E-1],"split_indices":[4,13,7,6,10,0,0,12,13,10,18,21,6,13,12,21,21,7,13,0,0,0,0,0,0,0,0,0,0,0,0,0,0,0,0],"split_type":[0,0,0,0,0,0,0,0,0,0,0,0,0,0,0,0,0,0,0,0,0,0,0,0,0,0,0,0,0,0,0,0,0,0,0],"sum_hessian":[8.874596E2,4.5470938E2,4.327502E2,3.4741763E2,1.0729175E2,4.317057E2,1.0445223E0,6.792185E1,2.794958E2,6.6787796E1,4.0503952E1,6.0174465E1,7.7473865E0,2.6453595E2,1.4959835E1,5.16829E1,1.5104895E1,3.6946644E1,3.557307E0,1.2654884E1,4.7519585E1,5.13682E0,2.6105666E0,2.3218877E2,3.2347195E1,1.2903834E1,2.0560012E0,1.8574345E1,3.3108555E1,2.7461965E0,1.2358698E1,6.1380534E0,3.080859E1,2.0545623E0,1.5027447E0],"tree_param":{"num_deleted":"0","num_feature":"46","num_nodes":"35","size_leaf_vector":"1"}},{"base_weights":[-9.772195E-2,3.497484E-1,-5.5685663E-1,7.1739644E-1,2.9622406E-1,-5.5911727E-2,1.6039591E-2,8.629997E-1,-4.9227208E-2,4.0580207E-1,9.0135954E-2,2.5462765E-1,1.2366616E0,1.08854376E-1,5.498364E-1,2.8664887E-1,-4.7472948E-1,8.879765E-2,9.890767E-4,7.6932736E-2,1.5614246E-1,3.4681622E-2,-2.0236433E-2,5.8927096E-2,-2.080971E-2,-5.418196E-2,4.0819764E-2,-5.5587836E-2,-1.6205264E-2],"categories":[],"categories_nodes":[],"categories_segments":[],"categories_sizes":[],"default_left":[0,0,0,0,0,0,0,0,0,0,0,0,0,0,0,0,0,0,0,0,0,0,0,0,0,0,0,0,0],"id":34,"left_children":[1,3,5,7,9,-1,-1,11,-1,13,15,17,19,21,23,25,27,-1,-1,-1,-1,-1,-1,-1,-1,-1,-1,-1,-1],"loss_changes":[1.805851E2,8.5497055E0,7.9299927E-1,1.0267836E1,8.779552E0,0E0,0E0,1.1106773E1,0E0,1.082909E1,1.5321741E1,3.1497135E0,3.48349E0,6.3207817E0,5.2392273E0,1.0504375E1,8.1538486E-1,0E0,0E0,0E0,0E0,0E0,0E0,0E0,0E0,0E0,0E0,0E0,0E0],"parents":[2147483647,0,0,1,1,2,2,3,3,4,4,7,7,9,9,10,10,11,11,12,12,13,13,14,14,15,15,16,16],"right_children":[2,4,6,8,10,-1,-1,12,-1,14,16,18,20,22,24,26,28,-1,-1,-1,-1,-1,-1,-1,-1,-1,-1,-1,-1],"split_conditions":[2.89E2,5.9580803E-4,1.449E3,5.94E2,1.06E2,-5.5911727E-2,1.6039591E-2,1.73E2,-4.9227208E-2,9.7990036E-5,3.6001205E-5,5.130768E-4,1.3828278E-5,2.5987625E-5,1.9598007E-4,1.75E2,7.414818E-5,8.879765E-2,9.890767E-4,7.6932736E-2,1.5614246E-1,3.4681622E-2,-2.0236433E-2,5.8927096E-2,-2.080971E-2,-5.418196E-2,4.0819764E-2,-5.5587836E-2,-1.6205264E-2],"split_indices":[4,18,7,16,13,0,0,13,0,6,9,18,9,9,6,13,9,0,0,0,0,0,0,0,0,0,0,0,0],"split_type":[0,0,0,0,0,0,0,0,0,0,0,0,0,0,0,0,0,0,0,0,0,0,0,0,0,0,0,0,0],"sum_hessian":[8.770291E2,4.4427713E2,4.32752E2,5.4884354E1,3.8939276E2,4.3161212E2,1.1398977E0,4.9243664E1,5.640693E0,2.5358914E2,1.3580362E2,1.9376892E1,2.986677E1,8.340119E1,1.7018794E2,1.0111791E2,3.468571E1,4.6681104E0,1.4708783E1,1.3626754E1,1.6240015E1,4.7198345E1,3.6202847E1,1.6198267E2,8.205275E0,1.2495026E1,8.862289E1,2.692109E1,7.7646213E0],"tree_param":{"num_deleted":"0","num_feature":"46","num_nodes":"29","size_leaf_vector":"1"}},{"base_weights":[8.653165E-1,-4.6796668E-1,1.248838E0,-5.4555446E-1,1.3023841E-1,4.08061E-2,1.249515E0,-5.5823863E-2,1.1178165E-1,1.2501751E-1,4.396455E-2],"categories":[],"categories_nodes":[],"categories_segments":[],"categories_sizes":[],"default_left":[0,0,0,0,0,0,0,0,0,0,0],"id":35,"left_children":[1,3,5,7,-1,-1,9,-1,-1,-1,-1],"loss_changes":[7.1119446E2,4.3452774E1,1.048584E-1,6.9285355E0,0E0,0E0,2.6489258E-2,0E0,0E0,0E0,0E0],"parents":[2147483647,0,0,1,1,2,2,3,3,6,6],"right_children":[2,4,6,8,-1,-1,10,-1,-1,-1,-1],"split_conditions":[2.89E2,4.5895576E-4,1.73E2,5.74E2,1.3023841E-1,4.08061E-2,1.501E3,-5.5823863E-2,1.1178165E-1,1.2501751E-1,4.396455E-2],"split_indices":[4,6,7,10,0,0,1,0,0,0,0],"split_type":[0,0,0,0,0,0,0,0,0,0,0],"sum_hessian":[1.3886945E3,3.1017487E2,1.0785195E3,2.978146E2,1.2360255E1,1.3536068E0,1.0771659E3,2.9622015E2,1.5944564E0,1.0757457E3,1.4202329E0],"tree_param":{"num_deleted":"0","num_feature":"46","num_nodes":"11","size_leaf_vector":"1"}},{"base_weights":[-3.4948704E-1,-8.3794646E-2,-5.2978855E-1,1.9174741E-1,-1.423639E-1,-5.378597E-1,3.246221E-1,-1.7640208E-1,4.6043503E-1,-4.1303173E-2,-5.0121266E-1,-3.445934E-1,-5.544101E-2,-3.734187E-2,8.559343E-2,6.367044E-2,-2.7594283E-1,5.6487995E-1,-4.4959884E-2,-1.631333E-1,1.3373081E-1,-5.5138983E-2,1.4144523E-1,-2.3377998E-1,-5.216071E-2,-3.2440275E-3,-3.9966367E-2,2.1979557E-2,9.2807524E-2,-4.4788387E-2,-1.1178855E-2,-3.4859974E-2,4.7439195E-2,-4.3072697E-2,-6.902379E-3],"categories":[],"categories_nodes":[],"categories_segments":[],"categories_sizes":[],"default_left":[0,0,0,0,0,0,0,0,0,0,0,0,0,0,0,0,0,0,0,0,0,0,0,0,0,0,0,0,0,0,0,0,0,0,0],"id":36,"left_children":[1,3,5,7,9,11,13,15,17,19,21,23,-1,-1,-1,-1,25,27,-1,29,-1,-1,31,33,-1,-1,-1,-1,-1,-1,-1,-1,-1,-1,-1],"loss_changes":[3.6686974E1,5.0489626E0,3.3233185E0,5.518979E0,9.30649E0,1.256958E0,2.1356068E0,2.111434E0,3.3008666E0,3.410606E1,1.8975353E0,6.3033724E-1,0E0,0E0,0E0,0E0,6.4998496E-1,3.4556265E0,0E0,2.6733508E0,0E0,0E0,9.619729E-1,7.943984E-1,0E0,0E0,0E0,0E0,0E0,0E0,0E0,0E0,0E0,0E0,0E0],"parents":[2147483647,0,0,1,1,2,2,3,3,4,4,5,5,6,6,7,7,8,8,9,9,10,10,11,11,16,16,17,17,19,19,22,22,23,23],"right_children":[2,4,6,8,10,12,14,16,18,20,22,24,-1,-1,-1,-1,26,28,-1,30,-1,-1,32,34,-1,-1,-1,-1,-1,-1,-1,-1,-1,-1,-1],"split_conditions":[5.7935715E-5,1.51E2,5.9231663E0,3.385544E-5,1.53E2,5.888939E-5,7.432246E0,5.130768E-4,1.718998E-4,1.06E2,4.4107437E-5,1.53E2,-5.544101E-2,-3.734187E-2,8.559343E-2,6.367044E-2,2.3126602E-5,1.0008812E-3,-4.4959884E-2,6.6804886E-4,1.3373081E-1,-5.5138983E-2,5.564464E0,1.4710426E-4,-5.216071E-2,-3.2440275E-3,-3.9966367E-2,2.1979557E-2,9.2807524E-2,-4.4788387E-2,-1.1178855E-2,-3.4859974E-2,4.7439195E-2,-4.3072697E-2,-6.902379E-3],"split_indices":[12,10,18,21,13,15,24,18,6,13,15,13,0,0,0,0,21,18,0,18,0,0,0,6,0,0,0,0,0,0,0,0,0,0,0],"split_type":[0,0,0,0,0,0,0,0,0,0,0,0,0,0,0,0,0,0,0,0,0,0,0,0,0,0,0,0,0,0,0,0,0,0,0],"sum_hessian":[7.657585E2,3.1016455E2,4.5559396E2,5.397282E1,2.5619174E2,4.516975E2,3.896454E0,2.2916557E1,3.1056261E1,2.007661E2,5.542563E1,3.7351284E1,4.1434622E2,1.8124388E0,2.0840154E0,1.9108895E0,2.1005669E1,2.8199114E1,2.8571467E0,1.8527473E2,1.5491362E1,5.154327E1,3.8823588E0,2.4398268E1,1.2953018E1,7.502245E0,1.3503424E1,1.5283195E1,1.291592E1,2.7124287E1,1.5815045E2,1.5516142E0,2.3307445E0,1.037811E1,1.4020159E1],"tree_param":{"num_deleted":"0","num_feature":"46","num_nodes":"35","size_leaf_vector":"1"}},{"base_weights":[-3.419771E-1,-1.0374693E-1,-5.5422958E-2,-2.3746279E-1,2.3167847E-1,4.602071E-3,-3.3746877E-1,1.299432E-1,-1.00384615E-1,2.2558896E-1,-3.7327307E-1,-2.5918224E-1,-5.5155016E-2,-1.8398096E-1,6.481169E-1,-2.3974052E-2,3.956136E-2,5.3169705E-2,-4.699498E-2,3.893488E-2,-2.7507458E-2,2.4585852E-3,-3.735974E-2,1.4716658E-1,-4.41695E-2],"categories":[],"categories_nodes":[],"categories_segments":[],"categories_sizes":[],"default_left":[0,0,0,0,0,0,0,0,0,0,0,0,0,0,0,0,0,0,0,0,0,0,0,0,0],"id":37,"left_children":[1,3,-1,5,7,9,11,-1,13,15,17,19,-1,21,23,-1,-1,-1,-1,-1,-1,-1,-1,-1,-1],"loss_changes":[3.878856E1,1.6345144E1,0E0,6.299818E0,3.7014187E1,6.518257E0,2.9429111E0,0E0,5.142371E0,3.9906402E0,2.7703419E0,1.5161057E0,0E0,2.895829E0,8.086965E0,0E0,0E0,0E0,0E0,0E0,0E0,0E0,0E0,0E0,0E0],"parents":[2147483647,0,0,1,1,3,3,4,4,5,5,6,6,8,8,9,9,10,10,11,11,13,13,14,14],"right_children":[2,4,-1,6,8,10,12,-1,14,16,18,20,-1,22,24,-1,-1,-1,-1,-1,-1,-1,-1,-1,-1],"split_conditions":[2.89E2,2.15E2,-5.5422958E-2,2.76E2,2.68E2,9.894371E-5,1.06E2,1.299432E-1,2.451E3,6.1511993E-4,3.0994415E-5,6.0081482E-5,-5.5155016E-2,1.039505E-4,4.178E3,-2.3974052E-2,3.956136E-2,5.3169705E-2,-4.699498E-2,3.893488E-2,-2.7507458E-2,2.4585852E-3,-3.735974E-2,1.4716658E-1,-4.41695E-2],"split_indices":[4,13,0,7,13,6,13,0,16,18,21,6,0,6,16,0,0,0,0,0,0,0,0,0,0],"split_type":[0,0,0,0,0,0,0,0,0,0,0,0,0,0,0,0,0,0,0,0,0,0,0,0,0],"sum_hessian":[7.672408E2,3.621999E2,4.0504092E2,2.5917355E2,1.0302634E2,7.604947E1,1.8312407E2,2.3748734E1,7.92776E1,4.8240646E1,2.7808826E1,1.3570819E2,4.7415882E1,7.199144E1,7.2861595E0,1.2799764E1,3.5440884E1,2.2497404E0,2.5559086E1,2.6839252E0,1.3302426E2,3.469707E1,3.7294373E1,3.9504778E0,3.3356817E0],"tree_param":{"num_deleted":"0","num_feature":"46","num_nodes":"25","size_leaf_vector":"1"}},{"base_weights":[-3.5988116E-1,-1.4074421E-1,-5.518823E-1,3.8654447E-1,-2.2655752E-1,-5.5426188E-2,1.3643744E-2,-2.7015254E-1,5.091606E-1,1.182339E-2,-2.767701E-1,-4.7560353E-2,2.2325914E-1,6.652913E-1,-1.05861165E-1,-2.1763985E-1,3.3653083E-1,-1.9657354E-1,-4.130855E-1,-2.9192531E-2,6.3152015E-2,2.6059289E-2,8.489781E-2,-3.5036683E-2,3.758733E-2,4.2775292E-2,-4.623448E-2,1.554241E-1,-1.8143741E-3,-3.2322958E-2,1.6695647E-1,-1.6742837E-2,-5.4180898E-2],"categories":[],"categories_nodes":[],"categories_segments":[],"categories_sizes":[],"default_left":[0,0,0,0,0,0,0,0,0,0,0,0,0,0,0,0,0,0,0,0,0,0,0,0,0,0,0,0,0,0,0,0,0],"id":38,"left_children":[1,3,5,7,9,-1,-1,11,13,15,17,-1,19,21,23,25,27,29,31,-1,-1,-1,-1,-1,-1,-1,-1,-1,-1,-1,-1,-1,-1],"loss_changes":[3.203424E1,1.6275772E1,7.413635E-1,4.199393E0,3.6937637E0,0E0,0E0,9.7698325E-1,4.1854286E0,4.1416745E0,2.703352E0,0E0,8.586454E-1,2.329648E0,1.2552752E0,5.3465347E0,9.962658E0,3.8894825E1,2.864006E0,0E0,0E0,0E0,0E0,0E0,0E0,0E0,0E0,0E0,0E0,0E0,0E0,0E0,0E0],"parents":[2147483647,0,0,1,1,2,2,3,3,4,4,7,7,8,8,9,9,10,10,12,12,13,13,14,14,15,15,16,16,17,17,18,18],"right_children":[2,4,6,8,10,-1,-1,12,14,16,18,-1,20,22,24,26,28,30,32,-1,-1,-1,-1,-1,-1,-1,-1,-1,-1,-1,-1,-1,-1],"split_conditions":[2.89E2,6.914139E-5,2.875391E0,5.2309036E-4,5.533214E0,-5.5426188E-2,1.3643744E-2,8.106232E-6,1.001358E-5,1.53E2,1.71E2,-4.7560353E-2,3.8146973E-6,5.588054E0,5.650554E0,8.821487E-6,1.71E2,1.53E2,1.56E2,-2.9192531E-2,6.3152015E-2,2.6059289E-2,8.489781E-2,-3.5036683E-2,3.758733E-2,4.2775292E-2,-4.623448E-2,1.554241E-1,-1.8143741E-3,-3.2322958E-2,1.6695647E-1,-1.6742837E-2,-5.4180898E-2],"split_indices":[4,6,24,18,0,0,0,12,12,13,13,0,15,0,0,12,13,13,10,0,0,0,0,0,0,0,0,0,0,0,0,0,0],"split_type":[0,0,0,0,0,0,0,0,0,0,0,0,0,0,0,0,0,0,0,0,0,0,0,0,0,0,0,0,0,0,0,0,0],"sum_hessian":[7.6221484E2,3.56763E2,4.0545184E2,4.944411E1,3.0731888E2,4.0424908E2,1.2027469E0,7.590155E0,4.1853954E1,5.360365E1,2.5371523E2,5.38429E0,2.205865E0,3.3314842E1,8.539114E0,3.1601404E1,2.2002245E1,1.6127599E2,9.243925E1,1.1012068E0,1.1046581E0,1.1155573E1,2.2159267E1,5.84511E0,2.6940043E0,8.482183E0,2.311922E1,4.200035E0,1.7802212E1,1.518E2,9.475975E0,3.257448E1,5.986477E1],"tree_param":{"num_deleted":"0","num_feature":"46","num_nodes":"33","size_leaf_vector":"1"}},{"base_weights":[-3.55163E-1,-1.2972121E-1,-5.5422958E-2,8.7037224E-1,-1.5658215E-1,9.823417E-1,8.363332E-3,-1.7637151E-1,8.6005956E-1,2.4451973E-2,1.17709935E-1,4.775048E-1,-1.8948041E-1,-2.9735496E-2,1.1079545E0,-7.1563195E-3,7.162969E-2,2.0492127E-2,-2.1276303E-2,1.2746625E-1,1.5890453E-2],"categories":[],"categories_nodes":[],"categories_segments":[],"categories_sizes":[],"default_left":[0,0,0,0,0,0,0,0,0,0,0,0,0,0,0,0,0,0,0,0,0],"id":39,"left_children":[1,3,-1,5,7,9,-1,11,13,-1,-1,15,17,-1,19,-1,-1,-1,-1,-1,-1],"loss_changes":[3.426658E1,9.810137E0,0E0,7.610078E-1,7.224228E0,9.028406E-1,0E0,3.05332E0,2.3041363E0,0E0,0E0,9.79231E-1,3.161869E0,0E0,7.277422E-1,0E0,0E0,0E0,0E0,0E0,0E0],"parents":[2147483647,0,0,1,1,3,3,4,4,5,5,7,7,8,8,11,11,12,12,14,14],"right_children":[2,4,-1,6,8,10,-1,12,14,-1,-1,16,18,-1,20,-1,-1,-1,-1,-1,-1],"split_conditions":[2.89E2,9.2E1,-5.5422958E-2,2.74992E-3,5.84E3,5.556804E0,8.363332E-3,9.536743E-7,1.87E2,2.4451973E-2,1.17709935E-1,7.698536E-4,9.059906E-6,-2.9735496E-2,5.4836273E-5,-7.1563195E-3,7.162969E-2,2.0492127E-2,-2.1276303E-2,1.2746625E-1,1.5890453E-2],"split_indices":[4,7,0,18,16,0,0,12,13,0,0,18,9,0,36,0,0,0,0,0,0],"split_type":[0,0,0,0,0,0,0,0,0,0,0,0,0,0,0,0,0,0,0,0,0],"sum_hessian":[7.641531E2,3.5911215E2,4.0504092E2,8.571536E0,3.5054062E2,7.2859654E0,1.2855705E0,3.4465823E2,5.8824053E0,1.992618E0,5.2933474E0,6.077635E0,3.385806E2,1.0024542E0,4.879951E0,2.054324E0,4.0233107E0,1.8438335E1,3.2014224E2,3.8589957E0,1.0209554E0],"tree_param":{"num_deleted":"0","num_feature":"46","num_nodes":"21","size_leaf_vector":"1"}},{"base_weights":[-5.4529935E-2,3.777592E-1,-5.518705E-1,5.5235714E-2,4.8441154E-1,-5.5422466E-2,1.7780824E-2,-1.1685119E-1,3.3054855E-1,5.8509403E-1,1.3805038E-1,3.416093E-1,-1.9736534E-1,4.383005E-1,-4.9224865E-2,5.2917445E-1,9.9737805E-1,4.2023236E-1,-3.0524534E-1,-4.4918153E-2,7.129711E-2,-2.9308131E-2,1.51029E-2,1.3540842E-2,9.387236E-2,5.932324E-2,-4.904625E-2,2.1399032E-1,6.577425E-2,1.6423922E-2,1.0548077E-1,-4.4074822E-2,6.346967E-2],"categories":[],"categories_nodes":[],"categories_segments":[],"categories_sizes":[],"default_left":[0,0,0,0,0,0,0,0,0,0,0,0,0,0,0,0,0,0,0,0,0,0,0,0,0,0,0,0,0,0,0,0,0],"id":40,"left_children":[1,3,5,7,9,-1,-1,11,13,15,17,19,21,23,-1,25,27,29,31,-1,-1,-1,-1,-1,-1,-1,-1,-1,-1,-1,-1,-1,-1],"loss_changes":[1.878963E2,1.605877E1,7.965698E-1,5.5978065E0,1.21697235E1,0E0,0E0,2.7599652E0,4.240259E0,5.7400436E0,1.018885E1,3.6278005E0,2.1344812E0,6.036848E0,0E0,1.6066505E1,1.0753754E1,7.8783827E0,4.337843E0,0E0,0E0,0E0,0E0,0E0,0E0,0E0,0E0,0E0,0E0,0E0,0E0,0E0,0E0],"parents":[2147483647,0,0,1,1,2,2,3,3,4,4,7,7,8,8,9,9,10,10,11,11,12,12,13,13,15,15,16,16,17,17,18,18],"right_children":[2,4,6,8,10,-1,-1,12,14,16,18,20,22,24,-1,26,28,30,32,-1,-1,-1,-1,-1,-1,-1,-1,-1,-1,-1,-1,-1,-1],"split_conditions":[2.89E2,8.7976456E-5,1.501E3,1.21593475E-5,1.84E2,-5.5422466E-2,1.7780824E-2,2.002716E-5,1.2819767E-3,1.71E2,1.84E2,1.5974045E-5,5.66391E0,3.194809E-5,-4.9224865E-2,1.06E2,1.73E2,1.69E2,1.40768E0,-4.4918153E-2,7.129711E-2,-2.9308131E-2,1.51029E-2,1.3540842E-2,9.387236E-2,5.932324E-2,-4.904625E-2,2.1399032E-1,6.577425E-2,1.6423922E-2,1.0548077E-1,-4.4074822E-2,6.346967E-2],"split_indices":[4,6,1,15,13,0,0,21,18,13,10,9,0,21,0,13,13,10,18,0,0,0,0,0,0,0,0,0,0,0,0,0,0],"split_type":[0,0,0,0,0,0,0,0,0,0,0,0,0,0,0,0,0,0,0,0,0,0,0,0,0,0,0,0,0,0,0,0,0],"sum_hessian":[8.719873E2,4.6663123E2,4.0535608E2,1.1633743E2,3.502938E2,4.0429218E2,1.0639007E0,7.1943825E1,4.4393604E1,2.7086713E2,7.942666E1,1.0262823E1,6.1681004E1,3.9666286E1,4.7273164E0,2.4052708E2,3.0340054E1,4.856464E1,3.086202E1,3.2124872E0,7.050336E0,4.851188E1,1.3169126E1,2.550152E1,1.4164766E1,2.2670284E2,1.3824252E1,5.7377687E0,2.4602285E1,3.5501747E1,1.3062892E1,2.7437672E1,3.4243493E0],"tree_param":{"num_deleted":"0","num_feature":"46","num_nodes":"33","size_leaf_vector":"1"}},{"base_weights":[-9.035083E-2,3.2127014E-1,-5.518476E-1,6.371987E-1,2.6794365E-1,1.6993402E-2,-5.5428673E-2,1.155163E0,4.7479776E-1,3.2805252E-1,1.1986814E-2,1.2218848E0,1.4630996E-2,2.620677E-1,8.827915E-1,3.892321E-1,5.3812962E-2,-2.234006E-1,1.4763363E-1,5.4285444E-2,1.348222E-1,6.98026E-3,6.484196E-2,1.445125E-1,4.44749E-2,3.0147914E-2,7.1539305E-2,-1.6051635E-2,2.7879566E-2,2.414288E-2,-3.4753874E-2,2.6823178E-2,-2.765399E-2],"categories":[],"categories_nodes":[],"categories_segments":[],"categories_sizes":[],"default_left":[0,0,0,0,0,0,0,0,0,0,0,0,0,0,0,0,0,0,0,0,0,0,0,0,0,0,0,0,0,0,0,0,0],"id":41,"left_children":[1,3,5,7,9,-1,-1,11,13,15,17,19,-1,21,23,25,27,29,31,-1,-1,-1,-1,-1,-1,-1,-1,-1,-1,-1,-1,-1,-1],"loss_changes":[1.63768E2,7.508583E0,8.0960083E-1,4.927767E0,6.0227184E0,0E0,0E0,8.202591E-1,4.2176437E0,5.3006897E0,2.44474E0,4.506874E-1,0E0,2.5631373E0,3.580617E0,7.2021294E0,2.8904095E0,1.700305E0,2.5562663E0,0E0,0E0,0E0,0E0,0E0,0E0,0E0,0E0,0E0,0E0,0E0,0E0,0E0,0E0],"parents":[2147483647,0,0,1,1,2,2,3,3,4,4,7,7,8,8,9,9,10,10,11,11,13,13,14,14,15,15,16,16,17,17,18,18],"right_children":[2,4,6,8,10,-1,-1,12,14,16,18,20,-1,22,24,26,28,30,32,-1,-1,-1,-1,-1,-1,-1,-1,-1,-1,-1,-1,-1,-1],"split_conditions":[2.89E2,3.8146973E-6,6.1035156E-5,5.4717064E-4,5.675705E0,1.6993402E-2,-5.5428673E-2,3.0994415E-5,9.441376E-4,1.6999245E-3,9.7990036E-5,6.198883E-6,1.4630996E-2,2.76E2,3.504753E-5,4.8160553E-5,1.5997887E-4,5.9580803E-4,3.7908554E-5,5.4285444E-2,1.348222E-1,6.98026E-3,6.484196E-2,1.445125E-1,4.44749E-2,3.0147914E-2,7.1539305E-2,-1.6051635E-2,2.7879566E-2,2.414288E-2,-3.4753874E-2,2.6823178E-2,-2.765399E-2],"split_indices":[4,15,12,18,0,0,0,21,18,18,6,12,0,7,21,9,6,18,15,0,0,0,0,0,0,0,0,0,0,0,0,0,0],"split_type":[0,0,0,0,0,0,0,0,0,0,0,0,0,0,0,0,0,0,0,0,0,0,0,0,0,0,0,0,0,0,0,0,0],"sum_hessian":[8.601772E2,4.548175E2,4.053597E2,6.410187E1,3.9071564E2,1.1339597E0,4.0422574E2,1.38417425E1,5.0260124E1,3.161819E2,7.453375E1,1.2785027E1,1.0567166E0,3.4114815E1,1.6145311E1,2.581683E2,5.8013588E1,2.7012367E1,4.7521385E1,2.8364882E0,9.948538E0,2.3567366E1,1.0547449E1,6.06297E0,1.008234E1,2.0495096E2,5.3217335E1,2.9856958E1,2.8156631E1,5.494318E0,2.151805E1,3.728765E1,1.0233736E1],"tree_param":{"num_deleted":"0","num_feature":"46","num_nodes":"33","size_leaf_vector":"1"}},{"base_weights":[7.9075086E-1,-4.6250957E-1,1.1251484E0,-5.413734E-1,1.19169034E-1,1.1259102E0,1.6047178E-2,-5.545057E-2,1.0446154E-1,1.12651944E-1,3.72742E-2],"categories":[],"categories_nodes":[],"categories_segments":[],"categories_sizes":[],"default_left":[0,0,0,0,0,0,0,0,0,0,0],"id":42,"left_children":[1,3,5,7,-1,9,-1,-1,-1,-1,-1],"loss_changes":[5.8995E2,3.9383114E1,6.35376E-1,6.496765E0,0E0,8.935547E-2,0E0,0E0,0E0,0E0,0E0],"parents":[2147483647,0,0,1,1,2,2,3,3,5,5],"right_children":[2,4,6,8,-1,10,-1,-1,-1,-1,-1],"split_conditions":[2.89E2,4.5895576E-4,2.298E3,5.74E2,1.19169034E-1,5.5699644E0,1.6047178E-2,-5.545057E-2,1.0446154E-1,1.12651944E-1,3.72742E-2],"split_indices":[4,6,1,10,0,30,0,0,0,0,0],"split_type":[0,0,0,0,0,0,0,0,0,0,0],"sum_hessian":[1.4054604E3,2.9594183E2,1.1095187E3,2.83117E2,1.2824839E1,1.1084762E3,1.0424422E0,2.81437E2,1.6799909E0,1.1070848E3,1.3913288E0],"tree_param":{"num_deleted":"0","num_feature":"46","num_nodes":"11","size_leaf_vector":"1"}},{"base_weights":[-3.3886188E-1,-7.964129E-2,-5.239118E-1,1.8008024E-1,-1.3640964E-1,-5.3040665E-1,5.257841E-1,1.0130913E-1,1.4571686E-1,-3.899256E-2,-4.9519998E-1,-3.3582225E-1,-5.476273E-1,1.4933035E-2,6.630416E-2,-2.4301988E-1,3.485296E-1,-1.5588622E-1,1.2168278E-1,-5.473068E-2,1.3864897E-1,-2.2664514E-1,-5.1606376E-2,-5.499341E-2,-5.3346814E-3,-4.1565042E-2,1.8587347E-2,-4.533906E-2,4.58832E-2,-9.295253E-3,-3.9352983E-2,-3.5279218E-2,4.584485E-2,2.2006172E-3,-3.5404533E-2],"categories":[],"categories_nodes":[],"categories_segments":[],"categories_sizes":[],"default_left":[0,0,0,0,0,0,0,0,0,0,0,0,0,0,0,0,0,0,0,0,0,0,0,0,0,0,0,0,0,0,0,0,0,0,0],"id":43,"left_children":[1,3,5,7,9,11,13,15,-1,17,19,21,23,-1,-1,25,27,29,-1,-1,31,33,-1,-1,-1,-1,-1,-1,-1,-1,-1,-1,-1,-1,-1],"loss_changes":[3.5194077E1,4.553041E0,3.1996765E0,5.437806E0,8.810293E0,1.2444916E0,6.3063145E-2,4.6279593E0,0E0,2.951404E1,1.8546944E0,6.159291E-1,4.1539764E-1,0E0,0E0,1.7723476E0,2.992314E0,2.7098489E0,0E0,0E0,9.3011266E-1,7.9903257E-1,0E0,0E0,0E0,0E0,0E0,0E0,0E0,0E0,0E0,0E0,0E0,0E0,0E0],"parents":[2147483647,0,0,1,1,2,2,3,3,4,4,5,5,6,6,7,7,9,9,10,10,11,11,12,12,15,15,16,16,17,17,20,20,21,21],"right_children":[2,4,6,8,10,12,14,16,-1,18,20,22,24,-1,-1,26,28,30,-1,-1,32,34,-1,-1,-1,-1,-1,-1,-1,-1,-1,-1,-1,-1,-1],"split_conditions":[5.7935715E-5,1.51E2,8.046048E0,9.9E1,1.53E2,5.888939E-5,1.9073486E-5,3.385544E-5,1.4571686E-1,1.06E2,4.4107437E-5,1.53E2,7.432246E0,1.4933035E-2,6.630416E-2,5.66391E0,2.861023E-6,4.8160553E-5,1.2168278E-1,-5.473068E-2,5.4836273E-5,6.198883E-5,-5.1606376E-2,-5.499341E-2,-5.3346814E-3,-4.1565042E-2,1.8587347E-2,-4.533906E-2,4.58832E-2,-9.295253E-3,-3.9352983E-2,-3.5279218E-2,4.584485E-2,2.2006172E-3,-3.5404533E-2],"split_indices":[12,10,24,10,13,15,30,21,0,13,15,13,24,0,0,0,15,9,0,0,21,21,0,0,0,0,0,0,0,0,0,0,0,0,0],"split_type":[0,0,0,0,0,0,0,0,0,0,0,0,0,0,0,0,0,0,0,0,0,0,0,0,0,0,0,0,0,0,0,0,0,0,0],"sum_hessian":[7.335576E2,3.0614105E2,4.2741656E2,5.4522472E1,2.5161858E2,4.2527988E2,2.1366742E0,5.2371513E1,2.150959E0,1.9876068E2,5.28579E1,3.6243793E1,3.890361E2,1.1287711E0,1.007903E0,2.1894213E1,3.0477299E1,1.8263647E2,1.612421E1,4.896885E1,3.8890474E0,2.3977455E1,1.226634E1,3.871168E2,1.9192909E0,1.5632839E1,6.261375E0,3.3090947E0,2.7168205E1,1.4549664E2,3.7139835E1,1.4924337E0,2.3966138E0,8.4034395E0,1.5574015E1],"tree_param":{"num_deleted":"0","num_feature":"46","num_nodes":"35","size_leaf_vector":"1"}},{"base_weights":[-3.31762E-1,-9.942222E-2,-5.496652E-2,-2.2907415E-1,2.1974581E-1,4.583611E-3,-3.2821706E-1,1.1823318E-1,-9.435763E-2,3.6175832E-1,-2.1581739E-1,-2.5023896E-1,-5.474369E-2,-2.4106576E-1,3.120429E-1,-2.2746408E-2,7.951656E-2,-3.5707664E-2,9.812647E-3,3.6980048E-2,-2.6608786E-2,-4.9828745E-2,-1.0410975E-2,4.0734876E-3,2.0528696E-1],"categories":[],"categories_nodes":[],"categories_segments":[],"categories_sizes":[],"default_left":[0,0,0,0,0,0,0,0,0,0,0,0,0,0,0,0,0,0,0,0,0,0,0,0,0],"id":44,"left_children":[1,3,-1,5,7,9,11,-1,13,15,17,19,-1,21,23,-1,-1,-1,-1,-1,-1,-1,-1,-1,-1],"loss_changes":[3.7196022E1,1.4836258E1,0E0,5.899102E0,3.1474104E1,6.1261325E0,2.9187412E0,0E0,4.7933984E0,7.7631917E0,2.1698048E0,1.4122343E0,0E0,2.0163198E0,1.0035735E1,0E0,0E0,0E0,0E0,0E0,0E0,0E0,0E0,0E0,0E0],"parents":[2147483647,0,0,1,1,3,3,4,4,5,5,6,6,8,8,9,9,10,10,11,11,13,13,14,14],"right_children":[2,4,-1,6,8,10,12,-1,14,16,18,20,-1,22,24,-1,-1,-1,-1,-1,-1,-1,-1,-1,-1],"split_conditions":[2.89E2,2.15E2,-5.496652E-2,2.76E2,2.68E2,8.392334E-5,1.06E2,1.1823318E-1,2.11E2,6.1511993E-4,1.001358E-5,6.0081482E-5,-5.474369E-2,6.6804886E-4,2.87E2,-2.2746408E-2,7.951656E-2,-3.5707664E-2,9.812647E-3,3.6980048E-2,-2.6608786E-2,-4.9828745E-2,-1.0410975E-2,4.0734876E-3,2.0528696E-1],"split_indices":[4,13,0,7,13,6,13,0,10,18,15,6,0,18,4,0,0,0,0,0,0,0,0,0,0],"split_type":[0,0,0,0,0,0,0,0,0,0,0,0,0,0,0,0,0,0,0,0,0,0,0,0,0],"sum_hessian":[7.3477826E2,3.5631393E2,3.784643E2,2.5358524E2,1.0272871E2,7.582839E1,1.7775684E2,2.4594244E1,7.813446E1,2.8691124E1,4.7137268E1,1.3269702E2,4.5059822E1,5.7708775E1,2.042569E1,1.23611555E1,1.6329967E1,3.2414814E1,1.4722456E1,2.7507234E0,1.2994629E2,1.913409E1,3.8574684E1,1.8556982E1,1.8687078E0],"tree_param":{"num_deleted":"0","num_feature":"46","num_nodes":"25","size_leaf_vector":"1"}},{"base_weights":[-3.4937987E-1,-1.3460197E-1,-5.471639E-1,3.5733283E-1,-2.183595E-1,-5.496961E-2,1.3793903E-2,-2.6057962E-1,4.661358E-1,1.3775054E-2,-2.6817963E-1,-4.682916E-2,2.2961824E-1,7.055111E-1,1.0853109E-1,-2.083379E-1,3.180572E-1,-1.893741E-1,-4.0425956E-1,-2.9257799E-2,6.3088976E-2,8.993425E-2,2.2384068E-2,-1.2920237E-2,6.326996E-2,4.022342E-2,-4.54715E-2,1.3840473E-1,-1.4761094E-3,-3.1366374E-2,1.4580788E-1,-1.6056942E-2,-5.3664695E-2],"categories":[],"categories_nodes":[],"categories_segments":[],"categories_sizes":[],"default_left":[0,0,0,0,0,0,0,0,0,0,0,0,0,0,0,0,0,0,0,0,0,0,0,0,0,0,0,0,0,0,0,0,0],"id":45,"left_children":[1,3,5,7,9,-1,-1,11,13,15,17,-1,19,21,23,25,27,29,31,-1,-1,-1,-1,-1,-1,-1,-1,-1,-1,-1,-1,-1,-1],"loss_changes":[3.095404E1,1.4560541E1,7.3490906E-1,3.5850286E0,3.4844275E0,0E0,0E0,9.5819104E-1,3.7038574E0,3.7247455E0,2.5812473E0,0E0,8.4621084E-1,2.2515984E0,2.435692E0,4.980884E0,8.264351E0,3.2979717E1,2.817686E0,0E0,0E0,0E0,0E0,0E0,0E0,0E0,0E0,0E0,0E0,0E0,0E0,0E0,0E0],"parents":[2147483647,0,0,1,1,2,2,3,3,4,4,7,7,8,8,9,9,10,10,12,12,13,13,14,14,15,15,16,16,17,17,18,18],"right_children":[2,4,6,8,10,-1,-1,12,14,16,18,-1,20,22,24,26,28,30,32,-1,-1,-1,-1,-1,-1,-1,-1,-1,-1,-1,-1,-1,-1],"split_conditions":[2.89E2,6.914139E-5,2.875391E0,5.2309036E-4,5.533214E0,-5.496961E-2,1.3793903E-2,6.914139E-6,2.76E2,1.53E2,1.71E2,-4.682916E-2,1.53E2,6.248951E-4,8.380413E-4,8.821487E-6,1.71E2,1.53E2,1.56E2,-2.9257799E-2,6.3088976E-2,8.993425E-2,2.2384068E-2,-1.2920237E-2,6.326996E-2,4.022342E-2,-4.54715E-2,1.3840473E-1,-1.4761094E-3,-3.1366374E-2,1.4580788E-1,-1.6056942E-2,-5.3664695E-2],"split_indices":[4,6,24,18,0,0,0,15,7,13,13,0,13,18,18,12,13,13,10,0,0,0,0,0,0,0,0,0,0,0,0,0,0],"split_type":[0,0,0,0,0,0,0,0,0,0,0,0,0,0,0,0,0,0,0,0,0,0,0,0,0,0,0,0,0,0,0,0,0],"sum_hessian":[7.2941327E2,3.5048965E2,3.7892358E2,5.0517563E1,2.999721E2,3.7772516E2,1.1984351E0,7.3545775E0,4.3162983E1,5.3131557E1,2.4684055E2,5.197096E0,2.1574814E0,2.527284E1,1.7890144E1,3.0894909E1,2.2236647E1,1.5783061E2,8.900994E1,1.0551851E0,1.1022962E0,1.7402628E1,7.8702126E0,1.2826343E1,5.063801E0,8.700563E0,2.2194345E1,4.5392456E0,1.7697401E1,1.4751143E2,1.0319177E1,3.2112396E1,5.6897545E1],"tree_param":{"num_deleted":"0","num_feature":"46","num_nodes":"33","size_leaf_vector":"1"}},{"base_weights":[-3.4388494E-1,-1.2276917E-1,-5.496652E-2,7.8753483E-1,-1.4874157E-1,8.875735E-1,7.1740276E-3,-1.6793844E-1,7.943834E-1,3.0953455E-1,1.1091884E-1,4.469432E-1,-1.8081892E-1,1.06950976E-1,-3.606839E-3,6.501494E-2,-3.1955034E-2,7.620797E-2,3.3413921E-3,1.9324588E-2,-2.0363392E-2],"categories":[],"categories_nodes":[],"categories_segments":[],"categories_sizes":[],"default_left":[0,0,0,0,0,0,0,0,0,0,0,0,0,0,0,0,0,0,0,0,0],"id":46,"left_children":[1,3,-1,5,7,9,-1,11,13,15,-1,17,19,-1,-1,-1,-1,-1,-1,-1,-1],"loss_changes":[3.3292496E1,8.503276E0,0E0,6.522765E-1,6.3923807E0,7.69156E-1,0E0,2.7706947E0,1.6541E0,1.0206882E0,0E0,9.2020905E-1,2.8844786E0,0E0,0E0,0E0,0E0,0E0,0E0,0E0,0E0],"parents":[2147483647,0,0,1,1,3,3,4,4,5,5,7,7,8,8,9,9,11,11,12,12],"right_children":[2,4,-1,6,8,10,-1,12,14,16,-1,18,20,-1,-1,-1,-1,-1,-1,-1,-1],"split_conditions":[2.89E2,9.2E1,-5.496652E-2,2.74992E-3,5.84E3,9.150505E-4,7.1740276E-3,9.536743E-7,2.0980835E-5,4.696846E-5,1.1091884E-1,2.76E2,9.059906E-6,1.06950976E-1,-3.606839E-3,6.501494E-2,-3.1955034E-2,7.620797E-2,3.3413921E-3,1.9324588E-2,-2.0363392E-2],"split_indices":[4,7,0,18,16,18,0,12,21,21,0,10,9,0,0,0,0,0,0,0,0],"split_type":[0,0,0,0,0,0,0,0,0,0,0,0,0,0,0,0,0,0,0,0,0],"sum_hessian":[7.3216595E2,3.5370166E2,3.784643E2,8.998328E0,3.4470334E2,7.684384E0,1.3139446E0,3.3863257E2,6.070772E0,2.7938638E0,4.89052E0,6.2566476E0,3.3237592E2,4.343814E0,1.726958E0,1.7907739E0,1.0030899E0,3.0724049E0,3.1842425E0,1.8677515E1,3.1369843E2],"tree_param":{"num_deleted":"0","num_feature":"46","num_nodes":"21","size_leaf_vector":"1"}},{"base_weights":[-4.9008474E-2,3.463723E-1,-5.4716486E-1,4.9532082E-2,4.421751E-1,-5.4965924E-2,1.690994E-2,-1.1258021E-1,2.9993203E-1,5.2935886E-1,1.3105553E-1,3.1782717E-1,-1.9080803E-1,3.9821488E-1,-4.8793115E-2,1.1194308E0,4.9276623E-1,3.88828E-1,-2.9611188E-1,-4.414588E-2,6.487506E-2,-2.8420934E-2,1.3694976E-2,1.2143022E-2,8.360857E-2,1.4556254E-1,4.0340167E-2,4.5388732E-2,1.0389252E-1,6.687526E-2,-7.7346005E-3,-4.3263044E-2,5.8381636E-2],"categories":[],"categories_nodes":[],"categories_segments":[],"categories_sizes":[],"default_left":[0,0,0,0,0,0,0,0,0,0,0,0,0,0,0,0,0,0,0,0,0,0,0,0,0,0,0,0,0,0,0,0,0],"id":47,"left_children":[1,3,5,7,9,-1,-1,11,13,15,17,19,21,23,-1,25,27,29,31,-1,-1,-1,-1,-1,-1,-1,-1,-1,-1,-1,-1,-1,-1],"loss_changes":[1.6908928E2,1.3591217E1,7.715759E-1,4.820668E0,9.743439E0,0E0,0E0,2.4952674E0,3.8039255E0,5.5428543E0,8.980879E0,3.1749911E0,1.931191E0,4.9882507E0,0E0,3.1910133E0,5.20977E0,6.6607614E0,3.9607875E0,0E0,0E0,0E0,0E0,0E0,0E0,0E0,0E0,0E0,0E0,0E0,0E0,0E0,0E0],"parents":[2147483647,0,0,1,1,2,2,3,3,4,4,7,7,8,8,9,9,10,10,11,11,12,12,13,13,15,15,16,16,17,17,18,18],"right_children":[2,4,6,8,10,-1,-1,12,14,16,18,20,22,24,-1,26,28,30,32,-1,-1,-1,-1,-1,-1,-1,-1,-1,-1,-1,-1,-1,-1],"split_conditions":[2.89E2,8.7976456E-5,2.297E3,1.21593475E-5,1.84E2,-5.4965924E-2,1.690994E-2,2.002716E-5,1.2819767E-3,3.0040741E-5,1.84E2,1.5974045E-5,5.66391E0,3.194809E-5,-4.8793115E-2,1.1920929E-5,1.78E2,9.799004E-4,1.40768E0,-4.414588E-2,6.487506E-2,-2.8420934E-2,1.3694976E-2,1.2143022E-2,8.360857E-2,1.4556254E-1,4.0340167E-2,4.5388732E-2,1.0389252E-1,6.687526E-2,-7.7346005E-3,-4.3263044E-2,5.8381636E-2],"split_indices":[4,6,7,15,13,0,0,21,18,21,10,9,0,21,0,12,13,18,18,0,0,0,0,0,0,0,0,0,0,0,0,0,0],"split_type":[0,0,0,0,0,0,0,0,0,0,0,0,0,0,0,0,0,0,0,0,0,0,0,0,0,0,0,0,0,0,0,0,0],"sum_hessian":[8.565269E2,4.7769266E2,3.7883426E2,1.1692458E2,3.6076807E2,3.7775134E2,1.0828924E0,7.130875E1,4.561584E1,2.8125238E2,7.951567E1,1.0496183E1,6.081256E1,4.099628E1,4.619562E0,1.4695144E1,2.6655725E2,4.9646465E1,2.986921E1,3.0846348E0,7.4115486E0,4.7429436E1,1.3383124E1,2.5901117E1,1.5095162E1,9.297029E0,5.3981156E0,2.5055246E2,1.6004797E1,3.074837E1,1.8898094E1,2.6297548E1,3.5716617E0],"tree_param":{"num_deleted":"0","num_feature":"46","num_nodes":"33","size_leaf_vector":"1"}},{"base_weights":[-8.267656E-2,2.965441E-1,-5.471243E-1,5.810797E-1,2.4772708E-1,1.8984219E-2,-5.496974E-2,1.042742E0,4.3459055E-1,3.022317E-1,1.04569E-2,1.1005471E0,1.3672958E-2,2.3907167E-1,7.998408E-1,3.6425388E-1,7.3041074E-2,-2.169105E-1,1.384565E-1,4.9999658E-2,1.21044256E-1,6.141318E-3,5.845954E-2,1.3177736E-1,4.3090567E-2,2.868523E-2,6.84772E-2,2.2389507E-2,-2.724956E-2,2.2707222E-2,-3.3955097E-2,2.4890697E-2,-2.6683737E-2],"categories":[],"categories_nodes":[],"categories_segments":[],"categories_sizes":[],"default_left":[0,0,0,0,0,0,0,0,0,0,0,0,0,0,0,0,0,0,0,0,0,0,0,0,0,0,0,0,0,0,0,0,0],"id":48,"left_children":[1,3,5,7,9,-1,-1,11,13,15,17,19,-1,21,23,25,27,29,31,-1,-1,-1,-1,-1,-1,-1,-1,-1,-1,-1,-1,-1,-1],"loss_changes":[1.4886029E2,6.3208504E0,8.246231E-1,4.105976E0,5.156933E0,0E0,0E0,6.6254425E-1,3.5858707E0,4.5852127E0,2.229398E0,3.4852028E-1,0E0,2.166351E0,2.8744583E0,6.1319275E0,3.7279818E0,1.5804665E0,2.2582002E0,0E0,0E0,0E0,0E0,0E0,0E0,0E0,0E0,0E0,0E0,0E0,0E0,0E0,0E0],"parents":[2147483647,0,0,1,1,2,2,3,3,4,4,7,7,8,8,9,9,10,10,11,11,13,13,14,14,15,15,16,16,17,17,18,18],"right_children":[2,4,6,8,10,-1,-1,12,14,16,18,20,-1,22,24,26,28,30,32,-1,-1,-1,-1,-1,-1,-1,-1,-1,-1,-1,-1,-1,-1],"split_conditions":[2.89E2,3.8146973E-6,8.583069E-5,5.4717064E-4,5.675705E0,1.8984219E-2,-5.496974E-2,3.0994415E-5,9.441376E-4,1.6241074E-3,9.7990036E-5,6.198883E-6,1.3672958E-2,2.76E2,1.1205673E-5,4.8160553E-5,1.06E2,5.9580803E-4,3.7908554E-5,4.9999658E-2,1.21044256E-1,6.141318E-3,5.845954E-2,1.3177736E-1,4.3090567E-2,2.868523E-2,6.84772E-2,2.2389507E-2,-2.724956E-2,2.2707222E-2,-3.3955097E-2,2.4890697E-2,-2.6683737E-2],"split_indices":[4,15,6,18,0,0,0,21,18,18,6,12,0,7,12,9,13,18,15,0,0,0,0,0,0,0,0,0,0,0,0,0,0],"split_type":[0,0,0,0,0,0,0,0,0,0,0,0,0,0,0,0,0,0,0,0,0,0,0,0,0,0,0,0,0,0,0,0,0],"sum_hessian":[8.4326044E2,4.6442218E2,3.7883826E2,6.641448E1,3.980077E2,1.0648506E0,3.777734E2,1.4523932E1,5.189055E1,3.2343576E2,7.4571945E1,1.345102E1,1.072912E0,3.487595E1,1.7014597E1,2.5408698E2,6.934878E1,2.6609865E1,4.796208E1,2.9391382E0,1.0511882E1,2.3810835E1,1.1065117E1,6.008159E0,1.1006437E1,2.0618947E2,4.789751E1,4.8518612E1,2.0830164E1,5.575159E0,2.1034706E1,3.799387E1,9.968209E0],"tree_param":{"num_deleted":"0","num_feature":"46","num_nodes":"33","size_leaf_vector":"1"}},{"base_weights":[7.2994274E-1,-4.575201E-1,1.0285767E0,-5.3747666E-1,1.10105745E-1,1.0292892E0,1.455489E-2,-5.5105474E-2,9.8077804E-2,3.2934397E-2,1.0298876E-1],"categories":[],"categories_nodes":[],"categories_segments":[],"categories_sizes":[],"default_left":[0,0,0,0,0,0,0,0,0,0,0],"id":49,"left_children":[1,3,5,7,-1,9,-1,-1,-1,-1,-1],"loss_changes":[4.991206E2,3.5891693E1,5.57251E-1,6.1088333E0,0E0,1.3098145E-1,0E0,0E0,0E0,0E0,0E0],"parents":[2147483647,0,0,1,1,2,2,3,3,5,5],"right_children":[2,4,6,8,-1,10,-1,-1,-1,-1,-1],"split_conditions":[2.89E2,4.5895576E-4,2.298E3,5.74E2,1.10105745E-1,1.73E2,1.455489E-2,-5.5105474E-2,9.8077804E-2,3.2934397E-2,1.0298876E-1],"split_indices":[4,6,1,10,0,7,0,0,0,0,0],"split_type":[0,0,0,0,0,0,0,0,0,0,0],"sum_hessian":[1.4051658E3,2.8226382E2,1.1229019E3,2.6911322E2,1.3150623E1,1.121831E3,1.0708578E0,2.6735922E2,1.7539971E0,1.4290354E0,1.120402E3],"tree_param":{"num_deleted":"0","num_feature":"46","num_nodes":"11","size_leaf_vector":"1"}},{"base_weights":[-3.281257E-1,-7.534211E-2,-5.181525E-1,1.708326E-1,-1.3051414E-1,-5.27106E-1,3.1401974E-1,9.5440455E-2,1.3406532E-1,-3.6436874E-2,-4.894632E-1,-3.2698897E-1,-5.4563094E-2,-3.6457054E-2,7.948044E-2,-2.3606794E-1,3.249644E-1,-1.488424E-1,1.1259784E-1,-5.4351456E-2,1.321378E-1,-4.7004235E-1,-1.9141631E-1,-4.082274E-2,1.7319983E-2,-4.465444E-2,4.2587012E-2,-4.3883737E-2,-9.740066E-3,6.393922E-2,-1.8006772E-2,-5.2651085E-2,1.5503819E-2,2.2023443E-2,