{"learner":{"attributes":{"scikit_learn":"{\"_estimator_type\": \"classifier\"}"},"feature_names":[],"feature_types":[],"gradient_booster":{"model":{"gbtree_model_param":{"num_parallel_tree":"1","num_trees":"700"},"iteration_indptr":[0,7,14,21,28,35,42,49,56,63,70,77,84,91,98,105,112,119,126,133,140,147,154,161,168,175,182,189,196,203,210,217,224,231,238,245,252,259,266,273,280,287,294,301,308,315,322,329,336,343,350,357,364,371,378,385,392,399,406,413,420,427,434,441,448,455,462,469,476,483,490,497,504,511,518,525,532,539,546,553,560,567,574,581,588,595,602,609,616,623,630,637,644,651,658,665,672,679,686,693,700],"tree_info":[0,1,2,3,4,5,6,0,1,2,3,4,5,6,0,1,2,3,4,5,6,0,1,2,3,4,5,6,0,1,2,3,4,5,6,0,1,2,3,4,5,6,0,1,2,3,4,5,6,0,1,2,3,4,5,6,0,1,2,3,4,5,6,0,1,2,3,4,5,6,0,1,2,3,4,5,6,0,1,2,3,4,5,6,0,1,2,3,4,5,6,0,1,2,3,4,5,6,0,1,2,3,4,5,6,0,1,2,3,4,5,6,0,1,2,3,4,5,6,0,1,2,3,4,5,6,0,1,2,3,4,5,6,0,1,2,3,4,5,6,0,1,2,3,4,5,6,0,1,2,3,4,5,6,0,1,2,3,4,5,6,0,1,2,3,4,5,6,0,1,2,3,4,5,6,0,1,2,3,4,5,6,0,1,2,3,4,5,6,0,1,2,3,4,5,6,0,1,2,3,4,5,6,0,1,2,3,4,5,6,0,1,2,3,4,5,6,0,1,2,3,4,5,6,0,1,2,3,4,5,6,0,1,2,3,4,5,6,0,1,2,3,4,5,6,0,1,2,3,4,5,6,0,1,2,3,4,5,6,0,1,2,3,4,5,6,0,1,2,3,4,5,6,0,1,2,3,4,5,6,0,1,2,3,4,5,6,0,1,2,3,4,5,6,0,1,2,3,4,5,6,0,1,2,3,4,5,6,0,1,2,3,4,5,6,0,1,2,3,4,5,6,0,1,2,3,4,5,6,0,1,2,3,4,5,6,0,1,2,3,4,5,6,0,1,2,3,4,5,6,0,1,2,3,4,5,6,0,1,2,3,4,5,6,0,1,2,3,4,5,6,0,1,2,3,4,5,6,0,1,2,3,4,5,6,0,1,2,3,4,5,6,0,1,2,3,4,5,6,0,1,2,3,4,5,6,0,1,2,3,4,5,6,0,1,2,3,4,5,6,0,1,2,3,4,5,6,0,1,2,3,4,5,6,0,1,2,3,4,5,6,0,1,2,3,4,5,6,0,1,2,3,4,5,6,0,1,2,3,4,5,6,0,1,2,3,4,5,6,0,1,2,3,4,5,6,0,1,2,3,4,5,6,0,1,2,3,4,5,6,0,1,2,3,4,5,6,0,1,2,3,4,5,6,0,1,2,3,4,5,6,0,1,2,3,4,5,6,0,1,2,3,4,5,6,0,1,2,3,4,5,6,0,1,2,3,4,5,6,0,1,2,3,4,5,6,0,1,2,3,4,5,6,0,1,2,3,4,5,6,0,1,2,3,4,5,6,0,1,2,3,4,5,6,0,1,2,3,4,5,6,0,1,2,3,4,5,6,0,1,2,3,4,5,6,0,1,2,3,4,5,6,0,1,2,3,4,5,6,0,1,2,3,4,5,6,0,1,2,3,4,5,6,0,1,2,3,4,5,6,0,1,2,3,4,5,6,0,1,2,3,4,5,6,0,1,2,3,4,5,6,0,1,2,3,4,5,6,0,1,2,3,4,5,6,0,1,2,3,4,5,6,0,1,2,3,4,5,6,0,1,2,3,4,5,6,0,1,2,3,4,5,6,0,1,2,3,4,5,6],"trees":[{"base_weights":[2.2396674E0,2.001716E-2,3.4664605E0,-5.2996373E-1,3.1176233E0,3.48501E0,-5.5028904E-2,-5.68283E-1,3.2960758E-1,3.351684E0,-5.5282813E-2,7.924526E-2,3.4891224E0,-5.759147E-1,2.323144E-1,3.4200447E0,-3.255814E-1,7.368421E-2,-4.2541437E-2,3.4924207E0,-4.3523315E-2,-5.818081E-2,2.4852072E-1,3.4510905E-1,1.5431309E-1,-4.647303E-2,1.2844035E-2,1.8064515E-1,3.493517E-1],"categories":[],"categories_nodes":[],"categories_segments":[],"categories_sizes":[],"default_left":[0,0,0,0,0,0,0,0,0,0,0,0,0,0,0,0,0,0,0,0,0,0,0,0,0,0,0,0,0],"id":0,"left_children":[1,3,5,7,9,11,-1,13,-1,15,-1,17,19,21,-1,23,25,-1,-1,27,-1,-1,-1,-1,-1,-1,-1,-1,-1],"loss_changes":[1.5442693E4,3.4424517E3,2.7405078E2,2.5346103E2,2.6360083E2,5.064453E1,0E0,3.8847656E1,0E0,7.3146484E1,0E0,2.1082304E0,4.8527344E1,3.2045715E1,0E0,1.107251E1,4.477752E-1,0E0,0E0,3.9453125E-1,0E0,0E0,0E0,0E0,0E0,0E0,0E0,0E0,0E0],"parents":[2147483647,0,0,1,1,2,2,3,3,4,4,5,5,7,7,9,9,11,11,12,12,13,13,15,15,16,16,19,19],"right_children":[2,4,6,8,10,12,-1,14,-1,16,-1,18,20,22,-1,24,26,-1,-1,28,-1,-1,-1,-1,-1,-1,-1,-1,-1],"split_conditions":[2.89E2,3.2806396E-4,2.2895832E0,1.4079094E-2,2.51E2,5.888939E-5,-5.5028904E-2,5.61E2,3.2960758E-1,4.76049E0,-5.5282813E-2,1.1920929E-5,9.633907E0,9E1,2.323144E-1,8.9483094E-1,6.902933E-3,7.368421E-2,-4.2541437E-2,1.71E2,-4.3523315E-2,-5.818081E-2,2.4852072E-1,3.4510905E-1,1.5431309E-1,-4.647303E-2,1.2844035E-2,1.8064515E-1,3.493517E-1],"split_indices":[4,6,6,12,4,6,0,7,0,15,0,12,15,1,0,9,12,0,0,7,0,0,0,0,0,0,0,0,0],"split_type":[0,0,0,0,0,0,0,0,0,0,0,0,0,0,0,0,0,0,0,0,0,0,0,0,0,0,0,0,0],"sum_hessian":[5.670123E3,2.018694E3,3.6514287E3,1.7150205E3,3.036735E2,3.634776E3,1.6653063E1,1.6988573E3,1.6163267E1,2.8555103E2,1.812245E1,4.4081635E0,3.6303677E3,1.6951838E3,3.6734695E0,2.8040817E2,5.1428576E0,1.7142859E0,2.6938777E0,3.6274287E3,2.9387758E0,1.6927349E3,2.4489799E0,2.7502042E2,5.3877554E0,3.9183676E0,1.2244899E0,3.4285717E0,3.6240002E3],"tree_param":{"num_deleted":"0","num_feature":"16","num_nodes":"29","size_leaf_vector":"1"}},{"base_weights":[-4.271767E-1,-7.044579E-2,-5.549337E-1,1.5132336E-1,-1.6318405E-1,-4.089285E-1,-5.809103E-1,6.650829E-2,1.7811037E0,-1.1539541E-1,-5.690638E-2,-2.8968233E-1,-5.6648916E-1,-5.823205E-2,4.4905657E-1,2.5341856E-1,-1.14524886E-1,2.03937E0,3.9737988E-1,-1.9655924E-1,-1.790707E-2,-3.9273056E-1,1.2245772E-2,-5.8113612E-2,1.876674E-2,1.4736842E-1,-4.2541437E-2,-1.5683182E-2,4.3619584E-2,-5.8848583E-3,-5.5879828E-2,4.628099E-2,2.1505506E-1,-4.012739E-2,1.2727273E-1,-1.4091029E-2,-3.7010968E-2,1.4464199E-2,-1.7511394E-2,6.4714924E-3,-4.146592E-2,4.5264356E-2,-5.689915E-2,-4.516129E-2,5.121951E-2],"categories":[],"categories_nodes":[],"categories_segments":[],"categories_sizes":[],"default_left":[0,0,0,0,0,0,0,0,0,0,0,0,0,0,0,0,0,0,0,0,0,0,0,0,0,0,0,0,0,0,0,0,0,0,0,0,0,0,0,0,0,0,0,0,0],"id":1,"left_children":[1,3,5,7,9,11,13,15,17,19,-1,21,23,-1,25,27,29,31,33,35,37,39,41,-1,43,-1,-1,-1,-1,-1,-1,-1,-1,-1,-1,-1,-1,-1,-1,-1,-1,-1,-1,-1,-1],"loss_changes":[2.5842175E2,3.0804329E1,1.5598999E1,6.0953785E1,2.0412619E1,1.1748978E1,5.4067383E0,1.4274384E1,6.9860764E0,7.480276E0,0E0,1.1297619E1,2.343422E0,0E0,5.472679E0,1.562386E1,5.274143E0,2.184845E0,3.7779322E0,4.9315224E0,1.10338125E1,2.7415848E0,2.4146866E1,0E0,1.9981055E0,0E0,0E0,0E0,0E0,0E0,0E0,0E0,0E0,0E0,0E0,0E0,0E0,0E0,0E0,0E0,0E0,0E0,0E0,0E0,0E0],"parents":[2147483647,0,0,1,1,2,2,3,3,4,4,5,5,6,6,7,7,8,8,9,9,11,11,12,12,14,14,15,15,16,16,17,17,18,18,19,19,20,20,21,21,22,22,24,24],"right_children":[2,4,6,8,10,12,14,16,18,20,-1,22,24,-1,26,28,30,32,34,36,38,40,42,-1,44,-1,-1,-1,-1,-1,-1,-1,-1,-1,-1,-1,-1,-1,-1,-1,-1,-1,-1,-1,-1],"split_conditions":[4.7922134E-5,1.64E2,2.89E2,1.6E2,2.89E2,3.490448E-4,4.617157E0,1.3113022E-5,5.683365E0,1.0180473E-4,-5.690638E-2,1E0,8.9483094E-1,-5.823205E-2,1.14E3,8.821487E-6,1.5E2,5.4528193E0,2.002716E-5,1.53E2,2.76E2,5.464615E0,1.131E3,-5.8113612E-2,2.02E2,1.4736842E-1,-4.2541437E-2,-1.5683182E-2,4.3619584E-2,-5.8848583E-3,-5.5879828E-2,4.628099E-2,2.1505506E-1,-4.012739E-2,1.2727273E-1,-1.4091029E-2,-3.7010968E-2,1.4464199E-2,-1.7511394E-2,6.4714924E-3,-4.146592E-2,4.5264356E-2,-5.689915E-2,-4.516129E-2,5.121951E-2],"split_indices":[9,7,4,7,4,6,6,9,0,6,0,5,9,0,4,9,7,0,9,13,7,0,13,0,7,0,0,0,0,0,0,0,0,0,0,0,0,0,0,0,0,0,0,0,0],"split_type":[0,0,0,0,0,0,0,0,0,0,0,0,0,0,0,0,0,0,0,0,0,0,0,0,0,0,0,0,0,0,0,0,0,0,0,0,0,0,0,0,0,0,0,0,0],"sum_hessian":[5.670123E3,1.4955919E3,4.174531E3,4.4081635E2,1.0547756E3,6.330613E2,3.5414697E3,4.2000003E2,2.0816328E1,9.448164E2,1.0995919E2,3.619592E2,2.7110205E2,3.5370615E3,4.4081635E0,2.0644899E2,2.1355104E2,1.7142859E1,3.6734695E0,5.1502045E2,4.2979596E2,2.6963266E2,9.232654E1,2.644898E2,6.6122456E0,1.7142859E0,2.6938777E0,6.3673473E1,1.4277551E2,1.9077553E2,2.2775513E1,1.4693879E0,1.56734705E1,2.2040818E0,1.4693879E0,3.9134695E2,1.2367348E2,2.1134695E2,2.1844899E2,1.2244899E1,2.573878E2,5.2653065E1,3.9673473E1,3.4285717E0,3.1836736E0],"tree_param":{"num_deleted":"0","num_feature":"16","num_nodes":"45","size_leaf_vector":"1"}},{"base_weights":[-4.1518614E-1,-7.0828865E-3,-5.503346E-1,2.7009768E-2,-4.4906193E-1,-3.906911E-1,-5.8204305E-1,-4.195068E-2,2.1992555E-1,-5.7698287E-2,7.346534E-1,-2.650117E-1,-5.6137246E-1,-5.826051E-1,-1.263538E-1,2.2477465E-2,-3.1194568E-1,2.2788437E-2,3.3300295E-1,2.1784232E0,-4.9201276E-2,-3.604058E-1,2.6444945E-1,-5.7465196E-1,8.471337E-2,-1.9384617E-1,-5.8316864E-2,-4.516129E-2,5.7798166E-2,-1.1345754E-2,1.0849476E-2,-2.3740405E-2,-5.6916215E-2,-2.6300896E-2,2.108477E-2,2.5524864E-1,5.7798166E-2,-3.2304008E-2,-5.7188626E-2,7.319606E-4,2.8808662E-1,-4.106412E-2,-5.8127653E-2,4.628099E-2,-4.703557E-2],"categories":[],"categories_nodes":[],"categories_segments":[],"categories_sizes":[],"default_left":[0,0,0,0,0,0,0,0,0,0,0,0,0,0,0,0,0,0,0,0,0,0,0,0,0,0,0,0,0,0,0,0,0,0,0,0,0,0,0,0,0,0,0,0,0],"id":2,"left_children":[1,3,5,7,9,11,13,15,17,-1,19,21,23,25,27,29,31,33,-1,35,-1,37,39,41,-1,43,-1,-1,-1,-1,-1,-1,-1,-1,-1,-1,-1,-1,-1,-1,-1,-1,-1,-1,-1],"loss_changes":[3.1278424E2,2.1286331E1,2.1338257E1,1.7459425E1,1.5742228E1,1.50600815E1,8.3618164E-1,1.6830376E1,2.1179982E2,0E0,1.93242E1,2.0814707E1,6.0938873E0,6.641846E-1,1.5560924E0,9.152948E0,3.4385529E0,1.7575832E1,0E0,1.4691677E0,0E0,2.565361E0,4.250002E1,8.4609985E-2,0E0,1.4219873E0,0E0,0E0,0E0,0E0,0E0,0E0,0E0,0E0,0E0,0E0,0E0,0E0,0E0,0E0,0E0,0E0,0E0,0E0,0E0],"parents":[2147483647,0,0,1,1,2,2,3,3,4,4,5,5,6,6,7,7,8,8,10,10,11,11,12,12,13,13,14,14,15,15,16,16,17,17,19,19,21,21,22,22,23,23,25,25],"right_children":[2,4,6,8,10,12,14,16,18,-1,20,22,24,26,28,30,32,34,-1,36,-1,38,40,42,-1,44,-1,-1,-1,-1,-1,-1,-1,-1,-1,-1,-1,-1,-1,-1,-1,-1,-1,-1,-1],"split_conditions":[4.4107437E-5,2.89E2,2.89E2,1.89E2,5.2268505E-3,2.6917458E-4,4.617157E0,1E0,0E0,-5.7698287E-2,2.896E3,1.93E2,1.9357933E1,1.71E2,5.792E3,2.14E2,1.5E2,1.89E2,3.3300295E-1,5.738205E0,-4.9201276E-2,2.76E2,0E0,5.576259E0,8.471337E-2,5.589615E0,-5.8316864E-2,-4.516129E-2,5.7798166E-2,-1.1345754E-2,1.0849476E-2,-2.3740405E-2,-5.6916215E-2,-2.6300896E-2,2.108477E-2,2.5524864E-1,5.7798166E-2,-3.2304008E-2,-5.7188626E-2,7.319606E-4,2.8808662E-1,-4.106412E-2,-5.8127653E-2,4.628099E-2,-4.703557E-2],"split_indices":[9,4,4,13,6,6,6,11,14,0,7,13,15,7,7,7,13,10,0,0,0,10,14,0,0,0,0,0,0,0,0,0,0,0,0,0,0,0,0,0,0,0,0,0,0],"split_type":[0,0,0,0,0,0,0,0,0,0,0,0,0,0,0,0,0,0,0,0,0,0,0,0,0,0,0,0,0,0,0,0,0,0,0,0,0,0,0,0,0,0,0,0,0],"sum_hessian":[5.670123E3,1.4108573E3,4.2592656E3,1.310694E3,1.0016327E2,7.0800006E2,3.5512656E3,9.661225E2,3.4457144E2,9.085715E1,9.306123E0,4.0922452E2,2.9877554E2,3.5466125E3,4.6530614E0,7.8073474E2,1.8538777E2,3.249796E2,1.9591839E1,3.9183676E0,5.3877554E0,3.4702045E2,6.2204086E1,2.9657144E2,2.2040818E0,5.632653E0,3.5409797E3,3.4285717E0,1.2244899E0,3.02449E2,4.7828574E2,1.452245E2,4.016327E1,1.2881633E2,1.9616328E2,2.6938777E0,1.2244899E0,2.9706125E2,4.9959187E1,5.7551025E1,4.6530614E0,1.3959185E1,2.8261227E2,1.4693879E0,4.1632657E0],"tree_param":{"num_deleted":"0","num_feature":"16","num_nodes":"45","size_leaf_vector":"1"}},{"base_weights":[-4.266477E-1,-1.5674229E-1,-5.757813E-1,7.816156E-1,-2.2906627E-1,-5.78785E-1,9.889196E-1,1.221065E0,1.3198489E-1,1.079165E-1,-3.235929E-1,-5.809724E-1,1.6106193E-1,2.357513E-1,-4.516129E-2,2.199426E0,1.0136986E0,-3.935135E-1,3.6697695E-1,-4.2662222E-2,1.7656156E0,-2.626746E-1,-5.492541E-1,-1.3459113E-8,-5.815208E-1,1.9266056E-1,-2.3564357E-1,2.4563895E-1,1.2727273E-1,3.693322E-2,1.3170327E-1,-1.2727275E-2,-5.3480476E-2,1.6484777E-2,1.3237822E-1,7.365631E-2,-1.0214837E-2,1.9219257E-1,7.253885E-3,-2.6886383E-2,1.7403315E-1,8.677686E-2,-5.5879828E-2,5.7798166E-2,-4.012739E-2,-5.8206964E-2,-1.627907E-2,-5.134474E-2,6.275862E-2],"categories":[],"categories_nodes":[],"categories_segments":[],"categories_sizes":[],"default_left":[0,0,0,0,0,0,0,0,0,0,0,0,0,0,0,0,0,0,0,0,0,0,0,0,0,0,0,0,0,0,0,0,0,0,0,0,0,0,0,0,0,0,0,0,0,0,0,0,0],"id":3,"left_children":[1,3,5,7,9,11,13,15,17,19,21,23,25,-1,-1,27,29,31,33,35,37,39,41,43,45,-1,47,-1,-1,-1,-1,-1,-1,-1,-1,-1,-1,-1,-1,-1,-1,-1,-1,-1,-1,-1,-1,-1,-1],"loss_changes":[2.2818372E2,1.3724715E2,1.7738525E1,4.1163498E1,5.9790787E1,5.9941406E0,1.558943E1,1.5263611E1,7.4957232E0,1.02839966E2,1.9998291E1,1.1582031E0,8.530043E0,0E0,0E0,2.609253E-1,1.3782051E1,6.4206004E-1,7.8374076E0,1.7614693E1,8.939537E0,1.4795128E1,4.6848907E0,1.2590429E0,7.3999023E-1,0E0,2.793729E0,0E0,0E0,0E0,0E0,0E0,0E0,0E0,0E0,0E0,0E0,0E0,0E0,0E0,0E0,0E0,0E0,0E0,0E0,0E0,0E0,0E0,0E0],"parents":[2147483647,0,0,1,1,2,2,3,3,4,4,5,5,6,6,7,7,8,8,9,9,10,10,11,11,12,12,15,15,16,16,17,17,18,18,19,19,20,20,21,21,22,22,23,23,24,24,26,26],"right_children":[2,4,6,8,10,12,14,16,18,20,22,24,26,-1,-1,28,30,32,34,36,38,40,42,44,46,-1,48,-1,-1,-1,-1,-1,-1,-1,-1,-1,-1,-1,-1,-1,-1,-1,-1,-1,-1,-1,-1,-1,-1],"split_conditions":[2.89E2,6.914139E-5,9.633907E0,2.76E2,1.59E2,4.617157E0,3.361621E-1,2.76E2,5.576259E0,1.48E2,2.89917E-4,1.71E2,5.525554E0,2.357513E-1,-4.516129E-2,6.7949295E-5,5.57016E0,2.0980835E-5,2.3841858E-5,7.605553E-5,1.57E2,2.8705597E-4,5.449699E0,1.01E2,5.84375E0,1.9266056E-1,5.78891E0,2.4563895E-1,1.2727273E-1,3.693322E-2,1.3170327E-1,-1.2727275E-2,-5.3480476E-2,1.6484777E-2,1.3237822E-1,7.365631E-2,-1.0214837E-2,1.9219257E-1,7.253885E-3,-2.6886383E-2,1.7403315E-1,8.677686E-2,-5.5879828E-2,5.7798166E-2,-4.012739E-2,-5.8206964E-2,-1.627907E-2,-5.134474E-2,6.275862E-2],"split_indices":[4,6,15,7,7,6,6,4,0,7,6,7,0,0,0,6,0,9,9,6,7,6,0,1,0,0,0,0,0,0,0,0,0,0,0,0,0,0,0,0,0,0,0,0,0,0,0,0,0],"split_type":[0,0,0,0,0,0,0,0,0,0,0,0,0,0,0,0,0,0,0,0,0,0,0,0,0,0,0,0,0,0,0,0,0,0,0,0,0,0,0,0,0,0,0,0,0,0,0,0,0],"sum_hessian":[5.670123E3,2.018694E3,3.6514287E3,1.4375511E2,1.874939E3,3.6450615E3,6.3673472E0,8.5224495E1,5.8530617E1,4.106939E2,1.464245E3,3.6345308E3,1.0530613E1,2.9387758E0,3.4285717E0,1.3224491E1,7.200001E1,1.7877552E1,4.0653065E1,3.773878E2,3.3306126E1,1.154694E3,3.0955106E2,3.4285717E0,3.6311023E3,1.2244899E0,9.306123E0,9.061225E0,4.1632657E0,2.3755104E1,4.82449E1,6.8571434E0,1.1020409E1,3.4530613E1,6.1224494E0,2.5959185E1,3.514286E2,3.036735E1,2.9387758E0,1.1520001E3,2.6938777E0,1.4693879E0,3.0808167E2,1.2244899E0,2.2040818E0,3.6259595E3,5.1428576E0,7.346939E0,1.9591838E0],"tree_param":{"num_deleted":"0","num_feature":"16","num_nodes":"49","size_leaf_vector":"1"}},{"base_weights":[-4.2135775E-1,-9.541679E-2,-5.610191E-1,1.4218551E-1,-2.1441805E-1,-5.696679E-1,1.3212964E-1,8.3673465E-1,7.654919E-2,-2.2875157E-1,2.567474E-1,-4.6444884E-1,-5.828783E-1,6.210116E-1,-3.9633638E-1,4.501236E-1,1.1827E0,1.3592789E-2,8.707954E-1,3.4081396E-1,-2.5691116E-1,-2.4761643E-1,-5.712116E-1,-5.8316555E-2,-2.0487805E-1,-5.0215222E-2,1.3076922E0,-5.5746604E-2,9.6551724E-2,6.0629915E-2,1.876674E-3,-3.211009E-2,1.2727271E-1,7.1843974E-3,-3.503204E-2,-4.703557E-2,1.04853205E-1,9.591218E-2,-2.7339721E-2,-2.0534482E-2,-5.7939023E-2,-2.7894665E-2,1.9266056E-1,-2.4396783E-2,-5.7785463E-2,1.2844035E-2,-3.862069E-2,4.813753E-2,-5.1133502E-2,1.8826406E-1,2.274368E-2],"categories":[],"categories_nodes":[],"categories_segments":[],"categories_sizes":[],"default_left":[0,0,0,0,0,0,0,0,0,0,0,0,0,0,0,0,0,0,0,0,0,0,0,0,0,0,0,0,0,0,0,0,0,0,0,0,0,0,0,0,0,0,0,0,0,0,0,0,0,0,0],"id":4,"left_children":[1,3,5,7,9,11,13,15,17,19,-1,21,23,25,27,29,31,33,35,37,39,41,43,-1,45,47,49,-1,-1,-1,-1,-1,-1,-1,-1,-1,-1,-1,-1,-1,-1,-1,-1,-1,-1,-1,-1,-1,-1,-1,-1],"loss_changes":[2.5810376E2,4.816315E1,2.387378E1,2.586044E1,4.582998E1,5.1794434E0,1.3095463E1,6.0215874E0,2.602334E1,1.8207077E1,0E0,1.0097778E1,2.5842285E-1,1.2153018E1,5.9166408E0,1.6563087E0,3.8264046E0,1.0273501E1,9.604818E0,2.0638134E1,1.7791893E1,1.0598158E1,5.016556E-1,0E0,3.024668E-1,3.7329495E0,7.6460037E0,0E0,0E0,0E0,0E0,0E0,0E0,0E0,0E0,0E0,0E0,0E0,0E0,0E0,0E0,0E0,0E0,0E0,0E0,0E0,0E0,0E0,0E0,0E0,0E0],"parents":[2147483647,0,0,1,1,2,2,3,3,4,4,5,5,6,6,7,7,8,8,9,9,11,11,12,12,13,13,14,14,15,15,16,16,17,17,18,18,19,19,20,20,21,21,22,22,24,24,25,25,26,26],"right_children":[2,4,6,8,10,12,14,16,18,20,-1,22,24,26,28,30,32,34,36,38,40,42,44,-1,46,48,50,-1,-1,-1,-1,-1,-1,-1,-1,-1,-1,-1,-1,-1,-1,-1,-1,-1,-1,-1,-1,-1,-1,-1,-1],"split_conditions":[5.7935715E-5,2.87E2,5.331504E0,7.7962875E-5,5.873E3,2.89E2,2.3818016E-4,8.106232E-6,1.93E2,8.821487E-6,2.567474E-1,1.6999245E-4,2.2895832E0,1.9812584E-4,2.305E3,4.5490265E-4,5.420009E0,2E2,5.470714E0,1.08003616E-4,2.89E2,1.6593933E-4,1.1396408E-4,-5.8316555E-2,5.78125E0,1.21831894E-4,1.9357933E1,-5.5746604E-2,9.6551724E-2,6.0629915E-2,1.876674E-3,-3.211009E-2,1.2727271E-1,7.1843974E-3,-3.503204E-2,-4.703557E-2,1.04853205E-1,9.591218E-2,-2.7339721E-2,-2.0534482E-2,-5.7939023E-2,-2.7894665E-2,1.9266056E-1,-2.4396783E-2,-5.7785463E-2,1.2844035E-2,-3.862069E-2,4.813753E-2,-5.1133502E-2,1.8826406E-1,2.274368E-2],"split_indices":[9,4,15,6,7,4,6,9,13,9,0,9,6,6,4,15,0,7,0,6,4,9,6,0,0,6,15,0,0,0,0,0,0,0,0,0,0,0,0,0,0,0,0,0,0,0,0,0,0,0,0],"split_type":[0,0,0,0,0,0,0,0,0,0,0,0,0,0,0,0,0,0,0,0,0,0,0,0,0,0,0,0,0,0,0,0,0,0,0,0,0,0,0,0,0,0,0,0,0,0,0,0,0,0,0],"sum_hessian":[5.670123E3,1.7013063E3,3.9688167E3,5.676735E2,1.1336327E3,3.920082E3,4.8734695E1,4.8000004E1,5.196735E2,1.1287347E3,4.8979597E0,4.4130615E2,3.4787756E3,2.5224491E1,2.3510206E1,2.3755104E1,2.42449E1,4.82449E2,3.722449E1,5.2653065E1,1.0760817E3,1.466939E2,2.9461227E2,3.475592E3,3.1836736E0,1.3224491E1,1.2000001E1,2.1551022E1,1.9591838E0,1.7142859E1,6.6122456E0,1.2244899E0,2.302041E1,4.1657147E2,6.5877556E1,4.1632657E0,3.3061226E1,2.5959185E1,2.669388E1,9.2914294E2,1.4693878E2,1.4546939E2,1.2244899E0,6.6122456E0,2.8800003E2,1.2244899E0,1.9591838E0,6.1224494E0,7.1020412E0,7.346939E0,4.6530614E0],"tree_param":{"num_deleted":"0","num_feature":"16","num_nodes":"51","size_leaf_vector":"1"}},{"base_weights":[-2.7129927E-1,2.834234E-1,-5.779716E-1,-1.6320811E-1,6.7103195E-1,-5.820727E-1,2.9942194E-1,3.139846E-2,-5.293933E-1,9.851408E-2,9.017608E-1,-5.8234718E-2,-8.9171985E-3,-5.3379547E-2,1.6824925E0,-4.9304435E-1,1.8492942E-1,5.7298753E-2,-5.5582446E-1,-4.0333217E-1,2.143029E-1,1.0211836E0,2.296476E-1,2.7510914E-1,-4.012739E-2,-5.3462703E-2,-2.8865978E-2,3.0138476E-2,-9.840388E-3,4.442013E-2,-4.953846E-2,-5.650518E-2,-1.1260054E-2,1.834061E-2,-4.4576082E-2,1.3064377E-2,6.795756E-2,9.700366E-2,3.2539454E-1,6.2098224E-2,-5.6845393E-2],"categories":[],"categories_nodes":[],"categories_segments":[],"categories_sizes":[],"default_left":[0,0,0,0,0,0,0,0,0,0,0,0,0,0,0,0,0,0,0,0,0,0,0,0,0,0,0,0,0,0,0,0,0,0,0,0,0,0,0,0,0],"id":5,"left_children":[1,3,5,7,9,11,13,15,17,19,21,-1,-1,-1,23,25,27,29,31,33,35,37,39,-1,-1,-1,-1,-1,-1,-1,-1,-1,-1,-1,-1,-1,-1,-1,-1,-1,-1],"loss_changes":[9.6492444E2,3.4975528E2,1.331665E1,6.694624E1,1.4277213E2,4.399414E-1,2.1241468E1,4.9547436E1,5.086792E0,1.8203146E1,6.162738E1,0E0,0E0,0E0,1.6418259E1,1.0301361E0,1.5730886E1,3.4188416E0,1.2124634E0,1.5454512E0,9.797199E0,7.154614E1,3.7073467E1,0E0,0E0,0E0,0E0,0E0,0E0,0E0,0E0,0E0,0E0,0E0,0E0,0E0,0E0,0E0,0E0,0E0,0E0],"parents":[2147483647,0,0,1,1,2,2,3,3,4,4,5,5,6,6,7,7,8,8,9,9,10,10,14,14,15,15,16,16,17,17,18,18,19,19,20,20,21,21,22,22],"right_children":[2,4,6,8,10,12,14,16,18,20,22,-1,-1,-1,24,26,28,30,32,34,36,38,40,-1,-1,-1,-1,-1,-1,-1,-1,-1,-1,-1,-1,-1,-1,-1,-1,-1,-1],"split_conditions":[2.89E2,2.87E2,8.9483094E-1,1.1301041E-4,8.606911E-5,1.3589426E1,1.943E3,1.02996826E-4,1.5211105E-4,1.4781952E-5,1.81E2,-5.8234718E-2,-8.9171985E-3,-5.3379547E-2,3.703E3,5.675705E0,1.8E2,5.619304E0,1.9357933E1,4.053116E-6,1.8119812E-5,1.79E2,1.81E2,2.7510914E-1,-4.012739E-2,-5.3462703E-2,-2.8865978E-2,3.0138476E-2,-9.840388E-3,4.442013E-2,-4.953846E-2,-5.650518E-2,-1.1260054E-2,1.834061E-2,-4.4576082E-2,1.3064377E-2,6.795756E-2,9.700366E-2,3.2539454E-1,6.2098224E-2,-5.6845393E-2],"split_indices":[4,4,9,9,6,15,4,6,6,9,13,0,0,0,4,0,7,0,15,9,12,13,10,0,0,0,0,0,0,0,0,0,0,0,0,0,0,0,0,0,0],"split_type":[0,0,0,0,0,0,0,0,0,0,0,0,0,0,0,0,0,0,0,0,0,0,0,0,0,0,0,0,0,0,0,0,0,0,0,0,0,0,0,0,0],"sum_hessian":[5.670123E3,2.018694E3,3.6514287E3,9.3820416E2,1.0804899E3,3.634776E3,1.6653063E1,6.1322455E2,3.249796E2,3.1077554E2,7.6971436E2,3.6325718E3,2.2040818E0,1.0775511E1,5.8775516E0,1.3836736E2,4.7485718E2,1.3959185E1,3.1102042E2,5.779592E1,2.5297961E2,6.531429E2,1.16571434E2,3.6734695E0,2.2040818E0,1.1363266E2,2.4734695E1,3.364898E2,1.3836736E2,8.326531E0,5.632653E0,3.0440817E2,6.6122456E0,3.6734695E0,5.412245E1,2.1551022E2,3.746939E1,6.399184E2,1.3224491E1,7.8367355E1,3.8204082E1],"tree_param":{"num_deleted":"0","num_feature":"16","num_nodes":"41","size_leaf_vector":"1"}},{"base_weights":[-2.779999E-1,2.670843E-1,-5.793405E-1,4.2684287E-1,-4.6814403E-1,6.339622E-1,-5.809804E-1,1.7279729E-1,5.647239E-1,-5.5172646E-1,-2.9156558E-2,2.0826446E-1,-4.3523315E-2,-5.820721E-2,-2.7694407E-1,-2.6259068E-1,2.6032206E-1,7.1448606E-1,4.7271612E-1,-5.6788E-1,1.5013403E-1,6.8459654E-1,-1.4438716E-1,8.471337E-2,-5.376E-2,-5.347527E-2,-1.2602991E-2,2.8679816E-2,-4.4094488E-2,5.662586E-2,9.9387124E-2,5.6126278E-2,-3.7165626E-3,-5.7449188E-2,-1.0566039E-2,-4.8014443E-2,1.3034482E-1,1.4664032E-1,-4.4390243E-2,-2.5032708E-2,7.581227E-2],"categories":[],"categories_nodes":[],"categories_segments":[],"categories_sizes":[],"default_left":[0,0,0,0,0,0,0,0,0,0,0,0,0,0,0,0,0,0,0,0,0,0,0,0,0,0,0,0,0,0,0,0,0,0,0,0,0,0,0,0,0],"id":6,"left_children":[1,3,5,7,9,11,13,15,17,19,21,-1,-1,-1,23,25,27,29,31,33,35,37,39,-1,-1,-1,-1,-1,-1,-1,-1,-1,-1,-1,-1,-1,-1,-1,-1,-1,-1],"loss_changes":[9.3167096E2,2.3743114E2,7.635376E0,5.80383E1,1.3229591E1,9.283273E0,1.0495605E0,2.2373535E1,1.4480072E1,3.5228424E0,4.934588E0,0E0,0E0,0E0,4.838423E0,3.592382E0,9.184406E0,1.630397E1,3.0228775E1,8.4573364E-1,6.1592536E0,8.015177E0,5.1089106E0,0E0,0E0,0E0,0E0,0E0,0E0,0E0,0E0,0E0,0E0,0E0,0E0,0E0,0E0,0E0,0E0,0E0,0E0],"parents":[2147483647,0,0,1,1,2,2,3,3,4,4,5,5,6,6,7,7,8,8,9,9,10,10,14,14,15,15,16,16,17,17,18,18,19,19,20,20,21,21,22,22],"right_children":[2,4,6,8,10,12,14,16,18,20,22,-1,-1,-1,24,26,28,30,32,34,36,38,40,-1,-1,-1,-1,-1,-1,-1,-1,-1,-1,-1,-1,-1,-1,-1,-1,-1,-1],"split_conditions":[2.89E2,2.6917458E-4,5.888939E-5,2.87E2,2.51E2,4.177E3,4.617157E0,9.012222E-5,2.503395E-5,8.9483094E-1,1.9073486E-5,2.0826446E-1,-4.3523315E-2,-5.820721E-2,5.74E2,7.390976E-5,5.158186E-3,1.75E2,1.5E2,1.3589426E1,2.452E3,2.76E2,5.1021576E-5,8.471337E-2,-5.376E-2,-5.347527E-2,-1.2602991E-2,2.8679816E-2,-4.4094488E-2,5.662586E-2,9.9387124E-2,5.6126278E-2,-3.7165626E-3,-5.7449188E-2,-1.0566039E-2,-4.8014443E-2,1.3034482E-1,1.4664032E-1,-4.4390243E-2,-2.5032708E-2,7.581227E-2],"split_indices":[4,6,6,4,4,1,6,6,9,9,9,0,0,0,7,6,12,13,13,15,7,7,9,0,0,0,0,0,0,0,0,0,0,0,0,0,0,0,0,0,0],"split_type":[0,0,0,0,0,0,0,0,0,0,0,0,0,0,0,0,0,0,0,0,0,0,0,0,0,0,0,0,0,0,0,0,0,0,0,0,0,0,0,0,0],"sum_hessian":[5.670123E3,2.018694E3,3.6514287E3,1.658694E3,3.6000003E2,4.4081635E0,3.6470208E3,5.843266E2,1.0743674E3,3.022041E2,5.779592E1,1.4693879E0,2.9387758E0,3.6330615E3,1.3959185E1,9.746939E1,4.8685718E2,4.0628574E2,6.6808167E2,2.9559186E2,6.6122456E0,7.346939E0,5.0448982E1,2.2040818E0,1.1755103E1,3.1591839E1,6.5877556E1,4.6971432E2,1.7142859E1,2.674286E2,1.3885715E2,5.691429E2,9.893878E1,2.911837E2,4.4081635E0,4.6530614E0,1.9591838E0,4.1632657E0,3.1836736E0,4.579592E1,4.6530614E0],"tree_param":{"num_deleted":"0","num_feature":"16","num_nodes":"41","size_leaf_vector":"1"}},{"base_weights":[1.7422167E0,-1.6963057E-1,2.414876E0,-5.516499E-1,2.2721817E0,2.4394383E0,-1.9571416E-1,-5.7611907E-1,2.256166E0,2.4081879E0,-5.3142227E-2,1.9388438E0,2.4899473E0,2.0617385E-1,-5.6539666E-2,-5.7742547E-2,-3.933878E-1,5.69776E-2,2.3761976E-1,1.4905947E-1,2.432653E-1,-3.9844054E-1,2.3831964E0,2.4920163E0,-4.3546E-2,6.012928E-2,-5.3313654E-2,5.337633E-2,-3.189573E-2,-5.2902665E-2,1.986839E-1,2.4212776E-1,-4.8066E-2,-4.991217E-3,2.4931335E-1],"categories":[],"categories_nodes":[],"categories_segments":[],"categories_sizes":[],"default_left":[0,0,0,0,0,0,0,0,0,0,0,0,0,0,0,0,0,0,0,0,0,0,0,0,0,0,0,0,0,0,0,0,0,0,0],"id":7,"left_children":[1,3,5,7,9,11,13,15,17,19,-1,21,23,-1,-1,-1,25,-1,-1,27,-1,29,31,33,-1,-1,-1,-1,-1,-1,-1,-1,-1,-1,-1],"loss_changes":[8.739922E3,1.6520111E3,3.2282812E2,1.064899E2,9.264099E1,1.2109766E2,4.1043194E1,1.3537598E-1,1.3647308E0,1.2277344E1,0E0,4.797013E2,2.8445312E1,0E0,0E0,0E0,2.255207E0,0E0,0E0,8.031867E-1,0E0,2.4254839E1,4.3421387E1,1.2957031E1,0E0,0E0,0E0,0E0,0E0,0E0,0E0,0E0,0E0,0E0,0E0],"parents":[2147483647,0,0,1,1,2,2,3,3,4,4,5,5,6,6,7,7,8,8,9,9,11,11,12,12,16,16,19,19,21,21,22,22,23,23],"right_children":[2,4,6,8,10,12,14,16,18,20,-1,22,24,-1,-1,-1,26,-1,-1,28,-1,30,32,34,-1,-1,-1,-1,-1,-1,-1,-1,-1,-1,-1],"split_conditions":[6.1035156E-5,2.89E2,5.331504E0,5.61E2,5.2268505E-3,2.89E2,7.3E1,1.131E3,5.506099E0,5.888939E-5,-5.3142227E-2,2.4795532E-4,2.2895832E0,2.0617385E-1,-5.6539666E-2,-5.7742547E-2,5.46875E0,5.69776E-2,2.3761976E-1,1.1920929E-5,2.432653E-1,9E1,2.51E2,5.888939E-5,-4.3546E-2,6.012928E-2,-5.3313654E-2,5.337633E-2,-3.189573E-2,-5.2902665E-2,1.986839E-1,2.4212776E-1,-4.8066E-2,-4.991217E-3,2.4931335E-1],"split_indices":[9,4,15,7,6,4,13,13,0,6,0,6,6,0,0,0,0,0,0,12,0,1,4,6,0,0,0,0,0,0,0,0,0,0,0],"split_type":[0,0,0,0,0,0,0,0,0,0,0,0,0,0,0,0,0,0,0,0,0,0,0,0,0,0,0,0,0,0,0,0,0,0,0],"sum_hessian":[6.7947715E3,1.7686432E3,5.0261284E3,1.5300433E3,2.3859982E2,4.979344E3,4.6783752E1,1.5176127E3,1.2430655E1,2.2769511E2,1.0904715E1,4.5996838E2,4.519376E3,5.9391994E0,4.0844555E1,1.504695E3,1.29177065E1,1.2078446E0,1.122281E1,2.5153937E0,2.2517972E2,7.349413E1,3.8647424E2,4.51633E3,3.0459805E0,1.184463E0,1.1733244E1,1.3034749E0,1.2119188E0,7.0417244E1,3.0768957E0,3.8155518E2,4.919064E0,1.9652822E0,4.5143647E3],"tree_param":{"num_deleted":"0","num_feature":"16","num_nodes":"35","size_leaf_vector":"1"}},{"base_weights":[-4.1583776E-1,-6.542749E-2,-5.4730433E-1,-2.7595116E-2,-5.6214776E-2,-3.9873615E-1,-5.74339E-1,1.5339221E-1,-1.1912608E-1,-2.8145772E-1,-5.5932355E-1,-5.75819E-2,4.2682526E-1,6.280053E-2,1.0602919E0,-5.7421952E-2,-9.1993175E-2,-3.8316065E-1,4.3156627E-3,-5.7460655E-2,1.160804E-2,1.294308E-1,-4.1489806E-2,2.3454105E-2,-1.0860902E-2,1.5074478E-1,4.1455425E-2,-1.8710842E-2,4.1423077E-3,6.2552444E-3,-4.0530603E-2,4.0350985E-2,-5.646757E-2,-4.477754E-2,4.7189355E-2],"categories":[],"categories_nodes":[],"categories_segments":[],"categories_sizes":[],"default_left":[0,0,0,0,0,0,0,0,0,0,0,0,0,0,0,0,0,0,0,0,0,0,0,0,0,0,0,0,0,0,0,0,0,0,0],"id":8,"left_children":[1,3,5,7,-1,9,11,13,15,17,19,-1,21,23,25,-1,27,29,31,-1,33,-1,-1,-1,-1,-1,-1,-1,-1,-1,-1,-1,-1,-1,-1],"loss_changes":[2.5041693E2,2.7879154E1,1.5649414E1,2.2885544E1,0E0,1.1366646E1,5.1984863E0,3.805995E1,1.1274152E1,1.03381405E1,2.251297E0,0E0,4.559001E0,1.2477223E1,1.1526436E1,0E0,1.1008508E1,2.6144638E0,2.1655382E1,0E0,1.8366622E0,0E0,0E0,0E0,0E0,0E0,0E0,0E0,0E0,0E0,0E0,0E0,0E0,0E0,0E0],"parents":[2147483647,0,0,1,1,2,2,3,3,5,5,6,6,7,7,8,8,9,9,10,10,12,12,13,13,14,14,16,16,17,17,18,18,20,20],"right_children":[2,4,6,8,-1,10,12,14,16,18,20,-1,22,24,26,-1,28,30,32,-1,34,-1,-1,-1,-1,-1,-1,-1,-1,-1,-1,-1,-1,-1,-1],"split_conditions":[4.7922134E-5,2.89E2,2.89E2,1.76E2,-5.6214776E-2,3.490448E-4,4.617157E0,1.6E2,2.75E2,1E0,8.9483094E-1,-5.75819E-2,1.14E3,1.3113022E-5,1.64E2,-5.7421952E-2,1.0180473E-4,5.464615E0,1.131E3,-5.7460655E-2,2.02E2,1.294308E-1,-4.1489806E-2,2.3454105E-2,-1.0860902E-2,1.5074478E-1,4.1455425E-2,-1.8710842E-2,4.1423077E-3,6.2552444E-3,-4.0530603E-2,4.0350985E-2,-5.646757E-2,-4.477754E-2,4.7189355E-2],"split_indices":[9,4,4,7,0,6,6,7,7,5,9,0,4,9,7,0,6,0,13,0,7,0,0,0,0,0,0,0,0,0,0,0,0,0,0],"split_type":[0,0,0,0,0,0,0,0,0,0,0,0,0,0,0,0,0,0,0,0,0,0,0,0,0,0,0,0,0,0,0,0,0,0,0],"sum_hessian":[5.435682E3,1.4833821E3,3.9523003E3,1.3793782E3,1.0400388E2,6.108939E2,3.3414062E3,4.6306598E2,9.1631213E2,3.546457E2,2.5624826E2,3.3368982E3,4.50822E0,4.219827E2,4.108329E1,5.0422638E1,8.658895E2,2.6130862E2,9.333704E1,2.4956145E2,6.686824E0,1.9553462E0,2.552874E0,2.1060387E2,2.1137883E2,2.3485653E1,1.759764E1,5.0526974E2,3.6061978E2,1.228229E1,2.4902634E2,5.5024014E1,3.8313034E1,3.3602946E0,3.3265295E0],"tree_param":{"num_deleted":"0","num_feature":"16","num_nodes":"35","size_leaf_vector":"1"}},{"base_weights":[-4.0367258E-1,-5.349041E-3,-5.425234E-1,2.6493276E-2,-4.379356E-1,-3.8027072E-1,-5.755296E-1,-3.8894102E-2,2.0595774E-1,-5.702889E-2,6.634847E-1,-2.568772E-1,-5.540201E-1,-5.761191E-1,-1.1753682E-1,6.4254545E-2,-2.0246704E-1,2.3272255E-2,2.5006232E-1,1.8144737E0,-4.860133E-2,-3.5108912E-1,2.3881094E-1,-5.6791604E-1,7.689555E-1,-1.8652503E-1,-5.7670873E-2,-4.437032E-2,5.4795206E-2,-1.0799475E-2,2.4170585E-2,1.7967237E-4,-3.4847043E-2,-2.5274917E-2,1.9823425E-2,1.905918E-2,2.1401937E-1,-3.1349953E-2,-5.6698848E-2,7.407496E-5,2.2801057E-1,-4.0076908E-2,-5.7481583E-2,-3.3467792E-2,1.6268954E-1,4.4031493E-2,-4.6388235E-2],"categories":[],"categories_nodes":[],"categories_segments":[],"categories_sizes":[],"default_left":[0,0,0,0,0,0,0,0,0,0,0,0,0,0,0,0,0,0,0,0,0,0,0,0,0,0,0,0,0,0,0,0,0,0,0,0,0,0,0,0,0,0,0,0,0,0,0],"id":9,"left_children":[1,3,5,7,9,11,13,15,17,-1,19,21,23,25,27,29,31,33,-1,35,-1,37,39,41,43,45,-1,-1,-1,-1,-1,-1,-1,-1,-1,-1,-1,-1,-1,-1,-1,-1,-1,-1,-1,-1,-1],"loss_changes":[3.0099445E2,1.9402626E1,2.1392578E1,1.54059105E1,1.4456764E1,1.4545959E1,8.372803E-1,1.6254238E1,1.4690205E2,0E0,1.520046E1,1.8878933E1,5.6510468E0,6.612549E-1,1.4509767E0,1.8093346E1,1.1109868E1,1.5780611E1,0E0,2.5641212E0,0E0,2.5701408E0,3.1524464E1,9.400177E-2,3.7382305E0,1.3405614E0,0E0,0E0,0E0,0E0,0E0,0E0,0E0,0E0,0E0,0E0,0E0,0E0,0E0,0E0,0E0,0E0,0E0,0E0,0E0,0E0,0E0],"parents":[2147483647,0,0,1,1,2,2,3,3,4,4,5,5,6,6,7,7,8,8,10,10,11,11,12,12,13,13,14,14,15,15,16,16,17,17,19,19,21,21,22,22,23,23,24,24,25,25],"right_children":[2,4,6,8,10,12,14,16,18,-1,20,22,24,26,28,30,32,34,-1,36,-1,38,40,42,44,46,-1,-1,-1,-1,-1,-1,-1,-1,-1,-1,-1,-1,-1,-1,-1,-1,-1,-1,-1,-1,-1],"split_conditions":[4.4107437E-5,2.89E2,2.89E2,1.89E2,5.2268505E-3,2.6917458E-4,4.617157E0,2.76E2,0E0,-5.702889E-2,2.896E3,1.93E2,1.9357933E1,1.71E2,5.792E3,2.14E2,1E0,1.89E2,2.5006232E-1,2.674E3,-4.860133E-2,2.76E2,0E0,5.576259E0,5.449699E0,5.589615E0,-5.7670873E-2,-4.437032E-2,5.4795206E-2,-1.0799475E-2,2.4170585E-2,1.7967237E-4,-3.4847043E-2,-2.5274917E-2,1.9823425E-2,1.905918E-2,2.1401937E-1,-3.1349953E-2,-5.6698848E-2,7.407496E-5,2.2801057E-1,-4.0076908E-2,-5.7481583E-2,-3.3467792E-2,1.6268954E-1,4.4031493E-2,-4.6388235E-2],"split_indices":[9,4,4,13,6,6,6,7,14,0,7,13,15,7,7,7,14,10,0,7,0,10,14,0,0,0,0,0,0,0,0,0,0,0,0,0,0,0,0,0,0,0,0,0,0,0,0],"split_type":[0,0,0,0,0,0,0,0,0,0,0,0,0,0,0,0,0,0,0,0,0,0,0,0,0,0,0,0,0,0,0,0,0,0,0,0,0,0,0,0,0,0,0,0,0,0,0],"sum_hessian":[5.441247E3,1.4067421E3,4.0345051E3,1.311167E3,9.5575096E1,6.841024E2,3.3504028E3,9.6159564E2,3.495714E2,8.5752754E1,9.822341E0,4.014668E2,2.8263562E2,3.3458381E3,4.5645814E0,5.900922E2,3.715034E2,3.2472885E2,2.4842539E1,4.618929E0,5.2034125E0,3.3759436E2,6.3872433E1,2.802626E2,2.3730168E0,5.5358114E0,3.3403025E3,3.286892E0,1.2776893E0,2.9963373E2,2.904585E2,1.5526709E2,2.162363E2,1.2580822E2,1.9892064E2,1.0365136E0,3.582415E0,2.8962128E2,4.7973064E1,5.8097103E1,5.775331E0,1.3452814E1,2.6680978E2,1.3046505E0,1.0683663E0,1.5178547E0,4.0179567E0],"tree_param":{"num_deleted":"0","num_feature":"16","num_nodes":"47","size_leaf_vector":"1"}},{"base_weights":[-4.1530308E-1,-1.4882335E-1,-5.6896514E-1,6.9947076E-1,-2.1943402E-1,-5.7211137E-1,8.897751E-1,1.061037E0,1.23057455E-1,1.0098165E-1,-3.1271827E-1,-5.74403E-1,1.5445827E-1,1.9452998E-1,-4.42566E-2,1.8051052E-1,8.9181834E-1,-3.8624167E-1,3.3989814E-1,-4.085883E-2,1.4789767E0,-2.529727E-1,-5.413109E-1,-8.8085845E-4,-5.7497734E-1,1.6816926E-1,-2.291586E-1,3.394807E-2,1.1354258E-1,-1.2366567E-2,-5.2938234E-2,1.5451649E-2,1.1544579E-1,6.595257E-2,-9.774923E-3,1.5940747E-1,6.719008E-3,1.5035299E-2,-2.817813E-2,8.1351504E-2,-5.5130523E-2,6.90433E-2,-4.109665E-2,-5.7555348E-2,-1.523487E-2,-5.0711792E-2,5.694157E-2],"categories":[],"categories_nodes":[],"categories_segments":[],"categories_sizes":[],"default_left":[0,0,0,0,0,0,0,0,0,0,0,0,0,0,0,0,0,0,0,0,0,0,0,0,0,0,0,0,0,0,0,0,0,0,0,0,0,0,0,0,0,0,0,0,0,0,0],"id":10,"left_children":[1,3,5,7,9,11,13,15,17,19,21,23,25,-1,-1,-1,27,29,31,33,35,37,39,41,43,-1,45,-1,-1,-1,-1,-1,-1,-1,-1,-1,-1,-1,-1,-1,-1,-1,-1,-1,-1,-1,-1],"loss_changes":[2.2251819E2,1.1932796E2,1.6332275E1,3.1782295E1,5.495334E1,5.817749E0,1.184606E1,1.0221672E1,6.774775E0,8.119103E1,1.9302917E1,1.1293945E0,7.185319E0,0E0,0E0,0E0,1.0181496E1,6.2730956E-1,6.273195E0,1.5098828E1,6.191986E0,1.3175995E1,4.430237E0,1.5405737E0,7.467041E-1,0E0,2.5432124E0,0E0,0E0,0E0,0E0,0E0,0E0,0E0,0E0,0E0,0E0,0E0,0E0,0E0,0E0,0E0,0E0,0E0,0E0,0E0,0E0],"parents":[2147483647,0,0,1,1,2,2,3,3,4,4,5,5,6,6,7,7,8,8,9,9,10,10,11,11,12,12,16,16,17,17,18,18,19,19,20,20,21,21,22,22,23,23,24,24,26,26],"right_children":[2,4,6,8,10,12,14,16,18,20,22,24,26,-1,-1,-1,28,30,32,34,36,38,40,42,44,-1,46,-1,-1,-1,-1,-1,-1,-1,-1,-1,-1,-1,-1,-1,-1,-1,-1,-1,-1,-1,-1],"split_conditions":[2.89E2,6.914139E-5,9.633907E0,2.76E2,1.59E2,4.617157E0,3.361621E-1,2.76E2,5.576259E0,1.48E2,2.89917E-4,1.71E2,5.525554E0,1.9452998E-1,-4.42566E-2,1.8051052E-1,5.57016E0,2.0980835E-5,2.3841858E-5,7.605553E-5,1.57E2,5.480949E0,5.449699E0,9E1,5.84375E0,1.6816926E-1,5.78891E0,3.394807E-2,1.1354258E-1,-1.2366567E-2,-5.2938234E-2,1.5451649E-2,1.1544579E-1,6.595257E-2,-9.774923E-3,1.5940747E-1,6.719008E-3,1.5035299E-2,-2.817813E-2,8.1351504E-2,-5.5130523E-2,6.90433E-2,-4.109665E-2,-5.7555348E-2,-1.523487E-2,-5.0711792E-2,5.694157E-2],"split_indices":[4,6,15,7,7,6,6,4,0,7,6,7,0,0,0,0,0,9,9,6,7,0,0,1,0,0,0,0,0,0,0,0,0,0,0,0,0,0,0,0,0,0,0,0,0,0,0],"split_type":[0,0,0,0,0,0,0,0,0,0,0,0,0,0,0,0,0,0,0,0,0,0,0,0,0,0,0,0,0,0,0,0,0,0,0,0,0,0,0,0,0,0,0,0,0,0,0],"sum_hessian":[5.4352563E3,1.988603E3,3.4466533E3,1.5212428E2,1.8364788E3,3.439842E3,6.81127E0,9.296775E1,5.915653E1,4.140848E2,1.4223939E3,3.4292356E3,1.060652E1,3.5437403E0,3.2675297E0,1.5434343E1,7.753341E1,1.7432098E1,4.172443E1,3.7631964E2,3.776517E1,1.1293346E3,2.9305936E2,3.433292E0,3.4258022E3,1.4500155E0,9.156505E0,2.4462498E1,5.307091E1,6.807827E0,1.0624272E1,3.4958168E1,6.7662635E0,2.747528E1,3.4884436E2,3.4799015E1,2.9661553E0,7.5006775E1,1.0543279E3,1.5572844E0,2.9150204E2,1.0237851E0,2.4095068E0,3.4207776E3,5.0248017E0,7.0630445E0,2.0934596E0],"tree_param":{"num_deleted":"0","num_feature":"16","num_nodes":"47","size_leaf_vector":"1"}},{"base_weights":[-4.099021E-1,-8.950858E-2,-5.536004E-1,1.3251474E-1,-2.0435232E-1,-5.6261164E-1,1.17982306E-1,7.4460113E-1,7.1420096E-2,-2.1841852E-1,2.0425561E-1,-4.5434597E-1,-5.7640564E-1,5.5241567E-1,-3.890173E-1,4.1225058E-1,1.0267993E0,3.749312E-2,1.3028529E0,3.197974E-1,-2.4622707E-1,-2.3898385E-1,-5.643396E-1,-5.767053E-2,-1.998512E-1,-5.5000767E-2,1.1220475E0,-5.5436213E-2,1.6019836E-1,2.6189772E-2,8.718618E-2,-3.377072E-2,1.10864125E-1,1.0116358E-2,-3.260596E-2,1.5480052E-1,-3.6624413E-2,-5.5096578E-2,6.847962E-2,-1.9594241E-2,-5.728596E-2,-2.7026435E-2,1.7232025E-1,-2.380667E-2,-5.7125192E-2,1.2147001E-2,-3.796413E-2,4.3699045E-2,-5.0726175E-2,1.565452E-1,2.030261E-2],"categories":[],"categories_nodes":[],"categories_segments":[],"categories_sizes":[],"default_left":[0,0,0,0,0,0,0,0,0,0,0,0,0,0,0,0,0,0,0,0,0,0,0,0,0,0,0,0,0,0,0,0,0,0,0,0,0,0,0,0,0,0,0,0,0,0,0,0,0,0,0],"id":11,"left_children":[1,3,5,7,9,11,13,15,17,19,-1,21,23,25,27,29,31,33,35,37,39,41,43,-1,45,47,49,-1,-1,-1,-1,-1,-1,-1,-1,-1,-1,-1,-1,-1,-1,-1,-1,-1,-1,-1,-1,-1,-1,-1,-1],"loss_changes":[2.5036438E2,4.299893E1,2.2789185E1,2.1454872E1,3.5564472E1,5.2716064E0,1.1346811E1,4.4623623E0,2.1845873E1,1.6619358E1,0E0,9.895981E0,2.5524902E-1,9.622239E0,8.759012E0,1.540122E0,3.4455223E0,1.1862353E1,6.30435E0,1.777201E1,1.715673E1,9.358848E0,4.9449158E-1,0E0,2.8531927E-1,3.4091935E0,5.5117836E0,0E0,0E0,0E0,0E0,0E0,0E0,0E0,0E0,0E0,0E0,0E0,0E0,0E0,0E0,0E0,0E0,0E0,0E0,0E0,0E0,0E0,0E0,0E0,0E0],"parents":[2147483647,0,0,1,1,2,2,3,3,4,4,5,5,6,6,7,7,8,8,9,9,11,11,12,12,13,13,14,14,15,15,16,16,17,17,18,18,19,19,20,20,21,21,22,22,24,24,25,25,26,26],"right_children":[2,4,6,8,10,12,14,16,18,20,-1,22,24,26,28,30,32,34,36,38,40,42,44,-1,46,48,50,-1,-1,-1,-1,-1,-1,-1,-1,-1,-1,-1,-1,-1,-1,-1,-1,-1,-1,-1,-1,-1,-1,-1,-1],"split_conditions":[5.7935715E-5,2.87E2,5.331504E0,7.7962875E-5,5.873E3,2.89E2,2.3818016E-4,8.106232E-6,7.24E3,8.821487E-6,2.0425561E-1,1.6999245E-4,2.2895832E0,1.9812584E-4,3.703E3,7.510185E-5,6.7949295E-5,2E2,5.411148E-3,5.564464E0,2.89E2,1.6593933E-4,1.1396408E-4,-5.767053E-2,5.78125E0,1.21831894E-4,1.9357933E1,-5.5436213E-2,1.6019836E-1,2.6189772E-2,8.718618E-2,-3.377072E-2,1.10864125E-1,1.0116358E-2,-3.260596E-2,1.5480052E-1,-3.6624413E-2,-5.5096578E-2,6.847962E-2,-1.9594241E-2,-5.728596E-2,-2.7026435E-2,1.7232025E-1,-2.380667E-2,-5.7125192E-2,1.2147001E-2,-3.796413E-2,4.3699045E-2,-5.0726175E-2,1.565452E-1,2.030261E-2],"split_indices":[9,4,15,6,7,4,6,9,13,9,0,9,6,6,4,6,6,7,12,0,4,9,6,0,0,6,15,0,0,0,0,0,0,0,0,0,0,0,0,0,0,0,0,0,0,0,0,0,0,0,0],"split_type":[0,0,0,0,0,0,0,0,0,0,0,0,0,0,0,0,0,0,0,0,0,0,0,0,0,0,0,0,0,0,0,0,0,0,0,0,0,0,0,0,0,0,0,0,0,0,0,0,0,0,0],"sum_hessian":[5.4380483E3,1.6843033E3,3.7537449E3,5.7415533E2,1.110148E3,3.7042043E3,4.9540432E1,5.1092216E1,5.230631E2,1.1041385E3,6.009388E0,4.2244894E2,3.2817554E3,2.6631277E1,2.2909153E1,2.4591345E1,2.6500874E1,5.100415E2,1.3021613E1,5.3730034E1,1.0504086E3,1.4389069E2,2.7855826E2,3.2786147E3,3.1406043E0,1.3325414E1,1.3305864E1,2.1818756E1,1.0903962E0,1.9712582E1,4.8787627E0,1.322654E0,2.517822E1,4.3464255E2,7.539897E1,1.1417232E1,1.6043816E0,1.5719393E1,3.801064E1,9.116596E2,1.3874898E2,1.4248155E2,1.4091285E0,6.5142946E0,2.7204398E2,1.2431762E0,1.8974279E0,6.3985395E0,6.926874E0,8.500973E0,4.8048916E0],"tree_param":{"num_deleted":"0","num_feature":"16","num_nodes":"51","size_leaf_vector":"1"}},{"base_weights":[-2.594712E-1,2.610308E-1,-5.712692E-1,-1.5510072E-1,5.9790075E-1,-5.7556343E-1,2.8461426E-1,2.9138938E-2,-5.20966E-1,9.1373265E-2,7.895686E-1,-5.758509E-1,-8.534747E-3,-5.26311E-2,1.4412915E0,-4.8546523E-1,1.7222442E-1,4.7717553E-2,-5.483387E-1,-3.9357945E-1,1.9767787E-1,8.856236E-1,2.1327561E-1,-4.4329745E-1,-5.7643116E-2,2.2307436E-1,-3.957108E-2,-5.2813064E-2,-2.7950803E-2,2.8022189E-2,-9.68606E-3,4.0365826E-2,-4.906684E-2,-5.578978E-2,-1.1564929E-2,1.8226434E-2,-4.3682735E-2,1.209212E-2,6.0710914E-2,8.43991E-2,2.4627076E-1,5.601244E-2,-5.62734E-2,-5.439183E-2,3.2801226E-2],"categories":[],"categories_nodes":[],"categories_segments":[],"categories_sizes":[],"default_left":[0,0,0,0,0,0,0,0,0,0,0,0,0,0,0,0,0,0,0,0,0,0,0,0,0,0,0,0,0,0,0,0,0,0,0,0,0,0,0,0,0,0,0,0,0],"id":12,"left_children":[1,3,5,7,9,11,13,15,17,19,21,23,-1,-1,25,27,29,31,33,35,37,39,41,43,-1,-1,-1,-1,-1,-1,-1,-1,-1,-1,-1,-1,-1,-1,-1,-1,-1,-1,-1,-1,-1],"loss_changes":[8.9464343E2,2.8963538E2,1.2833618E1,6.2354702E1,1.1076495E2,4.342041E-1,1.7528149E1,4.5443478E1,4.8485184E0,1.6292946E1,4.565204E1,8.056641E-3,0E0,0E0,1.195648E1,1.0323753E0,1.4056018E1,3.1006522E0,1.1583023E0,1.4963074E0,8.05505E0,4.4505188E1,3.251342E1,1.6740842E0,0E0,0E0,0E0,0E0,0E0,0E0,0E0,0E0,0E0,0E0,0E0,0E0,0E0,0E0,0E0,0E0,0E0,0E0,0E0,0E0,0E0],"parents":[2147483647,0,0,1,1,2,2,3,3,4,4,5,5,6,6,7,7,8,8,9,9,10,10,11,11,14,14,15,15,16,16,17,17,18,18,19,19,20,20,21,21,22,22,23,23],"right_children":[2,4,6,8,10,12,14,16,18,20,22,24,-1,-1,26,28,30,32,34,36,38,40,42,44,-1,-1,-1,-1,-1,-1,-1,-1,-1,-1,-1,-1,-1,-1,-1,-1,-1,-1,-1,-1,-1],"split_conditions":[2.89E2,2.87E2,8.9483094E-1,1.1301041E-4,8.606911E-5,1.3589426E1,1.943E3,1.02996826E-4,1.5211105E-4,1.4781952E-5,1.81E2,1.692772E-5,-8.534747E-3,-5.26311E-2,3.703E3,5.675705E0,1.8E2,5.619304E0,1.9357933E1,4.053116E-6,1.8119812E-5,1.79E2,1.81E2,1.5974045E-5,-5.7643116E-2,2.2307436E-1,-3.957108E-2,-5.2813064E-2,-2.7950803E-2,2.8022189E-2,-9.68606E-3,4.0365826E-2,-4.906684E-2,-5.578978E-2,-1.1564929E-2,1.8226434E-2,-4.3682735E-2,1.209212E-2,6.0710914E-2,8.43991E-2,2.4627076E-1,5.601244E-2,-5.62734E-2,-5.439183E-2,3.2801226E-2],"split_indices":[4,4,9,9,6,15,4,6,6,9,13,9,0,0,4,0,7,0,15,9,12,13,10,9,0,0,0,0,0,0,0,0,0,0,0,0,0,0,0,0,0,0,0,0,0],"split_type":[0,0,0,0,0,0,0,0,0,0,0,0,0,0,0,0,0,0,0,0,0,0,0,0,0,0,0,0,0,0,0,0,0,0,0,0,0,0,0,0,0,0,0,0,0],"sum_hessian":[5.5106533E3,2.0644736E3,3.4461797E3,9.2382416E2,1.1406494E3,3.429301E3,1.6878426E1,6.1503156E2,3.0879257E2,3.1353522E2,8.271142E2,3.427117E3,2.1840873E0,1.0242545E1,6.6358814E0,1.332843E2,4.8174725E2,1.414657E1,2.94646E2,5.5885925E1,2.576493E2,7.0848846E2,1.18625725E2,1.8271675E1,3.4088455E3,4.491373E0,2.1445081E0,1.0911592E2,2.4168377E1,3.43744E2,1.3800328E2,8.6669035E0,5.4796667E0,2.879942E2,6.651805E0,3.6794734E0,5.220645E1,2.1806389E2,3.958542E1,6.9176215E2,1.6726326E1,8.217473E1,3.6450993E1,1.6423912E1,1.8477627E0],"tree_param":{"num_deleted":"0","num_feature":"16","num_nodes":"45","size_leaf_vector":"1"}},{"base_weights":[-2.6595157E-1,2.4693863E-1,-5.7269585E-1,3.8814786E-1,-4.5767695E-1,5.7874256E-1,-5.7441396E-1,1.5956277E-1,5.0855154E-1,-5.438448E-1,-2.9454775E-2,1.7906822E-1,-4.312081E-2,-5.7555497E-2,-2.6783773E-1,-2.5473934E-1,2.3960103E-1,6.244545E-1,4.133129E-1,-5.6068605E-1,1.384785E-1,6.160432E-1,-1.3988802E-1,7.88119E-1,-5.3188335E-2,-5.2661687E-2,-1.2466826E-2,2.6336486E-2,-4.3088403E-2,5.1004257E-2,8.684324E-2,5.0892968E-2,-1.36441635E-2,-5.6758463E-2,-1.0369686E-2,-4.7574077E-2,1.1673806E-1,1.286924E-1,-4.418206E-2,-2.4306668E-2,6.783324E-2,-3.2850623E-2,1.6341345E-1],"categories":[],"categories_nodes":[],"categories_segments":[],"categories_sizes":[],"default_left":[0,0,0,0,0,0,0,0,0,0,0,0,0,0,0,0,0,0,0,0,0,0,0,0,0,0,0,0,0,0,0,0,0,0,0,0,0,0,0,0,0,0,0],"id":13,"left_children":[1,3,5,7,9,11,13,15,17,19,21,-1,-1,-1,23,25,27,29,31,33,35,37,39,41,-1,-1,-1,-1,-1,-1,-1,-1,-1,-1,-1,-1,-1,-1,-1,-1,-1,-1,-1],"loss_changes":[8.666312E2,2.053323E2,7.151001E0,4.720804E1,1.2702652E1,7.6674643E0,1.0499268E0,1.9766376E1,1.2159668E1,3.3743668E0,4.2775364E0,0E0,0E0,0E0,4.499297E0,3.3539624E0,8.057032E0,1.3666748E1,3.268563E1,8.2442474E-1,5.4294467E0,6.796032E0,4.472383E0,3.6827397E0,0E0,0E0,0E0,0E0,0E0,0E0,0E0,0E0,0E0,0E0,0E0,0E0,0E0,0E0,0E0,0E0,0E0,0E0,0E0],"parents":[2147483647,0,0,1,1,2,2,3,3,4,4,5,5,6,6,7,7,8,8,9,9,10,10,14,14,15,15,16,16,17,17,18,18,19,19,20,20,21,21,22,22,23,23],"right_children":[2,4,6,8,10,12,14,16,18,20,22,-1,-1,-1,24,26,28,30,32,34,36,38,40,42,-1,-1,-1,-1,-1,-1,-1,-1,-1,-1,-1,-1,-1,-1,-1,-1,-1,-1,-1],"split_conditions":[2.89E2,2.6917458E-4,5.888939E-5,2.87E2,2.51E2,4.177E3,4.617157E0,9.012222E-5,2.77E2,8.9483094E-1,1.9073486E-5,1.7906822E-1,-4.312081E-2,-5.7555497E-2,5.74E2,7.390976E-5,5.158186E-3,1.75E2,1.5E2,1.3589426E1,2.452E3,2.76E2,5.1021576E-5,5.724849E0,-5.3188335E-2,-5.2661687E-2,-1.2466826E-2,2.6336486E-2,-4.3088403E-2,5.1004257E-2,8.684324E-2,5.0892968E-2,-1.36441635E-2,-5.6758463E-2,-1.0369686E-2,-4.7574077E-2,1.1673806E-1,1.286924E-1,-4.418206E-2,-2.4306668E-2,6.783324E-2,-3.2850623E-2,1.6341345E-1],"split_indices":[4,6,6,4,4,1,6,6,7,9,9,0,0,0,7,6,12,13,13,15,7,7,9,0,0,0,0,0,0,0,0,0,0,0,0,0,0,0,0,0,0,0,0],"split_type":[0,0,0,0,0,0,0,0,0,0,0,0,0,0,0,0,0,0,0,0,0,0,0,0,0,0,0,0,0,0,0,0,0,0,0,0,0,0,0,0,0,0,0],"sum_hessian":[5.506603E3,2.0608926E3,3.4457102E3,1.7172036E3,3.436889E2,4.6334248E0,3.441077E3,5.9324994E2,1.1239537E3,2.858912E2,5.7797684E1,1.7547215E0,2.8787034E0,3.4274434E3,1.3633449E1,9.569924E1,4.9755072E2,5.0447E2,6.194837E2,2.791787E2,6.712494E0,7.7747493E0,5.0022934E1,2.3301318E0,1.1303317E1,2.9981838E1,6.571741E1,4.811062E2,1.6444515E1,3.455275E2,1.5894247E2,5.277656E2,9.171807E1,2.7478857E2,4.390128E0,4.5399327E0,2.1725612E0,4.6250706E0,3.1496787E0,4.5045563E1,4.9773717E0,1.2681062E0,1.0620257E0],"tree_param":{"num_deleted":"0","num_feature":"16","num_nodes":"43","size_leaf_vector":"1"}},{"base_weights":[1.4418758E0,-1.658151E-1,1.913514E0,-5.457151E-1,1.81777E0,1.9301571E0,-1.944989E-1,-5.709541E-1,1.866047E0,1.9107624E0,-5.2551456E-2,1.5826869E0,1.9640352E0,1.7084426E-1,-5.611978E-2,-5.723209E-2,-3.8208246E-1,5.360728E-2,1.9472736E-1,1.3419613E-1,1.927434E0,-3.9077118E-1,1.8921825E0,1.9654292E0,-4.285539E-2,5.8006167E-2,-5.2634206E-2,5.004089E-2,-3.185883E-2,1.9485898E-1,1.3330923E-1,-5.2344937E-2,1.7504737E-1,1.9180568E-1,-4.740844E-2,-5.288782E-3,1.9661866E-1],"categories":[],"categories_nodes":[],"categories_segments":[],"categories_sizes":[],"default_left":[0,0,0,0,0,0,0,0,0,0,0,0,0,0,0,0,0,0,0,0,0,0,0,0,0,0,0,0,0,0,0,0,0,0,0,0,0],"id":14,"left_children":[1,3,5,7,9,11,13,15,17,19,-1,21,23,-1,-1,-1,25,-1,-1,27,29,31,33,35,-1,-1,-1,-1,-1,-1,-1,-1,-1,-1,-1,-1,-1],"loss_changes":[5.8037363E3,1.3098975E3,2.0799023E2,8.984686E1,6.18927E1,6.6009766E1,3.3939995E1,1.5408325E-1,6.1325836E-1,7.7078857E0,0E0,3.2247253E2,1.8671875E1,0E0,0E0,0E0,2.1630545E0,0E0,0E0,7.5228995E-1,7.5201416E-1,2.143963E1,2.8798828E1,8.269531E0,0E0,0E0,0E0,0E0,0E0,0E0,0E0,0E0,0E0,0E0,0E0,0E0,0E0],"parents":[2147483647,0,0,1,1,2,2,3,3,4,4,5,5,6,6,7,7,8,8,9,9,11,11,12,12,16,16,19,19,20,20,21,21,22,22,23,23],"right_children":[2,4,6,8,10,12,14,16,18,20,-1,22,24,-1,-1,-1,26,-1,-1,28,30,32,34,36,-1,-1,-1,-1,-1,-1,-1,-1,-1,-1,-1,-1,-1],"split_conditions":[6.1035156E-5,2.89E2,5.331504E0,5.61E2,5.2268505E-3,2.89E2,7.3E1,1.131E3,5.506099E0,5.888939E-5,-5.2551456E-2,2.4795532E-4,2.2895832E0,1.7084426E-1,-5.611978E-2,-5.723209E-2,5.46875E0,5.360728E-2,1.9472736E-1,1.1920929E-5,1E0,3.5479069E-3,2.51E2,5.888939E-5,-4.285539E-2,5.8006167E-2,-5.2634206E-2,5.004089E-2,-3.185883E-2,1.9485898E-1,1.3330923E-1,-5.2344937E-2,1.7504737E-1,1.9180568E-1,-4.740844E-2,-5.288782E-3,1.9661866E-1],"split_indices":[9,4,15,7,6,4,13,13,0,6,0,6,6,0,0,0,0,0,0,12,11,12,4,6,0,0,0,0,0,0,0,0,0,0,0,0,0],"split_type":[0,0,0,0,0,0,0,0,0,0,0,0,0,0,0,0,0,0,0,0,0,0,0,0,0,0,0,0,0,0,0,0,0,0,0,0,0],"sum_hessian":[7.6527163E3,1.7359535E3,5.9167627E3,1.4575295E3,2.7842392E2,5.870499E3,4.6264133E1,1.4431898E3,1.4339672E1,2.6797406E2,1.0449875E1,5.257609E2,5.344738E3,6.8835855E0,3.938055E1,1.4308054E3,1.2384467E1,1.2627984E0,1.3076873E1,2.575454E0,2.653986E2,7.1240776E1,4.5452014E2,5.341804E3,2.9338238E0,1.2208703E0,1.1163597E1,1.365696E0,1.2097582E0,2.5407608E2,1.1322519E1,6.77955E1,3.4452798E0,4.4979126E2,4.7288847E0,1.9778534E0,5.339826E3],"tree_param":{"num_deleted":"0","num_feature":"16","num_nodes":"37","size_leaf_vector":"1"}},{"base_weights":[-4.0476453E-1,-6.0691647E-2,-5.4012334E-1,-2.4872761E-2,-5.5572372E-2,-3.887246E-1,-5.683181E-1,1.4425202E-1,-1.123053E-1,-2.7307752E-1,-5.5271673E-1,-5.698679E-2,3.9904666E-1,5.9572127E-2,9.385605E-1,-5.700577E-2,-8.560536E-2,-3.7362352E-1,-9.6036936E-4,-5.6872476E-2,1.4483611E-2,1.1466312E-1,-4.0684503E-2,3.5776567E-2,-2.8553603E-3,1.2997757E-1,3.8169567E-2,-1.7870266E-2,4.3122666E-3,6.3758455E-3,-3.9604902E-2,3.651159E-2,-5.6044888E-2,-4.4013698E-2,4.453998E-2],"categories":[],"categories_nodes":[],"categories_segments":[],"categories_sizes":[],"default_left":[0,0,0,0,0,0,0,0,0,0,0,0,0,0,0,0,0,0,0,0,0,0,0,0,0,0,0,0,0,0,0,0,0,0,0],"id":15,"left_children":[1,3,5,7,-1,9,11,13,15,17,19,-1,21,23,25,-1,27,29,31,-1,33,-1,-1,-1,-1,-1,-1,-1,-1,-1,-1,-1,-1,-1,-1],"loss_changes":[2.42698E2,2.6097298E1,1.5744751E1,2.0337528E1,0E0,1.1045174E1,4.951294E0,3.1474934E1,1.1030315E1,9.526009E0,2.2161407E0,0E0,3.8572595E0,1.1170275E1,8.574291E0,0E0,1.0286684E1,2.5189552E0,1.9650532E1,0E0,1.6946367E0,0E0,0E0,0E0,0E0,0E0,0E0,0E0,0E0,0E0,0E0,0E0,0E0,0E0,0E0],"parents":[2147483647,0,0,1,1,2,2,3,3,5,5,6,6,7,7,8,8,9,9,10,10,12,12,13,13,14,14,16,16,17,17,18,18,20,20],"right_children":[2,4,6,8,-1,10,12,14,16,18,20,-1,22,24,26,-1,28,30,32,-1,34,-1,-1,-1,-1,-1,-1,-1,-1,-1,-1,-1,-1,-1,-1],"split_conditions":[4.7922134E-5,2.89E2,2.89E2,1.76E2,-5.5572372E-2,3.490448E-4,4.617157E0,1.6E2,2.75E2,1E0,8.9483094E-1,-5.698679E-2,1.14E3,9.202957E-5,1.64E2,-5.700577E-2,1.0180473E-4,5.464615E0,1.131E3,-5.6872476E-2,2.02E2,1.1466312E-1,-4.0684503E-2,3.5776567E-2,-2.8553603E-3,1.2997757E-1,3.8169567E-2,-1.7870266E-2,4.3122666E-3,6.3758455E-3,-3.9604902E-2,3.651159E-2,-5.6044888E-2,-4.4013698E-2,4.453998E-2],"split_indices":[9,4,4,7,0,6,6,7,7,5,9,0,4,6,7,0,6,0,13,0,7,0,0,0,0,0,0,0,0,0,0,0,0,0,0],"split_type":[0,0,0,0,0,0,0,0,0,0,0,0,0,0,0,0,0,0,0,0,0,0,0,0,0,0,0,0,0,0,0,0,0,0,0],"sum_hessian":[5.2108022E3,1.4715839E3,3.7392185E3,1.3732689E3,9.831495E1,5.8934955E2,3.149869E3,4.6777682E2,9.054921E2,3.471822E2,2.4216737E2,3.1452407E3,4.6280756E0,4.2368362E2,4.4093204E1,4.878339E1,8.5670874E2,2.5323866E2,9.3943535E1,2.3551768E2,6.649689E0,2.1815512E0,2.4465241E0,9.595118E1,3.2773245E2,2.5935694E1,1.815751E1,4.9693356E2,3.5977515E2,1.2260932E1,2.4097774E2,5.699731E1,3.6946224E1,3.2254312E0,3.424258E0],"tree_param":{"num_deleted":"0","num_feature":"16","num_nodes":"35","size_leaf_vector":"1"}},{"base_weights":[-3.9249697E-1,-3.84749E-3,-5.351504E-1,2.5938144E-2,-4.277994E-1,-3.7001804E-1,-5.6956804E-1,-3.610017E-2,1.9356681E-1,-5.641654E-2,6.016181E-1,-2.4860558E-1,-5.471811E-1,-5.701864E-1,-1.11420766E-1,6.2335923E-2,-1.949884E-1,2.3497945E-2,2.0327263E-1,1.5457429E0,-4.79821E-2,-3.4156436E-1,2.1726353E-1,-5.6171143E-1,7.0720464E-1,-1.7452633E-1,-5.7080682E-2,-4.3736096E-2,5.212834E-2,-1.0263458E-2,2.2836475E-2,-1.0871398E-2,-5.311155E-2,-2.4242993E-2,1.859133E-2,1.8218985E-2,1.7876415E-1,-3.0366758E-2,-5.624056E-2,-4.0829304E-4,1.8932247E-1,-3.9032858E-2,-5.6893535E-2,-3.3288043E-2,1.4633465E-1,4.2871755E-2,-4.5569386E-2],"categories":[],"categories_nodes":[],"categories_segments":[],"categories_sizes":[],"default_left":[0,0,0,0,0,0,0,0,0,0,0,0,0,0,0,0,0,0,0,0,0,0,0,0,0,0,0,0,0,0,0,0,0,0,0,0,0,0,0,0,0,0,0,0,0,0,0],"id":16,"left_children":[1,3,5,7,9,11,13,15,17,-1,19,21,23,25,27,29,31,33,-1,35,-1,37,39,41,43,45,-1,-1,-1,-1,-1,-1,-1,-1,-1,-1,-1,-1,-1,-1,-1,-1,-1,-1,-1,-1,-1],"loss_changes":[2.8950885E2,1.7728497E1,2.1498901E1,1.3649959E1,1.3276781E1,1.4096527E1,8.314209E-1,1.5001359E1,1.108439E2,0E0,1.2242757E1,1.7156345E1,5.286171E0,6.748047E-1,1.3623776E0,1.625233E1,1.058071E1,1.4105142E1,0E0,1.7361097E0,0E0,2.5845184E0,2.4575378E1,1.06903076E-1,3.2508454E0,1.2774041E0,0E0,0E0,0E0,0E0,0E0,0E0,0E0,0E0,0E0,0E0,0E0,0E0,0E0,0E0,0E0,0E0,0E0,0E0,0E0,0E0,0E0],"parents":[2147483647,0,0,1,1,2,2,3,3,4,4,5,5,6,6,7,7,8,8,10,10,11,11,12,12,13,13,14,14,15,15,16,16,17,17,19,19,21,21,22,22,23,23,24,24,25,25],"right_children":[2,4,6,8,10,12,14,16,18,-1,20,22,24,26,28,30,32,34,-1,36,-1,38,40,42,44,46,-1,-1,-1,-1,-1,-1,-1,-1,-1,-1,-1,-1,-1,-1,-1,-1,-1,-1,-1,-1,-1],"split_conditions":[4.4107437E-5,2.89E2,2.89E2,1.89E2,5.2268505E-3,2.6917458E-4,4.617157E0,2.76E2,0E0,-5.641654E-2,2.896E3,1.93E2,1.9357933E1,1.71E2,5.792E3,2.14E2,1.5E2,1.89E2,2.0327263E-1,2.674E3,-4.79821E-2,2.76E2,0E0,5.576259E0,5.449699E0,5.589615E0,-5.7080682E-2,-4.3736096E-2,5.212834E-2,-1.0263458E-2,2.2836475E-2,-1.0871398E-2,-5.311155E-2,-2.4242993E-2,1.859133E-2,1.8218985E-2,1.7876415E-1,-3.0366758E-2,-5.624056E-2,-4.0829304E-4,1.8932247E-1,-3.9032858E-2,-5.6893535E-2,-3.3288043E-2,1.4633465E-1,4.2871755E-2,-4.5569386E-2],"split_indices":[9,4,4,13,6,6,6,7,14,0,7,13,15,7,7,7,13,10,0,7,0,10,14,0,0,0,0,0,0,0,0,0,0,0,0,0,0,0,0,0,0,0,0,0,0,0,0],"split_type":[0,0,0,0,0,0,0,0,0,0,0,0,0,0,0,0,0,0,0,0,0,0,0,0,0,0,0,0,0,0,0,0,0,0,0,0,0,0,0,0,0,0,0,0,0,0,0],"sum_hessian":[5.2208525E3,1.4020609E3,3.8187917E3,1.3108998E3,9.11612E1,6.606775E2,3.1581143E3,9.5736835E2,3.5353137E2,8.089683E1,1.0264375E1,3.9344626E2,2.6723123E2,3.1536135E3,4.5007677E0,5.9151465E2,3.658537E2,3.2453418E2,2.8997211E1,5.25088E0,5.0134945E0,3.282205E2,6.522577E1,2.6471707E2,2.5141711E0,5.37948E0,3.1482341E3,3.1742718E0,1.326496E0,2.968945E2,2.9462018E2,2.9218216E2,7.367155E1,1.22867165E2,2.01667E2,1.0553223E0,4.1955576E0,2.8217395E2,4.6046535E1,5.8497494E1,6.728279E0,1.2932604E1,2.5178445E2,1.2940075E0,1.2201636E0,1.5433824E0,3.8360972E0],"tree_param":{"num_deleted":"0","num_feature":"16","num_nodes":"47","size_leaf_vector":"1"}},{"base_weights":[-4.0429524E-1,-1.4130795E-1,-5.626969E-1,6.3007784E-1,-2.1010536E-1,-5.659805E-1,8.013773E-1,9.3629915E-1,1.12449795E-1,9.4791256E-2,-3.020477E-1,-5.683791E-1,1.489712E-1,1.649644E-1,-4.3511078E-2,8.0631244E-1,1.6696507E0,-3.799247E-1,3.1261498E-1,-3.928369E-2,1.2792218E0,-2.4339338E-1,-5.338849E-1,9.587924E-3,-5.6898415E-1,1.4825496E-1,-2.2178477E-1,5.5075802E-2,1.1165445E-1,7.1522266E-2,1.8081263E-1,-1.2158638E-2,-5.2455243E-2,4.9472295E-2,-3.3605415E-2,4.5032945E-2,-1.1149693E-2,1.3691004E-1,6.4640725E-3,-2.496444E-2,1.5035503E-1,7.596937E-2,-5.443358E-2,6.668606E-2,-4.0237095E-2,-5.6958973E-2,-1.4306414E-2,-5.005134E-2,5.2145284E-2],"categories":[],"categories_nodes":[],"categories_segments":[],"categories_sizes":[],"default_left":[0,0,0,0,0,0,0,0,0,0,0,0,0,0,0,0,0,0,0,0,0,0,0,0,0,0,0,0,0,0,0,0,0,0,0,0,0,0,0,0,0,0,0,0,0,0,0,0,0],"id":17,"left_children":[1,3,5,7,9,11,13,15,17,19,21,23,25,-1,-1,27,29,31,33,35,37,39,41,43,45,-1,47,-1,-1,-1,-1,-1,-1,-1,-1,-1,-1,-1,-1,-1,-1,-1,-1,-1,-1,-1,-1,-1,-1],"loss_changes":[2.169809E2,1.04148926E2,1.5017578E1,2.5373932E1,5.04954E1,5.6483154E0,9.341949E0,8.268242E0,6.1192784E0,6.640739E1,1.8682E1,1.1363525E0,6.084239E0,0E0,0E0,6.330673E0,5.9036255E-1,6.105759E-1,5.3444242E0,1.3356255E1,4.553253E0,1.2452171E1,4.1784744E0,1.4502562E0,7.515869E-1,0E0,2.3280776E0,0E0,0E0,0E0,0E0,0E0,0E0,0E0,0E0,0E0,0E0,0E0,0E0,0E0,0E0,0E0,0E0,0E0,0E0,0E0,0E0,0E0,0E0],"parents":[2147483647,0,0,1,1,2,2,3,3,4,4,5,5,6,6,7,7,8,8,9,9,10,10,11,11,12,12,15,15,16,16,17,17,18,18,19,19,20,20,21,21,22,22,23,23,24,24,26,26],"right_children":[2,4,6,8,10,12,14,16,18,20,22,24,26,-1,-1,28,30,32,34,36,38,40,42,44,46,-1,48,-1,-1,-1,-1,-1,-1,-1,-1,-1,-1,-1,-1,-1,-1,-1,-1,-1,-1,-1,-1,-1,-1],"split_conditions":[2.89E2,6.914139E-5,9.633907E0,2.76E2,1.59E2,4.617157E0,3.361621E-1,8.821487E-6,5.576259E0,1.48E2,2.89917E-4,1.71E2,5.525554E0,1.649644E-1,-4.3511078E-2,5.620865E0,5.53891E0,2.0980835E-5,1.56E2,8.08239E-5,1.57E2,2.8705597E-4,5.449699E0,9E1,5.84375E0,1.4825496E-1,5.78891E0,5.5075802E-2,1.1165445E-1,7.1522266E-2,1.8081263E-1,-1.2158638E-2,-5.2455243E-2,4.9472295E-2,-3.3605415E-2,4.5032945E-2,-1.1149693E-2,1.3691004E-1,6.4640725E-3,-2.496444E-2,1.5035503E-1,7.596937E-2,-5.443358E-2,6.668606E-2,-4.0237095E-2,-5.6958973E-2,-1.4306414E-2,-5.005134E-2,5.2145284E-2],"split_indices":[4,6,15,7,7,6,6,12,0,7,6,7,0,0,0,0,0,9,13,6,7,6,0,1,0,0,0,0,0,0,0,0,0,0,0,0,0,0,0,0,0,0,0,0,0,0,0,0,0],"split_type":[0,0,0,0,0,0,0,0,0,0,0,0,0,0,0,0,0,0,0,0,0,0,0,0,0,0,0,0,0,0,0,0,0,0,0,0,0,0,0,0,0,0,0,0,0,0,0,0,0],"sum_hessian":[5.209581E3,1.9590117E3,3.2505693E3,1.5974332E2,1.7992684E3,3.243347E3,7.2223344E0,9.9859215E1,5.98841E1,4.1685956E2,1.3824088E3,3.2327065E3,1.064049E1,4.0854564E0,3.1368778E0,8.6607506E1,1.3251711E1,1.7048775E1,4.2835327E1,3.7533887E2,4.1520702E1,1.1049169E3,2.7749194E2,3.3650846E0,3.2293413E3,1.6623685E0,8.978122E0,4.9010387E1,3.759712E1,2.460177E0,1.0791534E1,6.7795763E0,1.0269198E1,3.3631046E1,9.204283E0,4.7570427E1,3.2776843E2,3.8541435E1,2.9792702E0,1.1018313E3,3.085546E0,1.6493456E0,2.758426E2,1.0581194E0,2.306965E0,3.2244197E3,4.9218526E0,6.7669573E0,2.211164E0],"tree_param":{"num_deleted":"0","num_feature":"16","num_nodes":"49","size_leaf_vector":"1"}},{"base_weights":[-3.9873388E-1,-8.3927974E-2,-5.466638E-1,1.2338326E-1,-1.9455302E-1,-5.5604273E-1,1.0450874E-1,6.739481E-1,6.608156E-2,-2.0829476E-1,1.6951699E0,-4.4440174E-1,-5.7048464E-1,4.9467006E-1,-3.82578E-1,3.8547212E-1,9.075789E-1,8.965335E-3,7.2559214E-1,3.011029E-1,-2.3573206E-1,1.6313348E-2,1.9011018E-1,-2.2959703E-1,-5.580209E-1,-5.707981E-2,-1.9426274E-1,-1.9757572E-1,9.082383E-1,-5.5010762E-2,1.4289883E-1,5.184837E-2,3.4464995E-4,-3.3512823E-2,9.771469E-2,6.172376E-3,-3.374806E-2,-4.6777353E-2,8.668072E-2,8.115161E-2,-2.6535735E-2,-1.8664837E-2,-5.6695323E-2,-2.6080027E-2,1.5546936E-1,-2.3207659E-2,-5.6522932E-2,2.0363813E-2,-3.902062E-2,1.4451802E-1,-5.3262588E-2,-4.69589E-2,1.2935586E-1],"categories":[],"categories_nodes":[],"categories_segments":[],"categories_sizes":[],"default_left":[0,0,0,0,0,0,0,0,0,0,0,0,0,0,0,0,0,0,0,0,0,0,0,0,0,0,0,0,0,0,0,0,0,0,0,0,0,0,0,0,0,0,0,0,0,0,0,0,0,0,0,0,0],"id":18,"left_children":[1,3,5,7,9,11,13,15,17,19,21,23,25,27,29,31,33,35,37,39,41,-1,-1,43,45,-1,47,49,51,-1,-1,-1,-1,-1,-1,-1,-1,-1,-1,-1,-1,-1,-1,-1,-1,-1,-1,-1,-1,-1,-1,-1,-1],"loss_changes":[2.4286853E2,3.8294212E1,2.1729614E1,1.8292593E1,2.861898E1,5.3867188E0,9.924206E0,3.3356133E0,1.9865902E1,1.5186794E1,2.2035942E0,9.761734E0,2.539673E-1,8.447121E0,7.8715773E0,1.3299258E0,2.8756886E0,8.913456E0,7.4891796E0,1.6324078E1,1.6587475E1,0E0,0E0,8.305128E0,4.8989868E-1,0E0,3.98477E-1,7.1664205E0,1.0300081E1,0E0,0E0,0E0,0E0,0E0,0E0,0E0,0E0,0E0,0E0,0E0,0E0,0E0,0E0,0E0,0E0,0E0,0E0,0E0,0E0,0E0,0E0,0E0,0E0],"parents":[2147483647,0,0,1,1,2,2,3,3,4,4,5,5,6,6,7,7,8,8,9,9,10,10,11,11,12,12,13,13,14,14,15,15,16,16,17,17,18,18,19,19,20,20,23,23,24,24,26,26,27,27,28,28],"right_children":[2,4,6,8,10,12,14,16,18,20,22,24,26,28,30,32,34,36,38,40,42,-1,-1,44,46,-1,48,50,52,-1,-1,-1,-1,-1,-1,-1,-1,-1,-1,-1,-1,-1,-1,-1,-1,-1,-1,-1,-1,-1,-1,-1,-1],"split_conditions":[5.7935715E-5,2.87E2,5.331504E0,7.7962875E-5,5.873E3,2.89E2,2.3818016E-4,8.106232E-6,1.93E2,8.821487E-6,5.607509E0,1.6999245E-4,2.2895832E0,2.507E3,3.703E3,4.5490265E-4,5.420009E0,2E2,5.470714E0,1.08003616E-4,2.89E2,1.6313348E-2,1.9011018E-1,1.6593933E-4,1.1396408E-4,-5.707981E-2,5.724849E0,5.533214E0,2.4778843E-3,-5.5010762E-2,1.4289883E-1,5.184837E-2,3.4464995E-4,-3.3512823E-2,9.771469E-2,6.172376E-3,-3.374806E-2,-4.6777353E-2,8.668072E-2,8.115161E-2,-2.6535735E-2,-1.8664837E-2,-5.6695323E-2,-2.6080027E-2,1.5546936E-1,-2.3207659E-2,-5.6522932E-2,2.0363813E-2,-3.902062E-2,1.4451802E-1,-5.3262588E-2,-4.69589E-2,1.2935586E-1],"split_indices":[9,4,15,6,7,4,6,9,13,9,0,9,6,13,4,15,0,7,0,6,4,0,0,9,6,0,0,0,12,0,0,0,0,0,0,0,0,0,0,0,0,0,0,0,0,0,0,0,0,0,0,0,0],"split_type":[0,0,0,0,0,0,0,0,0,0,0,0,0,0,0,0,0,0,0,0,0,0,0,0,0,0,0,0,0,0,0,0,0,0,0,0,0,0,0,0,0,0,0,0,0,0,0,0,0,0,0,0,0],"sum_hessian":[5.215197E3,1.667724E3,3.5474727E3,5.8023975E2,1.0874843E3,3.4972476E3,5.0225178E1,5.368297E1,5.265568E2,1.0805167E3,6.967566E0,4.042235E2,3.093024E3,2.7878586E1,2.2346594E1,2.5207674E1,2.8475294E1,4.8552225E2,4.1034554E1,5.4714745E1,1.025802E3,1.0379412E0,5.929625E0,1.4088727E2,2.6333624E2,3.0899324E3,3.0917308E0,1.0621758E1,1.7256828E1,2.1092356E1,1.2542381E0,1.8432686E1,6.7749877E0,1.307203E0,2.716809E1,4.2206937E2,6.3452885E1,4.0972695E0,3.6937286E1,2.8553656E1,2.6161089E1,8.947695E2,1.3103246E2,1.3930498E2,1.5822954E0,6.41607E0,2.569202E2,1.0071827E0,2.0845482E0,1.2380847E0,9.383674E0,3.723533E0,1.3533295E1],"tree_param":{"num_deleted":"0","num_feature":"16","num_nodes":"53","size_leaf_vector":"1"}},{"base_weights":[-2.4822995E-1,2.4112435E-1,-5.65126E-1,-1.4754389E-1,5.371248E-1,-5.6960523E-1,2.6954702E-1,2.6748165E-2,-5.129258E-1,8.404002E-2,7.000462E-1,-5.6990695E-1,-8.102848E-3,-5.1898953E-2,1.2540095E0,-4.777836E-1,1.5983792E-1,-1.475867E-1,-5.5793595E-1,-3.841266E-1,1.8167768E-1,7.7890205E-1,2.004108E-1,-4.3202186E-1,-5.7051774E-2,1.8645461E-1,-3.895112E-2,-5.2166004E-2,-2.6988193E-2,1.9631054E-2,-5.5856045E-2,-2.6901409E-2,8.253826E-2,-5.653897E-2,-2.0785822E-2,1.748631E-2,-4.2800467E-2,3.0165633E-2,-2.9714813E-3,7.4372515E-2,2.0088167E-1,5.1030166E-2,-5.571727E-2,-5.367306E-2,3.2222044E-2],"categories":[],"categories_nodes":[],"categories_segments":[],"categories_sizes":[],"default_left":[0,0,0,0,0,0,0,0,0,0,0,0,0,0,0,0,0,0,0,0,0,0,0,0,0,0,0,0,0,0,0,0,0,0,0,0,0,0,0,0,0,0,0,0,0],"id":19,"left_children":[1,3,5,7,9,11,13,15,17,19,21,23,-1,-1,25,27,29,31,33,35,37,39,41,43,-1,-1,-1,-1,-1,-1,-1,-1,-1,-1,-1,-1,-1,-1,-1,-1,-1,-1,-1,-1,-1],"loss_changes":[8.3059076E2,2.4231523E2,1.2306519E1,5.803374E1,8.818848E1,4.30542E-1,1.4647152E1,4.1559402E1,4.756912E0,1.4574629E1,3.448236E1,2.5756836E-2,0E0,0E0,9.066235E0,1.037777E0,1.2937698E1,4.1963644E0,5.652237E-1,1.425786E0,6.685396E0,3.1342896E1,2.8735468E1,1.6236947E0,0E0,0E0,0E0,0E0,0E0,0E0,0E0,0E0,0E0,0E0,0E0,0E0,0E0,0E0,0E0,0E0,0E0,0E0,0E0,0E0,0E0],"parents":[2147483647,0,0,1,1,2,2,3,3,4,4,5,5,6,6,7,7,8,8,9,9,10,10,11,11,14,14,15,15,16,16,17,17,18,18,19,19,20,20,21,21,22,22,23,23],"right_children":[2,4,6,8,10,12,14,16,18,20,22,24,-1,-1,26,28,30,32,34,36,38,40,42,44,-1,-1,-1,-1,-1,-1,-1,-1,-1,-1,-1,-1,-1,-1,-1,-1,-1,-1,-1,-1,-1],"split_conditions":[2.89E2,2.87E2,8.9483094E-1,1.1301041E-4,8.606911E-5,1.3589426E1,1.943E3,1.02996826E-4,2.439022E-4,1.4781952E-5,1.81E2,1.692772E-5,-8.102848E-3,-5.1898953E-2,3.703E3,5.675705E0,2.507E3,2.2816658E-4,8.9483094E-1,4.053116E-6,2.76E2,1.79E2,1.81E2,1.5974045E-5,-5.7051774E-2,1.8645461E-1,-3.895112E-2,-5.2166004E-2,-2.6988193E-2,1.9631054E-2,-5.5856045E-2,-2.6901409E-2,8.253826E-2,-5.653897E-2,-2.0785822E-2,1.748631E-2,-4.2800467E-2,3.0165633E-2,-2.9714813E-3,7.4372515E-2,2.0088167E-1,5.1030166E-2,-5.571727E-2,-5.367306E-2,3.2222044E-2],"split_indices":[4,4,9,9,6,15,4,6,6,9,13,9,0,0,4,0,13,6,9,9,10,13,10,9,0,0,0,0,0,0,0,0,0,0,0,0,0,0,0,0,0,0,0,0,0],"split_type":[0,0,0,0,0,0,0,0,0,0,0,0,0,0,0,0,0,0,0,0,0,0,0,0,0,0,0,0,0,0,0,0,0,0,0,0,0,0,0,0,0,0,0,0,0],"sum_hessian":[5.354199E3,2.1045579E3,3.2496414E3,9.1007306E2,1.1944847E3,3.2326116E3,1.70299E1,6.167851E2,2.9328793E2,3.163184E2,8.781663E2,3.23045E3,2.1616766E0,9.718432E0,7.3114676E0,1.2820001E2,4.8858508E2,3.2639347E1,2.606486E2,5.407894E1,2.6223944E2,7.579781E2,1.2018822E2,1.7369556E1,3.2130803E3,5.2330184E0,2.0784492E0,1.0461288E2,2.3587128E1,4.6567004E2,2.2915033E1,2.9661127E1,2.9782212E0,2.5461244E2,6.0361643E0,3.718719E0,5.036022E1,1.670187E2,9.5220726E1,7.38462E2,1.9516151E1,8.5528885E1,3.4659332E1,1.5505384E1,1.8641717E0],"tree_param":{"num_deleted":"0","num_feature":"16","num_nodes":"45","size_leaf_vector":"1"}},{"base_weights":[-2.5441426E-1,2.2881533E-1,-5.665989E-1,3.4925765E-1,-4.799409E-1,5.282452E-1,-5.6839436E-1,1.4145453E-1,4.5995903E-1,-5.361734E-1,-6.326413E-2,1.5673694E-1,-4.2775907E-2,-5.6958884E-2,-2.5797263E-1,-1.1782873E-1,2.4672201E-1,5.6427664E-1,3.7343672E-1,-5.5392057E-1,1.3804789E-1,-4.1315448E-1,3.6093742E-1,7.4106216E-1,-5.25988E-2,-1.8003548E-2,5.8297433E-2,6.1730217E-2,1.1490678E-2,1.1105185E-1,5.2385654E-2,4.5668606E-2,-1.3120725E-2,-5.611788E-2,-1.043621E-2,-4.6813536E-2,1.0629963E-1,-4.536161E-2,1.4125401E-2,1.163847E-1,-5.187101E-2,-3.2092016E-2,1.4744069E-1],"categories":[],"categories_nodes":[],"categories_segments":[],"categories_sizes":[],"default_left":[0,0,0,0,0,0,0,0,0,0,0,0,0,0,0,0,0,0,0,0,0,0,0,0,0,0,0,0,0,0,0,0,0,0,0,0,0,0,0,0,0,0,0],"id":20,"left_children":[1,3,5,7,9,11,13,15,17,19,21,-1,-1,-1,23,25,27,29,31,33,35,37,39,41,-1,-1,-1,-1,-1,-1,-1,-1,-1,-1,-1,-1,-1,-1,-1,-1,-1,-1,-1],"loss_changes":[8.0701794E2,1.7943027E2,6.6885986E0,4.123944E1,7.122902E0,6.4710016E0,1.0561523E0,1.7101776E1,1.0358688E1,3.2950897E0,5.708133E0,0E0,0E0,0E0,4.209553E0,8.008602E0,2.1676764E1,1.1097122E1,2.7075836E1,7.972946E-1,4.8146033E0,5.3494596E-1,1.2937267E1,3.146574E0,0E0,0E0,0E0,0E0,0E0,0E0,0E0,0E0,0E0,0E0,0E0,0E0,0E0,0E0,0E0,0E0,0E0,0E0,0E0],"parents":[2147483647,0,0,1,1,2,2,3,3,4,4,5,5,6,6,7,7,8,8,9,9,10,10,14,14,15,15,16,16,17,17,18,18,19,19,20,20,21,21,22,22,23,23],"right_children":[2,4,6,8,10,12,14,16,18,20,22,-1,-1,-1,24,26,28,30,32,34,36,38,40,42,-1,-1,-1,-1,-1,-1,-1,-1,-1,-1,-1,-1,-1,-1,-1,-1,-1,-1,-1],"split_conditions":[2.89E2,2.8586388E-4,5.888939E-5,2.87E2,2.51E2,4.177E3,4.617157E0,1.1920929E-5,2.77E2,8.9483094E-1,3.387928E-4,1.5673694E-1,-4.2775907E-2,-5.6958884E-2,5.74E2,1.93E2,1.4781952E-5,6.389618E-5,1.5E2,1.3589426E1,2.452E3,4.564047E-3,4.069805E-4,5.724849E0,-5.25988E-2,-1.8003548E-2,5.8297433E-2,6.1730217E-2,1.1490678E-2,1.1105185E-1,5.2385654E-2,4.5668606E-2,-1.3120725E-2,-5.611788E-2,-1.043621E-2,-4.6813536E-2,1.0629963E-1,-4.536161E-2,1.4125401E-2,1.163847E-1,-5.187101E-2,-3.2092016E-2,1.4744069E-1],"split_indices":[4,6,6,4,4,1,6,9,7,9,6,0,0,0,7,13,9,6,13,15,7,15,6,0,0,0,0,0,0,0,0,0,0,0,0,0,0,0,0,0,0,0,0],"split_type":[0,0,0,0,0,0,0,0,0,0,0,0,0,0,0,0,0,0,0,0,0,0,0,0,0,0,0,0,0,0,0,0,0,0,0,0,0,0,0,0,0,0,0],"sum_hessian":[5.3477017E3,2.0989736E3,3.248728E3,1.7945282E3,3.0444547E2,4.8390417E0,3.243889E3,6.2450903E2,1.1700192E3,2.679919E2,3.6453575E1,2.0122914E0,2.8267505E0,3.2306233E3,1.32657995E1,1.8029845E2,4.4421054E2,5.2795557E2,6.4206366E2,2.6129248E2,6.699425E0,1.9990791E1,1.6462784E1,2.4327302E0,1.0833069E1,1.6628159E2,1.4016873E1,1.1558273E2,3.286278E2,3.455133E1,4.9340427E2,5.5122504E2,9.0838585E1,2.5689655E2,4.395937E0,4.3454366E0,2.3539886E0,1.8800503E1,1.1902881E0,8.4379E0,8.024884E0,1.2234285E0,1.2093018E0],"tree_param":{"num_deleted":"0","num_feature":"16","num_nodes":"43","size_leaf_vector":"1"}},{"base_weights":[1.2378486E0,-1.6321869E-1,1.5980859E0,-5.402587E-1,1.5259783E0,1.6105785E0,-1.939907E-1,-5.662121E-1,1.6094209E0,1.5957369E0,-5.194847E-2,1.3453236E0,1.6359239E0,1.4600442E-1,-5.571067E-2,-5.6763448E-2,-3.7343255E-1,1.692694E-1,1.6511882E-2,1.1813811E-1,1.6084557E0,-3.8341358E-1,1.5807391E0,1.636966E0,-4.2161703E-2,5.4459102E-2,-5.2075326E-2,4.6309117E-2,-3.1735905E-2,1.6244157E-1,1.1469592E-1,-5.1791858E-2,1.5652235E-1,7.4820116E-2,1.6350533E-1,-5.492005E-3,1.6375376E-1],"categories":[],"categories_nodes":[],"categories_segments":[],"categories_sizes":[],"default_left":[0,0,0,0,0,0,0,0,0,0,0,0,0,0,0,0,0,0,0,0,0,0,0,0,0,0,0,0,0,0,0,0,0,0,0,0,0],"id":21,"left_children":[1,3,5,7,9,11,13,15,17,19,-1,21,23,-1,-1,-1,25,-1,-1,27,29,31,33,35,-1,-1,-1,-1,-1,-1,-1,-1,-1,-1,-1,-1,-1],"loss_changes":[4.1884473E3,1.0823389E3,1.4809375E2,7.840457E1,4.5080322E1,4.1873047E1,2.8795563E1,1.6455078E-1,1.7446213E0,5.4508057E0,0E0,2.3557996E2,1.3509766E1,0E0,0E0,0E0,2.0390644E0,0E0,0E0,6.9390774E-1,3.2800293E-1,1.9159405E1,2.1764404E1,5.8691406E0,0E0,0E0,0E0,0E0,0E0,0E0,0E0,0E0,0E0,0E0,0E0,0E0,0E0],"parents":[2147483647,0,0,1,1,2,2,3,3,4,4,5,5,6,6,7,7,8,8,9,9,11,11,12,12,16,16,19,19,20,20,21,21,22,22,23,23],"right_children":[2,4,6,8,10,12,14,16,18,20,-1,22,24,-1,-1,-1,26,-1,-1,28,30,32,34,36,-1,-1,-1,-1,-1,-1,-1,-1,-1,-1,-1,-1,-1],"split_conditions":[6.1035156E-5,2.89E2,5.331504E0,5.61E2,5.2268505E-3,2.89E2,7.3E1,1.131E3,2.28E2,5.888939E-5,-5.194847E-2,2.4795532E-4,2.2895832E0,1.4600442E-1,-5.571067E-2,-5.6763448E-2,5.46875E0,1.692694E-1,1.6511882E-2,1.1920929E-5,1E0,9E1,1.449585E-4,5.888939E-5,-4.2161703E-2,5.4459102E-2,-5.2075326E-2,4.6309117E-2,-3.1735905E-2,1.6244157E-1,1.1469592E-1,-5.1791858E-2,1.5652235E-1,7.4820116E-2,1.6350533E-1,-5.492005E-3,1.6375376E-1],"split_indices":[9,4,15,7,6,4,13,13,4,6,0,6,6,0,0,0,0,0,0,12,11,1,9,6,0,0,0,0,0,0,0,0,0,0,0,0,0],"split_type":[0,0,0,0,0,0,0,0,0,0,0,0,0,0,0,0,0,0,0,0,0,0,0,0,0,0,0,0,0,0,0,0,0,0,0,0,0],"sum_hessian":[8.297094E3,1.6971051E3,6.599989E3,1.3879791E3,3.09126E2,6.554399E3,4.5589844E1,1.3721495E3,1.5829574E1,2.9914386E2,9.98215E0,5.763717E2,5.978027E3,7.663022E0,3.7926823E1,1.3601694E3,1.1980007E1,1.4804048E1,1.0255268E0,2.6407895E0,2.9650305E2,6.900627E1,5.0736542E2,5.975205E3,2.82197E0,1.2837476E0,1.06962595E1,1.438224E0,1.2025654E0,2.8415622E2,1.23468485E1,6.523746E1,3.7688117E0,3.1977858E1,4.7538754E2,1.9857459E0,5.973219E3],"tree_param":{"num_deleted":"0","num_feature":"16","num_nodes":"37","size_leaf_vector":"1"}},{"base_weights":[-3.937404E-1,-5.61864E-2,-5.33222E-1,-2.228541E-2,-5.497056E-2,-3.7879694E-1,-5.6269634E-1,1.3521452E-1,-1.0549276E-1,-2.6483858E-1,-5.4642093E-1,-5.643181E-2,3.733891E-1,5.6072857E-2,8.37885E-1,-5.657461E-2,-7.9313554E-2,-3.6414963E-1,-5.5009946E-3,-5.6323357E-2,1.9836087E-2,1.022656E-1,-3.9844096E-2,9.715283E-3,-5.525654E-2,6.465837E-2,1.9501066E-1,-1.7010255E-2,4.431798E-3,6.117938E-3,-3.8676355E-2,3.31203E-2,-5.5627584E-2,-4.4056103E-2,4.3774597E-2],"categories":[],"categories_nodes":[],"categories_segments":[],"categories_sizes":[],"default_left":[0,0,0,0,0,0,0,0,0,0,0,0,0,0,0,0,0,0,0,0,0,0,0,0,0,0,0,0,0,0,0,0,0,0,0],"id":22,"left_children":[1,3,5,7,-1,9,11,13,15,17,19,-1,21,23,25,-1,27,29,31,-1,33,-1,-1,-1,-1,-1,-1,-1,-1,-1,-1,-1,-1,-1,-1],"loss_changes":[2.3505707E2,2.4432384E1,1.5867737E1,1.7944563E1,0E0,1.0730385E1,4.711548E0,2.6278545E1,1.0748632E1,8.776581E0,2.195732E0,0E0,3.2785406E0,1.071845E1,8.919884E0,0E0,9.53421E0,2.3941116E0,1.7875515E1,0E0,1.6517633E0,0E0,0E0,0E0,0E0,0E0,0E0,0E0,0E0,0E0,0E0,0E0,0E0,0E0,0E0],"parents":[2147483647,0,0,1,1,2,2,3,3,5,5,6,6,7,7,8,8,9,9,10,10,12,12,13,13,14,14,16,16,17,17,18,18,20,20],"right_children":[2,4,6,8,-1,10,12,14,16,18,20,-1,22,24,26,-1,28,30,32,-1,34,-1,-1,-1,-1,-1,-1,-1,-1,-1,-1,-1,-1,-1,-1],"split_conditions":[4.7922134E-5,2.89E2,2.89E2,1.76E2,-5.497056E-2,3.490448E-4,4.617157E0,1.6E2,2.75E2,1E0,8.9483094E-1,-5.643181E-2,1.14E3,1.5E2,1.75E2,-5.657461E-2,1.0180473E-4,5.464615E0,1.131E3,-5.6323357E-2,1.86E2,1.022656E-1,-3.9844096E-2,9.715283E-3,-5.525654E-2,6.465837E-2,1.9501066E-1,-1.7010255E-2,4.431798E-3,6.117938E-3,-3.8676355E-2,3.31203E-2,-5.5627584E-2,-4.4056103E-2,4.3774597E-2],"split_indices":[9,4,4,7,0,6,6,7,7,5,9,0,4,7,7,0,6,0,13,0,4,0,0,0,0,0,0,0,0,0,0,0,0,0,0],"split_type":[0,0,0,0,0,0,0,0,0,0,0,0,0,0,0,0,0,0,0,0,0,0,0,0,0,0,0,0,0,0,0,0,0,0,0],"sum_hessian":[4.992081E3,1.460057E3,3.5320242E3,1.3671869E3,9.2870125E1,5.683128E2,2.9637112E3,4.7239117E2,8.947957E2,3.3984845E2,2.2846439E2,2.958982E3,4.7292695E0,4.255422E2,4.6848957E1,4.704759E1,8.477481E2,2.4545097E2,9.439745E1,2.2188188E2,6.582512E0,2.392072E0,2.3371973E0,3.9942355E2,2.611867E1,4.1322807E1,5.526147E0,4.8858167E2,3.5916644E2,1.23052225E1,2.3314575E2,5.8831055E1,3.5566402E1,3.106255E0,3.476257E0],"tree_param":{"num_deleted":"0","num_feature":"16","num_nodes":"35","size_leaf_vector":"1"}},{"base_weights":[-3.8142154E-1,-2.4246003E-3,-5.280514E-1,2.547866E-2,-4.1855222E-1,-3.5993043E-1,-5.6400716E-1,-2.3088051E-1,6.265057E-2,-5.585456E-2,5.502991E-1,-2.4064218E-1,-5.406538E-1,-5.646575E-1,-1.0458031E-1,-4.0100327E-1,-7.156756E-2,2.1562672E-1,-2.3537887E-2,1.34616E0,-4.7328446E-2,-3.3213812E-1,1.976392E-1,-5.5583316E-1,6.5216297E-1,-1.6325854E-1,-5.6531172E-2,-4.3090727E-2,4.991361E-2,6.1244138E-2,-4.2370196E-2,4.6416517E-2,-1.6278468E-2,4.159015E-2,-1.5423152E-3,1.07700005E-2,-2.0909417E-2,1.750566E-2,1.5350793E-1,-2.9396433E-2,-5.5807985E-2,1.4467151E-1,-3.8510046E-3,-3.7994023E-2,-5.6341995E-2,-3.2927714E-2,1.3183717E-1,4.184302E-2,-4.4804126E-2],"categories":[],"categories_nodes":[],"categories_segments":[],"categories_sizes":[],"default_left":[0,0,0,0,0,0,0,0,0,0,0,0,0,0,0,0,0,0,0,0,0,0,0,0,0,0,0,0,0,0,0,0,0,0,0,0,0,0,0,0,0,0,0,0,0,0,0,0,0],"id":23,"left_children":[1,3,5,7,9,11,13,15,17,-1,19,21,23,25,27,29,31,33,35,37,-1,39,41,43,45,47,-1,-1,-1,-1,-1,-1,-1,-1,-1,-1,-1,-1,-1,-1,-1,-1,-1,-1,-1,-1,-1,-1,-1],"loss_changes":[2.7823352E2,1.6239674E1,2.1619385E1,1.2505545E1,1.2228033E1,1.3641418E1,8.289795E-1,4.4760303E0,1.510943E1,0E0,1.0086728E1,1.5569157E1,4.946907E0,6.870117E-1,1.2845868E0,2.1034927E0,4.3294573E0,1.9114494E1,1.7888428E1,1.2326326E0,0E0,2.5978127E0,1.9935785E1,1.2029266E-1,2.8152237E0,1.2203214E0,0E0,0E0,0E0,0E0,0E0,0E0,0E0,0E0,0E0,0E0,0E0,0E0,0E0,0E0,0E0,0E0,0E0,0E0,0E0,0E0,0E0,0E0,0E0],"parents":[2147483647,0,0,1,1,2,2,3,3,4,4,5,5,6,6,7,7,8,8,10,10,11,11,12,12,13,13,14,14,15,15,16,16,17,17,18,18,19,19,21,21,22,22,23,23,24,24,25,25],"right_children":[2,4,6,8,10,12,14,16,18,-1,20,22,24,26,28,30,32,34,36,38,-1,40,42,44,46,48,-1,-1,-1,-1,-1,-1,-1,-1,-1,-1,-1,-1,-1,-1,-1,-1,-1,-1,-1,-1,-1,-1,-1],"split_conditions":[4.4107437E-5,2.89E2,2.89E2,7.104874E-5,5.2268505E-3,2.6917458E-4,4.617157E0,5.607509E0,9.7990036E-5,-5.585456E-2,2.896E3,1.93E2,1.9357933E1,1.71E2,5.792E3,5.9604645E-6,5.620865E0,2.76E2,2.87E2,2.674E3,-4.7328446E-2,2.76E2,1.1610985E-4,5.576259E0,5.449699E0,5.589615E0,-5.6531172E-2,-4.3090727E-2,4.991361E-2,6.1244138E-2,-4.2370196E-2,4.6416517E-2,-1.6278468E-2,4.159015E-2,-1.5423152E-3,1.07700005E-2,-2.0909417E-2,1.750566E-2,1.5350793E-1,-2.9396433E-2,-5.5807985E-2,1.4467151E-1,-3.8510046E-3,-3.7994023E-2,-5.6341995E-2,-3.2927714E-2,1.3183717E-1,4.184302E-2,-4.4804126E-2],"split_indices":[9,4,4,6,6,6,6,0,6,0,7,13,15,7,7,9,0,7,4,7,0,10,15,0,0,0,0,0,0,0,0,0,0,0,0,0,0,0,0,0,0,0,0,0,0,0,0,0,0],"split_type":[0,0,0,0,0,0,0,0,0,0,0,0,0,0,0,0,0,0,0,0,0,0,0,0,0,0,0,0,0,0,0,0,0,0,0,0,0,0,0,0,0,0,0,0,0,0,0,0,0],"sum_hessian":[5.0057217E3,1.3966888E3,3.6090327E3,1.3097996E3,8.688928E1,6.378074E2,2.9712253E3,1.6520921E2,1.1445905E3,7.6289406E1,1.0599878E1,3.8561194E2,2.5219542E2,2.9667966E3,4.428715E0,7.916045E1,8.604877E1,4.119382E2,7.326522E2,5.7859883E0,4.81389E0,3.1921463E2,6.6397316E1,2.495537E2,2.641716E0,5.2349353E0,2.9615618E3,3.060607E0,1.3681082E0,1.1649902E0,7.799546E1,1.1924675E1,7.412409E1,2.2023647E2,1.9170172E2,4.2938312E2,3.0326907E2,1.0713501E0,4.714638E0,2.7504556E2,4.416905E1,9.742031E0,5.6655285E1,1.2430952E1,2.3712274E2,1.2726412E0,1.3690748E0,1.5663201E0,3.668615E0],"tree_param":{"num_deleted":"0","num_feature":"16","num_nodes":"49","size_leaf_vector":"1"}},{"base_weights":[-3.933555E-1,-1.3394934E-1,-5.5682397E-1,5.7527345E-1,-2.0107009E-1,-5.602417E-1,7.263304E-1,8.428938E-1,1.02618024E-1,8.8600926E-2,-2.9148147E-1,-5.62751E-1,1.435879E-1,1.4235635E-1,-4.269946E-2,7.169856E-1,1.4042017E0,-3.733719E-1,2.874651E-1,-3.8071107E-2,1.1232747E0,-2.3399808E-1,-5.2667934E-1,2.0050153E-2,-5.6338966E-1,1.3201015E-1,-2.1427295E-1,8.697315E-2,2.4114154E-2,7.635134E-2,1.9081102E-1,-1.1843489E-2,-5.1980365E-2,1.2130171E-2,9.8150626E-2,5.629872E-2,-9.110589E-3,-3.6448136E-2,1.17632486E-1,1.6120685E-2,-2.6316145E-2,7.0313476E-2,-5.3760167E-2,6.452248E-2,-3.937999E-2,-5.6402814E-2,-1.335229E-2,-4.9383987E-2,4.7921948E-2],"categories":[],"categories_nodes":[],"categories_segments":[],"categories_sizes":[],"default_left":[0,0,0,0,0,0,0,0,0,0,0,0,0,0,0,0,0,0,0,0,0,0,0,0,0,0,0,0,0,0,0,0,0,0,0,0,0,0,0,0,0,0,0,0,0,0,0,0,0],"id":24,"left_children":[1,3,5,7,9,11,13,15,17,19,21,23,25,-1,-1,27,29,31,33,35,37,39,41,43,45,-1,47,-1,-1,-1,-1,-1,-1,-1,-1,-1,-1,-1,-1,-1,-1,-1,-1,-1,-1,-1,-1,-1,-1],"loss_changes":[2.1154492E2,9.201227E1,1.3830811E1,2.1058136E1,4.6231926E1,5.4735107E0,7.4967995E0,6.5263824E0,5.52458E0,5.5148083E1,1.805909E1,1.1439209E0,5.185393E0,0E0,0E0,6.266762E0,4.5112534E0,5.9759307E-1,5.0604725E0,1.2022792E1,4.050823E0,1.2518978E1,3.9151764E0,1.3657361E0,7.5891113E-1,0E0,2.1344817E0,0E0,0E0,0E0,0E0,0E0,0E0,0E0,0E0,0E0,0E0,0E0,0E0,0E0,0E0,0E0,0E0,0E0,0E0,0E0,0E0,0E0,0E0],"parents":[2147483647,0,0,1,1,2,2,3,3,4,4,5,5,6,6,7,7,8,8,9,9,10,10,11,11,12,12,15,15,16,16,17,17,18,18,19,19,20,20,21,21,22,22,23,23,24,24,26,26],"right_children":[2,4,6,8,10,12,14,16,18,20,22,24,26,-1,-1,28,30,32,34,36,38,40,42,44,46,-1,48,-1,-1,-1,-1,-1,-1,-1,-1,-1,-1,-1,-1,-1,-1,-1,-1,-1,-1,-1,-1,-1,-1],"split_conditions":[2.89E2,6.914139E-5,9.633907E0,2.76E2,1.59E2,4.617157E0,3.361621E-1,6.914139E-6,5.576259E0,1.48E2,2.89917E-4,1.71E2,5.525554E0,1.4235635E-1,-4.269946E-2,4.053116E-6,5.60141E0,2.0980835E-5,2.3841858E-5,7.605553E-5,8.106232E-6,5.480949E0,5.449699E0,9E1,5.84375E0,1.3201015E-1,5.78891E0,8.697315E-2,2.4114154E-2,7.635134E-2,1.9081102E-1,-1.1843489E-2,-5.1980365E-2,1.2130171E-2,9.8150626E-2,5.629872E-2,-9.110589E-3,-3.6448136E-2,1.17632486E-1,1.6120685E-2,-2.6316145E-2,7.0313476E-2,-5.3760167E-2,6.452248E-2,-3.937999E-2,-5.6402814E-2,-1.335229E-2,-4.9383987E-2,4.7921948E-2],"split_indices":[4,6,15,7,7,6,6,15,0,7,6,7,0,0,0,15,0,9,9,6,9,0,0,1,0,0,0,0,0,0,0,0,0,0,0,0,0,0,0,0,0,0,0,0,0,0,0,0,0],"split_type":[0,0,0,0,0,0,0,0,0,0,0,0,0,0,0,0,0,0,0,0,0,0,0,0,0,0,0,0,0,0,0,0,0,0,0,0,0,0,0,0,0,0,0,0,0,0,0,0,0],"sum_hessian":[4.989468E3,1.9294563E3,3.0600115E3,1.6616148E2,1.7632948E3,3.0524446E3,7.566888E0,1.0559158E2,6.05699E1,4.1944516E2,1.3438496E3,3.0418005E3,1.0644192E1,4.5698876E0,2.997E0,8.810574E1,1.7485844E1,1.6657124E1,4.3912777E1,3.7455298E2,4.4892204E1,1.081517E3,2.623326E2,3.2965746E0,3.038504E3,1.8554137E0,8.788778E0,6.6069626E1,2.2036118E1,8.805446E0,8.680399E0,6.7369432E0,9.92018E0,3.6378113E1,7.5346646E0,2.9589642E1,3.4496332E2,1.3435242E0,4.354868E1,7.4012695E1,1.0075043E3,1.7514279E0,2.605812E2,1.0903617E0,2.206213E0,3.033686E3,4.8178344E0,6.4688797E0,2.3198984E0],"tree_param":{"num_deleted":"0","num_feature":"16","num_nodes":"49","size_leaf_vector":"1"}},{"base_weights":[-3.8764432E-1,-7.864872E-2,-5.4003966E-1,1.14720546E-1,-1.8499404E-1,-5.4980755E-1,9.2497155E-2,6.1603147E-1,6.0732193E-2,-1.9837531E-1,1.4549301E0,-4.3449736E-1,-5.649701E-1,4.453237E-1,-3.7650496E-1,4.657824E-1,9.9536914E-1,7.043211E-3,6.5149236E-1,2.825475E-1,-2.2534658E-1,1.46587435E-2,1.6180043E-1,-2.2028749E-1,-5.5203605E-1,-5.6529917E-2,-1.8777126E-1,-7.340959E-2,8.86145E-1,-5.45907E-2,1.2826636E-1,1.5284571E-2,7.2721615E-2,-3.3063363E-2,1.1402815E-1,5.723622E-3,-3.3084925E-2,8.926668E-2,-9.995729E-4,-5.4790594E-2,6.017178E-2,-1.7750535E-2,-5.6142062E-2,-2.7161792E-2,8.218469E-2,-3.0145044E-3,-5.558715E-2,-3.85165E-2,2.0382596E-2,3.7492465E-2,-5.0737947E-2,1.3599066E-1,2.818971E-2],"categories":[],"categories_nodes":[],"categories_segments":[],"categories_sizes":[],"default_left":[0,0,0,0,0,0,0,0,0,0,0,0,0,0,0,0,0,0,0,0,0,0,0,0,0,0,0,0,0,0,0,0,0,0,0,0,0,0,0,0,0,0,0,0,0,0,0,0,0,0,0,0,0],"id":25,"left_children":[1,3,5,7,9,11,13,15,17,19,21,23,25,27,29,31,33,35,37,39,41,-1,-1,43,45,-1,47,49,51,-1,-1,-1,-1,-1,-1,-1,-1,-1,-1,-1,-1,-1,-1,-1,-1,-1,-1,-1,-1,-1,-1,-1,-1],"loss_changes":[2.3537231E2,3.4001415E1,2.07359E1,1.5847858E1,2.3691898E1,5.519165E0,8.734266E0,2.7824974E0,1.683658E1,1.3796619E1,1.630064E0,9.634735E0,2.5524902E-1,6.9255476E0,7.099373E0,3.3802166E0,3.3129416E0,8.29114E0,7.064266E0,1.5349578E1,1.6027866E1,0E0,0E0,7.656317E0,4.827423E-1,0E0,3.9037168E-1,3.0515645E0,4.281541E0,0E0,0E0,0E0,0E0,0E0,0E0,0E0,0E0,0E0,0E0,0E0,0E0,0E0,0E0,0E0,0E0,0E0,0E0,0E0,0E0,0E0,0E0,0E0,0E0],"parents":[2147483647,0,0,1,1,2,2,3,3,4,4,5,5,6,6,7,7,8,8,9,9,10,10,11,11,12,12,13,13,14,14,15,15,16,16,17,17,18,18,19,19,20,20,23,23,24,24,26,26,27,27,28,28],"right_children":[2,4,6,8,10,12,14,16,18,20,22,24,26,28,30,32,34,36,38,40,42,-1,-1,44,46,-1,48,50,52,-1,-1,-1,-1,-1,-1,-1,-1,-1,-1,-1,-1,-1,-1,-1,-1,-1,-1,-1,-1,-1,-1,-1,-1],"split_conditions":[5.7935715E-5,2.87E2,5.331504E0,7.7962875E-5,5.873E3,2.89E2,2.3818016E-4,8.821487E-6,1.93E2,8.821487E-6,5.607509E0,1.6999245E-4,2.2895832E0,1.9812584E-4,3.703E3,5.588054E0,5.420009E0,2E2,1.8405914E-4,5.564464E0,2.89E2,1.46587435E-2,1.6180043E-1,1.4305115E-4,8.201599E-5,-5.6529917E-2,2.305E3,1.21831894E-4,2.2387505E-4,-5.45907E-2,1.2826636E-1,1.5284571E-2,7.2721615E-2,-3.3063363E-2,1.1402815E-1,5.723622E-3,-3.3084925E-2,8.926668E-2,-9.995729E-4,-5.4790594E-2,6.017178E-2,-1.7750535E-2,-5.6142062E-2,-2.7161792E-2,8.218469E-2,-3.0145044E-3,-5.558715E-2,-3.85165E-2,2.0382596E-2,3.7492465E-2,-5.0737947E-2,1.3599066E-1,2.818971E-2],"split_indices":[9,4,15,6,7,4,6,9,13,9,0,9,6,6,4,0,0,7,6,0,4,0,0,9,6,0,4,6,6,0,0,0,0,0,0,0,0,0,0,0,0,0,0,0,0,0,0,0,0,0,0,0,0],"split_type":[0,0,0,0,0,0,0,0,0,0,0,0,0,0,0,0,0,0,0,0,0,0,0,0,0,0,0,0,0,0,0,0,0,0,0,0,0,0,0,0,0,0,0,0,0,0,0,0,0,0,0,0,0],"sum_hessian":[4.9983057E3,1.6514182E3,3.3468875E3,5.859315E2,1.0654867E3,3.2961182E3,5.0769318E1,5.5954395E1,5.299771E2,1.057735E3,7.751754E0,3.8649548E2,2.9096228E3,2.9001905E1,2.1767414E1,4.1675385E1,1.4279012E1,4.867524E2,4.3224712E1,5.566686E1,1.0020681E3,1.0695624E0,6.6821914E0,1.3795386E2,2.4854161E2,2.9065881E3,3.0345385E0,1.3706432E1,1.5295473E1,2.0359657E1,1.4077563E0,1.9690481E1,2.1984901E1,1.2804837E0,1.2998528E1,4.245215E2,6.223092E1,3.1419775E1,1.18049345E1,1.5255835E1,4.0411022E1,8.785341E2,1.2353399E2,1.3218256E2,5.771303E0,1.877874E0,2.4666374E2,2.0284677E0,1.0060709E0,6.8085637E0,6.897868E0,7.8724723E0,7.423001E0],"tree_param":{"num_deleted":"0","num_feature":"16","num_nodes":"53","size_leaf_vector":"1"}},{"base_weights":[-2.37241E-1,2.2333938E-1,-5.5938864E-1,-1.4022866E-1,4.854828E-1,-5.640494E-1,2.5621486E-1,2.436827E-2,-5.0496435E-1,6.643332E-2,6.22074E-1,-5.6436735E-1,-7.5493823E-3,-5.1185805E-2,1.1118726E0,-4.9663326E-1,1.424512E-1,-1.4315282E-1,-5.5182654E-1,-3.687706E-1,1.5428628E-1,6.9092876E-1,1.7048468E-1,-4.2161062E-1,-5.650097E-2,1.6063184E-1,-3.8308594E-2,-5.532114E-2,-2.573588E-2,2.3910783E-2,-1.0759308E-2,-2.6267348E-2,7.5854674E-2,-5.5966295E-2,-1.9634448E-2,1.7211324E-2,-4.1431896E-2,8.237447E-3,5.2533623E-2,6.591354E-2,1.7411801E-1,4.427236E-2,-5.5295806E-2,-5.303196E-2,3.1645406E-2],"categories":[],"categories_nodes":[],"categories_segments":[],"categories_sizes":[],"default_left":[0,0,0,0,0,0,0,0,0,0,0,0,0,0,0,0,0,0,0,0,0,0,0,0,0,0,0,0,0,0,0,0,0,0,0,0,0,0,0,0,0,0,0,0,0],"id":26,"left_children":[1,3,5,7,9,11,13,15,17,19,21,23,-1,-1,25,27,29,31,33,35,37,39,41,43,-1,-1,-1,-1,-1,-1,-1,-1,-1,-1,-1,-1,-1,-1,-1,-1,-1,-1,-1,-1,-1],"loss_changes":[7.715465E2,2.0407513E2,1.1775085E1,5.3896435E1,7.116168E1,4.3011475E-1,1.2446448E1,3.8177864E1,4.653946E0,1.1791685E1,2.9049988E1,4.058838E-2,0E0,0E0,7.167433E0,1.4100075E0,1.2248706E1,3.7944305E0,5.775757E-1,1.3485947E0,6.7895436E0,2.6019928E1,2.4948473E1,1.5767407E0,0E0,0E0,0E0,0E0,0E0,0E0,0E0,0E0,0E0,0E0,0E0,0E0,0E0,0E0,0E0,0E0,0E0,0E0,0E0,0E0,0E0],"parents":[2147483647,0,0,1,1,2,2,3,3,4,4,5,5,6,6,7,7,8,8,9,9,10,10,11,11,14,14,15,15,16,16,17,17,18,18,19,19,20,20,21,21,22,22,23,23],"right_children":[2,4,6,8,10,12,14,16,18,20,22,24,-1,-1,26,28,30,32,34,36,38,40,42,44,-1,-1,-1,-1,-1,-1,-1,-1,-1,-1,-1,-1,-1,-1,-1,-1,-1,-1,-1,-1,-1],"split_conditions":[2.89E2,2.87E2,8.9483094E-1,1.1301041E-4,8.4877014E-5,1.3589426E1,1.943E3,9.894371E-5,2.439022E-4,1.4781952E-5,1.81E2,1.692772E-5,-7.5493823E-3,-5.1185805E-2,3.703E3,5.675705E0,1.8E2,2.2816658E-4,8.9483094E-1,4.053116E-6,1.8119812E-5,1.79E2,1.81E2,1.5974045E-5,-5.650097E-2,1.6063184E-1,-3.8308594E-2,-5.532114E-2,-2.573588E-2,2.3910783E-2,-1.0759308E-2,-2.6267348E-2,7.5854674E-2,-5.5966295E-2,-1.9634448E-2,1.7211324E-2,-4.1431896E-2,8.237447E-3,5.2533623E-2,6.591354E-2,1.7411801E-1,4.427236E-2,-5.5295806E-2,-5.303196E-2,3.1645406E-2],"split_indices":[4,4,9,9,6,15,4,6,6,9,13,9,0,0,4,0,7,6,9,9,12,13,10,9,0,0,0,0,0,0,0,0,0,0,0,0,0,0,0,0,0,0,0,0,0],"split_type":[0,0,0,0,0,0,0,0,0,0,0,0,0,0,0,0,0,0,0,0,0,0,0,0,0,0,0,0,0,0,0,0,0,0,0,0,0,0,0,0,0,0,0,0,0],"sum_hessian":[5.1981387E3,2.139526E3,3.0586125E3,8.9655475E2,1.2429712E3,3.0415403E3,1.7072414E1,6.184125E2,2.781423E2,3.059206E2,9.370506E2,3.039407E3,2.1332297E0,9.208388E0,7.8640256E0,1.1367105E2,5.0474142E2,3.2359226E1,2.4578307E2,5.084555E1,2.5507506E2,8.1261896E2,1.24431625E2,1.656007E1,3.022847E3,5.853527E0,2.0104983E0,9.087176E1,2.2799294E1,3.6405627E2,1.4068515E2,2.9197742E1,3.1614823E0,2.399198E2,5.8632755E0,3.7333648E0,4.7112186E1,2.1468898E2,4.0386078E1,7.9032184E2,2.2297134E1,9.069151E1,3.3740112E1,1.4679422E1,1.880647E0],"tree_param":{"num_deleted":"0","num_feature":"16","num_nodes":"45","size_leaf_vector":"1"}},{"base_weights":[-2.4303691E-1,2.1261095E-1,-5.6090105E-1,3.2014462E-1,-4.7098017E-1,4.8152894E-1,-5.627742E-1,1.3069865E-1,4.1883856E-1,-5.290811E-1,-6.3757956E-2,1.3897984E-1,-4.2471554E-2,-5.6402534E-2,-2.4807946E-1,-2.4062395E-1,1.9470352E-1,3.7445801E-1,6.105527E-1,-5.4764116E-1,1.4008841E-1,-4.0551254E-1,3.282417E-1,6.979429E-1,-5.199925E-2,-5.147186E-2,-1.1798772E-2,2.140232E-2,-4.2124018E-2,4.297271E-2,-5.7744917E-2,2.7376625E-1,4.558495E-2,-5.5522855E-2,-1.0450662E-2,-4.599799E-2,9.77803E-2,-4.4643424E-2,1.3425032E-2,1.0180374E-1,-5.135603E-2,-3.1305447E-2,1.3383764E-1],"categories":[],"categories_nodes":[],"categories_segments":[],"categories_sizes":[],"default_left":[0,0,0,0,0,0,0,0,0,0,0,0,0,0,0,0,0,0,0,0,0,0,0,0,0,0,0,0,0,0,0,0,0,0,0,0,0,0,0,0,0,0,0],"id":27,"left_children":[1,3,5,7,9,11,13,15,17,19,21,-1,-1,-1,23,25,27,29,31,33,35,37,39,41,-1,-1,-1,-1,-1,-1,-1,-1,-1,-1,-1,-1,-1,-1,-1,-1,-1,-1,-1],"loss_changes":[7.520138E2,1.5702408E2,6.242676E0,3.4433823E1,6.838974E0,5.5491037E0,1.0622559E0,1.5097291E1,1.0086319E1,3.2322464E0,5.144371E0,0E0,0E0,0E0,3.9325147E0,3.083992E0,6.5245075E0,5.217633E1,7.322207E1,7.738495E-1,4.296844E0,5.112214E-1,1.0960497E1,2.7013564E0,0E0,0E0,0E0,0E0,0E0,0E0,0E0,0E0,0E0,0E0,0E0,0E0,0E0,0E0,0E0,0E0,0E0,0E0,0E0],"parents":[2147483647,0,0,1,1,2,2,3,3,4,4,5,5,6,6,7,7,8,8,9,9,10,10,14,14,15,15,16,16,17,17,18,18,19,19,20,20,21,21,22,22,23,23],"right_children":[2,4,6,8,10,12,14,16,18,20,22,-1,-1,-1,24,26,28,30,32,34,36,38,40,42,-1,-1,-1,-1,-1,-1,-1,-1,-1,-1,-1,-1,-1,-1,-1,-1,-1,-1,-1],"split_conditions":[2.89E2,2.8586388E-4,5.888939E-5,2.87E2,2.51E2,4.177E3,4.617157E0,9.012222E-5,1.75E2,8.9483094E-1,3.387928E-4,1.3897984E-1,-4.2471554E-2,-5.6402534E-2,5.74E2,7.390976E-5,5.158186E-3,1.5E2,1.79E2,1.3589426E1,2.452E3,4.564047E-3,4.069805E-4,5.724849E0,-5.199925E-2,-5.147186E-2,-1.1798772E-2,2.140232E-2,-4.2124018E-2,4.297271E-2,-5.7744917E-2,2.7376625E-1,4.558495E-2,-5.5522855E-2,-1.0450662E-2,-4.599799E-2,9.77803E-2,-4.4643424E-2,1.3425032E-2,1.0180374E-1,-5.135603E-2,-3.1305447E-2,1.3383764E-1],"split_indices":[4,6,6,4,4,1,6,6,13,9,6,0,0,0,7,6,12,13,13,15,7,15,6,0,0,0,0,0,0,0,0,0,0,0,0,0,0,0,0,0,0,0,0],"split_type":[0,0,0,0,0,0,0,0,0,0,0,0,0,0,0,0,0,0,0,0,0,0,0,0,0,0,0,0,0,0,0,0,0,0,0,0,0,0,0,0,0,0,0],"sum_hessian":[5.190418E3,2.1330671E3,3.0573508E3,1.8435892E3,2.8947784E2,5.0244803E0,3.0523262E3,6.322639E2,1.2113254E3,2.5307132E2,3.640652E1,2.2429447E0,2.7815359E0,3.0394495E3,1.2876723E1,9.255412E1,5.397098E2,9.860214E2,2.2530399E2,2.4641827E2,6.653036E0,1.9431343E1,1.6975178E1,2.5250256E0,1.0351697E1,2.7621763E1,6.493236E1,5.239288E2,1.5781E1,9.324317E2,5.358972E1,1.4143269E1,2.1116072E2,2.4202144E2,4.396835E0,4.139067E0,2.513969E0,1.822271E1,1.2086331E0,9.214889E0,7.7602882E0,1.1774578E0,1.3475679E0],"tree_param":{"num_deleted":"0","num_feature":"16","num_nodes":"43","size_leaf_vector":"1"}},{"base_weights":[1.0896242E0,-1.6172174E-1,1.3808163E0,-5.352331E-1,1.3227316E0,1.390848E0,-1.9472715E-1,-5.6182E-1,1.4170697E0,1.3783597E0,-5.1348396E-2,1.1750851E0,1.411213E0,1.276273E-1,-5.5331208E-2,-5.6330323E-2,-3.6444816E-1,1.4845349E-1,1.5825018E-2,1.0219007E-1,1.388812E0,-3.7662128E-1,1.3649015E0,1.4120455E0,-4.146221E-2,5.233806E-2,-5.1539518E-2,4.279879E-2,-3.1640276E-2,1.4020658E-1,1.0034551E-1,-5.1277317E-2,1.4288473E-1,1.3822342E-1,-4.7861967E-2,-5.6174006E-3,1.4125077E-1],"categories":[],"categories_nodes":[],"categories_segments":[],"categories_sizes":[],"default_left":[0,0,0,0,0,0,0,0,0,0,0,0,0,0,0,0,0,0,0,0,0,0,0,0,0,0,0,0,0,0,0,0,0,0,0,0,0],"id":28,"left_children":[1,3,5,7,9,11,13,15,17,19,-1,21,23,-1,-1,-1,25,-1,-1,27,29,31,33,35,-1,-1,-1,-1,-1,-1,-1,-1,-1,-1,-1,-1,-1],"loss_changes":[3.1915615E3,9.179101E2,1.1256738E2,6.9435394E1,3.4705933E1,2.9365234E1,2.4880224E1,1.769104E-1,1.2980347E0,4.1707764E0,0E0,1.8162122E2,1.0381836E1,0E0,0E0,0E0,1.9542162E0,0E0,0E0,6.4083457E-1,2.3071289E-1,1.7399769E1,1.81745E1,4.453125E0,0E0,0E0,0E0,0E0,0E0,0E0,0E0,0E0,0E0,0E0,0E0,0E0,0E0],"parents":[2147483647,0,0,1,1,2,2,3,3,4,4,5,5,6,6,7,7,8,8,9,9,11,11,12,12,16,16,19,19,20,20,21,21,22,22,23,23],"right_children":[2,4,6,8,10,12,14,16,18,20,-1,22,24,-1,-1,-1,26,-1,-1,28,30,32,34,36,-1,-1,-1,-1,-1,-1,-1,-1,-1,-1,-1,-1,-1],"split_conditions":[6.1035156E-5,2.89E2,5.331504E0,5.61E2,5.2268505E-3,2.89E2,7.3E1,1.131E3,2.28E2,5.888939E-5,-5.1348396E-2,2.4795532E-4,2.2895832E0,1.276273E-1,-5.5331208E-2,-5.6330323E-2,5.46875E0,1.4845349E-1,1.5825018E-2,1.1920929E-5,1E0,3.5479069E-3,2.51E2,5.888939E-5,-4.146221E-2,5.233806E-2,-5.1539518E-2,4.279879E-2,-3.1640276E-2,1.4020658E-1,1.0034551E-1,-5.1277317E-2,1.4288473E-1,1.3822342E-1,-4.7861967E-2,-5.6174006E-3,1.4125077E-1],"split_indices":[9,4,15,7,6,4,13,13,4,6,0,6,6,0,0,0,0,0,0,12,11,12,4,6,0,0,0,0,0,0,0,0,0,0,0,0,0],"split_type":[0,0,0,0,0,0,0,0,0,0,0,0,0,0,0,0,0,0,0,0,0,0,0,0,0,0,0,0,0,0,0,0,0,0,0,0,0],"sum_hessian":[8.75722E3,1.6532256E3,7.1039946E3,1.3213843E3,3.3184122E2,7.059165E3,4.482945E1,1.3043339E3,1.7050495E1,3.223257E2,9.515503E0,6.1388275E2,6.445282E3,8.284652E0,3.6544796E1,1.2927645E3,1.1569242E1,1.6012989E1,1.0375069E0,2.7060454E0,3.196197E2,6.680259E1,5.470802E2,6.442572E3,2.71054E0,1.3226234E0,1.0246618E1,1.509068E0,1.1969774E0,3.0644165E2,1.3178022E1,6.278399E1,4.018603E0,5.4223236E2,4.8478026E0,1.989612E0,6.440582E3],"tree_param":{"num_deleted":"0","num_feature":"16","num_nodes":"37","size_leaf_vector":"1"}},{"base_weights":[-3.8265252E-1,-5.1794793E-2,-5.2653277E-1,-1.9784303E-2,-5.438858E-2,-3.6893615E-1,-5.574195E-1,1.289266E-1,-9.968004E-2,-2.5688893E-1,-5.40327E-1,-5.591157E-2,3.4928483E-1,5.4555163E-2,7.583211E-1,-5.6189902E-2,-7.403258E-2,-3.5457468E-1,-1.1056109E-2,-5.580483E-2,2.5822103E-2,9.171731E-2,-3.898188E-2,2.0235704E-2,-1.0034652E-2,1.0680156E-1,2.7894795E-2,-1.6196784E-2,4.374056E-3,6.3283867E-3,-3.7747905E-2,2.997692E-2,-5.5264015E-2,-4.2833712E-2,4.2617828E-2],"categories":[],"categories_nodes":[],"categories_segments":[],"categories_sizes":[],"default_left":[0,0,0,0,0,0,0,0,0,0,0,0,0,0,0,0,0,0,0,0,0,0,0,0,0,0,0,0,0,0,0,0,0,0,0],"id":29,"left_children":[1,3,5,7,-1,9,11,13,15,17,19,-1,21,23,25,-1,27,29,31,-1,33,-1,-1,-1,-1,-1,-1,-1,-1,-1,-1,-1,-1,-1,-1],"loss_changes":[2.2752362E2,2.2826982E1,1.6009644E1,1.6198977E1,0E0,1.040126E1,4.4761963E0,2.226546E1,1.0470727E1,8.011799E0,2.1821442E0,0E0,2.797365E0,9.802497E0,7.166996E0,0E0,8.719886E0,2.3097515E0,1.6317871E1,0E0,1.548706E0,0E0,0E0,0E0,0E0,0E0,0E0,0E0,0E0,0E0,0E0,0E0,0E0,0E0,0E0],"parents":[2147483647,0,0,1,1,2,2,3,3,5,5,6,6,7,7,8,8,9,9,10,10,12,12,13,13,14,14,16,16,17,17,18,18,20,20],"right_children":[2,4,6,8,-1,10,12,14,16,18,20,-1,22,24,26,-1,28,30,32,-1,34,-1,-1,-1,-1,-1,-1,-1,-1,-1,-1,-1,-1,-1,-1],"split_conditions":[4.7922134E-5,2.89E2,2.89E2,1.76E2,-5.438858E-2,3.490448E-4,4.617157E0,1.6E2,2.75E2,1E0,8.9483094E-1,-5.591157E-2,1.14E3,1.3113022E-5,1.64E2,-5.6189902E-2,1.0180473E-4,5.464615E0,1.131E3,-5.580483E-2,2.02E2,9.171731E-2,-3.898188E-2,2.0235704E-2,-1.0034652E-2,1.0680156E-1,2.7894795E-2,-1.6196784E-2,4.374056E-3,6.3283867E-3,-3.7747905E-2,2.997692E-2,-5.5264015E-2,-4.2833712E-2,4.2617828E-2],"split_indices":[9,4,4,7,0,6,6,7,7,5,9,0,4,9,7,0,6,0,13,0,7,0,0,0,0,0,0,0,0,0,0,0,0,0,0],"split_type":[0,0,0,0,0,0,0,0,0,0,0,0,0,0,0,0,0,0,0,0,0,0,0,0,0,0,0,0,0,0,0,0,0,0,0],"sum_hessian":[4.7790884E3,1.4488246E3,3.3302634E3,1.3613115E3,8.751303E1,5.47851E2,2.7824126E3,4.755503E2,8.857613E2,3.3278848E2,2.1506252E2,2.7775996E3,4.812888E0,4.262677E2,4.9282597E1,4.5465874E1,8.402954E2,2.3783746E2,9.495103E1,2.0854893E2,6.513569E0,2.5854435E0,2.2274446E0,2.1797607E2,2.0829164E2,2.9194088E1,2.0088509E1,4.8087506E2,3.5942032E2,1.2267684E1,2.2556978E2,6.0611458E1,3.4339565E1,3.0189822E0,3.4945867E0],"tree_param":{"num_deleted":"0","num_feature":"16","num_nodes":"35","size_leaf_vector":"1"}},{"base_weights":[-3.7017202E-1,-9.723109E-4,-5.2114433E-1,2.5090318E-2,-4.0971714E-1,-3.4992018E-1,-5.58793E-1,-9.87898E-2,9.672067E-2,-5.531879E-2,5.068801E-1,-2.328478E-1,-5.3442323E-1,-5.5947894E-1,-9.734137E-2,1.41276E-1,-3.4235576E-1,2.9700145E-1,-2.3994904E-2,1.1932685E0,-4.6665337E-2,-3.22783E-1,1.8002889E-1,-5.5025333E-1,5.982675E-1,-1.5073876E-1,-5.6017112E-2,-4.2431977E-2,4.794075E-2,-2.233378E-2,4.4942517E-2,-2.1682035E-2,-5.738165E-2,-1.0561872E-2,2.8699128E-2,1.690263E-2,1.3467671E-1,-2.8433884E-2,-5.5402286E-2,-1.457538E-3,1.4569135E-1,-3.6932837E-2,-5.5825066E-2,-3.2752123E-2,1.1954924E-1,4.094716E-2,-4.3979418E-2],"categories":[],"categories_nodes":[],"categories_segments":[],"categories_sizes":[],"default_left":[0,0,0,0,0,0,0,0,0,0,0,0,0,0,0,0,0,0,0,0,0,0,0,0,0,0,0,0,0,0,0,0,0,0,0,0,0,0,0,0,0,0,0,0,0,0,0],"id":30,"left_children":[1,3,5,7,9,11,13,15,17,-1,19,21,23,25,27,29,31,-1,33,35,-1,37,39,41,43,45,-1,-1,-1,-1,-1,-1,-1,-1,-1,-1,-1,-1,-1,-1,-1,-1,-1,-1,-1,-1,-1],"loss_changes":[2.6746075E2,1.4857162E1,2.17594E1,1.1643609E1,1.1273694E1,1.3193306E1,8.286743E-1,2.8164354E1,2.8838898E2,0E0,8.465805E0,1.4130434E1,4.607025E0,7.037964E-1,1.2127461E0,2.7388264E1,6.819376E0,0E0,2.0304926E1,9.079218E-1,0E0,2.6121063E0,1.7024702E1,1.3500977E-1,2.474563E0,1.1642853E0,0E0,0E0,0E0,0E0,0E0,0E0,0E0,0E0,0E0,0E0,0E0,0E0,0E0,0E0,0E0,0E0,0E0,0E0,0E0,0E0,0E0],"parents":[2147483647,0,0,1,1,2,2,3,3,4,4,5,5,6,6,7,7,8,8,10,10,11,11,12,12,13,13,14,14,15,15,16,16,18,18,19,19,21,21,22,22,23,23,24,24,25,25],"right_children":[2,4,6,8,10,12,14,16,18,-1,20,22,24,26,28,30,32,-1,34,36,-1,38,40,42,44,46,-1,-1,-1,-1,-1,-1,-1,-1,-1,-1,-1,-1,-1,-1,-1,-1,-1,-1,-1,-1,-1],"split_conditions":[4.4107437E-5,2.89E2,2.89E2,2.14E2,5.2268505E-3,2.6917458E-4,4.617157E0,1.3613701E-4,2.75E2,-5.531879E-2,2.896E3,1.93E2,1.9357933E1,1.71E2,5.792E3,1.001358E-5,9.2E1,2.9700145E-1,1.89E2,2.674E3,-4.6665337E-2,2.76E2,0E0,5.576259E0,5.449699E0,5.589615E0,-5.6017112E-2,-4.2431977E-2,4.794075E-2,-2.233378E-2,4.4942517E-2,-2.1682035E-2,-5.738165E-2,-1.0561872E-2,2.8699128E-2,1.690263E-2,1.3467671E-1,-2.8433884E-2,-5.5402286E-2,-1.457538E-3,1.4569135E-1,-3.6932837E-2,-5.5825066E-2,-3.2752123E-2,1.1954924E-1,4.094716E-2,-4.3979418E-2],"split_indices":[9,4,4,7,6,6,6,6,7,0,7,13,15,7,7,9,7,0,13,7,0,10,14,0,0,0,0,0,0,0,0,0,0,0,0,0,0,0,0,0,0,0,0,0,0,0,0],"split_type":[0,0,0,0,0,0,0,0,0,0,0,0,0,0,0,0,0,0,0,0,0,0,0,0,0,0,0,0,0,0,0,0,0,0,0,0,0,0,0,0,0,0,0,0,0,0,0],"sum_hessian":[4.7974634E3,1.3926855E3,3.4047778E3,1.3100895E3,8.2596085E1,6.155562E2,2.7892214E3,4.798465E2,8.30243E2,7.176026E1,1.0835828E1,3.7797952E2,2.3757666E2,2.7848694E3,4.352108E0,2.4187112E2,2.3797537E2,3.2522934E1,7.9772003E2,6.2227664E0,4.613062E0,3.1055157E2,6.742794E1,2.3480925E2,2.767405E0,5.077878E0,2.7797915E3,2.946135E0,1.405973E0,1.1091157E2,1.3095956E2,1.5554855E2,8.242682E1,6.323967E2,1.6532333E2,1.0848823E0,5.137884E0,2.6819345E2,4.2358147E1,5.9368446E1,8.059494E0,1.1937061E1,2.228722E2,1.2622781E0,1.5051268E0,1.586514E0,3.4913638E0],"tree_param":{"num_deleted":"0","num_feature":"16","num_nodes":"47","size_leaf_vector":"1"}},{"base_weights":[-3.824407E-1,-1.2694414E-1,-5.512814E-1,4.7550648E-1,-1.9731799E-1,-5.548353E-1,6.6676885E-1,7.22897E-1,7.095032E-2,7.119298E-2,-2.832739E-1,-5.5745983E-1,1.3836747E-1,1.2572011E-1,-4.1871052E-2,1.1234851E0,5.9597725E-1,-5.2837934E-2,1.8263207E-1,-5.286533E-2,9.9710053E-1,-4.8887897E-3,-3.3257237E-1,3.0674934E-2,-5.581357E-1,-4.850259E-2,7.428551E-1,1.3812834E-1,7.832511E-2,2.0945298E-2,7.5260304E-2,5.14936E-3,7.5016E-2,8.61935E-2,-8.589832E-3,1.06753625E-1,1.0629717E-3,-1.615413E-2,3.996493E-2,-2.7643634E-2,-5.303184E-2,6.2558085E-2,-3.8518783E-2,-5.588109E-2,-1.236575E-2,1.4972843E-1,-3.962667E-2],"categories":[],"categories_nodes":[],"categories_segments":[],"categories_sizes":[],"default_left":[0,0,0,0,0,0,0,0,0,0,0,0,0,0,0,0,0,0,0,0,0,0,0,0,0,0,0,0,0,0,0,0,0,0,0,0,0,0,0,0,0,0,0,0,0,0,0],"id":31,"left_children":[1,3,5,7,9,11,13,15,17,19,21,23,25,-1,-1,27,29,-1,31,33,35,37,39,41,43,-1,45,-1,-1,-1,-1,-1,-1,-1,-1,-1,-1,-1,-1,-1,-1,-1,-1,-1,-1,-1,-1],"loss_changes":[2.0595264E2,8.071485E1,1.2816528E1,1.9884201E1,3.9334717E1,5.2940674E0,6.1785088E0,5.609215E0,5.2299414E0,4.7591537E1,1.7709595E1,1.1526489E0,4.7378283E0,0E0,0E0,1.425209E0,5.648823E0,0E0,4.8280325E0,1.1131366E1,3.3898315E0,1.2432836E1,1.2023796E1,1.2867395E0,7.6812744E-1,0E0,6.001222E0,0E0,0E0,0E0,0E0,0E0,0E0,0E0,0E0,0E0,0E0,0E0,0E0,0E0,0E0,0E0,0E0,0E0,0E0,0E0,0E0],"parents":[2147483647,0,0,1,1,2,2,3,3,4,4,5,5,6,6,7,7,8,8,9,9,10,10,11,11,12,12,15,15,16,16,18,18,19,19,20,20,21,21,22,22,23,23,24,24,26,26],"right_children":[2,4,6,8,10,12,14,16,18,20,22,24,26,-1,-1,28,30,-1,32,34,36,38,40,42,44,-1,46,-1,-1,-1,-1,-1,-1,-1,-1,-1,-1,-1,-1,-1,-1,-1,-1,-1,-1,-1,-1],"split_conditions":[2.89E2,7.104874E-5,9.633907E0,2.76E2,1.59E2,4.617157E0,3.361621E-1,2.76E2,5.545009E0,1.48E2,5.533214E0,1.71E2,2.896E3,1.2572011E-1,-4.1871052E-2,6.7949295E-5,5.57016E0,-5.2837934E-2,2.3841858E-5,5.4624004E0,1.57E2,4.887581E-5,2.8800964E-4,9E1,5.84375E0,-4.850259E-2,5.792E3,1.3812834E-1,7.832511E-2,2.0945298E-2,7.5260304E-2,5.14936E-3,7.5016E-2,8.61935E-2,-8.589832E-3,1.06753625E-1,1.0629717E-3,-1.615413E-2,3.996493E-2,-2.7643634E-2,-5.303184E-2,6.2558085E-2,-3.8518783E-2,-5.588109E-2,-1.236575E-2,1.4972843E-1,-3.962667E-2],"split_indices":[4,6,15,7,7,6,6,4,0,7,0,7,7,0,0,6,0,0,9,0,7,9,6,1,0,0,7,0,0,0,0,0,0,0,0,0,0,0,0,0,0,0,0,0,0,0,0],"split_type":[0,0,0,0,0,0,0,0,0,0,0,0,0,0,0,0,0,0,0,0,0,0,0,0,0,0,0,0,0,0,0,0,0,0,0,0,0,0,0,0,0,0,0,0,0,0,0],"sum_hessian":[4.7748716E3,1.9005841E3,2.8742876E3,1.9818884E2,1.7023953E3,2.8664688E3,7.8189864E0,1.2249495E2,7.5693886E1,4.1286142E2,1.2895338E3,2.855852E3,1.0616598E1,4.961853E0,2.8571336E0,2.7583403E1,9.491155E1,1.1303515E1,6.4390366E1,3.6491144E2,4.7949986E1,1.941697E2,1.0953641E3,3.227068E0,2.852625E3,5.323858E0,5.2927403E0,1.3952026E1,1.3631377E1,2.8043217E1,6.686833E1,5.319041E1,1.1199957E1,1.1843024E1,3.5306842E2,4.4677742E1,3.2722461E0,1.4040155E2,5.376814E1,8.550351E2,2.4032904E2,1.1202357E0,2.1068323E0,2.8479128E3,4.712224E0,2.9948564E0,2.2978842E0],"tree_param":{"num_deleted":"0","num_feature":"16","num_nodes":"47","size_leaf_vector":"1"}},{"base_weights":[-3.765062E-1,-7.345418E-2,-5.3366584E-1,1.0834751E-1,-1.760785E-1,-5.438442E-1,8.109813E-2,5.63165E-1,5.764444E-2,-1.8904719E-1,1.2764825E0,-4.2461586E-1,-5.598088E-1,4.02195E-1,-3.711931E-1,1.7396955E-1,6.662332E-1,7.1012373E-3,5.900059E-1,2.6688465E-1,-2.1556656E-1,1.3095312E-2,1.4126351E-1,-2.1217626E-1,-5.462204E-1,-5.601554E-2,-1.8105832E-1,-2.0726328E-1,7.3565847E-1,-5.4192793E-2,1.1590344E-1,9.453711E-2,-2.323084E-2,-4.8402097E-2,8.001172E-2,5.5400725E-3,-3.2468E-2,-4.720057E-2,7.0716135E-2,8.0578476E-2,-1.6909923E-2,-1.6916277E-2,-5.5619944E-2,-2.6306072E-2,7.589928E-2,-2.1880813E-2,-5.541448E-2,-3.799285E-2,2.0443097E-2,1.23863675E-1,-5.3219266E-2,-4.7342442E-2,1.03970125E-1],"categories":[],"categories_nodes":[],"categories_segments":[],"categories_sizes":[],"default_left":[0,0,0,0,0,0,0,0,0,0,0,0,0,0,0,0,0,0,0,0,0,0,0,0,0,0,0,0,0,0,0,0,0,0,0,0,0,0,0,0,0,0,0,0,0,0,0,0,0,0,0,0,0],"id":32,"left_children":[1,3,5,7,9,11,13,15,17,19,21,23,25,27,29,31,33,35,37,39,41,-1,-1,43,45,-1,47,49,51,-1,-1,-1,-1,-1,-1,-1,-1,-1,-1,-1,-1,-1,-1,-1,-1,-1,-1,-1,-1,-1,-1,-1,-1],"loss_changes":[2.2799261E2,3.0545555E1,1.977124E1,1.3595663E1,1.9949474E1,5.6655273E0,7.7327485E0,2.2571964E0,1.4332252E1,1.260577E1,1.2790709E0,9.452385E0,2.5726318E-1,6.4562182E0,6.4280634E0,4.52577E0,7.5358925E0,7.832068E0,6.080431E0,1.3644425E1,1.541732E1,0E0,0E0,6.943539E0,4.8823547E-1,0E0,3.8241422E-1,6.1792846E0,7.9429903E0,0E0,0E0,0E0,0E0,0E0,0E0,0E0,0E0,0E0,0E0,0E0,0E0,0E0,0E0,0E0,0E0,0E0,0E0,0E0,0E0,0E0,0E0,0E0,0E0],"parents":[2147483647,0,0,1,1,2,2,3,3,4,4,5,5,6,6,7,7,8,8,9,9,10,10,11,11,12,12,13,13,14,14,15,15,16,16,17,17,18,18,19,19,20,20,23,23,24,24,26,26,27,27,28,28],"right_children":[2,4,6,8,10,12,14,16,18,20,22,24,26,28,30,32,34,36,38,40,42,-1,-1,44,46,-1,48,50,52,-1,-1,-1,-1,-1,-1,-1,-1,-1,-1,-1,-1,-1,-1,-1,-1,-1,-1,-1,-1,-1,-1,-1,-1],"split_conditions":[5.7935715E-5,2.87E2,5.331504E0,7.7962875E-5,5.873E3,2.89E2,2.3818016E-4,7.867813E-6,1.93E2,8.821487E-6,5.607509E0,1.6999245E-4,2.2895832E0,2.507E3,3.703E3,6.699562E-5,6.7949295E-5,2E2,5.470714E0,9.2983246E-5,2.89E2,1.3095312E-2,1.4126351E-1,1.4305115E-4,1.1396408E-4,-5.601554E-2,2.298E3,5.533214E0,2.4778843E-3,-5.4192793E-2,1.1590344E-1,9.453711E-2,-2.323084E-2,-4.8402097E-2,8.001172E-2,5.5400725E-3,-3.2468E-2,-4.720057E-2,7.0716135E-2,8.0578476E-2,-1.6909923E-2,-1.6916277E-2,-5.5619944E-2,-2.6306072E-2,7.589928E-2,-2.1880813E-2,-5.541448E-2,-3.799285E-2,2.0443097E-2,1.23863675E-1,-5.3219266E-2,-4.7342442E-2,1.03970125E-1],"split_indices":[9,4,15,6,7,4,6,9,13,9,0,9,6,13,4,6,6,7,0,6,4,0,0,9,6,0,7,0,12,0,0,0,0,0,0,0,0,0,0,0,0,0,0,0,0,0,0,0,0,0,0,0,0],"split_type":[0,0,0,0,0,0,0,0,0,0,0,0,0,0,0,0,0,0,0,0,0,0,0,0,0,0,0,0,0,0,0,0,0,0,0,0,0,0,0,0,0,0,0,0,0,0,0,0,0,0,0,0,0],"sum_hessian":[4.7868145E3,1.6351704E3,3.151644E3,5.89969E2,1.0452014E3,3.100427E3,5.1217117E1,5.815941E1,5.318096E2,1.0368145E3,8.386995E0,3.6938074E2,2.7310464E3,3.0017466E1,2.1199654E1,1.2739966E1,4.541944E1,4.8662225E2,4.5187317E1,5.6493378E1,9.8032104E2,1.09935E0,7.2876453E0,1.3546762E2,2.339131E2,2.728071E3,2.9751606E0,1.074949E1,1.9267975E1,1.9652754E1,1.5469003E0,3.937297E0,8.80267E0,4.4627576E0,4.0956684E1,4.2551096E2,6.1111298E1,4.1886263E0,4.099869E1,2.4885426E1,3.1607952E1,8.6410254E2,1.162185E2,1.2941599E2,6.051629E0,6.203733E0,2.2770938E2,1.972165E0,1.0029956E0,1.4564463E0,9.293043E0,3.759706E0,1.5508269E1],"tree_param":{"num_deleted":"0","num_feature":"16","num_nodes":"53","size_leaf_vector":"1"}},{"base_weights":[-2.263661E-1,2.0741782E-1,-5.53997E-1,-1.3249512E-1,4.402702E-1,-5.588381E-1,2.4458109E-1,2.3213215E-2,-4.97109E-1,6.14899E-2,5.590096E-1,-5.591743E-1,-6.9323606E-3,-5.0486207E-2,1.0010431E0,-4.896019E-1,1.3344769E-1,5.4552298E-2,-5.2817094E-1,-3.5951197E-1,1.4281113E-1,6.1811864E-1,1.571523E-1,-4.105526E-1,-5.5985313E-2,1.4157103E-1,-3.7647694E-2,-5.4828573E-2,-2.4666142E-2,6.449665E-2,8.85819E-3,3.888165E-2,-4.821415E-2,-5.3901494E-2,-1.0697849E-2,1.6670424E-2,-4.056829E-2,5.0290443E-2,7.4964627E-3,5.898419E-2,1.5301353E-1,4.0545132E-2,-5.4918904E-2,-5.2380126E-2,3.1174615E-2],"categories":[],"categories_nodes":[],"categories_segments":[],"categories_sizes":[],"default_left":[0,0,0,0,0,0,0,0,0,0,0,0,0,0,0,0,0,0,0,0,0,0,0,0,0,0,0,0,0,0,0,0,0,0,0,0,0,0,0,0,0,0,0,0,0],"id":33,"left_children":[1,3,5,7,9,11,13,15,17,19,21,23,-1,-1,25,27,29,31,33,35,37,39,41,43,-1,-1,-1,-1,-1,-1,-1,-1,-1,-1,-1,-1,-1,-1,-1,-1,-1,-1,-1,-1,-1],"loss_changes":[7.168593E2,1.718743E2,1.1245422E1,5.0158234E1,5.791736E1,4.3133545E-1,1.0715628E1,3.510873E1,4.5589447E0,1.0618071E1,2.32016E1,5.810547E-2,0E0,0E0,5.8442354E0,1.4314651E0,1.1670529E1,2.8781586E0,1.0858841E0,1.2885017E0,6.2994776E0,2.114032E1,2.25166E1,1.5316386E0,0E0,0E0,0E0,0E0,0E0,0E0,0E0,0E0,0E0,0E0,0E0,0E0,0E0,0E0,0E0,0E0,0E0,0E0,0E0,0E0,0E0],"parents":[2147483647,0,0,1,1,2,2,3,3,4,4,5,5,6,6,7,7,8,8,9,9,10,10,11,11,14,14,15,15,16,16,17,17,18,18,19,19,20,20,