{"learner":{"attributes":{"scikit_learn":"{\"_estimator_type\": \"classifier\"}"},"feature_names":[],"feature_types":[],"gradient_booster":{"model":{"gbtree_model_param":{"num_parallel_tree":"1","num_trees":"700"},"iteration_indptr":[0,7,14,21,28,35,42,49,56,63,70,77,84,91,98,105,112,119,126,133,140,147,154,161,168,175,182,189,196,203,210,217,224,231,238,245,252,259,266,273,280,287,294,301,308,315,322,329,336,343,350,357,364,371,378,385,392,399,406,413,420,427,434,441,448,455,462,469,476,483,490,497,504,511,518,525,532,539,546,553,560,567,574,581,588,595,602,609,616,623,630,637,644,651,658,665,672,679,686,693,700],"tree_info":[0,1,2,3,4,5,6,0,1,2,3,4,5,6,0,1,2,3,4,5,6,0,1,2,3,4,5,6,0,1,2,3,4,5,6,0,1,2,3,4,5,6,0,1,2,3,4,5,6,0,1,2,3,4,5,6,0,1,2,3,4,5,6,0,1,2,3,4,5,6,0,1,2,3,4,5,6,0,1,2,3,4,5,6,0,1,2,3,4,5,6,0,1,2,3,4,5,6,0,1,2,3,4,5,6,0,1,2,3,4,5,6,0,1,2,3,4,5,6,0,1,2,3,4,5,6,0,1,2,3,4,5,6,0,1,2,3,4,5,6,0,1,2,3,4,5,6,0,1,2,3,4,5,6,0,1,2,3,4,5,6,0,1,2,3,4,5,6,0,1,2,3,4,5,6,0,1,2,3,4,5,6,0,1,2,3,4,5,6,0,1,2,3,4,5,6,0,1,2,3,4,5,6,0,1,2,3,4,5,6,0,1,2,3,4,5,6,0,1,2,3,4,5,6,0,1,2,3,4,5,6,0,1,2,3,4,5,6,0,1,2,3,4,5,6,0,1,2,3,4,5,6,0,1,2,3,4,5,6,0,1,2,3,4,5,6,0,1,2,3,4,5,6,0,1,2,3,4,5,6,0,1,2,3,4,5,6,0,1,2,3,4,5,6,0,1,2,3,4,5,6,0,1,2,3,4,5,6,0,1,2,3,4,5,6,0,1,2,3,4,5,6,0,1,2,3,4,5,6,0,1,2,3,4,5,6,0,1,2,3,4,5,6,0,1,2,3,4,5,6,0,1,2,3,4,5,6,0,1,2,3,4,5,6,0,1,2,3,4,5,6,0,1,2,3,4,5,6,0,1,2,3,4,5,6,0,1,2,3,4,5,6,0,1,2,3,4,5,6,0,1,2,3,4,5,6,0,1,2,3,4,5,6,0,1,2,3,4,5,6,0,1,2,3,4,5,6,0,1,2,3,4,5,6,0,1,2,3,4,5,6,0,1,2,3,4,5,6,0,1,2,3,4,5,6,0,1,2,3,4,5,6,0,1,2,3,4,5,6,0,1,2,3,4,5,6,0,1,2,3,4,5,6,0,1,2,3,4,5,6,0,1,2,3,4,5,6,0,1,2,3,4,5,6,0,1,2,3,4,5,6,0,1,2,3,4,5,6,0,1,2,3,4,5,6,0,1,2,3,4,5,6,0,1,2,3,4,5,6,0,1,2,3,4,5,6,0,1,2,3,4,5,6,0,1,2,3,4,5,6,0,1,2,3,4,5,6,0,1,2,3,4,5,6,0,1,2,3,4,5,6,0,1,2,3,4,5,6,0,1,2,3,4,5,6,0,1,2,3,4,5,6,0,1,2,3,4,5,6,0,1,2,3,4,5,6,0,1,2,3,4,5,6,0,1,2,3,4,5,6,0,1,2,3,4,5,6,0,1,2,3,4,5,6,0,1,2,3,4,5,6,0,1,2,3,4,5,6,0,1,2,3,4,5,6,0,1,2,3,4,5,6,0,1,2,3,4,5,6,0,1,2,3,4,5,6,0,1,2,3,4,5,6,0,1,2,3,4,5,6],"trees":[{"base_weights":[7.631316E-2,1.6153847E-1,-2.2047244E-1,-4.680535E-1,4.4905657E-1,1.2844035E-2,-5.3670473E-2,-3.4710746E-2,8.3419687E-1,5.785123E-3,1.2727273E-1],"categories":[],"categories_nodes":[],"categories_segments":[],"categories_sizes":[],"default_left":[0,0,0,0,0,0,0,0,0,0,0],"id":0,"left_children":[1,-1,3,5,7,-1,-1,-1,9,-1,-1],"loss_changes":[9.76197E0,0E0,3.2175918E0,6.313708E-1,1.9478872E0,0E0,0E0,0E0,1.2673321E0,0E0,0E0],"parents":[2147483647,0,0,2,2,3,3,4,4,8,8],"right_children":[2,-1,4,6,8,-1,-1,-1,10,-1,-1],"split_conditions":[1.408864E-1,1.6153847E-1,7.026561E-1,8.778955E-2,3.4955013E-1,1.2844035E-2,-5.3670473E-2,-3.4710746E-2,4.3949562E-1,5.785123E-3,1.2727273E-1],"split_indices":[9,0,1,0,12,0,0,0,2,0,0],"split_type":[0,0,0,0,0,0,0,0,0,0,0],"sum_hessian":[1.9591839E1,2.4489799E0,1.7142859E1,1.27346945E1,4.4081635E0,1.2244899E0,1.1510205E1,1.4693879E0,2.9387758E0,1.4693879E0,1.4693879E0],"tree_param":{"num_deleted":"0","num_feature":"16","num_nodes":"11","size_leaf_vector":"1"}},{"base_weights":[-2.1506442E-1,8.677686E-2,-3.4364995E-1,-4.3281806E-1,2.8965516E-2,-5.408618E-2,-1.3459113E-8,5.7798166E-2,-4.012739E-2],"categories":[],"categories_nodes":[],"categories_segments":[],"categories_sizes":[],"default_left":[0,0,0,0,0,0,0,0,0],"id":1,"left_children":[1,-1,3,5,-1,-1,7,-1,-1],"loss_changes":[3.165347E0,0E0,1.2052245E0,8.026109E-1,0E0,0E0,1.2590429E0,0E0,0E0],"parents":[2147483647,0,0,2,2,3,3,6,6],"right_children":[2,-1,4,6,-1,-1,8,-1,-1],"split_conditions":[1.3978615E-1,8.677686E-2,8.9288443E-1,7.7868384E-1,2.8965516E-2,-5.408618E-2,2.1254906E-1,5.7798166E-2,-4.012739E-2],"split_indices":[13,0,9,13,0,0,1,0,0],"split_type":[0,0,0,0,0,0,0,0,0],"sum_hessian":[1.9591839E1,1.4693879E0,1.812245E1,1.6163267E1,1.9591838E0,1.27346945E1,3.4285717E0,1.2244899E0,2.2040818E0],"tree_param":{"num_deleted":"0","num_feature":"16","num_nodes":"9","size_leaf_vector":"1"}},{"base_weights":[-1.1793856E-1,-4.187256E-1,7.024221E-1,-5.4009076E-2,2.2292992E-2,1.6153847E-1,-4.1420117E-2],"categories":[],"categories_nodes":[],"categories_segments":[],"categories_sizes":[],"default_left":[0,0,0,0,0,0,0],"id":2,"left_children":[1,3,5,-1,-1,-1,-1],"loss_changes":[5.375238E0,1.3425574E0,6.6816816E0,0E0,0E0,0E0,0E0],"parents":[2147483647,0,0,1,1,2,2],"right_children":[2,4,6,-1,-1,-1,-1],"split_conditions":[8.2677853E-1,9.6917176E-1,6.575002E-1,-5.4009076E-2,2.2292992E-2,1.6153847E-1,-4.1420117E-2],"split_indices":[11,2,7,0,0,0,0],"split_type":[0,0,0,0,0,0,0],"sum_hessian":[1.9591839E1,1.4693878E1,4.8979597E0,1.2489797E1,2.2040818E0,2.4489799E0,2.4489799E0],"tree_param":{"num_deleted":"0","num_feature":"16","num_nodes":"7","size_leaf_vector":"1"}},{"base_weights":[2.2200195E-1,-2.24E-1,8.406466E-1,5.7798166E-2,-3.5929203E-1,1.3138461E0,-4.012739E-2,2.8965516E-2,-5.2238803E-2,-3.211009E-2,1.7433962E0,2.103627E-1,4.628099E-2],"categories":[],"categories_nodes":[],"categories_segments":[],"categories_sizes":[],"default_left":[0,0,0,0,0,0,0,0,0,0,0,0,0],"id":3,"left_children":[1,3,5,-1,7,9,-1,-1,-1,-1,11,-1,-1],"loss_changes":[5.869938E0,1.5916147E0,5.72035E0,0E0,1.3717206E0,5.217863E0,0E0,0E0,0E0,0E0,1.5212402E0,0E0,0E0],"parents":[2147483647,0,0,1,1,2,2,4,4,5,5,10,10],"right_children":[2,4,6,-1,8,10,-1,-1,-1,-1,12,-1,-1],"split_conditions":[6.2773937E-1,1.0841644E-1,6.6370356E-1,5.7798166E-2,2.7669427E-1,2.7564076E-1,-4.012739E-2,2.8965516E-2,-5.2238803E-2,-3.211009E-2,8.8965476E-1,2.103627E-1,4.628099E-2],"split_indices":[7,15,13,0,12,9,0,0,0,0,7,0,0],"split_type":[0,0,0,0,0,0,0,0,0,0,0,0,0],"sum_hessian":[1.9591839E1,1.1755103E1,7.8367352E0,1.2244899E0,1.0530613E1,5.632653E0,2.2040818E0,1.9591838E0,8.571429E0,1.2244899E0,4.4081635E0,2.9387758E0,1.4693879E0],"tree_param":{"num_deleted":"0","num_feature":"16","num_nodes":"13","size_leaf_vector":"1"}},{"base_weights":[1.7343903E-1,-1.1240877E-1,6.7560315E-1,-4.0898877E-1,3.6332178E-1,1.2292682E0,-1.3459113E-8,1.2844035E-2,-5.090909E-2,-4.012739E-2,9.2817676E-1,2.8965516E-2,1.9266056E-1,5.7798166E-2,-4.012739E-2,1.4770642E-1,5.785123E-3],"categories":[],"categories_nodes":[],"categories_segments":[],"categories_sizes":[],"default_left":[0,0,0,0,0,0,0,0,0,0,0,0,0,0,0,0,0],"id":4,"left_children":[1,3,5,7,9,11,13,-1,-1,-1,15,-1,-1,-1,-1,-1,-1],"loss_changes":[3.0317478E0,2.1210053E0,2.8474205E0,5.5395985E-1,2.9196975E0,2.1832056E0,1.2590429E0,0E0,0E0,0E0,1.6791551E0,0E0,0E0,0E0,0E0,0E0,0E0],"parents":[2147483647,0,0,1,1,2,2,3,3,4,4,5,5,6,6,10,10],"right_children":[2,4,6,8,10,12,14,-1,-1,-1,16,-1,-1,-1,-1,-1,-1],"split_conditions":[6.501199E-1,5.925207E-1,6.052996E-1,1.2862977E-1,4.417508E-1,3.825136E-1,3.211015E-1,1.2844035E-2,-5.090909E-2,-4.012739E-2,2.9402488E-1,2.8965516E-2,1.9266056E-1,5.7798166E-2,-4.012739E-2,1.4770642E-1,5.785123E-3],"split_indices":[3,8,15,1,9,9,4,0,0,0,3,0,0,0,0,0,0],"split_type":[0,0,0,0,0,0,0,0,0,0,0,0,0,0,0,0,0],"sum_hessian":[1.9591839E1,1.2979592E1,6.6122456E0,8.081634E0,4.8979597E0,3.1836736E0,3.4285717E0,1.2244899E0,6.8571434E0,2.2040818E0,2.6938777E0,1.9591838E0,1.2244899E0,1.2244899E0,2.2040818E0,1.2244899E0,1.4693879E0],"tree_param":{"num_deleted":"0","num_feature":"16","num_nodes":"17","size_leaf_vector":"1"}},{"base_weights":[-1.6650149E-1,-4.6153846E-1,2.9928738E-1,1.2844035E-2,-5.3379547E-2,1.2727273E-1,-8.022924E-2,6.275862E-2,-4.703557E-2],"categories":[],"categories_nodes":[],"categories_segments":[],"categories_sizes":[],"default_left":[0,0,0,0,0,0,0,0,0],"id":5,"left_children":[1,3,5,-1,-1,-1,7,-1,-1],"loss_changes":[2.9679646E0,6.227524E-1,3.2762494E0,0E0,0E0,0E0,2.2619646E0,0E0,0E0],"parents":[2147483647,0,0,1,1,2,2,6,6],"right_children":[2,4,6,-1,-1,-1,8,-1,-1],"split_conditions":[5.8810246E-1,9.8539956E-2,2.4166419E-1,1.2844035E-2,-5.3379547E-2,1.2727273E-1,4.077701E-1,6.275862E-2,-4.703557E-2],"split_indices":[10,4,11,0,0,0,6,0,0],"split_type":[0,0,0,0,0,0,0,0,0],"sum_hessian":[1.9591839E1,1.2000001E1,7.5918374E0,1.2244899E0,1.0775511E1,1.4693879E0,6.1224494E0,1.9591838E0,4.1632657E0],"tree_param":{"num_deleted":"0","num_feature":"16","num_nodes":"9","size_leaf_vector":"1"}},{"base_weights":[2.775023E-2,-5.2238803E-2,4.634974E-1,9.3833774E-1,-2.9056603E-1,-3.862069E-2,1.4657038E0,-4.4390243E-2,1.2844035E-2,1.9463414E-1,5.785123E-3],"categories":[],"categories_nodes":[],"categories_segments":[],"categories_sizes":[],"default_left":[0,0,0,0,0,0,0,0,0,0,0],"id":6,"left_children":[1,-1,3,5,7,-1,9,-1,-1,-1,-1],"loss_changes":[5.1784263E0,0E0,4.5766735E0,5.883371E0,4.044837E-1,0E0,3.7126398E0,0E0,0E0,0E0,0E0],"parents":[2147483647,0,0,2,2,3,3,4,4,6,6],"right_children":[2,-1,4,6,8,-1,10,-1,-1,-1,-1],"split_conditions":[4.005E-1,-5.2238803E-2,5.724873E-1,1.15117E-1,5.9232235E-1,-3.862069E-2,6.9666046E-1,-4.4390243E-2,1.2844035E-2,1.9463414E-1,5.785123E-3],"split_indices":[15,0,10,10,5,0,6,0,0,0,0],"split_type":[0,0,0,0,0,0,0,0,0,0,0],"sum_hessian":[1.9591839E1,8.571429E0,1.1020409E1,6.6122456E0,4.4081635E0,1.9591838E0,4.6530614E0,3.1836736E0,1.2244899E0,3.1836736E0,1.4693879E0],"tree_param":{"num_deleted":"0","num_feature":"16","num_nodes":"11","size_leaf_vector":"1"}},{"base_weights":[7.3094085E-2,1.3988433E0,-2.131644E-1,1.8579279E-1,1.5563651E-2,-4.6086445E-1,4.1944948E-1,1.4629145E-2,-5.318282E-2,-1.1813284E-2,1.16324045E-1,6.97068E-2,-4.1775685E-2],"categories":[],"categories_nodes":[],"categories_segments":[],"categories_sizes":[],"default_left":[0,0,0,0,0,0,0,0,0,0,0,0,0],"id":7,"left_children":[1,3,5,-1,-1,7,9,-1,-1,11,-1,-1,-1],"loss_changes":[8.137586E0,1.8798943E0,2.9913735E0,0E0,0E0,6.5121174E-1,1.793335E0,0E0,0E0,1.5866332E0,0E0,0E0,0E0],"parents":[2147483647,0,0,1,1,2,2,5,5,6,6,9,9],"right_children":[2,4,6,-1,-1,8,10,-1,-1,12,-1,-1,-1],"split_conditions":[1.408864E-1,5.8810246E-1,7.026561E-1,1.8579279E-1,1.5563651E-2,1.4360459E-1,8.109334E-1,1.4629145E-2,-5.318282E-2,1.899036E-1,1.16324045E-1,6.97068E-2,-4.1775685E-2],"split_indices":[9,10,1,0,0,13,2,0,0,7,0,0,0],"split_type":[0,0,0,0,0,0,0,0,0,0,0,0,0],"sum_hessian":[1.9656807E1,2.8004477E0,1.685636E1,1.6840914E0,1.1163561E0,1.2308469E1,4.5478907E0,1.1769718E0,1.1131496E1,3.501676E0,1.0462146E0,1.0139335E0,2.4877424E0],"tree_param":{"num_deleted":"0","num_feature":"16","num_nodes":"13","size_leaf_vector":"1"}},{"base_weights":[-2.0732412E-1,8.0315925E-2,-3.3548573E-1,-4.251637E-1,2.7222937E-1,-5.352203E-2,8.541785E-5,-2.9449169E-2,7.04113E-2,-4.0033203E-2,5.7237E-2],"categories":[],"categories_nodes":[],"categories_segments":[],"categories_sizes":[],"default_left":[0,0,0,0,0,0,0,0,0,0,0],"id":8,"left_children":[1,-1,3,5,7,-1,9,-1,-1,-1,-1],"loss_changes":[2.8927028E0,0E0,1.1338534E0,7.802036E-1,9.4453907E-1,0E0,1.2436023E0,0E0,0E0,0E0,0E0],"parents":[2147483647,0,0,2,2,3,3,4,4,6,6],"right_children":[2,-1,4,6,8,-1,10,-1,-1,-1,-1],"split_conditions":[1.3978615E-1,8.0315925E-2,8.9288443E-1,7.7868384E-1,6.4138293E-1,-5.352203E-2,6.3993114E-1,-2.9449169E-2,7.04113E-2,-4.0033203E-2,5.7237E-2],"split_indices":[13,0,9,13,1,0,8,0,0,0,0],"split_type":[0,0,0,0,0,0,0,0,0,0,0],"sum_hessian":[1.925598E1,1.5745732E0,1.7681406E1,1.5669512E1,2.0118937E0,1.2242489E1,3.4270227E0,1.007702E0,1.0041918E0,2.1930506E0,1.2339721E0],"tree_param":{"num_deleted":"0","num_feature":"16","num_nodes":"11","size_leaf_vector":"1"}},{"base_weights":[-1.1380861E-1,-4.1146275E-1,6.457736E-1,-5.3455472E-2,2.0483553E-1,1.4134493E0,-4.072584E-2,6.978598E-2,-3.2623176E-2,1.7389677E-1,4.9248543E-2],"categories":[],"categories_nodes":[],"categories_segments":[],"categories_sizes":[],"default_left":[0,0,0,0,0,0,0,0,0,0,0],"id":9,"left_children":[1,3,5,-1,7,9,-1,-1,-1,-1,-1],"loss_changes":[4.883847E0,1.2691097E0,5.539034E0,0E0,1.083253E0,2.7522326E-1,0E0,0E0,0E0,0E0,0E0],"parents":[2147483647,0,0,1,1,2,2,4,4,5,5],"right_children":[2,4,6,-1,8,10,-1,-1,-1,-1,-1],"split_conditions":[8.2677853E-1,9.6917176E-1,6.575002E-1,-5.3455472E-2,5.2431756E-1,6.1190367E-1,-4.072584E-2,6.978598E-2,-3.2623176E-2,1.7389677E-1,4.9248543E-2],"split_indices":[11,2,7,0,11,14,0,0,0,0,0],"split_type":[0,0,0,0,0,0,0,0,0,0,0],"sum_hessian":[1.942584E1,1.4285965E1,5.1398745E0,1.2018227E1,2.2677388E0,2.7747645E0,2.36511E0,1.0131216E0,1.2546171E0,1.3938856E0,1.3808789E0],"tree_param":{"num_deleted":"0","num_feature":"16","num_nodes":"11","size_leaf_vector":"1"}},{"base_weights":[2.0688541E-1,-2.1763383E-1,7.5695646E-1,6.836396E-2,-3.575123E-1,1.1552783E0,-3.9548565E-2,2.0185532E-1,-5.167948E-2,-3.16519E-2,1.5022134E0,-3.287733E-2,7.0087634E-2,1.784452E-1,4.2374164E-2],"categories":[],"categories_nodes":[],"categories_segments":[],"categories_sizes":[],"default_left":[0,0,0,0,0,0,0,0,0,0,0,0,0,0,0],"id":10,"left_children":[1,3,5,-1,7,9,-1,11,-1,-1,13,-1,-1,-1,-1],"loss_changes":[5.0482025E0,1.8303702E0,4.7409825E0,0E0,1.1330917E0,4.1470976E0,0E0,1.0985126E0,0E0,0E0,1.0680189E0,0E0,0E0,0E0,0E0],"parents":[2147483647,0,0,1,1,2,2,4,4,5,5,7,7,10,10],"right_children":[2,4,6,-1,8,10,-1,12,-1,-1,14,-1,-1,-1,-1],"split_conditions":[6.2773937E-1,1.0828412E-1,6.6370356E-1,6.836396E-2,2.7669427E-1,2.7564076E-1,-3.9548565E-2,2.2893743E-1,-5.167948E-2,-3.16519E-2,8.8965476E-1,-3.287733E-2,7.0087634E-2,1.784452E-1,4.2374164E-2],"split_indices":[7,15,13,0,12,9,0,0,0,0,7,0,0,0,0],"split_type":[0,0,0,0,0,0,0,0,0,0,0,0,0,0,0],"sum_hessian":[1.9912779E1,1.1580128E1,8.332651E0,1.0335182E0,1.054661E1,6.1905365E0,2.1421142E0,2.278324E0,8.268286E0,1.1976086E0,4.992928E0,1.269538E0,1.008786E0,3.438462E0,1.5544659E0],"tree_param":{"num_deleted":"0","num_feature":"16","num_nodes":"15","size_leaf_vector":"1"}},{"base_weights":[1.6662472E-1,-1.0845134E-1,6.309573E-1,-4.0133932E-1,3.3884484E-1,1.231834E0,9.698206E-2,1.4275225E-2,-5.0427765E-2,-3.9710518E-2,8.5157156E-1,1.9522196E-2,1.5668948E-1,-4.002076E-2,5.8425326E-2,1.369291E-1,3.785912E-3],"categories":[],"categories_nodes":[],"categories_segments":[],"categories_sizes":[],"default_left":[0,0,0,0,0,0,0,0,0,0,0,0,0,0,0,0,0],"id":11,"left_children":[1,3,5,7,9,11,13,-1,-1,-1,15,-1,-1,-1,-1,-1,-1],"loss_changes":[2.7172556E0,1.9539176E0,2.4030015E0,5.6728685E-1,2.6146958E0,9.492402E-1,1.5052507E0,0E0,0E0,0E0,1.5801041E0,0E0,0E0,0E0,0E0,0E0,0E0],"parents":[2147483647,0,0,1,1,2,2,3,3,4,4,5,5,6,6,10,10],"right_children":[2,4,6,8,10,12,14,-1,-1,-1,16,-1,-1,-1,-1,-1,-1],"split_conditions":[6.501199E-1,5.925207E-1,4.7533762E-1,1.0624295E-1,4.417508E-1,1.9951543E-1,5.922051E-1,1.4275225E-2,-5.0427765E-2,-3.9710518E-2,3.0663005E-1,1.9522196E-2,1.5668948E-1,-4.002076E-2,5.8425326E-2,1.369291E-1,3.785912E-3],"split_indices":[3,8,2,3,9,5,12,0,0,0,11,0,0,0,0,0,0],"split_type":[0,0,0,0,0,0,0,0,0,0,0,0,0,0,0,0,0],"sum_hessian":[1.9738232E1,1.2876486E1,6.861745E0,7.843399E0,5.033087E0,2.6136827E0,4.248062E0,1.1863015E0,6.657098E0,2.1592617E0,2.8738253E0,1.025044E0,1.5886388E0,2.1910691E0,2.0569928E0,1.3390764E0,1.5347488E0],"tree_param":{"num_deleted":"0","num_feature":"16","num_nodes":"17","size_leaf_vector":"1"}},{"base_weights":[-1.5987529E-1,-4.5424893E-1,2.8374815E-1,-5.2874085E-2,1.4127555E-2,7.1643233E-1,-4.3328032E-2,-9.0982355E-2,1.2373672E0,-3.18847E-2,2.061805E-2,1.5786184E-1,1.9394247E-2],"categories":[],"categories_nodes":[],"categories_segments":[],"categories_sizes":[],"default_left":[0,0,0,0,0,0,0,0,0,0,0,0,0],"id":12,"left_children":[1,3,5,-1,-1,7,-1,9,11,-1,-1,-1,-1],"loss_changes":[2.783011E0,6.337247E-1,3.0164971E0,0E0,0E0,2.5591137E0,0E0,2.8327435E-1,9.771261E-1,0E0,0E0,0E0,0E0],"parents":[2147483647,0,0,1,1,2,2,5,5,7,7,8,8],"right_children":[2,4,6,-1,-1,8,-1,10,12,-1,-1,-1,-1],"split_conditions":[5.8810246E-1,8.617918E-1,5.105685E-1,-5.2874085E-2,1.4127555E-2,2.6519328E-1,-4.3328032E-2,2.6458582E-1,5.5243486E-1,-3.18847E-2,2.061805E-2,1.5786184E-1,1.9394247E-2],"split_indices":[10,8,8,0,0,8,0,1,4,0,0,0,0],"split_type":[0,0,0,0,0,0,0,0,0,0,0,0,0],"sum_hessian":[1.9323893E1,1.1601544E1,7.7223477E0,1.0411369E1,1.1901753E0,4.816629E0,2.9057188E0,2.212597E0,2.604032E0,1.2110175E0,1.0015795E0,1.5757604E0,1.0282716E0],"tree_param":{"num_deleted":"0","num_feature":"16","num_nodes":"13","size_leaf_vector":"1"}},{"base_weights":[2.326947E-2,-5.168243E-2,4.2437217E-1,7.749412E-1,-4.4572446E-2,1.1700683E0,-1.4841558E-1,-3.442984E-2,1.6660573E0,-3.4516256E-2,1.3919144E-2,1.932975E-1,5.178929E-2],"categories":[],"categories_nodes":[],"categories_segments":[],"categories_sizes":[],"default_left":[0,0,0,0,0,0,0,0,0,0,0,0,0],"id":13,"left_children":[1,-1,3,5,-1,7,9,-1,11,-1,-1,-1,-1],"loss_changes":[4.7023053E0,0E0,4.135102E0,3.5378995E0,0E0,5.508587E0,2.5462887E-1,0E0,5.681858E-1,0E0,0E0,0E0,0E0],"parents":[2147483647,0,0,2,2,3,3,5,5,6,6,8,8],"right_children":[2,-1,4,6,-1,8,10,-1,12,-1,-1,-1,-1],"split_conditions":[4.005E-1,-5.168243E-2,6.844783E-1,5.724873E-1,-4.4572446E-2,1.0067007E-1,2.999071E-1,-3.442984E-2,6.2636256E-1,-3.4516256E-2,1.3919144E-2,1.932975E-1,5.178929E-2],"split_indices":[15,0,4,10,0,10,4,0,3,0,0,0,0],"split_type":[0,0,0,0,0,0,0,0,0,0,0,0,0],"sum_hessian":[1.9693884E1,8.269845E0,1.142404E1,8.221066E0,3.2029731E0,5.570236E0,2.6508305E0,1.4497273E0,4.120509E0,1.4552207E0,1.1956099E0,2.7886798E0,1.3318291E0],"tree_param":{"num_deleted":"0","num_feature":"16","num_nodes":"13","size_leaf_vector":"1"}},{"base_weights":[7.254975E-2,9.8556733E-1,-2.8584698E-1,1.501591E-1,-5.2088783E-3,-5.254374E-2,3.0953234E-1,-1.9149292E-1,1.12193145E-1,-3.8913377E-2,1.9386373E-2],"categories":[],"categories_nodes":[],"categories_segments":[],"categories_sizes":[],"default_left":[0,0,0,0,0,0,0,0,0,0,0],"id":14,"left_children":[1,3,5,-1,-1,-1,7,9,-1,-1,-1],"loss_changes":[7.0286794E0,3.3107805E0,2.3853436E0,0E0,0E0,0E0,2.2908773E0,3.8077247E-1,0E0,0E0,0E0],"parents":[2147483647,0,0,1,1,2,2,6,6,7,7],"right_children":[2,4,6,-1,-1,-1,8,10,-1,-1,-1],"split_conditions":[2.6428995E-1,6.160842E-1,7.026561E-1,1.501591E-1,-5.2088783E-3,-5.254374E-2,7.391186E-1,6.113369E-1,1.12193145E-1,-3.8913377E-2,1.9386373E-2],"split_indices":[9,8,1,0,0,0,4,6,0,0,0],"split_type":[0,0,0,0,0,0,0,0,0,0,0],"sum_hessian":[1.9618868E1,5.037042E0,1.4581825E1,3.0654855E0,1.9715564E0,1.0481408E1,4.100417E0,3.0089903E0,1.0914267E0,1.9824396E0,1.0265505E0],"tree_param":{"num_deleted":"0","num_feature":"16","num_nodes":"11","size_leaf_vector":"1"}},{"base_weights":[-1.9997574E-1,7.459071E-2,-3.275657E-1,-4.1793337E-1,2.6024604E-1,-5.299264E-2,-4.7545464E-4,6.849534E-2,-2.9648498E-2,-3.9826453E-2,5.581943E-2],"categories":[],"categories_nodes":[],"categories_segments":[],"categories_sizes":[],"default_left":[0,0,0,0,0,0,0,0,0,0,0],"id":15,"left_children":[1,-1,3,5,7,-1,9,-1,-1,-1,-1],"loss_changes":[2.649153E0,0E0,1.0783416E0,7.573414E-1,9.238791E-1,0E0,1.2064797E0,0E0,0E0,0E0,0E0],"parents":[2147483647,0,0,2,2,3,3,4,4,6,6],"right_children":[2,-1,4,6,8,-1,10,-1,-1,-1,-1],"split_conditions":[1.3978615E-1,7.459071E-2,8.9288443E-1,7.7868384E-1,5.688564E-1,-5.299264E-2,4.3606016E-1,6.849534E-2,-2.9648498E-2,-3.9826453E-2,5.581943E-2],"split_indices":[13,0,9,13,11,0,3,0,0,0,0],"split_type":[0,0,0,0,0,0,0,0,0,0,0],"sum_hessian":[1.8926388E1,1.6735401E0,1.7252848E1,1.5204391E1,2.048457E0,1.1775832E1,3.4285586E0,1.0313607E0,1.017096E0,2.1703362E0,1.2582223E0],"tree_param":{"num_deleted":"0","num_feature":"16","num_nodes":"11","size_leaf_vector":"1"}},{"base_weights":[-1.08336285E-1,-4.0415087E-1,6.059009E-1,-5.2906495E-2,1.8880995E-1,1.2802043E0,-4.011623E-2,6.686068E-2,-3.288653E-2,1.5878952E-1,4.4536356E-2],"categories":[],"categories_nodes":[],"categories_segments":[],"categories_sizes":[],"default_left":[0,0,0,0,0,0,0,0,0,0,0],"id":16,"left_children":[1,3,5,-1,7,9,-1,-1,-1,-1,-1],"loss_changes":[4.5088983E0,1.2013707E0,4.7989893E0,0E0,1.045645E0,3.2504082E-1,0E0,0E0,0E0,0E0,0E0],"parents":[2147483647,0,0,1,1,2,2,4,4,5,5],"right_children":[2,4,6,-1,8,10,-1,-1,-1,-1,-1],"split_conditions":[8.2677853E-1,9.6917176E-1,6.575002E-1,-5.2906495E-2,3.3225912E-1,4.3606016E-1,-4.011623E-2,6.686068E-2,-3.288653E-2,1.5878952E-1,4.4536356E-2],"split_indices":[11,2,7,0,15,3,0,0,0,0,0],"split_type":[0,0,0,0,0,0,0,0,0,0,0],"sum_hessian":[1.9181688E1,1.38709345E1,5.310755E0,1.1546324E1,2.3246102E0,3.0184522E0,2.2923026E0,1.0551288E0,1.2694814E0,1.5464538E0,1.4719982E0],"tree_param":{"num_deleted":"0","num_feature":"16","num_nodes":"11","size_leaf_vector":"1"}},{"base_weights":[1.9242714E-1,-2.1080443E-1,6.8266547E-1,6.42876E-2,-3.5039896E-1,1.0233632E0,-3.901216E-2,1.9171871E-1,-5.114704E-2,-3.1211067E-2,1.3104565E0,6.76448E-2,-3.2898687E-2,1.7849375E-1,6.6671044E-1,1.0826389E-1,-3.0996937E-2],"categories":[],"categories_nodes":[],"categories_segments":[],"categories_sizes":[],"default_left":[0,0,0,0,0,0,0,0,0,0,0,0,0,0,0,0,0],"id":17,"left_children":[1,3,5,-1,7,9,-1,11,-1,-1,13,-1,-1,-1,15,-1,-1],"loss_changes":[4.331127E0,1.7013316E0,3.979457E0,0E0,1.0841413E0,3.36524E0,0E0,1.0590173E0,0E0,0E0,8.0713177E-1,0E0,0E0,0E0,2.1110597E0,0E0,0E0],"parents":[2147483647,0,0,1,1,2,2,4,4,5,5,7,7,10,10,14,14],"right_children":[2,4,6,-1,8,10,-1,12,-1,-1,14,-1,-1,-1,16,-1,-1],"split_conditions":[6.2773937E-1,1.0828412E-1,6.6370356E-1,6.42876E-2,2.7669427E-1,2.7564076E-1,-3.901216E-2,5.8475316E-1,-5.114704E-2,-3.1211067E-2,2.1658184E-1,6.76448E-2,-3.2898687E-2,1.7849375E-1,8.8965476E-1,1.0826389E-1,-3.0996937E-2],"split_indices":[7,15,13,0,12,9,0,5,0,0,5,0,0,0,7,0,0],"split_type":[0,0,0,0,0,0,0,0,0,0,0,0,0,0,0,0,0],"sum_hessian":[2.0181845E1,1.1386334E1,8.795509E0,1.0935426E0,1.0292792E1,6.7104597E0,2.08505E0,2.314068E0,7.978724E0,1.1719148E0,5.538545E0,1.0435343E0,1.2705338E0,2.1679184E0,3.3706264E0,2.2878392E0,1.0827874E0],"tree_param":{"num_deleted":"0","num_feature":"16","num_nodes":"17","size_leaf_vector":"1"}},{"base_weights":[1.5792915E-1,-2.8330216E-2,8.0602354E-1,-5.025154E-2,3.1172714E-1,3.199122E-4,1.2598245E-1,5.79577E-1,-4.1441567E-2,1.2639542E0,4.9206775E-2,1.9587405E-2,1.6209461E-1,5.7875007E-2,-4.1779358E-2],"categories":[],"categories_nodes":[],"categories_segments":[],"categories_sizes":[],"default_left":[0,0,0,0,0,0,0,0,0,0,0,0,0,0,0],"id":18,"left_children":[1,3,5,-1,7,-1,-1,9,-1,11,13,-1,-1,-1,-1],"loss_changes":[2.5467312E0,2.9312282E0,1.7088101E0,0E0,2.30919E0,0E0,0E0,2.9098651E0,0E0,1.0301862E0,1.6399165E0,0E0,0E0,0E0,0E0],"parents":[2147483647,0,0,1,1,2,2,4,4,7,7,9,9,10,10],"right_children":[2,4,6,-1,8,-1,-1,10,-1,12,14,-1,-1,-1,-1],"split_conditions":[8.740054E-1,3.8154987E-1,4.2821848E-1,-5.025154E-2,6.260823E-1,3.199122E-4,1.2598245E-1,3.3149582E-1,-4.1441567E-2,1.6640751E-1,3.211015E-1,1.9587405E-2,1.6209461E-1,5.7875007E-2,-4.1779358E-2],"split_indices":[6,8,3,0,6,0,0,15,0,15,4,0,0,0,0],"split_type":[0,0,0,0,0,0,0,0,0,0,0,0,0,0,0],"sum_hessian":[1.9908127E1,1.6206686E1,3.7014406E0,6.568983E0,9.637704E0,1.7003613E0,2.0010793E0,7.188096E0,2.4496076E0,2.5344927E0,4.6536036E0,1.022867E0,1.5116258E0,2.0686347E0,2.5849688E0],"tree_param":{"num_deleted":"0","num_feature":"16","num_nodes":"15","size_leaf_vector":"1"}},{"base_weights":[-1.5429337E-1,-4.4682008E-1,2.652313E-1,-5.23686E-2,1.5442732E-2,6.5976745E-1,-4.2789962E-2,-9.154171E-2,1.1175337E0,-3.186383E-2,2.0410258E-2,1.7108407E-2,1.4265688E-1],"categories":[],"categories_nodes":[],"categories_segments":[],"categories_sizes":[],"default_left":[0,0,0,0,0,0,0,0,0,0,0,0,0],"id":19,"left_children":[1,3,5,-1,-1,7,-1,9,11,-1,-1,-1,-1],"loss_changes":[2.5824692E0,6.4477897E-1,2.7095404E0,0E0,0E0,2.182919E0,0E0,2.8087163E-1,8.775945E-1,0E0,0E0,0E0,0E0],"parents":[2147483647,0,0,1,1,2,2,5,5,7,7,8,8],"right_children":[2,4,6,-1,-1,8,-1,10,12,-1,-1,-1,-1],"split_conditions":[5.8810246E-1,8.480675E-1,5.105685E-1,-5.23686E-2,1.5442732E-2,2.6519328E-1,-4.2789962E-2,7.4571705E-1,3.4159258E-1,-3.186383E-2,2.0410258E-2,1.7108407E-2,1.4265688E-1],"split_indices":[10,7,8,0,0,8,0,10,13,0,0,0,0],"split_type":[0,0,0,0,0,0,0,0,0,0,0,0,0],"sum_hessian":[1.9077534E1,1.1201721E1,7.875813E0,1.0046355E1,1.155366E0,5.0496454E0,2.8261676E0,2.214735E0,2.8349104E0,1.2085906E0,1.0061444E0,1.080225E0,1.7546855E0],"tree_param":{"num_deleted":"0","num_feature":"16","num_nodes":"13","size_leaf_vector":"1"}},{"base_weights":[1.9050265E-2,-5.1143605E-2,3.9048836E-1,7.0274323E-1,-4.3979045E-2,1.0413263E0,-1.4585724E-1,-3.4049753E-2,1.4528003E0,1.407471E-2,-3.4327623E-2,1.7268984E-1,1.6603312E-2],"categories":[],"categories_nodes":[],"categories_segments":[],"categories_sizes":[],"default_left":[0,0,0,0,0,0,0,0,0,0,0,0,0],"id":20,"left_children":[1,-1,3,5,-1,7,9,-1,11,-1,-1,-1,-1],"loss_changes":[4.2871327E0,0E0,3.619269E0,2.9283938E0,0E0,4.491984E0,2.538818E-1,0E0,1.6908855E0,0E0,0E0,0E0,0E0],"parents":[2147483647,0,0,2,2,3,3,5,5,6,6,8,8],"right_children":[2,-1,4,6,-1,8,10,-1,12,-1,-1,-1,-1],"split_conditions":[4.005E-1,-5.1143605E-2,6.844783E-1,5.724873E-1,-4.3979045E-2,1.0067007E-1,3.137046E-1,-3.4049753E-2,6.9666046E-1,1.407471E-2,-3.4327623E-2,1.7268984E-1,1.6603312E-2],"split_indices":[15,0,4,10,0,10,8,0,6,0,0,0,0],"split_type":[0,0,0,0,0,0,0,0,0,0,0,0,0],"sum_hessian":[1.9743832E1,7.975849E0,1.1767982E1,8.663413E0,3.1045685E0,6.0302815E0,2.6331317E0,1.423233E0,4.6070485E0,1.1910626E0,1.4420693E0,3.5160422E0,1.0910062E0],"tree_param":{"num_deleted":"0","num_feature":"16","num_nodes":"13","size_leaf_vector":"1"}},{"base_weights":[6.9079086E-2,8.810677E-1,-2.7717414E-1,-3.1716373E-2,1.1903733E0,-5.1967174E-2,2.9474145E-1,1.6380939E-1,4.301607E-3,-1.8766607E-1,1.03765264E-1,2.0389145E-2,-3.8824048E-2],"categories":[],"categories_nodes":[],"categories_segments":[],"categories_sizes":[],"default_left":[0,0,0,0,0,0,0,0,0,0,0,0,0],"id":21,"left_children":[1,3,5,-1,7,-1,9,-1,-1,11,-1,-1,-1],"loss_changes":[6.0396733E0,2.7500844E0,2.2628381E0,0E0,2.6513572E0,0E0,2.0466778E0,0E0,0E0,3.9172417E-1,0E0,0E0,0E0],"parents":[2147483647,0,0,1,1,2,2,4,4,6,6,9,9],"right_children":[2,4,6,-1,8,-1,10,-1,-1,12,-1,-1,-1],"split_conditions":[2.6428995E-1,1.9702667E-1,7.026561E-1,-3.1716373E-2,6.160842E-1,-5.1967174E-2,8.109334E-1,1.6380939E-1,4.301607E-3,2.2404647E-1,1.03765264E-1,2.0389145E-2,-3.8824048E-2],"split_indices":[9,1,1,0,8,0,2,0,0,5,0,0,0],"split_type":[0,0,0,0,0,0,0,0,0,0,0,0,0],"sum_hessian":[1.9613155E1,5.401552E0,1.4211602E1,1.103039E0,4.298513E0,1.0044141E1,4.167462E0,2.7843115E0,1.5142015E0,2.979877E0,1.1875849E0,1.0037796E0,1.9760972E0],"tree_param":{"num_deleted":"0","num_feature":"16","num_nodes":"13","size_leaf_vector":"1"}},{"base_weights":[-1.9228771E-1,6.950934E-2,-3.193312E-1,-4.1031176E-1,2.4711612E-1,-5.245763E-2,8.2020165E-4,-2.988163E-2,6.6477336E-2,5.323251E-2,-3.9290648E-2],"categories":[],"categories_nodes":[],"categories_segments":[],"categories_sizes":[],"default_left":[0,0,0,0,0,0,0,0,0,0,0],"id":22,"left_children":[1,-1,3,5,7,-1,9,-1,-1,-1,-1],"loss_changes":[2.4286566E0,0E0,1.019132E0,7.388873E-1,9.028653E-1,0E0,1.1335117E0,0E0,0E0,0E0,0E0],"parents":[2147483647,0,0,2,2,3,3,4,4,6,6],"right_children":[2,-1,4,6,8,-1,10,-1,-1,-1,-1],"split_conditions":[1.3978615E-1,6.950934E-2,8.9288443E-1,7.7868384E-1,7.667994E-1,-5.245763E-2,2.1254906E-1,-2.988163E-2,6.6477336E-2,5.323251E-2,-3.9290648E-2],"split_indices":[13,0,9,13,5,0,1,0,0,0,0],"split_type":[0,0,0,0,0,0,0,0,0,0,0],"sum_hessian":[1.8573975E1,1.7661762E0,1.6807798E1,1.4719284E1,2.088514E0,1.1302176E1,3.417108E0,1.0285747E0,1.0599393E0,1.304331E0,2.112777E0],"tree_param":{"num_deleted":"0","num_feature":"16","num_nodes":"11","size_leaf_vector":"1"}},{"base_weights":[-1.0307501E-1,-3.9653292E-1,5.6739515E-1,-5.2350283E-2,1.754851E-1,1.1607298E0,-3.9469644E-2,6.371354E-2,-3.2910604E-2,4.1155916E-2,1.4334701E-1],"categories":[],"categories_nodes":[],"categories_segments":[],"categories_sizes":[],"default_left":[0,0,0,0,0,0,0,0,0,0,0],"id":23,"left_children":[1,3,5,-1,7,9,-1,-1,-1,-1,-1],"loss_changes":[4.1425695E0,1.1404788E0,4.1532316E0,0E0,9.95073E-1,2.799921E-1,0E0,0E0,0E0,0E0,0E0],"parents":[2147483647,0,0,1,1,2,2,4,4,5,5],"right_children":[2,4,6,-1,8,10,-1,-1,-1,-1,-1],"split_conditions":[8.2677853E-1,9.6917176E-1,6.575002E-1,-5.2350283E-2,6.501199E-1,3.7996063E-1,-3.9469644E-2,6.371354E-2,-3.2910604E-2,4.1155916E-2,1.4334701E-1],"split_indices":[11,2,7,0,3,13,0,0,0,0,0],"split_type":[0,0,0,0,0,0,0,0,0,0,0],"sum_hessian":[1.8910969E1,1.3437909E1,5.47306E0,1.1066344E1,2.3715641E0,3.257594E0,2.2154663E0,1.1013043E0,1.2702599E0,1.5390546E0,1.7185394E0],"tree_param":{"num_deleted":"0","num_feature":"16","num_nodes":"11","size_leaf_vector":"1"}},{"base_weights":[1.8176691E-1,-2.0387332E-1,6.2697387E-1,6.035162E-2,-3.430625E-1,9.2644775E-1,-3.8437918E-2,1.8052876E-1,-5.0589163E-2,-3.0616289E-2,1.1710758E0,-3.283266E-2,6.46715E-2,1.5717971E-1,6.08878E-1,9.796662E-2,-3.0713817E-2],"categories":[],"categories_nodes":[],"categories_segments":[],"categories_sizes":[],"default_left":[0,0,0,0,0,0,0,0,0,0,0,0,0,0,0,0,0],"id":24,"left_children":[1,3,5,-1,7,9,-1,11,-1,-1,13,-1,-1,-1,15,-1,-1],"loss_changes":[3.7895691E0,1.5761682E0,3.4286704E0,0E0,1.031627E0,2.8070483E0,0E0,1.0078021E0,0E0,0E0,6.160879E-1,0E0,0E0,0E0,1.8422966E0,0E0,0E0],"parents":[2147483647,0,0,1,1,2,2,4,4,5,5,7,7,10,10,14,14],"right_children":[2,4,6,-1,8,10,-1,12,-1,-1,14,-1,-1,-1,16,-1,-1],"split_conditions":[6.2773937E-1,1.0828412E-1,6.6370356E-1,6.035162E-2,2.7669427E-1,2.7564076E-1,-3.8437918E-2,2.7347526E-1,-5.0589163E-2,-3.0616289E-2,2.1658184E-1,-3.283266E-2,6.46715E-2,1.5717971E-1,8.8965476E-1,9.796662E-2,-3.0713817E-2],"split_indices":[7,15,13,0,12,9,0,11,0,0,5,0,0,0,7,0,0],"split_type":[0,0,0,0,0,0,0,0,0,0,0,0,0,0,0,0,0],"sum_hessian":[2.0327698E1,1.1183002E1,9.144695E0,1.1538669E0,1.0029136E1,7.120254E0,2.0244412E0,2.353275E0,7.6758604E0,1.1374458E0,5.982808E0,1.2665348E0,1.0867403E0,2.4445686E0,3.5382395E0,2.4692445E0,1.0689949E0],"tree_param":{"num_deleted":"0","num_feature":"16","num_nodes":"17","size_leaf_vector":"1"}},{"base_weights":[1.4993048E-1,-4.604352E-2,3.1711033E-1,8.890561E-2,1.050144E0,-4.706418E-2,4.001229E-1,1.3386041E-1,1.5875118E-2,6.346977E-1,-3.7593443E-2,-3.4727152E-2,9.1864794E-2],"categories":[],"categories_nodes":[],"categories_segments":[],"categories_sizes":[],"default_left":[0,0,0,0,0,0,0,0,0,0,0,0,0],"id":25,"left_children":[1,-1,3,5,7,-1,9,-1,-1,11,-1,-1,-1],"loss_changes":[2.2917187E0,0E0,2.7669704E0,2.6492717E0,8.075113E-1,0E0,1.9901565E0,0E0,0E0,2.4828422E0,0E0,0E0,0E0],"parents":[2147483647,0,0,2,2,3,3,4,4,6,6,9,9],"right_children":[2,-1,4,6,8,-1,10,-1,-1,12,-1,-1,-1],"split_conditions":[2.0134231E-1,-4.604352E-2,8.740054E-1,3.8154987E-1,4.7631368E-1,-4.706418E-2,6.428174E-1,1.3386041E-1,1.5875118E-2,2.1573015E-1,-3.7593443E-2,-3.4727152E-2,9.1864794E-2],"split_indices":[7,0,6,8,1,0,14,0,0,5,0,0,0],"split_type":[0,0,0,0,0,0,0,0,0,0,0,0,0],"sum_hessian":[2.002795E1,3.9290493E0,1.6098902E1,1.3131992E1,2.9669085E0,4.510379E0,8.6216135E0,1.8624943E0,1.104414E0,6.7603493E0,1.8612642E0,1.4663508E0,5.2939987E0],"tree_param":{"num_deleted":"0","num_feature":"16","num_nodes":"13","size_leaf_vector":"1"}},{"base_weights":[-1.4848849E-1,-4.3962723E-1,2.512894E-1,1.5097304E-2,-5.182875E-2,6.1459535E-1,-4.2199012E-2,9.0434897E-1,-3.200799E-2,1.2170942E-1,6.080735E-3],"categories":[],"categories_nodes":[],"categories_segments":[],"categories_sizes":[],"default_left":[0,0,0,0,0,0,0,0,0,0,0],"id":26,"left_children":[1,3,5,-1,-1,7,-1,9,-1,-1,-1],"loss_changes":[2.4149675E0,6.2737346E-1,2.4557889E0,0E0,0E0,1.9792557E0,0E0,1.251471E0,0E0,0E0,0E0],"parents":[2147483647,0,0,1,1,2,2,5,5,7,7],"right_children":[2,4,6,-1,-1,8,-1,10,-1,-1,-1],"split_conditions":[5.8810246E-1,1.550231E-1,5.105685E-1,1.5097304E-2,-5.182875E-2,8.6858034E-1,-4.2199012E-2,7.026561E-1,-3.200799E-2,1.2170942E-1,6.080735E-3],"split_indices":[10,12,8,0,0,6,0,1,0,0,0],"split_type":[0,0,0,0,0,0,0,0,0,0,0],"sum_hessian":[1.879962E1,1.0820152E1,7.979468E0,1.1636773E0,9.656475E0,5.23941E0,2.740058E0,4.024303E0,1.2151067E0,2.6127727E0,1.4115304E0],"tree_param":{"num_deleted":"0","num_feature":"16","num_nodes":"11","size_leaf_vector":"1"}},{"base_weights":[1.4600789E-2,-5.0591975E-2,3.5920084E-1,6.3970274E-1,-4.3388702E-2,9.297657E-1,-1.4013217E-1,-3.370678E-2,1.2778442E0,1.4465225E-2,-3.3933606E-2,1.5013106E-1,1.5372659E-2],"categories":[],"categories_nodes":[],"categories_segments":[],"categories_sizes":[],"default_left":[0,0,0,0,0,0,0,0,0,0,0,0,0],"id":27,"left_children":[1,-1,3,5,-1,7,9,-1,11,-1,-1,-1,-1],"loss_changes":[3.9020767E0,0E0,3.1838422E0,2.4047337E0,0E0,3.7202234E0,2.5303346E-1,0E0,1.2916756E0,0E0,0E0,0E0,0E0],"parents":[2147483647,0,0,2,2,3,3,5,5,6,6,8,8],"right_children":[2,-1,4,6,-1,8,10,-1,12,-1,-1,-1,-1],"split_conditions":[4.005E-1,-5.0591975E-2,6.844783E-1,5.724873E-1,-4.3388702E-2,1.0067007E-1,5.096372E-1,-3.370678E-2,6.9666046E-1,1.4465225E-2,-3.3933606E-2,1.5013106E-1,1.5372659E-2],"split_indices":[15,0,4,10,0,10,13,0,6,0,0,0,0],"split_type":[0,0,0,0,0,0,0,0,0,0,0,0,0],"sum_hessian":[1.9741041E1,7.6769E0,1.2064142E1,9.054957E0,3.0091846E0,6.4599075E0,2.5950499E0,1.3991882E0,5.060719E0,1.1808046E0,1.4142452E0,3.94161E0,1.119109E0],"tree_param":{"num_deleted":"0","num_feature":"16","num_nodes":"13","size_leaf_vector":"1"}},{"base_weights":[6.652108E-2,7.994078E-1,-2.686518E-1,-3.1316184E-2,1.070156E0,-5.1373687E-2,2.7789968E-1,1.4454523E-1,3.936948E-3,-1.9114418E-1,9.8678604E-2,-3.866021E-2,1.873182E-2],"categories":[],"categories_nodes":[],"categories_segments":[],"categories_sizes":[],"default_left":[0,0,0,0,0,0,0,0,0,0,0,0,0],"id":28,"left_children":[1,3,5,-1,7,-1,9,-1,-1,11,-1,-1,-1],"loss_changes":[5.257422E0,2.351429E0,2.129901E0,0E0,2.1132894E0,0E0,1.9314698E0,0E0,0E0,3.6773485E-1,0E0,0E0,0E0],"parents":[2147483647,0,0,1,1,2,2,4,4,6,6,9,9],"right_children":[2,4,6,-1,8,-1,10,-1,-1,12,-1,-1,-1],"split_conditions":[2.6428995E-1,1.9702667E-1,7.026561E-1,-3.1316184E-2,6.160842E-1,-5.1373687E-2,7.391186E-1,1.4454523E-1,3.936948E-3,5.825147E-1,9.8678604E-2,-3.866021E-2,1.873182E-2],"split_indices":[9,1,1,0,8,0,4,0,0,7,0,0,0],"split_type":[0,0,0,0,0,0,0,0,0,0,0,0,0],"sum_hessian":[1.9528345E1,5.6936307E0,1.3834714E1,1.083718E0,4.6099124E0,9.593037E0,4.2416773E0,3.0845764E0,1.525336E0,2.9922054E0,1.2494719E0,1.9589785E0,1.033227E0],"tree_param":{"num_deleted":"0","num_feature":"16","num_nodes":"13","size_leaf_vector":"1"}},{"base_weights":[-1.841756E-1,6.516903E-2,-3.1081727E-1,7.985259E-2,-4.504008E-1,-4.232822E-2,8.008569E-2,-5.2211184E-2,1.8979844E-2],"categories":[],"categories_nodes":[],"categories_segments":[],"categories_sizes":[],"default_left":[0,0,0,0,0,0,0,0,0],"id":29,"left_children":[1,-1,3,5,7,-1,-1,-1,-1],"loss_changes":[2.2343433E0,0E0,9.8184E-1,2.30351E0,6.927104E-1,0E0,0E0,0E0,0E0],"parents":[2147483647,0,0,2,2,3,3,4,4],"right_children":[2,-1,4,6,8,-1,-1,-1,-1],"split_conditions":[1.3978615E-1,6.516903E-2,2.4863097E-1,7.272568E-1,8.623996E-1,-4.232822E-2,8.008569E-2,-5.2211184E-2,1.8979844E-2],"split_indices":[13,0,11,9,13,0,0,0,0],"split_type":[0,0,0,0,0,0,0,0,0],"sum_hessian":[1.8193968E1,1.8483658E0,1.6345602E1,4.415451E0,1.1930151E1,2.8438606E0,1.5715901E0,1.0894297E1,1.0358548E0],"tree_param":{"num_deleted":"0","num_feature":"16","num_nodes":"9","size_leaf_vector":"1"}},{"base_weights":[-9.733227E-2,-3.887595E-1,5.358997E-1,-5.181533E-2,1.6732165E-1,1.0637677E0,-3.876197E-2,6.0799994E-2,-3.2640293E-2,1.318378E-1,3.768693E-2],"categories":[],"categories_nodes":[],"categories_segments":[],"categories_sizes":[],"default_left":[0,0,0,0,0,0,0,0,0,0,0],"id":30,"left_children":[1,3,5,-1,7,9,-1,-1,-1,-1,-1],"loss_changes":[3.8248312E0,1.0940678E0,3.6283264E0,0E0,9.379145E-1,2.8398418E-1,0E0,0E0,0E0,0E0,0E0],"parents":[2147483647,0,0,1,1,2,2,4,4,5,5],"right_children":[2,4,6,-1,8,10,-1,-1,-1,-1,-1],"split_conditions":[8.2677853E-1,9.6917176E-1,6.575002E-1,-5.181533E-2,5.722606E-1,6.1190367E-1,-3.876197E-2,6.0799994E-2,-3.2640293E-2,1.318378E-1,3.768693E-2],"split_indices":[11,2,7,0,0,14,0,0,0,0,0],"split_type":[0,0,0,0,0,0,0,0,0,0,0],"sum_hessian":[1.8597242E1,1.3000293E1,5.596949E0,1.0601621E1,2.3986723E0,3.464714E0,2.1322348E0,1.1451252E0,1.2535472E0,1.8570484E0,1.6076658E0],"tree_param":{"num_deleted":"0","num_feature":"16","num_nodes":"11","size_leaf_vector":"1"}},{"base_weights":[1.7318289E-1,-1.9691116E-1,5.821604E-1,5.662579E-2,-3.3551568E-1,8.492974E-1,-3.7804846E-2,1.7488793E-1,-5.0060548E-2,-2.9882843E-2,1.0608097E0,-3.257152E-2,6.2354814E-2,1.4104281E-1,5.5979276E-1,8.972674E-2,-3.0532027E-2],"categories":[],"categories_nodes":[],"categories_segments":[],"categories_sizes":[],"default_left":[0,0,0,0,0,0,0,0,0,0,0,0,0,0,0,0,0],"id":31,"left_children":[1,3,5,-1,7,9,-1,11,-1,-1,13,-1,-1,-1,15,-1,-1],"loss_changes":[3.3517818E0,1.456634E0,2.9919744E0,0E0,9.9437547E-1,2.3700523E0,0E0,9.602951E-1,0E0,0E0,4.9946308E-1,0E0,0E0,0E0,1.6410668E0,0E0,0E0],"parents":[2147483647,0,0,1,1,2,2,4,4,5,5,7,7,10,10,14,14],"right_children":[2,4,6,-1,8,10,-1,12,-1,-1,14,-1,-1,-1,16,-1,-1],"split_conditions":[6.2773937E-1,1.0828412E-1,6.6370356E-1,5.662579E-2,2.7669427E-1,2.7564076E-1,-3.7804846E-2,7.174522E-1,-5.0060548E-2,-2.9882843E-2,2.1658184E-1,-3.257152E-2,6.2354814E-2,1.4104281E-1,8.8965476E-1,8.972674E-2,-3.0532027E-2],"split_indices":[7,15,13,0,12,9,0,13,0,0,5,0,0,0,7,0,0],"split_type":[0,0,0,0,0,0,0,0,0,0,0,0,0,0,0,0,0],"sum_hessian":[2.0387054E1,1.097449E1,9.412564E0,1.2125666E0,9.761924E0,7.454247E0,1.9583175E0,2.3712974E0,7.3906264E0,1.0954009E0,6.358846E0,1.2502872E0,1.1210102E0,2.6762094E0,3.6826367E0,2.622464E0,1.0601728E0],"tree_param":{"num_deleted":"0","num_feature":"16","num_nodes":"17","size_leaf_vector":"1"}},{"base_weights":[1.3874955E-1,-1.105976E-1,5.302526E-1,1.9770554E-1,-4.8832517E-2,8.1426555E-1,-1.2241167E-1,6.036825E-1,-2.4380267E-1,1.2541237E-1,-5.5186697E-3,-3.405133E-2,2.0143028E-2,9.736162E-2,-3.006092E-2,-4.164857E-2,1.8765792E-2],"categories":[],"categories_nodes":[],"categories_segments":[],"categories_sizes":[],"default_left":[0,0,0,0,0,0,0,0,0,0,0,0,0,0,0,0,0],"id":32,"left_children":[1,3,5,7,-1,9,11,13,15,-1,-1,-1,-1,-1,-1,-1,-1],"loss_changes":[2.1280751E0,1.7010581E0,1.660594E0,1.6345255E0,0E0,2.363127E0,3.1032985E-1,1.8350563E0,4.273929E-1,0E0,0E0,0E0,0E0,0E0,0E0,0E0,0E0],"parents":[2147483647,0,0,1,1,2,2,3,3,5,5,6,6,7,7,8,8],"right_children":[2,4,6,8,-1,10,12,14,16,-1,-1,-1,-1,-1,-1,-1,-1],"split_conditions":[6.501199E-1,4.656544E-1,9.0681905E-1,2.9402488E-1,-4.8832517E-2,6.052996E-1,9.730562E-1,6.3183326E-1,2.866378E-1,1.2541237E-1,-5.5186697E-3,-3.405133E-2,2.0143028E-2,9.736162E-2,-3.006092E-2,-4.164857E-2,1.8765792E-2],"split_indices":[3,14,3,3,0,15,3,0,14,0,0,0,0,0,0,0,0],"split_type":[0,0,0,0,0,0,0,0,0,0,0,0,0,0,0,0,0],"sum_hessian":[2.0198797E1,1.2778019E1,7.420779E0,7.2979703E0,5.4800487E0,4.998174E0,2.422605E0,3.6106112E0,3.6873593E0,3.0252583E0,1.9729158E0,1.4168813E0,1.0057236E0,2.507972E0,1.1026392E0,2.6581843E0,1.0291749E0],"tree_param":{"num_deleted":"0","num_feature":"16","num_nodes":"17","size_leaf_vector":"1"}},{"base_weights":[-1.4352709E-1,-4.3184182E-1,2.3327227E-1,-5.130231E-2,1.5866483E-2,5.6178176E-1,-4.151157E-2,8.20399E-1,-3.1661835E-2,1.0926144E0,5.306266E-3,1.4000748E-1,1.6527744E-2],"categories":[],"categories_nodes":[],"categories_segments":[],"categories_sizes":[],"default_left":[0,0,0,0,0,0,0,0,0,0,0,0,0],"id":33,"left_children":[1,3,5,-1,-1,7,-1,9,-1,11,-1,-1,-1],"loss_changes":[2.2221253E0,6.2853146E-1,2.1745052E0,0E0,0E0,1.7304721E0,0E0,1.0449176E0,0E0,8.6527014E-1,0E0,0E0,0E0],"parents":[2147483647,0,0,1,1,2,2,5,5,7,7,9,9],"right_children":[2,4,6,-1,-1,8,-1,10,-1,12,-1,-1,-1],"split_conditions":[5.8810246E-1,8.480675E-1,5.105685E-1,-5.130231E-2,1.5866483E-2,8.6858034E-1,-4.151157E-2,7.026561E-1,-3.1661835E-2,5.3940994E-1,5.306266E-3,1.4000748E-1,1.6527744E-2],"split_indices":[10,7,8,0,0,6,0,1,0,2,0,0,0],"split_type":[0,0,0,0,0,0,0,0,0,0,0,0,0],"sum_hessian":[1.8527346E1,1.0413325E1,8.11402E0,9.270111E0,1.1432143E0,5.4741054E0,2.6399152E0,4.280019E0,1.1940863E0,2.8463573E0,1.4336617E0,1.7547778E0,1.0915796E0],"tree_param":{"num_deleted":"0","num_feature":"16","num_nodes":"13","size_leaf_vector":"1"}},{"base_weights":[1.1352329E-2,-5.0033152E-2,3.3322427E-1,5.873813E-1,-4.272942E-2,8.4208363E-1,-1.3552701E-1,-3.3292145E-2,1.1438645E0,1.4998026E-2,-3.3689603E-2,1.3344683E-1,1.4143846E-2],"categories":[],"categories_nodes":[],"categories_segments":[],"categories_sizes":[],"default_left":[0,0,0,0,0,0,0,0,0,0,0,0,0],"id":34,"left_children":[1,-1,3,5,-1,7,9,-1,11,-1,-1,-1,-1],"loss_changes":[3.5679724E0,0E0,2.8173804E0,2.024022E0,0E0,3.1498094E0,2.5542104E-1,0E0,1.0414515E0,0E0,0E0,0E0,0E0],"parents":[2147483647,0,0,2,2,3,3,5,5,6,6,8,8],"right_children":[2,-1,4,6,-1,8,10,-1,12,-1,-1,-1,-1],"split_conditions":[4.005E-1,-5.0033152E-2,6.844783E-1,5.724873E-1,-4.272942E-2,1.0067007E-1,6.2378865E-1,-3.3292145E-2,6.9666046E-1,1.4998026E-2,-3.3689603E-2,1.3344683E-1,1.4143846E-2],"split_indices":[15,0,4,10,0,10,1,0,6,0,0,0,0],"split_type":[0,0,0,0,0,0,0,0,0,0,0,0,0],"sum_hessian":[1.96516E1,7.374238E0,1.2277361E1,9.372746E0,2.9046144E0,6.8089085E0,2.5638385E0,1.370312E0,5.4385962E0,1.1659356E0,1.3979028E0,4.2913837E0,1.1472127E0],"tree_param":{"num_deleted":"0","num_feature":"16","num_nodes":"13","size_leaf_vector":"1"}},{"base_weights":[6.401997E-2,7.334054E-1,-2.606664E-1,-3.0808225E-2,9.740474E-1,-5.082434E-2,2.6376113E-1,1.2979679E-1,3.631585E-3,-1.8840078E-1,9.221704E-2,1.9801611E-2,-3.872588E-2],"categories":[],"categories_nodes":[],"categories_segments":[],"categories_sizes":[],"default_left":[0,0,0,0,0,0,0,0,0,0,0,0,0],"id":35,"left_children":[1,3,5,-1,7,-1,9,-1,-1,11,-1,-1,-1],"loss_changes":[4.624876E0,2.0357347E0,2.0133753E0,0E0,1.7345886E0,0E0,1.751659E0,0E0,0E0,3.8194925E-1,0E0,0E0,0E0],"parents":[2147483647,0,0,1,1,2,2,4,4,6,6,9,9],"right_children":[2,4,6,-1,8,-1,10,-1,-1,12,-1,-1,-1],"split_conditions":[2.6428995E-1,1.9702667E-1,7.026561E-1,-3.0808225E-2,6.160842E-1,-5.082434E-2,8.109334E-1,1.2979679E-1,3.631585E-3,5.256769E-1,9.221704E-2,1.9801611E-2,-3.872588E-2],"split_indices":[9,1,1,0,8,0,2,0,0,9,0,0,0],"split_type":[0,0,0,0,0,0,0,0,0,0,0,0,0],"sum_hessian":[1.939981E1,5.9252615E0,1.347455E1,1.0595077E0,4.8657537E0,9.174311E0,4.300239E0,3.3309774E0,1.534776E0,2.9726377E0,1.3276014E0,1.0114473E0,1.9611905E0],"tree_param":{"num_deleted":"0","num_feature":"16","num_nodes":"13","size_leaf_vector":"1"}},{"base_weights":[-1.7602426E-1,3.311288E-1,-3.849076E-1,-2.1527025E-1,1.0608383E-1,1.4547409E-1,-5.178831E-2,1.8976623E-2,-4.0120583E-2,-3.448106E-2,6.833696E-2],"categories":[],"categories_nodes":[],"categories_segments":[],"categories_sizes":[],"default_left":[0,0,0,0,0,0,0,0,0,0,0],"id":36,"left_children":[1,3,5,7,-1,9,-1,-1,-1,-1,-1],"loss_changes":[2.1201916E0,2.6306384E0,1.0476153E0,3.9820808E-1,0E0,1.1703073E0,0E0,0E0,0E0,0E0,0E0],"parents":[2147483647,0,0,1,1,2,2,3,3,5,5],"right_children":[2,4,6,8,-1,10,-1,-1,-1,-1,-1],"split_conditions":[2.8659892E-1,6.3362896E-1,2.1254906E-1,9.081352E-2,1.0608383E-1,1.4446919E-1,-5.178831E-2,1.8976623E-2,-4.0120583E-2,-3.448106E-2,6.833696E-2],"split_indices":[13,1,1,1,0,1,0,0,0,0,0],"split_type":[0,0,0,0,0,0,0,0,0,0,0],"sum_hessian":[1.7810799E1,5.025071E0,1.27857275E1,3.2765875E0,1.7484835E0,2.5441654E0,1.0241563E1,1.0244199E0,2.2521675E0,1.5187805E0,1.0253848E0],"tree_param":{"num_deleted":"0","num_feature":"16","num_nodes":"11","size_leaf_vector":"1"}},{"base_weights":[-9.273818E-2,-3.8106444E-1,5.0347936E-1,-5.1281214E-2,1.582124E-1,9.7422737E-1,-3.8074303E-2,5.8868784E-2,-3.2687645E-2,1.6959889E-2,1.1505475E-1],"categories":[],"categories_nodes":[],"categories_segments":[],"categories_sizes":[],"default_left":[0,0,0,0,0,0,0,0,0,0,0],"id":37,"left_children":[1,3,5,-1,7,9,-1,-1,-1,-1,-1],"loss_changes":[3.506344E0,1.0449258E0,3.1662762E0,0E0,9.081767E-1,4.6648216E-1,0E0,0E0,0E0,0E0,0E0],"parents":[2147483647,0,0,1,1,2,2,4,4,5,5],"right_children":[2,4,6,-1,8,10,-1,-1,-1,-1,-1],"split_conditions":[8.2677853E-1,9.6917176E-1,6.575002E-1,-5.1281214E-2,3.3225912E-1,2.793473E-1,-3.8074303E-2,5.8868784E-2,-3.2687645E-2,1.6959889E-2,1.1505475E-1],"split_indices":[11,2,7,0,15,0,0,0,0,0,0],"split_type":[0,0,0,0,0,0,0,0,0,0,0],"sum_hessian":[1.8280895E1,1.2565284E1,5.715612E0,1.0137678E1,2.4276052E0,3.6634505E0,2.0521612E0,1.1730527E0,1.2545525E0,1.0111225E0,2.652328E0],"tree_param":{"num_deleted":"0","num_feature":"16","num_nodes":"11","size_leaf_vector":"1"}},{"base_weights":[1.6461702E-1,-1.8983725E-1,5.404004E-1,5.331871E-2,-3.2791942E-1,7.8078437E-1,-3.7215453E-2,1.6619319E-1,-4.949993E-2,-2.923876E-2,9.6648985E-1,-3.2426607E-2,5.982994E-2,1.1802589E-1,3.7491503E-1,-3.238262E-2,7.859623E-2],"categories":[],"categories_nodes":[],"categories_segments":[],"categories_sizes":[],"default_left":[0,0,0,0,0,0,0,0,0,0,0,0,0,0,0,0,0],"id":38,"left_children":[1,3,5,-1,7,9,-1,11,-1,-1,13,-1,-1,-1,15,-1,-1],"loss_changes":[2.9534285E0,1.3483357E0,2.6265538E0,0E0,9.4815564E-1,2.0266953E0,0E0,9.1436636E-1,0E0,0E0,5.3032637E-1,0E0,0E0,0E0,1.2619162E0,0E0,0E0],"parents":[2147483647,0,0,1,1,2,2,4,4,5,5,7,7,10,10,14,14],"right_children":[2,4,6,-1,8,10,-1,12,-1,-1,14,-1,-1,-1,16,-1,-1],"split_conditions":[6.2773937E-1,1.0828412E-1,6.6370356E-1,5.331871E-2,2.7669427E-1,2.7564076E-1,-3.7215453E-2,2.7347526E-1,-4.949993E-2,-2.923876E-2,8.131175E-1,-3.2426607E-2,5.982994E-2,1.1802589E-1,9.161396E-1,-3.238262E-2,7.859623E-2],"split_indices":[7,15,13,0,12,9,0,11,0,0,2,0,0,0,2,0,0],"split_type":[0,0,0,0,0,0,0,0,0,0,0,0,0,0,0,0,0],"sum_hessian":[2.040302E1,1.075412E1,9.648902E0,1.265636E0,9.488483E0,7.7514286E0,1.8974735E0,2.399031E0,7.0894523E0,1.0587213E0,6.6927075E0,1.2405367E0,1.1584942E0,4.1852345E0,2.507473E0,1.0073189E0,1.500154E0],"tree_param":{"num_deleted":"0","num_feature":"16","num_nodes":"17","size_leaf_vector":"1"}},{"base_weights":[1.2946954E-1,-4.504388E-2,2.7725634E-1,5.44017E-1,-2.1659397E-1,-2.6109133E-2,1.024783E0,-4.816885E-2,6.618922E-2,8.7986484E-2,-4.5707446E-2,1.2672345E-1,7.4224262E-3],"categories":[],"categories_nodes":[],"categories_segments":[],"categories_sizes":[],"default_left":[0,0,0,0,0,0,0,0,0,0,0,0,0],"id":39,"left_children":[1,-1,3,5,7,9,11,-1,-1,-1,-1,-1,-1],"loss_changes":[1.9490919E0,0E0,2.4340072E0,3.2337115E0,1.9213753E0,2.8727884E0,1.3745322E0,0E0,0E0,0E0,0E0,0E0,0E0],"parents":[2147483647,0,0,2,2,3,3,4,4,5,5,6,6],"right_children":[2,-1,4,6,8,10,12,-1,-1,-1,-1,-1,-1],"split_conditions":[2.0134231E-1,-4.504388E-2,6.9937074E-1,5.39174E-1,7.0026773E-1,1.0067007E-1,7.1131325E-1,-4.816885E-2,6.618922E-2,8.7986484E-2,-4.5707446E-2,1.2672345E-1,7.4224262E-3],"split_indices":[7,0,7,6,1,10,1,0,0,0,0,0,0],"split_type":[0,0,0,0,0,0,0,0,0,0,0,0,0],"sum_hessian":[2.0285248E1,3.703803E0,1.6581444E1,1.0700062E1,5.8813825E0,5.3277426E0,5.3723187E0,4.864992E0,1.0163904E0,1.381643E0,3.9460998E0,4.015078E0,1.3572406E0],"tree_param":{"num_deleted":"0","num_feature":"16","num_nodes":"13","size_leaf_vector":"1"}},{"base_weights":[-1.3778907E-1,-4.238899E-1,2.1972628E-1,-5.0787907E-2,1.6965529E-2,5.237713E-1,-4.0929176E-2,7.6264244E-1,-3.1428766E-2,4.273673E-3,1.0116192E0,1.3363016E-1,3.44692E-2],"categories":[],"categories_nodes":[],"categories_segments":[],"categories_sizes":[],"default_left":[0,0,0,0,0,0,0,0,0,0,0,0,0],"id":40,"left_children":[1,3,5,-1,-1,7,-1,9,-1,-1,11,-1,-1],"loss_changes":[2.0567546E0,6.34786E-1,1.9723915E0,0E0,0E0,1.5680469E0,0E0,9.346225E-1,0E0,0E0,4.076085E-1,0E0,0E0],"parents":[2147483647,0,0,1,1,2,2,5,5,7,7,10,10],"right_children":[2,4,6,-1,-1,8,-1,10,-1,-1,12,-1,-1],"split_conditions":[5.8810246E-1,8.617918E-1,5.105685E-1,-5.0787907E-2,1.6965529E-2,8.6858034E-1,-4.0929176E-2,4.1647884E-1,-3.1428766E-2,4.273673E-3,4.077701E-1,1.3363016E-1,3.44692E-2],"split_indices":[10,8,8,0,0,6,0,3,0,0,6,0,0],"split_type":[0,0,0,0,0,0,0,0,0,0,0,0,0],"sum_hessian":[1.8197403E1,1.000515E1,8.192253E0,8.891319E0,1.1138296E0,5.6355486E0,2.556705E0,4.4555707E0,1.1799778E0,1.4460447E0,3.009526E0,1.3490801E0,1.6604459E0],"tree_param":{"num_deleted":"0","num_feature":"16","num_nodes":"13","size_leaf_vector":"1"}},{"base_weights":[7.766785E-3,-4.946972E-2,3.0883026E-1,5.393369E-1,-4.2010315E-2,-3.304432E-2,7.0137763E-1,1.0338589E0,-1.319282E-1,1.19785845E-1,1.3301635E-2,1.5178758E-2,-3.3421613E-2],"categories":[],"categories_nodes":[],"categories_segments":[],"categories_sizes":[],"default_left":[0,0,0,0,0,0,0,0,0,0,0,0,0],"id":41,"left_children":[1,-1,3,5,-1,-1,7,9,11,-1,-1,-1,-1],"loss_changes":[3.2561786E0,0E0,2.4855342E0,1.7330723E0,0E0,0E0,2.7129083E0,8.394437E-1,2.538439E-1,0E0,0E0,0E0,0E0],"parents":[2147483647,0,0,2,2,3,3,6,6,7,7,8,8],"right_children":[2,-1,4,6,-1,-1,8,10,12,-1,-1,-1,-1],"split_conditions":[4.005E-1,-4.946972E-2,6.844783E-1,1.0067007E-1,-4.2010315E-2,-3.304432E-2,5.724873E-1,6.9666046E-1,3.8534087E-1,1.19785845E-1,1.3301635E-2,1.5178758E-2,-3.3421613E-2],"split_indices":[15,0,4,10,0,0,10,6,9,0,0,0,0],"split_type":[0,0,0,0,0,0,0,0,0,0,0,0,0],"sum_hessian":[1.951516E1,7.0709066E0,1.2444252E1,9.652117E0,2.7921352E0,1.3525927E0,8.299524E0,5.760476E0,2.5390482E0,4.594358E0,1.1661178E0,1.16073E0,1.3783181E0],"tree_param":{"num_deleted":"0","num_feature":"16","num_nodes":"13","size_leaf_vector":"1"}},{"base_weights":[6.1238956E-2,6.7320925E-1,-2.5238293E-1,-3.0274073E-2,8.8871104E-1,-5.0268408E-2,2.521865E-1,1.1737277E-1,3.1937545E-3,-1.8897846E-1,8.774289E-2,1.673313E-2,-3.7918184E-2],"categories":[],"categories_nodes":[],"categories_segments":[],"categories_sizes":[],"default_left":[0,0,0,0,0,0,0,0,0,0,0,0,0],"id":42,"left_children":[1,3,5,-1,7,-1,9,-1,-1,11,-1,-1,-1],"loss_changes":[4.0519004E0,1.7677929E0,1.9075606E0,0E0,1.4499612E0,0E0,1.6391406E0,0E0,0E0,3.3144724E-1,0E0,0E0,0E0],"parents":[2147483647,0,0,1,1,2,2,4,4,6,6,9,9],"right_children":[2,4,6,-1,8,-1,10,-1,-1,12,-1,-1,-1],"split_conditions":[2.6428995E-1,1.9702667E-1,7.026561E-1,-3.0274073E-2,6.160842E-1,-5.0268408E-2,7.391186E-1,1.1737277E-1,3.1937545E-3,2.8062537E-1,8.774289E-2,1.673313E-2,-3.7918184E-2],"split_indices":[9,1,1,0,8,0,4,0,0,14,0,0,0],"split_type":[0,0,0,0,0,0,0,0,0,0,0,0,0],"sum_hessian":[1.9226377E1,6.126052E0,1.3100327E1,1.0348184E0,5.0912337E0,8.758998E0,4.3413286E0,3.5427523E0,1.5484812E0,2.9544492E0,1.3868792E0,1.07009E0,1.8843592E0],"tree_param":{"num_deleted":"0","num_feature":"16","num_nodes":"13","size_leaf_vector":"1"}},{"base_weights":[-1.6805755E-1,3.1659195E-1,-3.765796E-1,-2.0714058E-1,9.683826E-2,1.430154E-1,-5.123611E-2,-3.9450873E-2,1.896538E-2,-3.378087E-2,6.4369895E-2],"categories":[],"categories_nodes":[],"categories_segments":[],"categories_sizes":[],"default_left":[0,0,0,0,0,0,0,0,0,0,0],"id":43,"left_children":[1,3,5,7,-1,9,-1,-1,-1,-1,-1],"loss_changes":[1.9815233E0,2.2783837E0,1.0144957E0,3.869787E-1,0E0,1.071057E0,0E0,0E0,0E0,0E0,0E0],"parents":[2147483647,0,0,1,1,2,2,3,3,5,5],"right_children":[2,4,6,8,-1,10,-1,-1,-1,-1,-1],"split_conditions":[2.8659892E-1,6.3362896E-1,2.1254906E-1,6.423615E-1,9.683826E-2,1.4446919E-1,-5.123611E-2,-3.9450873E-2,1.896538E-2,-3.378087E-2,6.4369895E-2],"split_indices":[13,1,1,11,0,1,0,0,0,0,0],"split_type":[0,0,0,0,0,0,0,0,0,0,0],"sum_hessian":[1.7427654E1,5.086736E0,1.2340919E1,3.1986923E0,1.8880438E0,2.5457654E0,9.795154E0,2.1766355E0,1.0220569E0,1.4645813E0,1.0811841E0],"tree_param":{"num_deleted":"0","num_feature":"16","num_nodes":"11","size_leaf_vector":"1"}},{"base_weights":[-8.856022E-2,-3.7343207E-1,4.7366884E-1,-5.0761756E-2,1.5106925E-1,8.973529E-1,-3.741458E-2,5.5736847E-2,-3.2223012E-2,1.5364855E-2,1.05852365E-1],"categories":[],"categories_nodes":[],"categories_segments":[],"categories_sizes":[],"default_left":[0,0,0,0,0,0,0,0,0,0,0],"id":44,"left_children":[1,3,5,-1,7,9,-1,-1,-1,-1,-1],"loss_changes":[3.2134914E0,1.0016776E0,2.7843432E0,0E0,8.4266424E-1,4.174428E-1,0E0,0E0,0E0,0E0,0E0],"parents":[2147483647,0,0,1,1,2,2,4,4,5,5],"right_children":[2,4,6,-1,8,10,-1,-1,-1,-1,-1],"split_conditions":[8.2677853E-1,9.6917176E-1,6.575002E-1,-5.0761756E-2,5.2431756E-1,1.700827E-1,-3.741458E-2,5.5736847E-2,-3.2223012E-2,1.5364855E-2,1.05852365E-1],"split_indices":[11,2,7,0,11,1,0,0,0,0,0],"split_type":[0,0,0,0,0,0,0,0,0,0,0],"sum_hessian":[1.795946E1,1.2142742E1,5.816718E0,9.694695E0,2.4480464E0,3.8395326E0,1.9771855E0,1.2216821E0,1.2263643E0,1.0317886E0,2.807744E0],"tree_param":{"num_deleted":"0","num_feature":"16","num_nodes":"11","size_leaf_vector":"1"}},{"base_weights":[1.5483916E-1,-1.8243495E-1,4.973632E-1,5.012957E-2,-3.199143E-1,7.1259356E-1,-3.6586184E-2,1.5690726E-1,-4.8901033E-2,-2.8677568E-2,8.7614906E-1,5.7489593E-2,-3.233656E-2,1.1788839E-1,4.567412E-1,7.653914E-2,-3.1939145E-2],"categories":[],"categories_nodes":[],"categories_segments":[],"categories_sizes":[],"default_left":[0,0,0,0,0,0,0,0,0,0,0,0,0,0,0,0,0],"id":45,"left_children":[1,3,5,-1,7,9,-1,11,-1,-1,13,-1,-1,-1,15,-1,-1],"loss_changes":[2.563829E0,1.2430556E0,2.2838883E0,0E0,8.991611E-1,1.7313952E0,0E0,8.739515E-1,0E0,0E0,4.8092794E-1,0E0,0E0,0E0,1.4417872E0,0E0,0E0],"parents":[2147483647,0,0,1,1,2,2,4,4,5,5,7,7,10,10,14,14],"right_children":[2,4,6,-1,8,10,-1,12,-1,-1,14,-1,-1,-1,16,-1,-1],"split_conditions":[6.2773937E-1,1.0828412E-1,6.6370356E-1,5.012957E-2,2.7669427E-1,2.7564076E-1,-3.6586184E-2,5.8475316E-1,-4.8901033E-2,-2.8677568E-2,2.1658184E-1,5.7489593E-2,-3.233656E-2,1.1788839E-1,8.8965476E-1,7.653914E-2,-3.1939145E-2],"split_indices":[7,15,13,0,12,9,0,5,0,0,5,0,0,0,7,0,0],"split_type":[0,0,0,0,0,0,0,0,0,0,0,0,0,0,0,0,0],"sum_hessian":[2.0407516E1,1.0518055E1,9.8894615E0,1.3178108E0,9.200245E0,8.055468E0,1.8339942E0,2.4274206E0,6.7728243E0,1.0269759E0,7.028492E0,1.1925268E0,1.2348936E0,3.0303268E0,3.998165E0,2.8704803E0,1.1276846E0],"tree_param":{"num_deleted":"0","num_feature":"16","num_nodes":"17","size_leaf_vector":"1"}},{"base_weights":[1.22795485E-1,-4.4413954E-2,2.6210895E-1,5.0496095E-1,-2.0837507E-1,-2.2814484E-2,9.2087156E-1,-4.7480356E-2,6.2452253E-2,8.124551E-2,-4.4979554E-2,1.1278278E-1,6.7379037E-3],"categories":[],"categories_nodes":[],"categories_segments":[],"categories_sizes":[],"default_left":[0,0,0,0,0,0,0,0,0,0,0,0,0],"id":46,"left_children":[1,-1,3,5,7,9,11,-1,-1,-1,-1,-1,-1],"loss_changes":[1.7952521E0,0E0,2.1266732E0,2.646525E0,1.7901958E0,2.5935278E0,1.1098647E0,0E0,0E0,0E0,0E0,0E0,0E0],"parents":[2147483647,0,0,2,2,3,3,4,4,5,5,6,6],"right_children":[2,-1,4,6,8,10,12,-1,-1,-1,-1,-1,-1],"split_conditions":[2.0134231E-1,-4.4413954E-2,6.9937074E-1,5.39174E-1,7.0026773E-1,1.0067007E-1,7.1131325E-1,-4.7480356E-2,6.2452253E-2,8.124551E-2,-4.4979554E-2,1.1278278E-1,6.7379037E-3],"split_indices":[7,0,7,6,1,10,1,0,0,0,0,0,0],"split_type":[0,0,0,0,0,0,0,0,0,0,0,0,0],"sum_hessian":[2.0256058E1,3.564065E0,1.6691994E1,1.0960947E1,5.7310457E0,5.2473702E0,5.7135773E0,4.667831E0,1.0632147E0,1.4696395E0,3.7777305E0,4.3398232E0,1.373754E0],"tree_param":{"num_deleted":"0","num_feature":"16","num_nodes":"13","size_leaf_vector":"1"}},{"base_weights":[-1.3132347E-1,-4.1624278E-1,2.1081899E-1,1.6661214E-2,-5.024315E-2,4.931645E-1,-4.0245187E-2,7.133749E-1,-3.0986434E-2,9.4937986E-1,3.343504E-3,1.2158237E-1,1.3820782E-2],"categories":[],"categories_nodes":[],"categories_segments":[],"categories_sizes":[],"default_left":[0,0,0,0,0,0,0,0,0,0,0,0,0],"id":47,"left_children":[1,3,5,-1,-1,7,-1,9,-1,11,-1,-1,-1],"loss_changes":[1.9257373E0,6.1739874E-1,1.7968138E0,0E0,0E0,1.4182364E0,0E0,8.6943865E-1,0E0,7.2510624E-1,0E0,0E0,0E0],"parents":[2147483647,0,0,1,1,2,2,5,5,7,7,9,9],"right_children":[2,4,6,-1,-1,8,-1,10,-1,12,-1,-1,-1],"split_conditions":[5.8810246E-1,9.8539956E-2,5.105685E-1,1.6661214E-2,-5.024315E-2,8.6858034E-1,-4.0245187E-2,7.026561E-1,-3.0986434E-2,5.3940994E-1,3.343504E-3,1.2158237E-1,1.3820782E-2],"split_indices":[10,4,8,0,0,6,0,1,0,2,0,0,0],"split_type":[0,0,0,0,0,0,0,0,0,0,0,0,0],"sum_hessian":[1.7854422E1,9.623702E0,8.2307205E0,1.1195554E0,8.504147E0,5.7700677E0,2.4606524E0,4.6159143E0,1.1541533E0,3.1323986E0,1.4835159E0,1.9823971E0,1.1500015E0],"tree_param":{"num_deleted":"0","num_feature":"16","num_nodes":"13","size_leaf_vector":"1"}},{"base_weights":[4.35295E-3,-4.8893373E-2,2.8659394E-1,4.9753398E-1,-4.132549E-2,-3.279254E-2,6.474903E-1,9.4230855E-1,-1.274338E-1,1.08566776E-1,1.2616907E-2,1.5653595E-2,-3.317226E-2],"categories":[],"categories_nodes":[],"categories_segments":[],"categories_sizes":[],"default_left":[0,0,0,0,0,0,0,0,0,0,0,0,0],"id":48,"left_children":[1,-1,3,5,-1,-1,7,9,11,-1,-1,-1,-1],"loss_changes":[2.9699674E0,0E0,2.2072494E0,1.5581374E0,0E0,0E0,2.2989354E0,6.8528175E-1,2.555053E-1,0E0,0E0,0E0,0E0],"parents":[2147483647,0,0,2,2,3,3,6,6,7,7,8,8],"right_children":[2,-1,4,6,-1,-1,8,10,12,-1,-1,-1,-1],"split_conditions":[4.005E-1,-4.8893373E-2,6.844783E-1,1.0067007E-1,-4.132549E-2,-3.279254E-2,5.724873E-1,6.9666046E-1,4.4383547E-1,1.08566776E-1,1.2616907E-2,1.5653595E-2,-3.317226E-2],"split_indices":[15,0,4,10,0,0,10,6,14,0,0,0,0],"split_type":[0,0,0,0,0,0,0,0,0,0,0,0,0],"sum_hessian":[1.9325567E1,6.7667146E0,1.2558852E1,9.872335E0,2.686517E0,1.3352772E0,8.537059E0,6.0277953E0,2.5092633E0,4.846274E0,1.1815214E0,1.1476853E0,1.3615779E0],"tree_param":{"num_deleted":"0","num_feature":"16","num_nodes":"13","size_leaf_vector":"1"}},{"base_weights":[5.895696E-2,6.2169653E-1,-2.4391972E-1,-2.9774312E-2,8.175857E-1,-4.9714997E-2,2.4204215E-1,1.0741391E-1,2.742918E-3,-1.851357E-1,8.307327E-2,1.9633563E-2,-3.8417395E-2],"categories":[],"categories_nodes":[],"categories_segments":[],"categories_sizes":[],"default_left":[0,0,0,0,0,0,0,0,0,0,0,0,0],"id":49,"left_children":[1,3,5,-1,7,-1,9,-1,-1,11,-1,-1,-1],"loss_changes":[3.5609589E0,1.5547554E0,1.8089865E0,0E0,1.2413664E0,0E0,1.5050929E0,0E0,0E0,3.73947E-1,0E0,0E0,0E0],"parents":[2147483647,0,0,1,1,2,2,4,4,6,6,9,9],"right_children":[2,4,6,-1,8,-1,10,-1,-1,12,-1,-1,-1],"split_conditions":[2.6428995E-1,1.9702667E-1,7.026561E-1,-2.9774312E-2,6.160842E-1,-4.9714997E-2,8.109334E-1,1.0741391E-1,2.742918E-3,2.4138975E-1,8.307327E-2,1.9633563E-2,-3.8417395E-2],"split_indices":[9,1,1,0,8,0,2,0,0,7,0,0,0],"split_type":[0,0,0,0,0,0,0,0,0,0,0,0,0],"sum_hessian":[1.900294E1,6.280759E0,1.272218E1,1.0117899E0,5.268969E0,8.348718E0,4.3734627E0,3.7062106E0,1.5627586E0,2.9316504E0,1.4418124E0,1.0098252E0,1.921825E0],"tree_param":{"num_deleted":"0","num_feature":"16","num_nodes":"13","size_leaf_vector":"1"}},{"base_weights":[-1.6007109E-1,3.0443904E-1,-3.6834407E-1,7.206095E-1,-3.818473E-2,1.3952409E-1,-5.0688963E-2,1.16121724E-1,-2.9439852E-2,-3.3345286E-2,6.1653562E-2],"categories":[],"categories_nodes":[],"categories_segments":[],"categories_sizes":[],"default_left":[0,0,0,0,0,0,0,0,0,0,0],"id":50,"left_children":[1,3,5,7,-1,9,-1,-1,-1,-1,-1],"loss_changes":[1.8567309E0,2.0259447E0,9.7861445E-1,2.2033165E0,0E0,1.0064409E0,0E0,0E0,0E0,0E0,0E0],"parents":[2147483647,0,0,1,1,2,2,3,3,5,5],"right_children":[2,4,6,8,-1,10,-1,-1,-1,-1,-1],"split_conditions":[2.8659892E-1,6.953864E-1,2.1254906E-1,5.1836467E-1,-3.818473E-2,4.3220466E-1,-5.0688963E-2,1.16121724E-1,-2.9439852E-2,-3.3345286E-2,6.1653562E-2],"split_indices":[13,12,1,0,0,8,0,0,0,0,0],"split_type":[0,0,0,0,0,0,0,0,0,0,0],"sum_hessian":[1.7032913E1,5.1299286E0,1.1902984E1,3.1622798E0,1.9676489E0,2.5496478E0,9.353336E0,2.1046283E0,1.0576513E0,1.4313543E0,1.1182935E0],"tree_param":{"num_deleted":"0","num_feature":"16","num_nodes":"11","size_leaf_vector":"1"}},{"base_weights":[-8.4653005E-2,-3.6587554E-1,4.462135E-1,-5.0229706E-2,1.4127478E-1,8.313432E-1,-3.680042E-2,6.7660384E-2,-3.489249E-2,1.3796321E-2,9.8333925E-2],"categories":[],"categories_nodes":[],"categories_segments":[],"categories_sizes":[],"default_left":[0,0,0,0,0,0,0,0,0,0,0],"id":51,"left_children":[1,3,5,-1,7,9,-1,-1,-1,-1,-1],"loss_changes":[2.9428787E0,9.510534E-1,2.4690435E0,0E0,1.1484966E0,3.9022136E-1,0E0,0E0,0E0,0E0,0E0],"parents":[2147483647,0,0,1,1,2,2,4,4,5,5],"right_children":[2,4,6,-1,8,10,-1,-1,-1,-1,-1],"split_conditions":[8.2677853E-1,9.6917176E-1,6.575002E-1,-5.0229706E-2,2.675197E-1,2.793473E-1,-3.680042E-2,6.7660384E-2,-3.489249E-2,1.3796321E-2,9.8333925E-2],"split_indices":[11,2,7,0,15,0,0,0,0,0,0],"split_type":[0,0,0,0,0,0,0,0,0,0,0],"sum_hessian":[1.7618729E1,1.1720616E1,5.8981123E0,9.243672E0,2.4769435E0,3.989855E0,1.9082572E0,1.0022078E0,1.4747357E0,1.0603585E0,2.9294963E0],"tree_param":{"num_deleted":"0","num_feature":"16","num_nodes":"11","size_leaf_vector":"1"}},{"base_weights":[1.4649327E-1,-1.7437288E-1,4.5996904E-1,6.495356E-2,-3.2154942E-1,6.560859E-1,-3.6036883E-2,-4.9400304E-2,1.4046566E-1,1.1780406E-1,8.341989E-1,-3.3577308E-2,6.497397E-2,-3.384989E-2,5.837934E-2,1.1311566E-1,1.4504007E-1,-3.2466657E-2,5.102963E-2],"categories":[],"categories_nodes":[],"categories_segments":[],"categories_sizes":[],"default_left":[0,0,0,0,0,0,0,0,0,0,0,0,0,0,0,0,0,0,0],"id":52,"left_children":[1,3,5,-1,7,9,-1,-1,11,13,15,-1,-1,-1,-1,-1,17,-1,-1],"loss_changes":[2.224809E0,1.57445E0,2.0157678E0,0E0,8.8398004E-1,7.914953E-1,0E0,0E0,1.0809885E0,9.358289E-1,1.2293434E0,0E0,0E0,0E0,0E0,0E0,7.142399E-1,0E0,0E0],"parents":[2147483647,0,0,1,1,2,2,4,4,5,5,8,8,9,9,10,10,16,16],"right_children":[2,4,6,-1,8,10,-1,-1,12,14,16,-1,-1,-1,-1,-1,18,-1,-1],"split_conditions":[6.2773937E-1,8.7190844E-2,6.6370356E-1,6.495356E-2,6.730595E-1,3.8534087E-1,-3.6036883E-2,-4.9400304E-2,5.137071E-1,4.184412E-1,8.131175E-1,-3.3577308E-2,6.497397E-2,-3.384989E-2,5.837934E-2,1.1311566E-1,9.161396E-1,-3.2466657E-2,5.102963E-2],"split_indices":[7,15,13,0,11,9,0,0,1,2,2,0,0,0,0,0,2,0,0],"split_type":[0,0,0,0,0,0,0,0,0,0,0,0,0,0,0,0,0,0,0],"sum_hessian":[2.0321558E1,1.0261687E1,1.005987E1,1.0379325E0,9.223755E0,8.280491E0,1.7793789E0,6.666249E0,2.5575063E0,2.4717934E0,5.808697E0,1.4976696E0,1.0598369E0,1.3871089E0,1.0846845E0,3.611254E0,2.1974435E0,1.0098886E0,1.1875547E0],"tree_param":{"num_deleted":"0","num_feature":"16","num_nodes":"19","size_leaf_vector":"1"}},{"base_weights":[1.164934E-1,-1.1186613E-1,4.5525405E-1,1.5896639E-1,-4.7493365E-2,-1.3445777E-1,6.9378185E-1,4.9736568E-1,-2.393823E-1,-3.2221008E-2,1.2504636E-2,9.389531E-1,-2.8874272E-2,6.9600725E-1,2.9443062E-3,-4.0674552E-2,1.6201582E-2,1.3032331E-2,1.1380456E-1,1.1469125E-2,9.45678E-2],"categories":[],"categories_nodes":[],"categories_segments":[],"categories_sizes":[],"default_left":[0,0,0,0,0,0,0,0,0,0,0,0,0,0,0,0,0,0,0,0,0],"id":53,"left_children":[1,3,5,7,-1,9,11,13,15,-1,-1,17,-1,19,-1,-1,-1,-1,-1,-1,-1],"loss_changes":[1.6885775E0,1.3978449E0,1.3200654E0,1.2583416E0,0E0,2.0348126E-1,1.806061E0,4.3445146E-1,3.7203658E-1,0E0,0E0,7.1053886E-1,0E0,3.8381267E-1,0E0,0E0,0E0,0E0,0E0,0E0,0E0],"parents":[2147483647,0,0,1,1,2,2,3,3,5,5,6,6,7,7,8,8,11,11,13,13],"right_children":[2,4,6,8,-1,10,12,14,16,-1,-1,18,-1,20,-1,-1,-1,-1,-1,-1,-1],"split_conditions":[6.501199E-1,4.656544E-1,2.9302964E-1,2.9402488E-1,-4.7493365E-2,9.7822666E-1,8.001116E-1,5.9113675E-1,2.866378E-1,-3.2221008E-2,1.2504636E-2,1.9951543E-1,-2.8874272E-2,4.629174E-1,2.9443062E-3,-4.0674552E-2,1.6201582E-2,1.3032331E-2,1.1380456E-1,1.1469125E-2,9.45678E-2],"split_indices":[3,14,14,3,0,2,14,7,14,0,0,5,0,10,0,0,0,0,0,0,0],"split_type":[0,0,0,0,0,0,0,0,0,0,0,0,0,0,0,0,0,0,0,0,0],"sum_hessian":[2.016942E1,1.244798E1,7.7214403E0,7.451582E0,4.996398E0,2.349378E0,5.372062E0,3.8945625E0,3.5570197E0,1.2229391E0,1.1264391E0,4.33475E0,1.037312E0,2.3917716E0,1.5027909E0,2.5009322E0,1.0560875E0,1.1832942E0,3.1514559E0,1.157079E0,1.2346925E0],"tree_param":{"num_deleted":"0","num_feature":"16","num_nodes":"21","size_leaf_vector":"1"}},{"base_weights":[-1.2586701E-1,-4.084243E-1,2.0041911E-1,-4.974182E-2,1.7272066E-2,4.6372786E-1,-3.9610147E-2,6.681382E-1,-3.0591173E-2,1.5917508E-1,9.783679E-2,5.624938E-2,-3.264783E-2],"categories":[],"categories_nodes":[],"categories_segments":[],"categories_sizes":[],"default_left":[0,0,0,0,0,0,0,0,0,0,0,0,0],"id":54,"left_children":[1,3,5,-1,-1,7,-1,9,-1,11,-1,-1,-1],"loss_changes":[1.7871317E0,6.155968E-1,1.6373315E0,0E0,0E0,1.2869837E0,0E0,7.523773E-1,0E0,8.441937E-1,0E0,0E0,0E0],"parents":[2147483647,0,0,1,1,2,2,5,5,7,7,9,9],"right_children":[2,4,6,-1,-1,8,-1,10,-1,12,-1,-1,-1],"split_conditions":[5.8810246E-1,8.617918E-1,5.105685E-1,-4.974182E-2,1.7272066E-2,8.6858034E-1,-3.9610147E-2,3.599009E-1,-3.0591173E-2,4.077701E-1,9.783679E-2,5.624938E-2,-3.264783E-2],"split_indices":[10,8,8,0,0,6,0,13,0,6,0,0,0],"split_type":[0,0,0,0,0,0,0,0,0,0,0,0,0],"sum_hessian":[1.7496498E1,9.241664E0,8.254833E0,8.1393175E0,1.1023464E0,5.881366E0,2.3734677E0,4.7513304E0,1.1300349E0,2.372346E0,2.3789847E0,1.2095963E0,1.1627495E0],"tree_param":{"num_deleted":"0","num_feature":"16","num_nodes":"13","size_leaf_vector":"1"}},{"base_weights":[1.0906132E-3,-4.8308183E-2,2.6621267E-1,4.5990238E-1,-4.060758E-2,6.556841E-1,-1.5459804E-1,9.490511E-1,-1.1572114E-1,1.6129237E-2,-3.6207285E-2,1.1220582E-1,9.780516E-3,1.5412497E-2,-3.163236E-2],"categories":[],"categories_nodes":[],"categories_segments":[],"categories_sizes":[],"default_left":[0,0,0,0,0,0,0,0,0,0,0,0,0,0,0],"id":55,"left_children":[1,-1,3,5,-1,7,9,11,13,-1,-1,-1,-1,-1,-1],"loss_changes":[2.7066262E0,0E0,1.9605672E0,1.430079E0,0E0,2.0484698E0,2.8632793E-1,8.202691E-1,2.2476684E-1,0E0,0E0,0E0,0E0,0E0,0E0],"parents":[2147483647,0,0,2,2,3,3,5,5,6,6,7,7,8,8],"right_children":[2,-1,4,6,-1,8,10,12,14,-1,-1,-1,-1,-1,-1],"split_conditions":[4.005E-1,-4.8308183E-2,6.844783E-1,6.4138293E-1,-4.060758E-2,6.2636256E-1,6.1846924E-1,4.8448807E-1,1.9951543E-1,1.6129237E-2,-3.6207285E-2,1.1220582E-1,9.780516E-3,1.5412497E-2,-3.163236E-2],"split_indices":[15,0,4,1,0,3,0,8,5,0,0,0,0,0,0],"split_type":[0,0,0,0,0,0,0,0,0,0,0,0,0,0,0],"sum_hessian":[1.9083574E1,6.4614334E0,1.262214E1,1.0044254E1,2.5778856E0,7.566519E0,2.4777358E0,5.3149457E0,2.2515733E0,1.0704765E0,1.4072593E0,4.152796E0,1.1621497E0,1.0588801E0,1.1926932E0],"tree_param":{"num_deleted":"0","num_feature":"16","num_nodes":"15","size_leaf_vector":"1"}},{"base_weights":[5.6600735E-2,5.8063686E-1,-2.3663776E-1,8.2565224E-1,-5.686331E-3,-4.917869E-2,2.2956553E-1,9.503894E-2,1.4923723E-2,-1.8757248E-1,7.9177335E-2,1.5906364E-2,-3.7447978E-2],"categories":[],"categories_nodes":[],"categories_segments":[],"categories_sizes":[],"default_left":[0,0,0,0,0,0,0,0,0,0,0,0,0],"id":56,"left_children":[1,3,5,7,-1,-1,9,-1,-1,11,-1,-1,-1],"loss_changes":[3.1718135E0,1.198848E0,1.7035111E0,3.1307983E-1,0E0,0E0,1.4176217E0,0E0,0E0,3.132176E-1,0E0,0E0,0E0],"parents":[2147483647,0,0,1,1,2,2,3,3,6,6,9,9],"right_children":[2,4,6,8,-1,-1,10,-1,-1,12,-1,-1,-1],"split_conditions":[2.6428995E-1,6.160842E-1,7.026561E-1,5.8810246E-1,-5.686331E-3,-4.917869E-2,7.391186E-1,9.503894E-2,1.4923723E-2,2.2404647E-1,7.9177335E-2,1.5906364E-2,-3.7447978E-2],"split_indices":[9,8,1,10,0,0,4,0,0,5,0,0,0],"split_type":[0,0,0,0,0,0,0,0,0,0,0,0,0],"sum_hessian":[1.8746605E1,6.374635E0,1.2371969E1,4.391627E0,1.9830084E0,7.9604216E0,4.411548E0,3.3658876E0,1.0257392E0,2.91505E0,1.4964979E0,1.0733668E0,1.8416833E0],"tree_param":{"num_deleted":"0","num_feature":"16","num_nodes":"13","size_leaf_vector":"1"}},{"base_weights":[-1.5373605E-1,5.4963805E-2,-2.8012016E-1,-4.9397934E-2,-1.7638773E-2,3.8099113E-1,-4.3298103E-2,-3.0912701E-2,7.1465194E-1,9.03566E-2,1.6078746E-2],"categories":[],"categories_nodes":[],"categories_segments":[],"categories_sizes":[],"default_left":[0,0,0,0,0,0,0,0,0,0,0],"id":57,"left_children":[1,-1,3,-1,5,7,-1,-1,9,-1,-1],"loss_changes":[1.7226129E0,0E0,8.681389E-1,0E0,1.4978052E0,1.2892678E0,0E0,0E0,2.1355402E-1,0E0,0E0],"parents":[2147483647,0,0,2,2,4,4,5,5,8,8],"right_children":[2,-1,4,-1,6,8,-1,-1,10,-1,-1],"split_conditions":[1.3978615E-1,5.4963805E-2,5.6070715E-1,-4.9397934E-2,8.226924E-1,3.713055E-1,-4.3298103E-2,-3.0912701E-2,3.8099614E-1,9.03566E-2,1.6078746E-2],"split_indices":[13,0,6,0,6,3,0,0,15,0,0],"split_type":[0,0,0,0,0,0,0,0,0,0,0],"sum_hessian":[1.6646017E1,2.0253348E0,1.4620682E1,7.570548E0,7.050134E0,3.639645E0,3.410489E0,1.2101643E0,2.4294808E0,1.3407786E0,1.0887022E0],"tree_param":{"num_deleted":"0","num_feature":"16","num_nodes":"11","size_leaf_vector":"1"}},{"base_weights":[-8.101782E-2,-3.5850355E-1,4.2200962E-1,-4.9723547E-2,1.3532357E-1,7.723816E-1,-3.607769E-2,6.486907E-2,-3.459434E-2,9.159101E-2,1.2401129E-2],"categories":[],"categories_nodes":[],"categories_segments":[],"categories_sizes":[],"default_left":[0,0,0,0,0,0,0,0,0,0,0],"id":58,"left_children":[1,3,5,-1,7,9,-1,-1,-1,-1,-1],"loss_changes":[2.6998346E0,9.104917E-1,2.1849313E0,0E0,1.0855372E0,3.6285853E-1,0E0,0E0,0E0,0E0,0E0],"parents":[2147483647,0,0,1,1,2,2,4,4,5,5],"right_children":[2,4,6,-1,8,10,-1,-1,-1,-1,-1],"split_conditions":[8.2677853E-1,9.6917176E-1,6.575002E-1,-4.9723547E-2,5.653832E-1,7.5470096E-1,-3.607769E-2,6.486907E-2,-3.459434E-2,9.159101E-2,1.2401129E-2],"split_indices":[11,2,7,0,0,5,0,0,0,0,0],"split_type":[0,0,0,0,0,0,0,0,0,0,0],"sum_hessian":[1.7258268E1,1.1307825E1,5.9504433E0,8.822421E0,2.485404E0,4.1197515E0,1.8306916E0,1.0342689E0,1.4511352E0,3.0352173E0,1.0845342E0],"tree_param":{"num_deleted":"0","num_feature":"16","num_nodes":"11","size_leaf_vector":"1"}},{"base_weights":[1.4048083E-1,-1.6659011E-1,4.3150514E-1,6.10222E-2,-3.1312743E-1,6.126519E-1,-3.5433743E-2,1.5532586E-1,-4.83959E-2,1.13003425E-1,7.729411E-1,-3.3922993E-2,6.715242E-2,-3.3352E-2,5.586782E-2,1.0407641E-1,1.3508362E-2],"categories":[],"categories_nodes":[],"categories_segments":[],"categories_sizes":[],"default_left":[0,0,0,0,0,0,0,0,0,0,0,0,0,0,0,0,0],"id":59,"left_children":[1,3,5,-1,7,9,-1,11,-1,13,15,-1,-1,-1,-1,-1,-1],"loss_changes":[1.9625636E0,1.4450552E0,1.8030016E0,0E0,8.6972815E-1,6.671002E-1,0E0,1.0983863E0,0E0,8.7473685E-1,1.048563E0,0E0,0E0,0E0,0E0,0E0,0E0],"parents":[2147483647,0,0,1,1,2,2,4,4,5,5,7,7,9,9,10,10],"right_children":[2,4,6,-1,8,10,-1,12,-1,14,16,-1,-1,-1,-1,-1,-1],"split_conditions":[6.2773937E-1,8.7190844E-2,6.6370356E-1,6.10222E-2,2.7669427E-1,3.8534087E-1,-3.5433743E-2,6.4715564E-1,-4.83959E-2,7.35782E-1,8.131175E-1,-3.3922993E-2,6.715242E-2,-3.3352E-2,5.586782E-2,1.0407641E-1,1.3508362E-2],"split_indices":[7,15,13,0,12,9,0,11,0,0,2,0,0,0,0,0,0],"split_type":[0,0,0,0,0,0,0,0,0,0,0,0,0,0,0,0,0],"sum_hessian":[2.015679E1,1.00160475E1,1.0140742E1,1.087389E0,8.9286585E0,8.420174E0,1.7205691E0,2.4101965E0,6.5184617E0,2.459256E0,5.9609175E0,1.4059877E0,1.0042088E0,1.3541645E0,1.1050916E0,3.7533212E0,2.2075963E0],"tree_param":{"num_deleted":"0","num_feature":"16","num_nodes":"17","size_leaf_vector":"1"}},{"base_weights":[1.1045707E-1,-4.3289386E-2,2.364537E-1,4.512938E-1,-2.0090044E-1,-1.929725E-2,7.910762E-1,-4.6590924E-2,5.640153E-2,7.144564E-2,-4.3765046E-2,4.893213E-3,9.6283734E-2],"categories":[],"categories_nodes":[],"categories_segments":[],"categories_sizes":[],"default_left":[0,0,0,0,0,0,0,0,0,0,0,0,0],"id":60,"left_children":[1,-1,3,5,7,9,11,-1,-1,-1,-1,-1,-1],"loss_changes":[1.5448024E0,0E0,1.7585105E0,1.9678237E0,1.5883231E0,2.1840358E0,8.598442E-1,0E0,0E0,0E0,0E0,0E0,0E0],"parents":[2147483647,0,0,2,2,3,3,4,4,5,5,6,6],"right_children":[2,-1,4,6,8,10,12,-1,-1,-1,-1,-1,-1],"split_conditions":[2.0134231E-1,-4.3289386E-2,6.9937074E-1,5.39174E-1,7.0026773E-1,1.0067007E-1,2.8659892E-1,-4.6590924E-2,5.640153E-2,7.144564E-2,-4.3765046E-2,4.893213E-3,9.6283734E-2],"split_indices":[7,0,7,6,1,10,13,0,0,0,0,0,0],"split_type":[0,0,0,0,0,0,0,0,0,0,0,0,0],"sum_hessian":[2.0069748E1,3.3193867E0,1.675036E1,1.121123E1,5.5391307E0,5.096247E0,6.1149826E0,4.4041815E0,1.1349492E0,1.59354E0,3.5027072E0,1.3907458E0,4.724237E0],"tree_param":{"num_deleted":"0","num_feature":"16","num_nodes":"13","size_leaf_vector":"1"}},{"base_weights":[-1.2112078E-1,-4.0065327E-1,1.8995741E-1,-4.9242336E-2,1.7912019E-2,4.3589196E-1,-3.8974915E-2,6.2527585E-1,-3.0099213E-2,1.4439615E-3,8.31401E-1,1.1114376E-1,2.704044E-2],"categories":[],"categories_nodes":[],"categories_segments":[],"categories_sizes":[],"default_left":[0,0,0,0,0,0,0,0,0,0,0,0,0],"id":61,"left_children":[1,3,5,-1,-1,7,-1,9,-1,-1,11,-1,-1],"loss_changes":[1.653685E0,6.1372876E-1,1.4907906E0,0E0,0E0,1.1619053E0,0E0,7.277882E-1,0E0,0E0,3.868506E-1,0E0,0E0],"parents":[2147483647,0,0,1,1,2,2,5,5,7,7,10,10],"right_children":[2,4,6,-1,-1,8,-1,10,-1,-1,12,-1,-1],"split_conditions":[5.8810246E-1,8.480675E-1,5.105685E-1,-4.9242336E-2,1.7912019E-2,8.6858034E-1,-3.8974915E-2,4.1647884E-1,-3.0099213E-2,1.4439615E-3,4.077701E-1,1.1114376E-1,2.704044E-2],"split_indices":[10,7,8,0,0,6,0,3,0,0,6,0,0],"split_type":[0,0,0,0,0,0,0,0,0,0,0,0,0],"sum_hessian":[1.7142159E1,8.877213E0,8.264946E0,7.7941666E0,1.0830456E0,5.9772434E0,2.2877026E0,4.875634E0,1.1016091E0,1.5001389E0,3.3754954E0,1.5970838E0,1.7784119E0],"tree_param":{"num_deleted":"0","num_feature":"16","num_nodes":"13","size_leaf_vector":"1"}},{"base_weights":[-1.3944625E-3,-4.777894E-2,2.5021183E-1,4.2974603E-1,-3.9883103E-2,-3.2320824E-2,5.621584E-1,8.13715E-1,-1.2712324E-1,9.346226E-2,1.1038776E-2,-3.4145415E-2,2.0378102E-2],"categories":[],"categories_nodes":[],"categories_segments":[],"categories_sizes":[],"default_left":[0,0,0,0,0,0,0,0,0,0,0,0,0],"id":62,"left_children":[1,-1,3,5,-1,-1,7,9,11,-1,-1,-1,-1],"loss_changes":[2.4947047E0,0E0,1.7588536E0,1.2936294E0,0E0,0E0,1.8113399E0,5.219712E-1,3.1770504E-1,0E0,0E0,0E0,0E0],"parents":[2147483647,0,0,2,2,3,3,6,6,7,7,8,8],"right_children":[2,-1,4,6,-1,-1,8,10,12,-1,-1,-1,-1],"split_conditions":[4.005E-1,-4.777894E-2,6.844783E-1,1.0067007E-1,-3.9883103E-2,-3.2320824E-2,5.724873E-1,6.9666046E-1,5.8475316E-1,9.346226E-2,1.1038776E-2,-3.4145415E-2,2.0378102E-2],"split_indices":[15,0,4,10,0,0,10,6,5,0,0,0,0],"split_type":[0,0,0,0,0,0,0,0,0,0,0,0,0],"sum_hessian":[1.8815432E1,6.1921573E0,1.2623275E1,1.015276E1,2.470516E0,1.3029121E0,8.849847E0,6.3513618E0,2.4984856E0,5.139057E0,1.2123045E0,1.4969862E0,1.0014993E0],"tree_param":{"num_deleted":"0","num_feature":"16","num_nodes":"13","size_leaf_vector":"1"}},{"base_weights":[5.48837E-2,5.434991E-1,-2.2900152E-1,7.713996E-1,-5.6707836E-3,-4.8646607E-2,2.2045693E-1,1.4022718E-2,8.872541E-2,-1.8218558E-1,7.486638E-2,1.8586932E-2,-3.785212E-2],"categories":[],"categories_nodes":[],"categories_segments":[],"categories_sizes":[],"default_left":[0,0,0,0,0,0,0,0,0,0,0,0,0],"id":63,"left_children":[1,3,5,7,-1,-1,9,-1,-1,11,-1,-1,-1],"loss_changes":[2.823302E0,1.0623355E0,1.6127667E0,2.7525544E-1,0E0,0E0,1.2904906E0,0E0,0E0,3.5098708E-1,0E0,0E0,0E0],"parents":[2147483647,0,0,1,1,2,2,3,3,6,6,9,9],"right_children":[2,4,6,8,-1,-1,10,-1,-1,12,-1,-1,-1],"split_conditions":[2.6428995E-1,6.160842E-1,7.026561E-1,2.0963712E-1,-5.6707836E-3,-4.8646607E-2,8.109334E-1,1.4022718E-2,8.872541E-2,2.4138975E-1,7.486638E-2,1.8586932E-2,-3.785212E-2],"split_indices":[9,8,1,1,0,0,2,0,0,7,0,0,0],"split_type":[0,0,0,0,0,0,0,0,0,0,0,0,0],"sum_hessian":[1.8456608E1,6.4465246E0,1.2010083E1,4.4656725E0,1.9808524E0,7.5836067E0,4.426477E0,1.0353708E0,3.4303014E0,2.8835132E0,1.5429635E0,1.0216379E0,1.8618753E0],"tree_param":{"num_deleted":"0","num_feature":"16","num_nodes":"13","size_leaf_vector":"1"}},{"base_weights":[-1.4668512E-1,2.8412983E-1,-3.5367608E-1,6.5231866E-1,-3.707413E-2,1.3736153E-1,-4.9715642E-2,1.5259981E-3,1.0228622E-1,-3.375116E-2,6.648161E-2],"categories":[],"categories_nodes":[],"categories_segments":[],"categories_sizes":[],"default_left":[0,0,0,0,0,0,0,0,0,0,0],"id":64,"left_children":[1,3,5,7,-1,9,-1,-1,-1,-1,-1],"loss_changes":[1.6396244E0,1.726136E0,9.210553E-1,1.000115E0,0E0,1.1061752E0,0E0,0E0,0E0,0E0,0E0],"parents":[2147483647,0,0,1,1,2,2,3,3,5,5],"right_children":[2,4,6,8,-1,10,-1,-1,-1,-1,-1],"split_conditions":[2.8659892E-1,6.953864E-1,2.1254906E-1,6.3362896E-1,-3.707413E-2,1.700827E-1,-4.9715642E-2,1.5259981E-3,1.0228622E-1,-3.375116E-2,6.648161E-2],"split_indices":[13,12,1,1,0,1,0,0,0,0,0],"split_type":[0,0,0,0,0,0,0,0,0,0,0],"sum_hessian":[1.6259747E1,5.1559286E0,1.1103819E1,3.3028574E0,1.8530712E0,2.5204933E0,8.583325E0,1.5975114E0,1.7053459E0,1.5158602E0,1.0046331E0],"tree_param":{"num_deleted":"0","num_feature":"16","num_nodes":"11","size_leaf_vector":"1"}},{"base_weights":[-7.757868E-2,-3.5108995E-1,3.9982855E-1,-4.9220946E-2,1.3081867E-1,7.216534E-1,-3.5409577E-2,6.195096E-2,-3.413762E-2,9.367477E-2,2.2202369E-2],"categories":[],"categories_nodes":[],"categories_segments":[],"categories_sizes":[],"default_left":[0,0,0,0,0,0,0,0,0,0,0],"id":65,"left_children":[1,3,5,-1,7,9,-1,-1,-1,-1,-1],"loss_changes":[2.4755442E0,8.7381876E-1,1.9494371E0,0E0,1.0158927E0,3.5321116E-1,0E0,0E0,0E0,0E0,0E0],"parents":[2147483647,0,0,1,1,2,2,4,4,5,5],"right_children":[2,4,6,-1,8,10,-1,-1,-1,-1,-1],"split_conditions":[8.2677853E-1,9.6917176E-1,6.575002E-1,-4.9220946E-2,6.456728E-1,4.3606016E-1,-3.5409577E-2,6.195096E-2,-3.413762E-2,9.367477E-2,2.2202369E-2],"split_indices":[11,2,7,0,3,3,0,0,0,0,0],"split_type":[0,0,0,0,0,0,0,0,0,0,0],"sum_hessian":[1.6883564E1,1.0902185E1,5.981378E0,8.416243E0,2.4859424E0,4.2219667E0,1.7594113E0,1.0683211E0,1.4176213E0,2.3397872E0,1.8821794E0],"tree_param":{"num_deleted":"0","num_feature":"16","num_nodes":"11","size_leaf_vector":"1"}},{"base_weights":[1.3480847E-1,-1.585328E-1,4.0441787E-1,5.8081377E-2,-3.0510965E-1,5.7223564E-1,-3.483567E-2,1.5064847E-1,-4.7828887E-2,1.05487324E-1,7.190318E-1,-3.3934887E-2,6.6339515E-2,-3.295445E-2,5.3116173E-2,9.6848E-2,1.2249077E-1,-3.2209802E-2,4.6717893E-2],"categories":[],"categories_nodes":[],"categories_segments":[],"categories_sizes":[],"default_left":[0,0,0,0,0,0,0,0,0,0,0,0,0,0,0,0,0,0,0],"id":66,"left_children":[1,3,5,-1,7,9,-1,11,-1,13,15,-1,-1,-1,-1,-1,17,-1,-1],"loss_changes":[1.7213278E0,1.342613E0,1.614273E0,0E0,8.321427E-1,5.7759833E-1,0E0,1.082409E0,0E0,8.146137E-1,9.3540406E-1,0E0,0E0,0E0,0E0,0E0,6.4597225E-1,0E0,0E0],"parents":[2147483647,0,0,1,1,2,2,4,4,5,5,7,7,9,9,10,10,16,16],"right_children":[2,4,6,-1,8,10,-1,12,-1,14,16,-1,-1,-1,-1,-1,18,-1,-1],"split_conditions":[6.2773937E-1,8.7190844E-2,6.6370356E-1,5.8081377E-2,2.7669427E-1,3.8534087E-1,-3.483567E-2,2.5431955E-1,-4.7828887E-2,4.184412E-1,8.131175E-1,-3.3934887E-2,6.6339515E-2,-3.295445E-2,5.3116173E-2,9.6848E-2,9.161396E-1,-3.2209802E-2,4.6717893E-2],"split_indices":[7,15,13,0,12,9,0,0,0,2,2,0,0,0,0,0,2,0,0],"split_type":[0,0,0,0,0,0,0,0,0,0,0,0,0,0,0,0,0,0,0],"sum_hessian":[1.9954172E1,9.753802E0,1.0200371E1,1.1236238E0,8.630178E0,8.537024E0,1.6633468E0,2.4121614E0,6.2180166E0,2.453752E0,6.0832715E0,1.4063662E0,1.005795E0,1.3252249E0,1.128527E0,3.8499098E0,2.233362E0,1.0039613E0,1.2294008E0],"tree_param":{"num_deleted":"0","num_feature":"16","num_nodes":"19","size_leaf_vector":"1"}},{"base_weights":[1.0422474E-1,-4.266822E-2,2.2390568E-1,4.2270112E-1,-1.9432066E-1,5.769271E-1,-3.5559427E-2,-4.592425E-2,5.306679E-2,8.187748E-2,8.7001544E-1,6.659335E-2,-3.956393E-2,1.1909397E-2,1.00922264E-1],"categories":[],"categories_nodes":[],"categories_segments":[],"categories_sizes":[],"default_left":[0,0,0,0,0,0,0,0,0,0,0,0,0,0,0],"id":67,"left_children":[1,-1,3,5,7,9,-1,-1,-1,11,13,-1,-1,-1,-1],"loss_changes":[1.4238269E0,0E0,1.5550056E0,1.6842675E0,1.4715093E0,1.4763136E0,0E0,0E0,0E0,1.6775467E0,5.692735E-1,0E0,0E0,0E0,0E0],"parents":[2147483647,0,0,2,2,3,3,4,4,5,5,9,9,10,10],"right_children":[2,-1,4,6,8,10,-1,-1,-1,12,14,-1,-1,-1,-1],"split_conditions":[2.0134231E-1,-4.266822E-2,6.9937074E-1,7.892678E-1,7.0026773E-1,5.194228E-1,-3.5559427E-2,-4.592425E-2,5.306679E-2,1.0067007E-1,2.0570654E-1,6.659335E-2,-3.956393E-2,1.1909397E-2,1.00922264E-1],"split_indices":[7,0,7,1,1,6,0,0,0,10,11,0,0,0,0],"split_type":[0,0,0,0,0,0,0,0,0,0,0,0,0,0,0],"sum_hessian":[1.9904976E1,3.1897998E0,1.6715176E1,1.1322536E1,5.392639E0,9.665888E0,1.6566494E0,4.2179046E0,1.1747342E0,4.070258E0,5.5956297E0,1.6533955E0,2.4168625E0,1.1652845E0,4.430345E0],"tree_param":{"num_deleted":"0","num_feature":"16","num_nodes":"15","size_leaf_vector":"1"}},{"base_weights":[-1.1580022E-1,-3.062513E-1,3.1806663E-1,-4.9810328E-2,7.7588454E-2,7.6525456E-1,-3.7944652E-2,-3.8037684E-2,5.4758538E-2,1.0085378E-1,1.0713394E-2],"categories":[],"categories_nodes":[],"categories_segments":[],"categories_sizes":[],"default_left":[0,0,0,0,0,0,0,0,0,0,0],"id":68,"left_children":[1,3,5,-1,7,9,-1,-1,-1,-1,-1],"loss_changes":[1.567107E0,9.8640287E-1,2.1358027E0,0E0,1.317697E0,5.2223325E-1,0E0,0E0,0E0,0E0,0E0],"parents":[2147483647,0,0,1,1,2,2,4,4,5,5],"right_children":[2,4,6,-1,8,10,-1,-1,-1,-1,-1],"split_conditions":[6.885868E-1,6.619503E-1,5.5243486E-1,-4.9810328E-2,5.8810246E-1,4.951679E-1,-3.7944652E-2,-3.8037684E-2,5.4758538E-2,1.0085378E-1,1.0713394E-2],"split_indices":[0,15,4,0,10,6,0,0,0,0,0],"split_type":[0,0,0,0,0,0,0,0,0,0,0],"sum_hessian":[1.6786415E1,1.1870049E1,4.9163656E0,7.7158194E0,4.1542306E0,2.9365642E0,1.9798014E0,2.2006238E0,1.9536068E0,1.7552581E0,1.181306E0],"tree_param":{"num_deleted":"0","num_feature":"16","num_nodes":"11","size_leaf_vector":"1"}},{"base_weights":[-4.752631E-3,-4.721754E-2,2.3360448E-1,4.0106997E-1,-3.921132E-2,5.752489E-1,-1.5564469E-1,8.2020414E-1,-1.10706486E-1,-3.547382E-2,1.6578764E-2,9.717437E-2,7.279694E-3,1.4716073E-2,-3.0632341E-2],"categories":[],"categories_nodes":[],"categories_segments":[],"categories_sizes":[],"default_left":[0,0,0,0,0,0,0,0,0,0,0,0,0,0,0],"id":69,"left_children":[1,-1,3,5,-1,7,9,11,13,-1,-1,-1,-1,-1,-1],"loss_changes":[2.2825735E0,0E0,1.5804386E0,1.1764032E0,0E0,1.5611155E0,2.8011584E-1,6.730242E-1,2.0567028E-1,0E0,0E0,0E0,0E0,0E0,0E0],"parents":[2147483647,0,0,2,2,3,3,5,5,6,6,7,7,8,8],"right_children":[2,-1,4,6,-1,8,10,12,14,-1,-1,-1,-1,-1,-1],"split_conditions":[4.005E-1,-4.721754E-2,6.844783E-1,6.4138293E-1,-3.921132E-2,6.2636256E-1,5.105685E-1,4.8448807E-1,1.9951543E-1,-3.547382E-2,1.6578764E-2,9.717437E-2,7.279694E-3,1.4716073E-2,-3.0632341E-2],"split_indices":[15,0,4,1,0,3,8,8,5,0,0,0,0,0,0],"split_type":[0,0,0,0,0,0,0,0,0,0,0,0,0,0,0],"sum_hessian":[1.8497372E1,5.9156713E0,1.25817E1,1.0208537E1,2.3731627E0,7.750387E0,2.4581504E0,5.566776E0,2.1836112E0,1.4539587E0,1.0041915E0,4.3788047E0,1.1879714E0,1.0487854E0,1.1348258E0],"tree_param":{"num_deleted":"0","num_feature":"16","num_nodes":"15","size_leaf_vector":"1"}},{"base_weights":[5.293743E-2,5.0925285E-1,-2.2155988E-1,7.2289926E-1,-5.678277E-3,-4.809578E-2,2.0995398E-1,8.342366E-2,1.2719824E-2,-1.8212843E-1,7.095547E-2,1.540523E-2,-3.6756035E-2],"categories":[],"categories_nodes":[],"categories_segments":[],"categories_sizes":[],"default_left":[0,0,0,0,0,0,0,0,0,0,0,0,0],"id":70,"left_children":[1,3,5,7,-1,-1,9,-1,-1,11,-1,-1,-1],"loss_changes":[2.510524E0,9.471954E-1,1.5168386E0,2.5950718E-1,0E0,0E0,1.1958469E0,0E0,0E0,2.96415E-1,0E0,0E0,0E0],"parents":[2147483647,0,0,1,1,2,2,3,3,6,6,9,9],"right_children":[2,4,6,8,-1,-1,10,-1,-1,12,-1,-1,-1],"split_conditions":[2.6428995E-1,6.160842E-1,7.026561E-1,5.8810246E-1,-5.678277E-3,-4.809578E-2,7.391186E-1,8.342366E-2,1.2719824E-2,2.2404647E-1,7.095547E-2,1.540523E-2,-3.6756035E-2],"split_indices":[9,8,1,10,0,0,4,0,0,5,0,0,0],"split_type":[0,0,0,0,0,0,0,0,0,0,0,0,0],"sum_hessian":[1.8142141E1,6.4930634E0,1.1649078E1,4.5126624E0,1.9804013E0,7.203951E0,4.4451275E0,3.4646804E0,1.0479819E0,2.8465953E0,1.598532E0,1.0721159E0,1.7744794E0],"tree_param":{"num_deleted":"0","num_feature":"16","num_nodes":"13","size_leaf_vector":"1"}},{"base_weights":[-1.4004707E-1,2.720175E-1,-3.4556982E-1,6.1492527E-1,-3.6382273E-2,1.3726474E-1,-4.9182236E-2,1.778348E-3,9.471988E-2,-3.340679E-2,6.5178625E-2],"categories":[],"categories_nodes":[],"categories_segments":[],"categories_sizes":[],"default_left":[0,0,0,0,0,0,0,0,0,0,0],"id":71,"left_children":[1,3,5,7,-1,9,-1,-1,-1,-1,-1],"loss_changes":[1.5198833E0,1.5673703E0,8.918941E-1,8.5125744E-1,0E0,1.0655267E0,0E0,0E0,0E0,0E0,0E0],"parents":[2147483647,0,0,1,1,2,2,3,3,5,5],"right_children":[2,4,6,8,-1,10,-1,-1,-1,-1,-1],"split_conditions":[2.8659892E-1,6.953864E-1,2.1254906E-1,6.3362896E-1,-3.6382273E-2,6.3993114E-1,-4.9182236E-2,1.778348E-3,9.471988E-2,-3.340679E-2,6.5178625E-2],"split_indices":[13,12,1,1,0,8,0,0,0,0,0],"split_type":[0,0,0,0,0,0,0,0,0,0,0],"sum_hessian":[1.5836758E1,5.16254E0,1.0674217E1,3.3751953E0,1.7873445E0,2.4958694E0,8.178348E0,1.583302E0,1.7918932E0,1.4856478E0,1.0102216E0],"tree_param":{"num_deleted":"0","num_feature":"16","num_nodes":"11","size_leaf_vector":"1"}},{"base_weights":[-7.342961E-2,-3.4388313E-1,3.822498E-1,-4.8714742E-2,1.253961E-1,6.823189E-1,-3.4802686E-2,5.9264958E-2,-3.374302E-2,9.800787E-3,8.107715E-2],"categories":[],"categories_nodes":[],"categories_segments":[],"categories_sizes":[],"default_left":[0,0,0,0,0,0,0,0,0,0,0],"id":72,"left_children":[1,3,5,-1,7,9,-1,-1,-1,-1,-1],"loss_changes":[2.286685E0,8.343065E-1,1.7685843E0,0E0,9.5367265E-1,3.1758952E-1,0E0,0E0,0E0,0E0,0E0],"parents":[2147483647,0,0,1,1,2,2,4,4,5,5],"right_children":[2,4,6,-1,8,10,-1,-1,-1,-1,-1],"split_conditions":[8.2677853E-1,9.6917176E-1,6.575002E-1,-4.8714742E-2,9.7895426E-1,1.700827E-1,-3.4802686E-2,5.9264958E-2,-3.374302E-2,9.800787E-3,8.107715E-2],"split_indices":[11,2,7,0,2,1,0,0,0,0,0],"split_type":[0,0,0,0,0,0,0,0,0,0,0],"sum_hessian":[1.6488104E1,1.0500951E1,5.9871535E0,8.015773E0,2.485178E0,4.2900515E0,1.6971022E0,1.0970913E0,1.3880868E0,1.090865E0,3.1991866E0],"tree_param":{"num_deleted":"0","num_feature":"16","num_nodes":"11","size_leaf_vector":"1"}},{"base_weights":[1.2901813E-1,-1.506877E-1,3.7923226E-1,5.475669E-2,-2.9657227E-1,5.3592396E-1,-3.4257855E-2,-4.771271E-2,1.4698486E-1,7.872948E-2,2.3983496E-1,6.0737796E-2,-3.168355E-2,4.8033783E-1,-3.3730466E-2,9.234556E-7,6.900375E-2],"categories":[],"categories_nodes":[],"categories_segments":[],"categories_sizes":[],"default_left":[0,0,0,0,0,0,0,0,0,0,0,0,0,0,0,0,0],"id":73,"left_children":[1,3,5,-1,7,9,-1,-1,11,-1,13,-1,-1,15,-1,-1,-1],"loss_changes":[1.5055443E0,1.230696E0,1.4512371E0,0E0,8.1683177E-1,5.2560353E-1,0E0,0E0,9.3167573E-1,0E0,9.7339445E-1,0E0,0E0,4.5714414E-1,0E0,0E0,0E0],"parents":[2147483647,0,0,1,1,2,2,4,4,5,5,8,8,10,10,13,13],"right_children":[2,4,6,-1,8,10,-1,-1,12,-1,14,-1,-1,16,-1,-1,-1],"split_conditions":[6.2773937E-1,8.7190844E-2,6.6370356E-1,5.475669E-2,6.730595E-1,2.1658184E-1,-3.4257855E-2,-4.771271E-2,2.7669427E-1,7.872948E-2,8.8965476E-1,6.0737796E-2,-3.168355E-2,3.4499222E-1,-3.3730466E-2,9.234556E-7,6.900375E-2],"split_indices":[7,15,13,0,11,5,0,0,12,0,7,0,0,5,0,0,0],"split_type":[0,0,0,0,0,0,0,0,0,0,0,0,0,0,0,0,0],"sum_hessian":[1.9695448E1,9.487482E0,1.0207966E1,1.1637832E0,8.323699E0,8.598845E0,1.6091207E0,5.8618746E0,2.4618244E0,3.7533665E0,4.845478E0,1.0801473E0,1.381677E0,3.5386117E0,1.3068666E0,1.3792981E0,2.1593134E0],"tree_param":{"num_deleted":"0","num_feature":"16","num_nodes":"17","size_leaf_vector":"1"}},{"base_weights":[9.7535126E-2,-4.2043284E-2,2.11414E-1,3.962186E-1,-1.8823881E-1,5.394478E-1,-3.491538E-2,-4.526425E-2,4.997587E-2,7.841857E-2,8.025051E-1,6.2057674E-2,-3.8847122E-2,1.1162271E-2,9.284722E-2],"categories":[],"categories_nodes":[],"categories_segments":[],"categories_sizes":[],"default_left":[0,0,0,0,0,0,0,0,0,0,0,0,0,0,0],"id":74,"left_children":[1,-1,3,5,7,9,-1,-1,-1,11,13,-1,-1,-1,-1],"loss_changes":[1.3087308E0,0E0,1.3758475E0,1.5089232E0,1.3629401E0,1.2430742E0,0E0,0E0,0E0,1.5119177E0,4.8364973E-1,0E0,0E0,0E0,0E0],"parents":[2147483647,0,0,2,2,3,3,4,4,5,5,9,9,10,10],"right_children":[2,-1,4,6,8,10,-1,-1,-1,12,14,-1,-1,-1,-1],"split_conditions":[2.0134231E-1,-4.2043284E-2,6.9937074E-1,7.892678E-1,7.0026773E-1,5.194228E-1,-3.491538E-2,-4.526425E-2,4.997587E-2,1.0067007E-1,2.0570654E-1,6.2057674E-2,-3.8847122E-2,1.1162271E-2,9.284722E-2],"split_indices":[7,0,7,1,1,6,0,0,0,10,11,0,0,0,0],"split_type":[0,0,0,0,0,0,0,0,0,0,0,0,0,0,0],"sum_hessian":[1.9680391E1,3.06186E0,1.6618532E1,1.1369652E1,5.2488804E0,9.768775E0,1.6008766E0,4.038814E0,1.2100661E0,4.020546E0,5.748229E0,1.708011E0,2.312535E0,1.1773014E0,4.5709276E0],"tree_param":{"num_deleted":"0","num_feature":"16","num_nodes":"15","size_leaf_vector":"1"}},{"base_weights":[-1.1055597E-1,-3.8660067E-1,1.7868178E-1,1.8453158E-2,-4.8320416E-2,3.9633524E-1,-3.756842E-2,5.6387633E-1,-2.9134694E-2,7.580095E-1,-8.756813E-5,9.5441714E-2,1.1464549E-2],"categories":[],"categories_nodes":[],"categories_segments":[],"categories_sizes":[],"default_left":[0,0,0,0,0,0,0,0,0,0,0,0,0],"id":75,"left_children":[1,3,5,-1,-1,7,-1,9,-1,11,-1,-1,-1],"loss_changes":[1.4596218E0,5.982708E-1,1.2576032E0,0E0,0E0,9.805571E-1,0E0,6.625998E-1,0E0,4.5847344E-1,0E0,0E0,0E0],"parents":[2147483647,0,0,1,1,2,2,5,5,7,7,9,9],"right_children":[2,4,6,-1,-1,8,-1,10,-1,12,-1,-1,-1],"split_conditions":[5.8810246E-1,1.550231E-1,5.105685E-1,1.8453158E-2,-4.8320416E-2,8.6858034E-1,-3.756842E-2,7.026561E-1,-2.9134694E-2,5.3940994E-1,-8.756813E-5,9.5441714E-2,1.1464549E-2],"split_indices":[10,12,8,0,0,6,0,1,0,2,0,0,0],"split_type":[0,0,0,0,0,0,0,0,0,0,0,0,0],"sum_hessian":[1.6416067E1,8.227362E0,8.188705E0,1.0585977E0,7.168764E0,6.0847826E0,2.1039228E0,5.0375175E0,1.0472649E0,3.4941924E0,1.5433254E0,2.3065612E0,1.187631E0],"tree_param":{"num_deleted":"0","num_feature":"16","num_nodes":"13","size_leaf_vector":"1"}},{"base_weights":[-6.937158E-3,-4.66583E-2,2.1950263E-1,3.767664E-1,-3.857727E-2,-3.1738162E-2,4.964554E-1,7.1637386E-1,-1.2420124E-1,8.243876E-2,9.38778E-3,-3.365932E-2,1.9842623E-2],"categories":[],"categories_nodes":[],"categories_segments":[],"categories_sizes":[],"default_left":[0,0,0,0,0,0,0,0,0,0,0,0,0],"id":76,"left_children":[1,-1,3,5,-1,-1,7,9,11,-1,-1,-1,-1],"loss_changes":[2.0972173E0,0E0,1.4323027E0,1.0912163E0,0E0,0E0,1.4505E0,4.277687E-1,3.0401623E-1,0E0,0E0,0E0,0E0],"parents":[2147483647,0,0,2,2,3,3,6,6,7,7,8,8],"right_children":[2,-1,4,6,-1,-1,8,10,12,-1,-1,-1,-1],"split_conditions":[4.005E-1,-4.66583E-2,6.844783E-1,1.0067007E-1,-3.857727E-2,-3.1738162E-2,5.724873E-1,6.9666046E-1,5.997478E-1,8.243876E-2,9.38778E-3,-3.365932E-2,1.9842623E-2],"split_indices":[15,0,4,10,0,0,10,6,6,0,0,0,0],"split_type":[0,0,0,0,0,0,0,0,0,0,0,0,0],"sum_hessian":[1.8165651E1,5.6454806E0,1.2520171E1,1.0237717E1,2.2824543E0,1.2627214E0,8.974996E0,6.513009E0,2.461986E0,5.27362E0,1.2393891E0,1.4585239E0,1.0034621E0],"tree_param":{"num_deleted":"0","num_feature":"16","num_nodes":"13","size_leaf_vector":"1"}},{"base_weights":[5.216074E-2,4.8140126E-1,-2.1386188E-1,6.825324E-1,-5.5006975E-3,-4.755688E-2,2.0207304E-1,1.1855774E-2,7.886684E-2,-1.7947428E-1,6.8298884E-2,1.7782776E-2,-3.729262E-2],"categories":[],"categories_nodes":[],"categories_segments":[],"categories_sizes":[],"default_left":[0,0,0,0,0,0,0,0,0,0,0,0,0],"id":77,"left_children":[1,3,5,7,-1,-1,9,-1,-1,11,-1,-1,-1],"loss_changes":[2.2488737E0,8.465105E-1,1.4344203E0,2.3738956E-1,0E0,0E0,1.1226223E0,0E0,0E0,3.311112E-1,0E0,0E0,0E0],"parents":[2147483647,0,0,1,1,2,2,3,3,6,6,9,9],"right_children":[2,4,6,8,-1,-1,10,-1,-1,12,-1,-1,-1],"split_conditions":[2.6428995E-1,6.160842E-1,7.026561E-1,2.0963712E-1,-5.5006975E-3,-4.755688E-2,8.109334E-1,1.1855774E-2,7.886684E-2,5.256769E-1,6.8298884E-2,1.7782776E-2,-3.729262E-2],"split_indices":[9,8,1,1,0,0,2,0,0,9,0,0,0],"split_type":[0,0,0,0,0,0,0,0,0,0,0,0,0],"sum_hessian":[1.7792925E1,6.4981756E0,1.1294749E1,4.527962E0,1.9702132E0,6.844688E0,4.4500613E0,1.0524728E0,3.4754894E0,2.8308992E0,1.6191618E0,1.0227197E0,1.8081795E0],"tree_param":{"num_deleted":"0","num_feature":"16","num_nodes":"13","size_leaf_vector":"1"}},{"base_weights":[-1.3340093E-1,2.6300013E-1,-3.3791396E-1,5.890254E-1,-3.580495E-2,1.3482714E-1,-4.8656248E-2,2.4771227E-3,8.8659644E-2,-3.2684427E-2,6.151831E-2],"categories":[],"categories_nodes":[],"categories_segments":[],"categories_sizes":[],"default_left":[0,0,0,0,0,0,0,0,0,0,0],"id":78,"left_children":[1,3,5,7,-1,9,-1,-1,-1,-1,-1],"loss_changes":[1.4188201E0,1.4552464E0,8.568336E-1,7.181771E-1,0E0,9.72045E-1,0E0,0E0,0E0,0E0,0E0],"parents":[2147483647,0,0,1,1,2,2,3,3,5,5],"right_children":[2,4,6,8,-1,10,-1,-1,-1,-1,-1],"split_conditions":[2.8659892E-1,5.1836467E-1,2.1254906E-1,3.6597142E-1,-3.580495E-2,6.3993114E-1,-4.8656248E-2,2.4771227E-3,8.8659644E-2,-3.2684427E-2,6.151831E-2],"split_indices":[13,0,1,1,0,8,0,0,0,0,0],"split_type":[0,0,0,0,0,0,0,0,0,0,0],"sum_hessian":[1.5405109E1,5.1455917E0,1.0259518E1,3.4080641E0,1.7375275E0,2.4765196E0,7.7829986E0,1.5507593E0,1.8573048E0,1.425779E0,1.0507407E0],"tree_param":{"num_deleted":"0","num_feature":"16","num_nodes":"11","size_leaf_vector":"1"}},{"base_weights":[-6.99798E-2,-3.3651245E-1,3.636197E-1,1.1855124E-1,-4.8613757E-2,6.4295167E-1,-3.418702E-2,-3.3693314E-2,6.35918E-2,8.677126E-3,7.700276E-2],"categories":[],"categories_nodes":[],"categories_segments":[],"categories_sizes":[],"default_left":[0,0,0,0,0,0,0,0,0,0,0],"id":79,"left_children":[1,3,5,7,-1,9,-1,-1,-1,-1,-1],"loss_changes":[2.0972097E0,8.13571E-1,1.5964887E0,1.0510865E0,0E0,3.114183E-1,0E0,0E0,0E0,0E0,0E0],"parents":[2147483647,0,0,1,1,2,2,3,3,5,5],"right_children":[2,4,6,8,-1,10,-1,-1,-1,-1,-1],"split_conditions":[8.2677853E-1,2.675197E-1,6.575002E-1,2.2479397E-1,-4.8613757E-2,7.5270034E-2,-3.418702E-2,-3.3693314E-2,6.35918E-2,8.677126E-3,7.700276E-2],"split_indices":[11,15,7,15,0,7,0,0,0,0,0],"split_type":[0,0,0,0,0,0,0,0,0,0,0],"sum_hessian":[1.6088121E1,1.010222E1,5.9859023E0,2.5510967E0,7.5511227E0,4.3515806E0,1.6343219E0,1.542154E0,1.0089427E0,1.1223139E0,3.2292666E0],"tree_param":{"num_deleted":"0","num_feature":"16","num_nodes":"11","size_leaf_vector":"1"}},{"base_weights":[1.23386234E-1,-1.425403E-1,3.5436434E-1,5.172146E-2,-2.8773934E-1,5.00675E-1,-3.369693E-2,-4.7066305E-2,1.4584497E-1,8.0678776E-2,6.3401663E-1,5.7475653E-2,-3.0912591E-2,-3.2796655E-2,4.8200987E-2,8.561778E-2,9.877456E-2,1.6974331E-3,1.39038665E-2],"categories":[],"categories_nodes":[],"categories_segments":[],"categories_sizes":[],"default_left":[0,0,0,0,0,0,0,0,0,0,0,0,0,0,0,0,0,0,0],"id":80,"left_children":[1,3,5,-1,7,9,-1,-1,11,13,15,-1,-1,-1,-1,-1,17,-1,-1],"loss_changes":[1.3053745E0,1.1268597E0,1.3036284E0,0E0,7.832934E-1,4.8998547E-1,0E0,0E0,8.4836394E-1,7.27872E-1,7.702005E-1,0E0,0E0,0E0,0E0,0E0,8.3075985E-3,0E0,0E0],"parents":[2147483647,0,0,1,1,2,2,4,4,5,5,8,8,9,9,10,10,16,16],"right_children":[2,4,6,-1,8,10,-1,-1,12,14,16,-1,-1,-1,-1,-1,18,-1,-1],"split_conditions":[6.2773937E-1,8.7190844E-2,6.6370356E-1,5.172146E-2,6.730595E-1,3.8534087E-1,-3.369693E-2,-4.7066305E-2,2.7669427E-1,4.184412E-1,8.131175E-1,5.7475653E-2,-3.0912591E-2,-3.2796655E-2,4.8200987E-2,8.561778E-2,1.0759287E-1,1.6974331E-3,1.39038665E-2],"split_indices":[7,15,13,0,11,9,0,0,12,2,2,0,0,0,0,0,0,0,0],"split_type":[0,0,0,0,0,0,0,0,0,0,0,0,0,0,0,0,0,0,0],"sum_hessian":[1.942979E1,9.209601E0,1.0220188E1,1.1990867E0,8.010514E0,8.662649E0,1.5575396E0,5.5735765E0,2.436938E0,2.4742787E0,6.18837E0,1.1188707E0,1.3180673E0,1.3165439E0,1.1577348E0,3.9494686E0,2.2389016E0,1.2074437E0,1.0314579E0],"tree_param":{"num_deleted":"0","num_feature":"16","num_nodes":"19","size_leaf_vector":"1"}},{"base_weights":[9.204125E-2,-1.115797E-1,3.751998E-1,1.2580101E-1,-4.5733035E-2,-1.4122033E-1,5.7440317E-1,4.083266E-1,-2.3165895E-1,1.1747307E-2,-3.1299617E-2,8.010929E-2,-5.3741573E-3,2.3358415E-3,5.6491214E-1,-3.90809E-2,1.32882865E-2,1.490265E-2,6.793027E-2],"categories":[],"categories_nodes":[],"categories_segments":[],"categories_sizes":[],"default_left":[0,0,0,0,0,0,0,0,0,0,0,0,0,0,0,0,0,0,0],"id":81,"left_children":[1,3,5,7,-1,9,11,13,15,-1,-1,-1,-1,-1,17,-1,-1,-1,-1],"loss_changes":[1.2180469E0,1.0947251E0,9.8253226E-1,9.3051267E-1,0E0,1.8082547E-1,9.7155046E-1,2.8730953E-1,3.009408E-1,0E0,0E0,0E0,0E0,0E0,6.530011E-2,0E0,0E0,0E0,0E0],"parents":[2147483647,0,0,1,1,2,2,3,3,5,5,6,6,7,7,8,8,14,14],"right_children":[2,4,6,8,-1,10,12,14,16,-1,-1,-1,-1,-1,18,-1,-1,-1,-1],"split_conditions":[6.501199E-1,4.656544E-1,2.9302964E-1,2.9402488E-1,-4.5733035E-2,1.10720366E-1,6.446422E-1,2.7662233E-1,2.866378E-1,1.1747307E-2,-3.1299617E-2,8.010929E-2,-5.3741573E-3,2.3358415E-3,2.3207825E-1,-3.90809E-2,1.32882865E-2,1.490265E-2,6.793027E-2],"split_indices":[3,14,14,3,0,14,14,9,14,0,0,0,0,0,3,0,0,0,0],"split_type":[0,0,0,0,0,0,0,0,0,0,0,0,0,0,0,0,0,0,0],"sum_hessian":[1.939964E1,1.1637204E1,7.762435E0,7.2771263E0,4.360078E0,2.241802E0,5.5206327E0,3.985113E0,3.2920134E0,1.0207238E0,1.2210783E0,3.8543231E0,1.6663096E0,1.4845343E0,2.5005784E0,2.2414124E0,1.050601E0,1.0361763E0,1.4644022E0],"tree_param":{"num_deleted":"0","num_feature":"16","num_nodes":"19","size_leaf_vector":"1"}},{"base_weights":[-1.0624357E-1,-2.9459265E-1,2.9936877E-1,-4.8863508E-2,7.576679E-2,6.916465E-1,-3.6734268E-2,-3.6709454E-2,4.9538013E-2,8.988815E-3,9.075238E-2],"categories":[],"categories_nodes":[],"categories_segments":[],"categories_sizes":[],"default_left":[0,0,0,0,0,0,0,0,0,0,0],"id":82,"left_children":[1,3,5,-1,7,9,-1,-1,-1,-1,-1],"loss_changes":[1.3892728E0,9.0904415E-1,1.7962162E0,0E0,1.1179692E0,4.4573247E-1,0E0,0E0,0E0,0E0,0E0],"parents":[2147483647,0,0,1,1,2,2,4,4,5,5],"right_children":[2,4,6,-1,8,10,-1,-1,-1,-1,-1],"split_conditions":[6.885868E-1,6.619503E-1,5.5243486E-1,-4.8863508E-2,5.8810246E-1,3.8022304E-1,-3.6734268E-2,-3.6709454E-2,4.9538013E-2,8.988815E-3,9.075238E-2],"split_indices":[0,15,4,0,10,9,0,0,0,0,0],"split_type":[0,0,0,0,0,0,0,0,0,0,0],"sum_hessian":[1.6030586E1,1.1134095E1,4.8964906E0,7.096614E0,4.037482E0,3.0591543E0,1.8373364E0,2.0252192E0,2.0122628E0,1.1816598E0,1.8774943E0],"tree_param":{"num_deleted":"0","num_feature":"16","num_nodes":"11","size_leaf_vector":"1"}},{"base_weights":[-9.8471595E-3,-4.607564E-2,2.0519824E-1,5.263207E-1,-9.097002E-2,6.8906707E-1,-3.595022E-4,-4.4234175E-2,2.3636928E-1,1.5462526E-3,9.099745E-2,-2.9831348E-2,4.9047878E-1,6.633119E-2,5.9311106E-3],"categories":[],"categories_nodes":[],"categories_segments":[],"categories_sizes":[],"default_left":[0,0,0,0,0,0,0,0,0,0,0,0,0,0,0],"id":83,"left_children":[1,-1,3,5,7,9,-1,-1,11,-1,-1,-1,13,-1,-1],"loss_changes":[1.9157215E0,0E0,1.3231261E0,5.7000625E-1,1.0049127E0,7.358551E-1,0E0,0E0,7.854825E-1,0E0,0E0,0E0,2.2647208E-1,0E0,0E0],"parents":[2147483647,0,0,2,2,3,3,4,4,5,5,8,8,12,12],"right_children":[2,-1,4,6,8,10,-1,-1,12,-1,-1,-1,14,-1,-1],"split_conditions":[4.005E-1,-4.607564E-2,6.45522E-1,3.8154987E-1,6.011775E-1,1.9199045E-1,-3.595022E-4,-4.4234175E-2,4.2091754E-1,1.5462526E-3,9.099745E-2,-2.9831348E-2,5.39174E-1,6.633119E-2,5.9311106E-3],"split_indices":[15,0,15,8,13,8,0,0,6,0,0,0,6,0,0],"split_type":[0,0,0,0,0,0,0,0,0,0,0,0,0,0,0],"sum_hessian":[1.7781593E1,5.3729467E0,1.2408647E1,5.580668E0,6.8279786E0,4.039679E0,1.5409889E0,3.123661E0,3.7043173E0,1.2618783E0,2.777801E0,1.1373062E0,2.567011E0,1.448124E0,1.1188871E0],"tree_param":{"num_deleted":"0","num_feature":"16","num_nodes":"15","size_leaf_vector":"1"}},{"base_weights":[5.0525986E-2,4.555141E-1,-2.073381E-1,6.455497E-1,-5.3266603E-3,-4.7033448E-2,1.931605E-1,7.502105E-2,1.066249E-2,-1.7902295E-1,6.49259E-2,1.4568216E-2,-3.6164362E-2],"categories":[],"categories_nodes":[],"categories_segments":[],"categories_sizes":[],"default_left":[0,0,0,0,0,0,0,0,0,0,0,0,0],"id":84,"left_children":[1,3,5,7,-1,-1,9,-1,-1,11,-1,-1,-1],"loss_changes":[2.0211937E0,7.585851E-1,1.3505542E0,2.3189831E-1,0E0,0E0,1.0412868E0,0E0,0E0,2.7710533E-1,0E0,0E0,0E0],"parents":[2147483647,0,0,1,1,2,2,3,3,6,6,9,9],"right_children":[2,4,6,8,-1,-1,10,-1,-1,12,-1,-1,-1],"split_conditions":[2.6428995E-1,6.160842E-1,7.026561E-1,5.8810246E-1,-5.3266603E-3,-4.7033448E-2,7.391186E-1,7.502105E-2,1.066249E-2,2.8062537E-1,6.49259E-2,1.4568216E-2,-3.6164362E-2],"split_indices":[9,8,1,10,0,0,4,0,0,14,0,0,0],"split_type":[0,0,0,0,0,0,0,0,0,0,0,0,0],"sum_hessian":[1.744981E1,6.4901786E0,1.0959631E1,4.5295286E0,1.9606497E0,6.510194E0,4.449437E0,3.4646354E0,1.0648935E0,2.784628E0,1.6648089E0,1.075185E0,1.7094431E0],"tree_param":{"num_deleted":"0","num_feature":"16","num_nodes":"13","size_leaf_vector":"1"}},{"base_weights":[-1.2827568E-1,4.7362816E-2,-2.5365198E-1,-4.012302E-1,9.463389E-2,1.5966566E-2,-4.872773E-2,5.497959E-2,-3.6855664E-2],"categories":[],"categories_nodes":[],"categories_segments":[],"categories_sizes":[],"default_left":[0,0,0,0,0,0,0,0,0],"id":85,"left_children":[1,-1,3,5,7,-1,-1,-1,-1],"loss_changes":[1.3272301E0,0E0,7.518704E-1,5.5784976E-1,1.2447168E0,0E0,0E0,0E0,0E0],"parents":[2147483647,0,0,2,2,3,3,4,4],"right_children":[2,-1,4,6,8,-1,-1,-1,-1],"split_conditions":[1.3978615E-1,4.7362816E-2,7.4930125E-1,1.0828412E-1,2.4863097E-1,1.5966566E-2,-4.872773E-2,5.497959E-2,-3.6855664E-2],"split_indices":[13,0,9,15,11,0,0,0,0],"split_type":[0,0,0,0,0,0,0,0,0],"sum_hessian":[1.4995519E1,2.106246E0,1.2889273E1,8.946418E0,3.9428551E0,1.0761298E0,7.870288E0,1.8943574E0,2.0484977E0],"tree_param":{"num_deleted":"0","num_feature":"16","num_nodes":"9","size_leaf_vector":"1"}},{"base_weights":[-6.745428E-2,-3.2978117E-1,3.4671572E-1,-4.7752883E-2,1.21276654E-1,6.075123E-1,-3.3530027E-2,5.3835966E-2,-3.2337923E-2,7.99037E-2,1.7262872E-2],