{"learner":{"attributes":{"scikit_learn":"{\"_estimator_type\": \"classifier\"}"},"feature_names":[],"feature_types":[],"gradient_booster":{"model":{"gbtree_model_param":{"num_parallel_tree":"1","num_trees":"700"},"iteration_indptr":[0,7,14,21,28,35,42,49,56,63,70,77,84,91,98,105,112,119,126,133,140,147,154,161,168,175,182,189,196,203,210,217,224,231,238,245,252,259,266,273,280,287,294,301,308,315,322,329,336,343,350,357,364,371,378,385,392,399,406,413,420,427,434,441,448,455,462,469,476,483,490,497,504,511,518,525,532,539,546,553,560,567,574,581,588,595,602,609,616,623,630,637,644,651,658,665,672,679,686,693,700],"tree_info":[0,1,2,3,4,5,6,0,1,2,3,4,5,6,0,1,2,3,4,5,6,0,1,2,3,4,5,6,0,1,2,3,4,5,6,0,1,2,3,4,5,6,0,1,2,3,4,5,6,0,1,2,3,4,5,6,0,1,2,3,4,5,6,0,1,2,3,4,5,6,0,1,2,3,4,5,6,0,1,2,3,4,5,6,0,1,2,3,4,5,6,0,1,2,3,4,5,6,0,1,2,3,4,5,6,0,1,2,3,4,5,6,0,1,2,3,4,5,6,0,1,2,3,4,5,6,0,1,2,3,4,5,6,0,1,2,3,4,5,6,0,1,2,3,4,5,6,0,1,2,3,4,5,6,0,1,2,3,4,5,6,0,1,2,3,4,5,6,0,1,2,3,4,5,6,0,1,2,3,4,5,6,0,1,2,3,4,5,6,0,1,2,3,4,5,6,0,1,2,3,4,5,6,0,1,2,3,4,5,6,0,1,2,3,4,5,6,0,1,2,3,4,5,6,0,1,2,3,4,5,6,0,1,2,3,4,5,6,0,1,2,3,4,5,6,0,1,2,3,4,5,6,0,1,2,3,4,5,6,0,1,2,3,4,5,6,0,1,2,3,4,5,6,0,1,2,3,4,5,6,0,1,2,3,4,5,6,0,1,2,3,4,5,6,0,1,2,3,4,5,6,0,1,2,3,4,5,6,0,1,2,3,4,5,6,0,1,2,3,4,5,6,0,1,2,3,4,5,6,0,1,2,3,4,5,6,0,1,2,3,4,5,6,0,1,2,3,4,5,6,0,1,2,3,4,5,6,0,1,2,3,4,5,6,0,1,2,3,4,5,6,0,1,2,3,4,5,6,0,1,2,3,4,5,6,0,1,2,3,4,5,6,0,1,2,3,4,5,6,0,1,2,3,4,5,6,0,1,2,3,4,5,6,0,1,2,3,4,5,6,0,1,2,3,4,5,6,0,1,2,3,4,5,6,0,1,2,3,4,5,6,0,1,2,3,4,5,6,0,1,2,3,4,5,6,0,1,2,3,4,5,6,0,1,2,3,4,5,6,0,1,2,3,4,5,6,0,1,2,3,4,5,6,0,1,2,3,4,5,6,0,1,2,3,4,5,6,0,1,2,3,4,5,6,0,1,2,3,4,5,6,0,1,2,3,4,5,6,0,1,2,3,4,5,6,0,1,2,3,4,5,6,0,1,2,3,4,5,6,0,1,2,3,4,5,6,0,1,2,3,4,5,6,0,1,2,3,4,5,6,0,1,2,3,4,5,6,0,1,2,3,4,5,6,0,1,2,3,4,5,6,0,1,2,3,4,5,6,0,1,2,3,4,5,6,0,1,2,3,4,5,6,0,1,2,3,4,5,6,0,1,2,3,4,5,6,0,1,2,3,4,5,6,0,1,2,3,4,5,6,0,1,2,3,4,5,6,0,1,2,3,4,5,6,0,1,2,3,4,5,6,0,1,2,3,4,5,6,0,1,2,3,4,5,6,0,1,2,3,4,5,6,0,1,2,3,4,5,6,0,1,2,3,4,5,6,0,1,2,3,4,5,6,0,1,2,3,4,5,6],"trees":[{"base_weights":[7.631316E-2,1.6153847E-1,-2.2047244E-1,4.980237E-1,-4.7007298E-1,-1.8134716E-1,1.4770642E-1,-5.376E-2,1.2844035E-2,1.2844035E-2,-3.6842104E-2],"categories":[],"categories_nodes":[],"categories_segments":[],"categories_sizes":[],"default_left":[0,0,0,0,0,0,0,0,0,0,0],"id":0,"left_children":[1,-1,3,5,7,9,-1,-1,-1,-1,-1],"loss_changes":[9.76197E0,0E0,3.4877934E0,3.7021124E0,6.3404584E-1,2.7558464E-1,0E0,0E0,0E0,0E0,0E0],"parents":[2147483647,0,0,2,2,3,3,4,4,5,5],"right_children":[2,-1,4,6,8,10,-1,-1,-1,-1,-1],"split_conditions":[1.408864E-1,1.6153847E-1,2.318223E-1,6.887937E-1,8.6127853E-1,3.0405405E-1,1.4770642E-1,-5.376E-2,1.2844035E-2,1.2844035E-2,-3.6842104E-2],"split_indices":[9,0,25,15,4,0,0,0,0,0,0],"split_type":[0,0,0,0,0,0,0,0,0,0,0],"sum_hessian":[1.9591839E1,2.4489799E0,1.7142859E1,4.1632657E0,1.2979592E1,2.9387758E0,1.2244899E0,1.1755103E1,1.2244899E0,1.2244899E0,1.7142859E0],"tree_param":{"num_deleted":"0","num_feature":"61","num_nodes":"11","size_leaf_vector":"1"}},{"base_weights":[-2.1506442E-1,-3.466807E-1,1.0275229E-1,-4.8974666E-1,4.5562127E-1,1.2844035E-2,-5.4616388E-2,1.0275229E-1,-3.211009E-2],"categories":[],"categories_nodes":[],"categories_segments":[],"categories_sizes":[],"default_left":[0,0,0,0,0,0,0,0,0],"id":1,"left_children":[1,3,-1,5,7,-1,-1,-1,-1],"loss_changes":[3.723909E0,2.4461637E0,0E0,6.602011E-1,1.8620052E0,0E0,0E0,0E0,0E0],"parents":[2147483647,0,0,1,1,3,3,4,4],"right_children":[2,4,-1,6,8,-1,-1,-1,-1],"split_conditions":[9.541935E-1,9.055273E-1,1.0275229E-1,1.4360459E-1,3.434923E-1,1.2844035E-2,-5.4616388E-2,1.0275229E-1,-3.211009E-2],"split_indices":[20,28,0,13,17,0,0,0,0],"split_type":[0,0,0,0,0,0,0,0,0],"sum_hessian":[1.9591839E1,1.8367348E1,1.2244899E0,1.5918368E1,2.4489799E0,1.2244899E0,1.4693878E1,1.2244899E0,1.2244899E0],"tree_param":{"num_deleted":"0","num_feature":"61","num_nodes":"9","size_leaf_vector":"1"}},{"base_weights":[-1.1793856E-1,-4.187256E-1,7.024221E-1,-5.4301836E-2,5.7798166E-2,1.6153847E-1,-4.1420117E-2],"categories":[],"categories_nodes":[],"categories_segments":[],"categories_sizes":[],"default_left":[0,0,0,0,0,0,0],"id":2,"left_children":[1,3,5,-1,-1,-1,-1],"loss_changes":[5.375238E0,2.2580662E0,6.6816816E0,0E0,0E0,0E0,0E0],"parents":[2147483647,0,0,1,1,2,2],"right_children":[2,4,6,-1,-1,-1,-1],"split_conditions":[8.2677853E-1,9.1348875E-1,6.575002E-1,-5.4301836E-2,5.7798166E-2,1.6153847E-1,-4.1420117E-2],"split_indices":[11,34,7,0,0,0,0],"split_type":[0,0,0,0,0,0,0],"sum_hessian":[1.9591839E1,1.4693878E1,4.8979597E0,1.3469389E1,1.2244899E0,2.4489799E0,2.4489799E0],"tree_param":{"num_deleted":"0","num_feature":"61","num_nodes":"7","size_leaf_vector":"1"}},{"base_weights":[2.2200195E-1,-6.2153175E-2,1.7834394E-1,1.1592356E-1,-3.001261E-1,-5.376E-2,4.5161286E-1,1.2727273E-1,-3.862069E-2],"categories":[],"categories_nodes":[],"categories_segments":[],"categories_sizes":[],"default_left":[0,0,0,0,0,0,0,0,0],"id":3,"left_children":[1,3,-1,-1,5,-1,7,-1,-1],"loss_changes":[9.247249E0,5.692456E0,0E0,0E0,3.1318703E0,0E0,3.5381536E0,0E0,0E0],"parents":[2147483647,0,0,1,1,4,4,6,6],"right_children":[2,4,-1,-1,6,-1,8,-1,-1],"split_conditions":[8.638554E-1,2.2833532E-1,1.7834394E-1,1.1592356E-1,8.0720717E-1,-5.376E-2,7.126578E-1,1.2727273E-1,-3.862069E-2],"split_indices":[44,20,0,0,9,0,5,0,0],"split_type":[0,0,0,0,0,0,0,0,0],"sum_hessian":[1.9591839E1,1.7387756E1,2.2040818E0,2.2040818E0,1.5183675E1,1.1755103E1,3.4285717E0,1.4693879E0,1.9591838E0],"tree_param":{"num_deleted":"0","num_feature":"61","num_nodes":"9","size_leaf_vector":"1"}},{"base_weights":[1.7343903E-1,5.946902E-1,-3.26572E-1,1.4696132E0,1.6166279E-1,3.6842104E-2,-5.134474E-2,2.0826446E-1,1.2844035E-2,-3.255814E-1,9.2817676E-1,-4.647303E-2,1.2844035E-2,1.6776858E-1,-3.211009E-2],"categories":[],"categories_nodes":[],"categories_segments":[],"categories_sizes":[],"default_left":[0,0,0,0,0,0,0,0,0,0,0,0,0,0,0],"id":4,"left_children":[1,3,5,7,9,-1,-1,-1,-1,11,13,-1,-1,-1,-1],"loss_changes":[4.5314736E0,4.130971E0,1.4958878E0,2.7695408E0,3.6025364E0,0E0,0E0,0E0,0E0,4.477752E-1,3.9974506E0,0E0,0E0,0E0,0E0],"parents":[2147483647,0,0,1,1,2,2,3,3,4,4,9,9,10,10],"right_children":[2,4,6,8,10,-1,-1,-1,-1,12,14,-1,-1,-1,-1],"split_conditions":[5.8090526E-1,3.378112E-1,2.248987E-1,7.7049106E-1,6.0019684E-1,3.6842104E-2,-5.134474E-2,2.0826446E-1,1.2844035E-2,7.066058E-1,4.5972598E-1,-4.647303E-2,1.2844035E-2,1.6776858E-1,-3.211009E-2],"split_indices":[47,43,37,56,8,0,0,0,0,1,11,0,0,0,0],"split_type":[0,0,0,0,0,0,0,0,0,0,0,0,0,0,0],"sum_hessian":[1.9591839E1,1.0530613E1,9.061225E0,2.6938777E0,7.8367352E0,1.7142859E0,7.346939E0,1.4693879E0,1.2244899E0,5.1428576E0,2.6938777E0,3.9183676E0,1.2244899E0,1.4693879E0,1.2244899E0],"tree_param":{"num_deleted":"0","num_feature":"61","num_nodes":"15","size_leaf_vector":"1"}},{"base_weights":[-1.6650149E-1,1.2727273E-1,-3.4364995E-1,6.275862E-2,-4.9108204E-1,1.2844035E-2,-5.4673493E-2],"categories":[],"categories_nodes":[],"categories_segments":[],"categories_sizes":[],"default_left":[0,0,0,0,0,0,0],"id":5,"left_children":[1,-1,3,-1,5,-1,-1],"loss_changes":[5.687409E0,0E0,3.0463662E0,0E0,6.6198206E-1,0E0,0E0],"parents":[2147483647,0,0,2,2,4,4],"right_children":[2,-1,4,-1,6,-1,-1],"split_conditions":[9.485185E-2,1.2727273E-1,2.3682559E-1,6.275862E-2,1.2993611E-1,1.2844035E-2,-5.4673493E-2],"split_indices":[48,0,38,0,19,0,0],"split_type":[0,0,0,0,0,0,0],"sum_hessian":[1.9591839E1,1.4693879E0,1.812245E1,1.9591838E0,1.6163267E1,1.2244899E0,1.4938777E1],"tree_param":{"num_deleted":"0","num_feature":"61","num_nodes":"7","size_leaf_vector":"1"}},{"base_weights":[2.775023E-2,-3.3568406E-1,7.621776E-1,-5.376E-2,7.368421E-2,1.8421052E-1,7.924526E-2,-4.4390243E-2,1.0275229E-1],"categories":[],"categories_nodes":[],"categories_segments":[],"categories_sizes":[],"default_left":[0,0,0,0,0,0,0,0,0],"id":6,"left_children":[1,3,5,-1,-1,-1,7,-1,-1],"loss_changes":[5.752144E0,3.5296187E0,5.106952E0,0E0,0E0,0E0,3.1390517E0,0E0,0E0],"parents":[2147483647,0,0,1,1,2,2,6,6],"right_children":[2,4,6,-1,-1,-1,8,-1,-1],"split_conditions":[6.9829226E-1,8.966666E-1,7.522408E-1,-5.376E-2,7.368421E-2,1.8421052E-1,6.5047276E-1,-4.4390243E-2,1.0275229E-1],"split_indices":[37,55,37,0,0,0,14,0,0],"split_type":[0,0,0,0,0,0,0,0,0],"sum_hessian":[1.9591839E1,1.3469389E1,6.1224494E0,1.1755103E1,1.7142859E0,1.7142859E0,4.4081635E0,3.1836736E0,1.2244899E0],"tree_param":{"num_deleted":"0","num_feature":"61","num_nodes":"9","size_leaf_vector":"1"}},{"base_weights":[7.200508E-2,1.4066736E0,-2.1436082E-1,1.8698387E-1,1.563165E-2,4.6428877E-1,-4.637061E-1,-1.795868E-1,1.3293234E-1,1.4239597E-2,-5.331979E-2,2.0527082E-2,-3.8216196E-2],"categories":[],"categories_nodes":[],"categories_segments":[],"categories_sizes":[],"default_left":[0,0,0,0,0,0,0,0,0,0,0,0,0],"id":7,"left_children":[1,3,5,-1,-1,7,9,11,-1,-1,-1,-1,-1],"loss_changes":[8.20801E0,1.9006433E0,3.2442818E0,0E0,0E0,3.1958504E0,6.4835095E-1,3.8442612E-1,0E0,0E0,0E0,0E0,0E0],"parents":[2147483647,0,0,1,1,2,2,5,5,6,6,7,7],"right_children":[2,4,6,-1,-1,8,10,12,-1,-1,-1,-1,-1],"split_conditions":[1.408864E-1,5.8810246E-1,2.318223E-1,1.8698387E-1,1.563165E-2,6.887937E-1,1.4491208E-1,2.530199E-1,1.3293234E-1,1.4239597E-2,-5.331979E-2,2.0527082E-2,-3.8216196E-2],"split_indices":[9,10,25,0,0,15,57,0,0,0,0,0,0],"split_type":[0,0,0,0,0,0,0,0,0,0,0,0,0],"sum_hessian":[1.9686554E1,2.7866468E0,1.6899908E1,1.6718906E0,1.1147563E0,4.3092575E0,1.259065E1,2.9246964E0,1.3845611E0,1.1871665E0,1.1403483E1,1.0039874E0,1.920709E0],"tree_param":{"num_deleted":"0","num_feature":"61","num_nodes":"13","size_leaf_vector":"1"}},{"base_weights":[-2.0766951E-1,-3.7926665E-1,7.18825E-1,1.4683017E-1,-5.3830683E-2,5.638092E-3,1.1698555E-1,9.768528E-2,-4.1963443E-2],"categories":[],"categories_nodes":[],"categories_segments":[],"categories_sizes":[],"default_left":[0,0,0,0,0,0,0,0,0],"id":8,"left_children":[1,3,5,7,-1,-1,-1,-1,-1],"loss_changes":[3.494755E0,1.5645714E0,9.835113E-1,2.7171037E0,0E0,0E0,0E0,0E0,0E0],"parents":[2147483647,0,0,1,1,2,2,3,3],"right_children":[2,4,6,8,-1,-1,-1,-1,-1],"split_conditions":[8.659257E-1,3.4597632E-1,4.399227E-1,2.593184E-1,-5.3830683E-2,5.638092E-3,1.1698555E-1,9.768528E-2,-4.1963443E-2],"split_indices":[56,42,14,34,0,0,0,0,0],"split_type":[0,0,0,0,0,0,0,0,0],"sum_hessian":[1.9267025E1,1.675454E1,2.5124848E0,3.9070363E0,1.2847504E1,1.4734228E0,1.039062E0,1.2909603E0,2.616076E0],"tree_param":{"num_deleted":"0","num_feature":"61","num_nodes":"9","size_leaf_vector":"1"}},{"base_weights":[-1.1449504E-1,-2.86499E-1,1.19079106E-1,-4.8219854E-1,6.086788E-1,2.007299E-2,-5.4157395E-2,-3.6749557E-2,1.5651233E-1],"categories":[],"categories_nodes":[],"categories_segments":[],"categories_sizes":[],"default_left":[0,0,0,0,0,0,0,0,0],"id":9,"left_children":[1,3,-1,5,7,-1,-1,-1,-1],"loss_changes":[4.932252E0,3.5999866E0,0E0,7.593677E-1,4.1491966E0,0E0,0E0,0E0,0E0],"parents":[2147483647,0,0,1,1,3,3,4,4],"right_children":[2,4,-1,6,8,-1,-1,-1,-1],"split_conditions":[9.397287E-1,7.7557594E-1,1.19079106E-1,1.0384825E-1,8.339144E-1,2.007299E-2,-5.4157395E-2,-3.6749557E-2,1.5651233E-1],"split_indices":[48,10,0,19,11,0,0,0,0],"split_type":[0,0,0,0,0,0,0,0,0],"sum_hessian":[1.944899E1,1.7874136E1,1.574854E0,1.5046155E1,2.827982E0,1.0130845E0,1.403307E1,1.7042971E0,1.1236849E0],"tree_param":{"num_deleted":"0","num_feature":"61","num_nodes":"9","size_leaf_vector":"1"}},{"base_weights":[2.0863038E-1,-6.067744E-2,1.5427385E-1,1.0368949E0,-2.9342625E-1,8.448172E-3,1.6124752E-1,-5.3272344E-2,4.2423576E-1,1.2045993E-1,-3.8851764E-2],"categories":[],"categories_nodes":[],"categories_segments":[],"categories_sizes":[],"default_left":[0,0,0,0,0,0,0,0,0,0,0],"id":10,"left_children":[1,3,-1,5,7,-1,-1,-1,9,-1,-1],"loss_changes":[7.5930357E0,4.9866767E0,0E0,1.7426622E0,2.9569294E0,0E0,0E0,0E0,3.3431258E0,0E0,0E0],"parents":[2147483647,0,0,1,1,3,3,4,4,8,8],"right_children":[2,4,-1,6,8,-1,-1,-1,10,-1,-1],"split_conditions":[8.638554E-1,2.2833532E-1,1.5427385E-1,5.9420425E-1,8.0720717E-1,8.448172E-3,1.6124752E-1,-5.3272344E-2,5.3860116E-1,1.2045993E-1,-3.8851764E-2],"split_indices":[44,20,0,7,9,0,0,0,48,0,0],"split_type":[0,0,0,0,0,0,0,0,0,0,0],"sum_hessian":[1.9873152E1,1.732948E1,2.5436723E0,2.427436E0,1.4902043E1,1.3463712E0,1.0810649E0,1.1368896E1,3.533148E0,1.5565288E0,1.9766192E0],"tree_param":{"num_deleted":"0","num_feature":"61","num_nodes":"11","size_leaf_vector":"1"}},{"base_weights":[1.6367593E-1,-1.783057E-1,7.280676E-1,-5.2108463E-2,5.0445044E-1,1.354401E0,-1.9742358E-1,1.1710134E0,-3.843781E-2,-3.1516876E-2,1.9703737E-1,1.4196031E-2,-3.833748E-2,1.8856388E-2,1.5624668E-1],"categories":[],"categories_nodes":[],"categories_segments":[],"categories_sizes":[],"default_left":[0,0,0,0,0,0,0,0,0,0,0,0,0,0,0],"id":11,"left_children":[1,3,5,-1,7,9,11,13,-1,-1,-1,-1,-1,-1,-1],"loss_changes":[4.145098E0,3.4825516E0,4.931369E0,0E0,3.47546E0,5.6866903E0,3.1444657E-1,9.226532E-1,0E0,0E0,0E0,0E0,0E0,0E0,0E0],"parents":[2147483647,0,0,1,1,2,2,4,4,5,5,6,6,7,7],"right_children":[2,4,6,-1,8,10,12,14,-1,-1,-1,-1,-1,-1,-1],"split_conditions":[6.271656E-1,7.1849996E-1,4.3491533E-1,-5.2108463E-2,5.346824E-1,1.5840156E-1,5.70383E-1,5.89885E-1,-3.843781E-2,-3.1516876E-2,1.9703737E-1,1.4196031E-2,-3.833748E-2,1.8856388E-2,1.5624668E-1],"split_indices":[19,8,55,0,56,53,36,49,0,0,0,0,0,0,0],"split_type":[0,0,0,0,0,0,0,0,0,0,0,0,0,0,0],"sum_hessian":[1.980331E1,1.2757337E1,7.0459743E0,8.65092E0,4.1064167E0,3.9257512E0,3.120223E0,2.1651886E0,1.9412283E0,1.1896342E0,2.736117E0,1.1881945E0,1.9320287E0,1.0390748E0,1.1261138E0],"tree_param":{"num_deleted":"0","num_feature":"61","num_nodes":"15","size_leaf_vector":"1"}},{"base_weights":[-1.6019408E-1,1.15187265E-1,-3.360026E-1,5.841251E-1,-4.848561E-1,1.177062E-1,-2.98449E-2,1.4282062E-2,-5.4223336E-2],"categories":[],"categories_nodes":[],"categories_segments":[],"categories_sizes":[],"default_left":[0,0,0,0,0,0,0,0,0],"id":12,"left_children":[1,-1,3,5,7,-1,-1,-1,-1],"loss_changes":[5.078165E0,0E0,2.8455343E0,1.9518971E0,6.770563E-1,0E0,0E0,0E0,0E0],"parents":[2147483647,0,0,2,2,3,3,4,4],"right_children":[2,-1,4,6,8,-1,-1,-1,-1],"split_conditions":[9.485185E-2,1.15187265E-1,2.3682559E-1,6.1376333E-1,4.0874362E-2,1.177062E-1,-2.98449E-2,1.4282062E-2,-5.4223336E-2],"split_indices":[48,0,38,21,21,0,0,0,0],"split_type":[0,0,0,0,0,0,0,0,0],"sum_hessian":[1.9336767E1,1.6288357E0,1.7707932E1,2.058611E0,1.5649322E1,1.0317705E0,1.0268403E0,1.1859964E0,1.44633255E1],"tree_param":{"num_deleted":"0","num_feature":"61","num_nodes":"9","size_leaf_vector":"1"}},{"base_weights":[2.713578E-2,-3.2833165E-1,7.026864E-1,-5.3230662E-2,6.7483515E-2,-1.8556997E-1,1.3361559E0,-3.8722616E-2,2.0590195E-2,1.780913E-1,1.1543422E-2],"categories":[],"categories_nodes":[],"categories_segments":[],"categories_sizes":[],"default_left":[0,0,0,0,0,0,0,0,0,0,0],"id":13,"left_children":[1,3,5,-1,-1,7,9,-1,-1,-1,-1],"loss_changes":[5.1746163E0,3.2589617E0,4.421155E0,0E0,0E0,3.9277542E-1,2.2110577E0,0E0,0E0,0E0,0E0],"parents":[2147483647,0,0,1,1,2,2,5,5,6,6],"right_children":[2,4,6,-1,-1,8,10,-1,-1,-1,-1],"split_conditions":[6.9829226E-1,8.966666E-1,3.8872865E-1,-5.3230662E-2,6.7483515E-2,6.782392E-1,7.533169E-1,-3.8722616E-2,2.0590195E-2,1.780913E-1,1.1543422E-2],"split_indices":[37,55,25,0,0,49,47,0,0,0,0],"split_type":[0,0,0,0,0,0,0,0,0,0,0],"sum_hessian":[1.9587904E1,1.3171292E1,6.416612E0,1.1335754E1,1.8355372E0,2.9654667E0,3.4511452E0,1.9644032E0,1.0010636E0,2.193181E0,1.2579641E0],"tree_param":{"num_deleted":"0","num_feature":"61","num_nodes":"11","size_leaf_vector":"1"}},{"base_weights":[6.9568306E-2,1.2657529E0,-2.0858827E-1,1.6663979E-1,1.3963612E-2,4.3510538E-1,-4.574924E-1,9.869694E-1,-3.8152557E-2,1.52219115E-2,-5.288387E-2,-2.9686918E-2,1.6249818E-1],"categories":[],"categories_nodes":[],"categories_segments":[],"categories_sizes":[],"default_left":[0,0,0,0,0,0,0,0,0,0,0,0,0],"id":14,"left_children":[1,3,5,-1,-1,7,9,11,-1,-1,-1,-1,-1],"loss_changes":[7.150881E0,1.5929899E0,3.027184E0,0E0,0E0,2.8258476E0,6.5544534E-1,3.367238E0,0E0,0E0,0E0,0E0,0E0],"parents":[2147483647,0,0,1,1,2,2,5,5,6,6,7,7],"right_children":[2,4,6,-1,-1,8,10,12,-1,-1,-1,-1,-1],"split_conditions":[1.408864E-1,7.551612E-1,2.318223E-1,1.6663979E-1,1.3963612E-2,6.422592E-1,1.455274E-1,4.6587947E-1,-3.8152557E-2,1.52219115E-2,-5.288387E-2,-2.9686918E-2,1.6249818E-1],"split_indices":[9,42,25,0,0,43,28,51,0,0,0,0,0],"split_type":[0,0,0,0,0,0,0,0,0,0,0,0,0],"sum_hessian":[1.9698254E1,3.046515E0,1.665174E1,1.8931904E0,1.1533247E0,4.434792E0,1.2216947E1,2.521931E0,1.912861E0,1.1610779E0,1.1055869E1,1.0147333E0,1.5071976E0],"tree_param":{"num_deleted":"0","num_feature":"61","num_nodes":"13","size_leaf_vector":"1"}},{"base_weights":[-2.0063977E-1,-3.718019E-1,6.698331E-1,1.4078145E-1,-5.33184E-2,4.148343E-3,1.10241055E-1,8.99984E-2,-4.137445E-2],"categories":[],"categories_nodes":[],"categories_segments":[],"categories_sizes":[],"default_left":[0,0,0,0,0,0,0,0,0],"id":15,"left_children":[1,3,5,7,-1,-1,-1,-1,-1],"loss_changes":[3.22048E0,1.5069356E0,9.420481E-1,2.4503665E0,0E0,0E0,0E0,0E0,0E0],"parents":[2147483647,0,0,1,1,2,2,3,3],"right_children":[2,4,6,8,-1,-1,-1,-1,-1],"split_conditions":[8.659257E-1,3.4597632E-1,8.867177E-1,2.593184E-1,-5.33184E-2,4.148343E-3,1.10241055E-1,8.99984E-2,-4.137445E-2],"split_indices":[56,42,28,34,0,0,0,0,0],"split_type":[0,0,0,0,0,0,0,0,0],"sum_hessian":[1.8943588E1,1.6309505E1,2.634084E0,3.9359035E0,1.2373602E1,1.5208455E0,1.1132386E0,1.3983883E0,2.5375152E0],"tree_param":{"num_deleted":"0","num_feature":"61","num_nodes":"9","size_leaf_vector":"1"}},{"base_weights":[-1.0919022E-1,-4.0428275E-1,6.012521E-1,-5.3343542E-2,5.2699E-2,1.29108E0,-4.0512335E-2,1.542413E-2,1.678831E-1],"categories":[],"categories_nodes":[],"categories_segments":[],"categories_sizes":[],"default_left":[0,0,0,0,0,0,0,0,0],"id":16,"left_children":[1,3,5,-1,-1,7,-1,-1,-1],"loss_changes":[4.4804816E0,2.0706446E0,4.9200573E0,0E0,0E0,1.5028348E0,0E0,0E0,0E0],"parents":[2147483647,0,0,1,1,2,2,5,5],"right_children":[2,4,6,-1,-1,8,-1,-1,-1],"split_conditions":[8.2677853E-1,9.1348875E-1,6.575002E-1,-5.3343542E-2,5.2699E-2,2.7803332E-1,-4.0512335E-2,1.542413E-2,1.678831E-1],"split_indices":[11,34,7,0,0,29,0,0,0],"split_type":[0,0,0,0,0,0,0,0,0],"sum_hessian":[1.9212173E1,1.3878485E1,5.3336883E0,1.2563347E1,1.315138E0,2.9966855E0,2.3370028E0,1.1176517E0,1.8790339E0],"tree_param":{"num_deleted":"0","num_feature":"61","num_nodes":"9","size_leaf_vector":"1"}},{"base_weights":[1.9772285E-1,-5.8255225E-2,1.3585274E-1,9.512967E-1,-2.8706995E-1,6.6231475E-3,1.4833616E-1,-5.277599E-2,3.9433423E-1,1.0869727E-1,-3.835147E-2],"categories":[],"categories_nodes":[],"categories_segments":[],"categories_sizes":[],"default_left":[0,0,0,0,0,0,0,0,0,0,0],"id":17,"left_children":[1,3,-1,5,7,-1,-1,-1,9,-1,-1],"loss_changes":[6.3387394E0,4.481653E0,0E0,1.5961616E0,2.7700248E0,0E0,0E0,0E0,2.9220097E0,0E0,0E0],"parents":[2147483647,0,0,1,1,3,3,4,4,8,8],"right_children":[2,4,-1,6,8,-1,-1,-1,10,-1,-1],"split_conditions":[8.638554E-1,2.2833532E-1,1.3585274E-1,4.631726E-1,8.0720717E-1,6.6231475E-3,1.4833616E-1,-5.277599E-2,5.3860116E-1,1.0869727E-1,-3.835147E-2],"split_indices":[44,20,0,15,9,0,0,0,48,0,0],"split_type":[0,0,0,0,0,0,0,0,0,0,0],"sum_hessian":[2.006612E1,1.7218866E1,2.8472521E0,2.5981388E0,1.46207285E1,1.3976661E0,1.2004728E0,1.0970973E1,3.6497555E0,1.7204055E0,1.92935E0],"tree_param":{"num_deleted":"0","num_feature":"61","num_nodes":"11","size_leaf_vector":"1"}},{"base_weights":[1.5160899E-1,5.127664E-1,-3.1651154E-1,1.1812544E0,1.4145775E-1,3.304441E-2,-5.0517928E-2,1.5964621E-1,1.1316764E-2,-3.1436643E-1,7.7415025E-1,2.054253E-2,-4.6094876E-2,1.3294794E-1,-3.1384535E-2],"categories":[],"categories_nodes":[],"categories_segments":[],"categories_sizes":[],"default_left":[0,0,0,0,0,0,0,0,0,0,0,0,0,0,0],"id":18,"left_children":[1,3,5,7,9,-1,-1,-1,-1,11,13,-1,-1,-1,-1],"loss_changes":[3.717484E0,2.8740578E0,1.3602393E0,1.6992989E0,2.8426678E0,0E0,0E0,0E0,0E0,5.4802734E-1,2.8721192E0,0E0,0E0,0E0,0E0],"parents":[2147483647,0,0,1,1,2,2,3,3,4,4,9,9,10,10],"right_children":[2,4,6,8,10,-1,-1,-1,-1,12,14,-1,-1,-1,-1],"split_conditions":[5.8090526E-1,3.378112E-1,2.248987E-1,7.7049106E-1,6.0019684E-1,3.304441E-2,-5.0517928E-2,1.5964621E-1,1.1316764E-2,1.3605219E-1,4.5972598E-1,2.054253E-2,-4.6094876E-2,1.3294794E-1,-3.1384535E-2],"split_indices":[47,43,37,56,8,0,0,0,0,21,11,0,0,0,0],"split_type":[0,0,0,0,0,0,0,0,0,0,0,0,0,0,0],"sum_hessian":[2.0028498E1,1.1252083E1,8.776414E0,3.2391434E0,8.012939E0,1.8118804E0,6.9645333E0,1.9762163E0,1.2629272E0,4.949904E0,3.0630357E0,1.0005271E0,3.9493768E0,1.880995E0,1.1820407E0],"tree_param":{"num_deleted":"0","num_feature":"61","num_nodes":"15","size_leaf_vector":"1"}},{"base_weights":[-1.5381575E-1,1.0466607E-1,-3.281201E-1,5.5106467E-1,-4.7863886E-1,1.0992622E-1,-2.9687984E-2,-5.3757668E-2,1.4773804E-2],"categories":[],"categories_nodes":[],"categories_segments":[],"categories_sizes":[],"default_left":[0,0,0,0,0,0,0,0,0],"id":19,"left_children":[1,-1,3,5,7,-1,-1,-1,-1],"loss_changes":[4.5403233E0,0E0,2.682209E0,1.7842133E0,6.752324E-1,0E0,0E0,0E0,0E0],"parents":[2147483647,0,0,2,2,3,3,4,4],"right_children":[2,-1,4,6,8,-1,-1,-1,-1],"split_conditions":[9.485185E-2,1.0466607E-1,2.3682559E-1,5.392419E-1,8.6590034E-1,1.0992622E-1,-2.9687984E-2,-5.3757668E-2,1.4773804E-2],"split_indices":[48,0,38,49,36,0,0,0,0],"split_type":[0,0,0,0,0,0,0,0,0],"sum_hessian":[1.9057001E1,1.7816383E0,1.7275364E1,2.1362655E0,1.5139098E1,1.1174487E0,1.0188168E0,1.3966694E1,1.172404E0],"tree_param":{"num_deleted":"0","num_feature":"61","num_nodes":"9","size_leaf_vector":"1"}},{"base_weights":[2.4270918E-2,-5.173065E-2,4.2849275E-1,-3.103044E-1,9.5343226E-1,1.9350072E-2,-4.5668956E-2,1.3854495E0,-3.599514E-2,-3.1445052E-2,1.8876538E-1],"categories":[],"categories_nodes":[],"categories_segments":[],"categories_sizes":[],"default_left":[0,0,0,0,0,0,0,0,0,0,0],"id":20,"left_children":[1,-1,3,5,7,-1,-1,9,-1,-1,-1],"loss_changes":[4.7335773E0,0E0,5.0849295E0,5.223046E-1,4.7341933E0,0E0,0E0,5.564888E0,0E0,0E0,0E0],"parents":[2147483647,0,0,2,2,3,3,4,4,7,7],"right_children":[2,-1,4,6,8,-1,-1,10,-1,-1,-1],"split_conditions":[4.005E-1,-5.173065E-2,4.9590704E-1,1.946801E-1,7.425338E-1,1.9350072E-2,-4.5668956E-2,1.15117E-1,-3.599514E-2,-3.1445052E-2,1.8876538E-1],"split_indices":[15,0,37,10,20,0,0,10,0,0,0],"split_type":[0,0,0,0,0,0,0,0,0,0,0],"sum_hessian":[1.9610123E1,8.261537E0,1.1348586E1,4.8838944E0,6.464692E0,1.0271056E0,3.8567886E0,4.8232784E0,1.6414132E0,1.185241E0,3.6380377E0],"tree_param":{"num_deleted":"0","num_feature":"61","num_nodes":"11","size_leaf_vector":"1"}},{"base_weights":[6.744686E-2,1.1441402E0,-2.0253976E-1,1.4971112E-1,1.2294783E-2,-4.528341E-1,4.0568787E-1,1.9410646E-2,-5.2524038E-2,-4.032151E-2,1.0969944E0,1.4301288E-1,1.8757235E-2],"categories":[],"categories_nodes":[],"categories_segments":[],"categories_sizes":[],"default_left":[0,0,0,0,0,0,0,0,0,0,0,0,0],"id":21,"left_children":[1,3,5,-1,-1,7,9,-1,-1,-1,11,-1,-1],"loss_changes":[6.2356176E0,1.3626728E0,2.826919E0,0E0,0E0,7.0028305E-1,3.567896E0,0E0,0E0,0E0,7.262192E-1,0E0,0E0],"parents":[2147483647,0,0,1,1,2,2,5,5,6,6,10,10],"right_children":[2,4,6,-1,-1,8,10,-1,-1,-1,12,-1,-1],"split_conditions":[1.408864E-1,5.8810246E-1,7.026561E-1,1.4971112E-1,1.2294783E-2,1.2979418E-1,5.892025E-1,1.9410646E-2,-5.2524038E-2,-4.032151E-2,3.775285E-1,1.4301288E-1,1.8757235E-2],"split_indices":[9,10,1,0,0,57,47,0,0,0,23,0,0],"split_type":[0,0,0,0,0,0,0,0,0,0,0,0,0],"sum_hessian":[1.9653708E1,3.291119E0,1.6362589E1,2.0994205E0,1.1916986E0,1.1773225E1,4.5893636E0,1.0158595E0,1.0757365E1,2.3068435E0,2.2825203E0,1.2515066E0,1.0310137E0],"tree_param":{"num_deleted":"0","num_feature":"61","num_nodes":"13","size_leaf_vector":"1"}},{"base_weights":[-1.9312987E-1,-3.253204E-1,8.685455E-2,-4.2546934E-1,6.644809E-2,-5.3861976E-2,6.562908E-2],"categories":[],"categories_nodes":[],"categories_segments":[],"categories_sizes":[],"default_left":[0,0,0,0,0,0,0],"id":22,"left_children":[1,3,-1,5,-1,-1,-1],"loss_changes":[3.0307348E0,2.0810025E0,0E0,2.4445875E0,0E0,0E0,0E0],"parents":[2147483647,0,0,1,1,3,3],"right_children":[2,4,-1,6,-1,-1,-1],"split_conditions":[9.541935E-1,9.412554E-1,8.685455E-2,9.1060776E-1,6.644809E-2,-5.3861976E-2,6.562908E-2],"split_indices":[20,49,0,57,0,0,0],"split_type":[0,0,0,0,0,0,0],"sum_hessian":[1.858182E1,1.7141132E1,1.4406855E0,1.6083897E1,1.057236E0,1.50154E1,1.0684977E0],"tree_param":{"num_deleted":"0","num_feature":"61","num_nodes":"7","size_leaf_vector":"1"}},{"base_weights":[-1.0480033E-1,-3.966727E-1,5.590045E-1,-5.2817594E-2,4.9085166E-2,1.1607046E0,-3.983767E-2,1.4906298E-1,1.4137558E-2],"categories":[],"categories_nodes":[],"categories_segments":[],"categories_sizes":[],"default_left":[0,0,0,0,0,0,0,0,0],"id":23,"left_children":[1,3,5,-1,-1,7,-1,-1,-1],"loss_changes":[4.088636E0,1.9455116E0,4.212863E0,0E0,0E0,1.2197094E0,0E0,0E0,0E0],"parents":[2147483647,0,0,1,1,2,2,5,5],"right_children":[2,4,6,-1,-1,8,-1,-1,-1],"split_conditions":[8.2677853E-1,9.1348875E-1,6.575002E-1,-5.2817594E-2,4.9085166E-2,7.8715175E-1,-3.983767E-2,1.4906298E-1,1.4137558E-2],"split_indices":[11,34,7,0,0,58,0,0,0],"split_type":[0,0,0,0,0,0,0,0,0],"sum_hessian":[1.8958546E1,1.3447957E1,5.510588E0,1.2065166E1,1.3827909E0,3.253461E0,2.2571273E0,2.1086068E0,1.144854E0],"tree_param":{"num_deleted":"0","num_feature":"61","num_nodes":"9","size_leaf_vector":"1"}},{"base_weights":[1.8813469E-1,-5.433998E-2,1.1974201E0,8.799256E-1,-2.7986497E-1,1.4802264E-1,1.6970506E-2,1.3684745E-1,5.3262436E-3,-5.226341E-2,3.7257597E-1,1.01527415E-1,-3.8154833E-2],"categories":[],"categories_nodes":[],"categories_segments":[],"categories_sizes":[],"default_left":[0,0,0,0,0,0,0,0,0,0,0,0,0],"id":24,"left_children":[1,3,5,7,9,-1,-1,-1,-1,-1,11,-1,-1],"loss_changes":[5.249554E0,4.0468264E0,9.5411825E-1,1.4411271E0,2.6163802E0,0E0,0E0,0E0,0E0,0E0,2.6798759E0,0E0,0E0],"parents":[2147483647,0,0,1,1,2,2,3,3,4,4,10,10],"right_children":[2,4,6,8,10,-1,-1,-1,-1,-1,12,-1,-1],"split_conditions":[8.638554E-1,2.2833532E-1,6.501199E-1,3.0595195E-1,8.0720717E-1,1.4802264E-1,1.6970506E-2,1.3684745E-1,5.3262436E-3,-5.226341E-2,7.126578E-1,1.01527415E-1,-3.8154833E-2],"split_indices":[44,20,3,12,9,0,0,0,0,0,5,0,0],"split_type":[0,0,0,0,0,0,0,0,0,0,0,0,0],"sum_hessian":[2.018485E1,1.7037786E1,3.1470644E0,2.7488117E0,1.4288976E1,2.1226473E0,1.0244173E0,1.3157803E0,1.4330316E0,1.0558995E1,3.7299798E0,1.8268021E0,1.9031776E0],"tree_param":{"num_deleted":"0","num_feature":"61","num_nodes":"13","size_leaf_vector":"1"}},{"base_weights":[1.4295241E-1,4.7787958E-1,-3.0992168E-1,-3.9227907E-2,6.9116974E-1,3.0386006E-2,-4.993761E-2,-3.8310654E-2,9.775749E-1,-3.0670678E-2,1.2174133E0,1.4912848E-1,5.843017E-3],"categories":[],"categories_nodes":[],"categories_segments":[],"categories_sizes":[],"default_left":[0,0,0,0,0,0,0,0,0,0,0,0,0],"id":25,"left_children":[1,3,5,-1,7,-1,-1,-1,9,-1,11,-1,-1],"loss_changes":[3.35321E0,2.5986154E0,1.2669182E0,0E0,3.5847907E0,0E0,0E0,0E0,2.997486E0,0E0,2.2553272E0,0E0,0E0],"parents":[2147483647,0,0,1,1,2,2,4,4,8,8,10,10],"right_children":[2,4,6,-1,8,-1,-1,-1,10,-1,12,-1,-1],"split_conditions":[5.8090526E-1,2.129235E-1,2.248987E-1,-3.9227907E-2,1.4627719E-1,3.0386006E-2,-4.993761E-2,-3.8310654E-2,1.0309867E-1,-3.0670678E-2,6.938263E-1,1.4912848E-1,5.843017E-3],"split_indices":[47,49,37,0,0,0,0,0,48,0,7,0,0],"split_type":[0,0,0,0,0,0,0,0,0,0,0,0,0],"sum_hessian":[2.0130726E1,1.1540574E1,8.590152E0,2.1067004E0,9.433873E0,1.8836756E0,6.7064757E0,1.914635E0,7.5192385E0,1.139368E0,6.37987E0,4.9285254E0,1.4513447E0],"tree_param":{"num_deleted":"0","num_feature":"61","num_nodes":"13","size_leaf_vector":"1"}},{"base_weights":[-1.4702503E-1,9.5304236E-2,-3.1971258E-1,5.202279E-1,-4.7199464E-1,-2.9515764E-2,1.0289947E-1,1.5741302E-2,-5.3280737E-2],"categories":[],"categories_nodes":[],"categories_segments":[],"categories_sizes":[],"default_left":[0,0,0,0,0,0,0,0,0],"id":26,"left_children":[1,-1,3,5,7,-1,-1,-1,-1],"loss_changes":[4.0539923E0,0E0,2.5232525E0,1.6348155E0,6.8092704E-1,0E0,0E0,0E0,0E0],"parents":[2147483647,0,0,2,2,3,3,4,4],"right_children":[2,-1,4,6,8,-1,-1,-1,-1],"split_conditions":[9.485185E-2,9.5304236E-2,2.3682559E-1,4.997254E-1,1.0097887E-1,-2.9515764E-2,1.0289947E-1,1.5741302E-2,-5.3280737E-2],"split_indices":[48,0,38,17,37,0,0,0,0],"split_type":[0,0,0,0,0,0,0,0,0],"sum_hessian":[1.873645E1,1.9290414E0,1.680741E1,2.208699E0,1.4598709E1,1.0099454E0,1.1987535E0,1.1462817E0,1.3452428E1],"tree_param":{"num_deleted":"0","num_feature":"61","num_nodes":"9","size_leaf_vector":"1"}},{"base_weights":[1.8202571E-2,-5.1202398E-2,3.9212134E-1,-3.0364618E-1,8.5023236E-1,-4.5113113E-2,1.8809013E-2,1.2079775E0,-3.530815E-2,-3.1094149E-2,1.6112493E-1],"categories":[],"categories_nodes":[],"categories_segments":[],"categories_sizes":[],"default_left":[0,0,0,0,0,0,0,0,0,0,0],"id":27,"left_children":[1,-1,3,5,7,-1,-1,9,-1,-1,-1],"loss_changes":[4.2953653E0,0E0,4.2990513E0,5.03325E-1,3.8305693E0,0E0,0E0,4.3732176E0,0E0,0E0,0E0],"parents":[2147483647,0,0,2,2,3,3,4,4,7,7],"right_children":[2,-1,4,6,8,-1,-1,10,-1,-1,-1],"split_conditions":[4.005E-1,-5.1202398E-2,4.9590704E-1,8.478787E-1,7.425338E-1,-4.5113113E-2,1.8809013E-2,1.15117E-1,-3.530815E-2,-3.1094149E-2,1.6112493E-1],"split_indices":[15,0,37,55,20,0,0,10,0,0,0],"split_type":[0,0,0,0,0,0,0,0,0,0,0],"sum_hessian":[1.9652452E1,7.974731E0,1.1677722E1,4.7701364E0,6.907585E0,3.733065E0,1.0370715E0,5.3215985E0,1.5859867E0,1.1644942E0,4.1571045E0],"tree_param":{"num_deleted":"0","num_feature":"61","num_nodes":"11","size_leaf_vector":"1"}},{"base_weights":[6.681605E-2,8.2752764E-1,-2.7235746E-1,1.3451242E-1,-1.07385136E-1,-5.1778167E-2,3.0927888E-1,-3.2945093E-2,1.9670462E-2,-3.9753437E-2,1.0111832E-1],"categories":[],"categories_nodes":[],"categories_segments":[],"categories_sizes":[],"default_left":[0,0,0,0,0,0,0,0,0,0,0],"id":28,"left_children":[1,3,5,-1,7,-1,9,-1,-1,-1,-1],"loss_changes":[5.523822E0,3.3286557E0,2.2949767E0,0E0,2.8568172E-1,0E0,2.9142754E0,0E0,0E0,0E0,0E0],"parents":[2147483647,0,0,1,1,2,2,4,4,6,6],"right_children":[2,4,6,-1,8,-1,10,-1,-1,-1,-1],"split_conditions":[2.6428995E-1,4.622428E-1,7.026561E-1,1.3451242E-1,5.150037E-1,-5.1778167E-2,5.892025E-1,-3.2945093E-2,1.9670462E-2,-3.9753437E-2,1.0111832E-1],"split_indices":[9,56,1,0,0,0,47,0,0,0,0],"split_type":[0,0,0,0,0,0,0,0,0,0,0],"sum_hessian":[1.953553E1,5.580201E0,1.3955329E1,3.3093004E0,2.2709007E0,9.891394E0,4.0639358E0,1.2642583E0,1.0066425E0,2.2409487E0,1.8229871E0],"tree_param":{"num_deleted":"0","num_feature":"61","num_nodes":"11","size_leaf_vector":"1"}},{"base_weights":[-1.8424003E-1,-3.5671037E-1,6.142379E-1,1.4429082E-1,-5.2391775E-2,1.1615645E-1,-1.127724E-3,7.997161E-2,-3.9899033E-2],"categories":[],"categories_nodes":[],"categories_segments":[],"categories_sizes":[],"default_left":[0,0,0,0,0,0,0,0,0],"id":29,"left_children":[1,3,5,7,-1,-1,-1,-1,-1],"loss_changes":[2.857341E0,1.4483585E0,1.3039124E0,2.0584006E0,0E0,0E0,0E0,0E0,0E0],"parents":[2147483647,0,0,1,1,2,2,3,3],"right_children":[2,4,6,8,-1,-1,-1,-1,-1],"split_conditions":[8.659257E-1,2.593184E-1,3.434923E-1,3.4597632E-1,-5.2391775E-2,1.1615645E-1,-1.127724E-3,7.997161E-2,-3.9899033E-2],"split_indices":[56,34,17,42,0,0,0,0,0],"split_type":[0,0,0,0,0,0,0,0,0],"sum_hessian":[1.8157387E1,1.5387061E1,2.7703264E0,3.884635E0,1.1502426E1,1.0204545E0,1.7498719E0,1.5466788E0,2.337956E0],"tree_param":{"num_deleted":"0","num_feature":"61","num_nodes":"9","size_leaf_vector":"1"}},{"base_weights":[-1.00524895E-1,-3.8889158E-1,5.212364E-1,-5.247703E-2,4.63889E-2,1.0533113E0,-3.9187785E-2,1.2166527E-2,1.3517784E-1],"categories":[],"categories_nodes":[],"categories_segments":[],"categories_sizes":[],"default_left":[0,0,0,0,0,0,0,0,0],"id":30,"left_children":[1,3,5,-1,-1,7,-1,-1,-1],"loss_changes":[3.72899E0,1.8666899E0,3.6479037E0,0E0,0E0,1.0808182E0,0E0,0E0,0E0],"parents":[2147483647,0,0,1,1,2,2,5,5],"right_children":[2,4,6,-1,-1,8,-1,-1,-1],"split_conditions":[8.2677853E-1,8.931586E-1,6.575002E-1,-5.247703E-2,4.63889E-2,2.2626479E-1,-3.9187785E-2,1.2166527E-2,1.3517784E-1],"split_indices":[11,47,7,0,0,19,0,0,0],"split_type":[0,0,0,0,0,0,0,0,0],"sum_hessian":[1.866748E1,1.3008705E1,5.6587753E0,1.1552596E1,1.456109E0,3.478376E0,2.1803994E0,1.1855111E0,2.2928648E0],"tree_param":{"num_deleted":"0","num_feature":"61","num_nodes":"9","size_leaf_vector":"1"}},{"base_weights":[1.8128586E-1,-5.0645623E-2,1.0869721E0,8.150492E-1,-2.7264583E-1,1.528844E-2,1.3377169E-1,1.2603052E-1,4.32912E-3,-5.174938E-2,3.5264224E-1,9.365386E-2,-3.758904E-2],"categories":[],"categories_nodes":[],"categories_segments":[],"categories_sizes":[],"default_left":[0,0,0,0,0,0,0,0,0,0,0,0,0],"id":31,"left_children":[1,3,5,7,9,-1,-1,-1,-1,-1,11,-1,-1],"loss_changes":[4.5092697E0,3.6502428E0,8.184614E-1,1.2825913E0,2.4707146E0,0E0,0E0,0E0,0E0,0E0,2.3940494E0,0E0,0E0],"parents":[2147483647,0,0,1,1,2,2,3,3,4,4,10,10],"right_children":[2,4,6,8,10,-1,-1,-1,-1,-1,12,-1,-1],"split_conditions":[8.638554E-1,2.2833532E-1,2.2179087E-1,3.7255722E-1,8.0720717E-1,1.528844E-2,1.3377169E-1,1.2603052E-1,4.32912E-3,-5.174938E-2,5.3860116E-1,9.365386E-2,-3.758904E-2],"split_indices":[44,20,7,43,9,0,0,0,0,0,48,0,0],"split_type":[0,0,0,0,0,0,0,0,0,0,0,0,0],"sum_hessian":[2.0204796E1,1.6837154E1,3.3676405E0,2.8912547E0,1.3945901E1,1.0533532E0,2.3142872E0,1.4320309E0,1.4592237E0,1.014554E1,3.8003607E0,1.9511006E0,1.8492602E0],"tree_param":{"num_deleted":"0","num_feature":"61","num_nodes":"13","size_leaf_vector":"1"}},{"base_weights":[1.288324E-1,-1.7564024E-1,5.79146E-1,-5.104896E-2,4.087082E-1,-3.8460888E-2,9.21779E-1,9.02528E-1,-3.7244108E-2,1.376249E-1,-6.907959E-2,1.3576861E-2,1.1970718E-1,2.050832E-2,-2.9839171E-2],"categories":[],"categories_nodes":[],"categories_segments":[],"categories_sizes":[],"default_left":[0,0,0,0,0,0,0,0,0,0,0,0,0,0,0],"id":32,"left_children":[1,3,5,-1,7,-1,9,11,-1,-1,13,-1,-1,-1,-1],"loss_changes":[3.0236344E0,2.8465824E0,3.2700946E0,0E0,2.4448342E0,0E0,3.160831E0,6.598542E-1,0E0,0E0,2.5564376E-1,0E0,0E0,0E0,0E0],"parents":[2147483647,0,0,1,1,2,2,4,4,6,6,7,7,10,10],"right_children":[2,4,6,-1,8,-1,10,12,-1,-1,14,-1,-1,-1,-1],"split_conditions":[6.271656E-1,7.1849996E-1,1.7217755E-1,-5.104896E-2,5.346824E-1,-3.8460888E-2,4.3491533E-1,4.654929E-1,-3.7244108E-2,1.376249E-1,2.9441485E-1,1.3576861E-2,1.1970718E-1,2.050832E-2,-2.9839171E-2],"split_indices":[19,8,53,0,56,0,55,55,0,0,1,0,0,0,0],"split_type":[0,0,0,0,0,0,0,0,0,0,0,0,0,0,0],"sum_hessian":[2.0311005E1,1.2481673E1,7.8293314E0,8.015147E0,4.466526E0,2.021307E0,5.8080244E0,2.6413543E0,1.8251717E0,3.7150996E0,2.0929248E0,1.1385126E0,1.5028417E0,1.0013646E0,1.0915602E0],"tree_param":{"num_deleted":"0","num_feature":"61","num_nodes":"15","size_leaf_vector":"1"}},{"base_weights":[-1.4012636E-1,8.7175876E-1,-3.1107768E-1,1.14388786E-1,1.6813075E-2,4.9281916E-1,-4.6520448E-1,1.1607744E-1,-3.259166E-2,-5.2804198E-2,1.6796792E-2],"categories":[],"categories_nodes":[],"categories_segments":[],"categories_sizes":[],"default_left":[0,0,0,0,0,0,0,0,0,0,0],"id":33,"left_children":[1,3,5,-1,-1,7,9,-1,-1,-1,-1],"loss_changes":[3.625663E0,3.9467955E-1,2.3760257E0,0E0,0E0,2.168273E0,6.8761706E-1,0E0,0E0,0E0,0E0],"parents":[2147483647,0,0,1,1,2,2,5,5,6,6],"right_children":[2,4,6,-1,-1,8,10,-1,-1,-1,-1],"split_conditions":[9.485185E-2,4.811868E-1,2.3682559E-1,1.14388786E-1,1.6813075E-2,5.5585235E-1,9.091002E-1,1.1607744E-1,-3.259166E-2,-5.2804198E-2,1.6796792E-2],"split_indices":[48,7,38,0,0,21,59,0,0,0,0],"split_type":[0,0,0,0,0,0,0,0,0,0,0],"sum_hessian":[1.8391943E1,2.0656445E0,1.63263E1,1.0383582E0,1.0272862E0,2.273042E0,1.4053257E1,1.0217202E0,1.2513219E0,1.2935542E1,1.117715E0],"tree_param":{"num_deleted":"0","num_feature":"61","num_nodes":"11","size_leaf_vector":"1"}},{"base_weights":[1.2720534E-2,-5.0651487E-2,3.5986766E-1,-2.9758513E-1,7.6674694E-1,-4.4569924E-2,1.8029701E-2,1.0706465E0,-3.4600962E-2,-3.0782878E-2,1.4081812E-1],"categories":[],"categories_nodes":[],"categories_segments":[],"categories_sizes":[],"default_left":[0,0,0,0,0,0,0,0,0,0,0],"id":34,"left_children":[1,-1,3,5,7,-1,-1,9,-1,-1,-1],"loss_changes":[3.8972716E0,0E0,3.6887522E0,4.8139447E-1,3.1673236E0,0E0,0E0,3.5698204E0,0E0,0E0,0E0],"parents":[2147483647,0,0,2,2,3,3,4,4,7,7],"right_children":[2,-1,4,6,8,-1,-1,10,-1,-1,-1],"split_conditions":[4.005E-1,-5.0651487E-2,4.9590704E-1,7.9488754E-1,7.425338E-1,-4.4569924E-2,1.8029701E-2,1.15117E-1,-3.4600962E-2,-3.0782878E-2,1.4081812E-1],"split_indices":[15,0,37,36,20,0,0,10,0,0,0],"split_type":[0,0,0,0,0,0,0,0,0,0,0],"sum_hessian":[1.9610104E1,7.673543E0,1.193656E1,4.665868E0,7.2706923E0,3.6133087E0,1.0525589E0,5.740716E0,1.5299765E0,1.1464947E0,4.594221E0],"tree_param":{"num_deleted":"0","num_feature":"61","num_nodes":"11","size_leaf_vector":"1"}},{"base_weights":[6.328244E-2,7.572581E-1,-2.653889E-1,1.2061924E-1,-1.0538631E-1,4.8987225E-1,-4.4236752E-1,1.9660074E-2,-3.2716203E-2,-2.9750554E-2,1.02359705E-1,1.6524743E-2,-5.1742952E-2],"categories":[],"categories_nodes":[],"categories_segments":[],"categories_sizes":[],"default_left":[0,0,0,0,0,0,0,0,0,0,0,0,0],"id":35,"left_children":[1,3,5,-1,7,9,11,-1,-1,-1,-1,-1,-1],"loss_changes":[4.863381E0,2.7718415E0,2.1698146E0,0E0,2.824636E-1,1.669683E0,6.493876E-1,0E0,0E0,0E0,0E0,0E0,0E0],"parents":[2147483647,0,0,1,1,2,2,4,4,5,5,6,6],"right_children":[2,4,6,-1,8,10,12,-1,-1,-1,-1,-1,-1],"split_conditions":[2.6428995E-1,4.622428E-1,1.4009887E-1,1.2061924E-1,4.3953574E-1,5.137071E-1,1.7990908E-1,1.9660074E-2,-3.2716203E-2,-2.9750554E-2,1.02359705E-1,1.6524743E-2,-5.1742952E-2],"split_indices":[9,56,25,0,6,1,51,0,0,0,0,0,0],"split_type":[0,0,0,0,0,0,0,0,0,0,0,0,0],"sum_hessian":[1.944112E1,5.8291397E0,1.361198E1,3.5719752E0,2.2571642E0,2.2484944E0,1.1363486E1,1.0038117E0,1.2533525E0,1.0871953E0,1.161299E0,1.1173376E0,1.0246148E1],"tree_param":{"num_deleted":"0","num_feature":"61","num_nodes":"13","size_leaf_vector":"1"}},{"base_weights":[-1.7676342E-1,-3.4884924E-1,5.772868E-1,1.367078E-1,-5.1836323E-2,-1.4602394E-3,1.07974485E-1,7.384508E-2,-3.9310243E-2],"categories":[],"categories_nodes":[],"categories_segments":[],"categories_sizes":[],"default_left":[0,0,0,0,0,0,0,0,0],"id":36,"left_children":[1,3,5,7,-1,-1,-1,-1,-1],"loss_changes":[2.635347E0,1.3791821E0,1.1643113E0,1.8539053E0,0E0,0E0,0E0,0E0,0E0],"parents":[2147483647,0,0,1,1,2,2,3,3],"right_children":[2,4,6,8,-1,-1,-1,-1,-1],"split_conditions":[8.659257E-1,2.593184E-1,4.9222583E-1,3.4597632E-1,-5.1836323E-2,-1.4602394E-3,1.07974485E-1,7.384508E-2,-3.9310243E-2],"split_indices":[56,34,20,42,0,0,0,0,0],"split_type":[0,0,0,0,0,0,0,0,0],"sum_hessian":[1.7757212E1,1.4895252E1,2.8619592E0,3.904554E0,1.0990698E1,1.7598345E0,1.1021247E0,1.6437865E0,2.2607672E0],"tree_param":{"num_deleted":"0","num_feature":"61","num_nodes":"9","size_leaf_vector":"1"}},{"base_weights":[-9.6694276E-2,-3.810367E-1,4.878984E-1,-5.183822E-2,4.5543667E-2,9.6137387E-1,-3.8461924E-2,1.1268236E-2,1.22242145E-1],"categories":[],"categories_nodes":[],"categories_segments":[],"categories_sizes":[],"default_left":[0,0,0,0,0,0,0,0,0],"id":37,"left_children":[1,3,5,-1,-1,7,-1,-1,-1],"loss_changes":[3.4032278E0,1.7965987E0,3.1674461E0,0E0,0E0,8.9814806E-1,0E0,0E0,0E0],"parents":[2147483647,0,0,1,1,2,2,5,5],"right_children":[2,4,6,-1,-1,8,-1,-1,-1],"split_conditions":[8.2677853E-1,9.1348875E-1,6.575002E-1,-5.183822E-2,4.5543667E-2,2.7803332E-1,-3.8461924E-2,1.1268236E-2,1.22242145E-1],"split_indices":[11,34,7,0,0,29,0,0,0],"split_type":[0,0,0,0,0,0,0,0,0],"sum_hessian":[1.8355274E1,1.258312E1,5.772154E0,1.1135065E1,1.4480554E0,3.6756873E0,2.0964665E0,1.2014169E0,2.4742706E0],"tree_param":{"num_deleted":"0","num_feature":"61","num_nodes":"9","size_leaf_vector":"1"}},{"base_weights":[1.741572E-1,-2.1879111E-1,6.4287984E-1,-4.3120977E-1,7.592782E-2,9.447706E-1,-3.805418E-2,1.9404385E-2,-5.159518E-2,1.2181777E0,-3.1030042E-2,3.8304567E-2,1.4048623E-1],"categories":[],"categories_nodes":[],"categories_segments":[],"categories_sizes":[],"default_left":[0,0,0,0,0,0,0,0,0,0,0,0,0],"id":38,"left_children":[1,3,5,7,-1,9,-1,-1,-1,11,-1,-1,-1],"loss_changes":[4.041782E0,2.8761458E0,3.422237E0,6.6793656E-1,0E0,3.1032648E0,0E0,0E0,0E0,5.102482E-1,0E0,0E0,0E0],"parents":[2147483647,0,0,1,1,2,2,3,3,5,5,9,9],"right_children":[2,4,6,8,-1,10,-1,-1,-1,12,-1,-1,-1],"split_conditions":[6.2773937E-1,8.6623716E-1,6.6370356E-1,7.848852E-2,7.592782E-2,7.746472E-1,-3.805418E-2,1.9404385E-2,-5.159518E-2,2.8945398E-1,-3.1030042E-2,3.8304567E-2,1.4048623E-1],"split_indices":[7,44,13,41,0,43,0,0,0,16,0,0,0],"split_type":[0,0,0,0,0,0,0,0,0,0,0,0,0],"sum_hessian":[2.0180618E1,1.12676935E1,8.912925E0,9.7165575E0,1.551136E0,6.9420094E0,1.9709152E0,1.0057793E0,8.710778E0,5.724392E0,1.2176173E0,1.603405E0,4.120987E0],"tree_param":{"num_deleted":"0","num_feature":"61","num_nodes":"13","size_leaf_vector":"1"}},{"base_weights":[1.2002927E-1,3.1934264E-1,-4.7558505E-2,-4.380256E-2,5.379062E-1,8.061563E-2,1.0577937E0,-4.4697475E-2,6.2605566E-1,1.4424333E-2,1.24505E-1,-3.8111303E-3,1.1019377E-1],"categories":[],"categories_nodes":[],"categories_segments":[],"categories_sizes":[],"default_left":[0,0,0,0,0,0,0,0,0,0,0,0,0],"id":39,"left_children":[1,3,-1,-1,5,7,9,-1,11,-1,-1,-1,-1],"loss_changes":[2.680145E0,2.9761133E0,0E0,0E0,3.0758836E0,2.6270888E0,8.707638E-1,0E0,1.4412429E0,0E0,0E0,0E0,0E0],"parents":[2147483647,0,0,1,1,4,4,5,5,6,6,8,8],"right_children":[2,4,-1,-1,6,8,10,-1,12,-1,-1,-1,-1],"split_conditions":[7.4020547E-1,2.0134231E-1,-4.7558505E-2,-4.380256E-2,6.271656E-1,6.9768184E-1,3.3588666E-1,-4.4697475E-2,5.939525E-1,1.4424333E-2,1.24505E-1,-3.8111303E-3,1.1019377E-1],"split_indices":[36,7,0,0,19,8,57,0,49,0,0,0,0],"split_type":[0,0,0,0,0,0,0,0,0,0,0,0,0],"sum_hessian":[2.0297174E1,1.5555577E1,4.741597E0,3.2588556E0,1.2296722E1,7.1567454E0,5.1399765E0,3.729662E0,3.4270835E0,1.1754949E0,3.9644818E0,1.8145344E0,1.6125491E0],"tree_param":{"num_deleted":"0","num_feature":"61","num_nodes":"13","size_leaf_vector":"1"}},{"base_weights":[-1.3190386E-1,6.46814E-1,-3.4306902E-1,1.0619696E-1,-3.184637E-2,-4.6122095E-1,6.528299E-2,-5.241708E-2,1.8355448E-2],"categories":[],"categories_nodes":[],"categories_segments":[],"categories_sizes":[],"default_left":[0,0,0,0,0,0,0,0,0],"id":40,"left_children":[1,3,5,-1,-1,7,-1,-1,-1],"loss_changes":[3.3438835E0,2.100127E0,2.1354246E0,0E0,0E0,6.8563056E-1,0E0,0E0,0E0],"parents":[2147483647,0,0,1,1,2,2,5,5],"right_children":[2,4,6,-1,-1,8,-1,-1,-1],"split_conditions":[1.266691E-1,6.077398E-1,8.70514E-1,1.0619696E-1,-3.184637E-2,9.3427944E-1,6.528299E-2,-5.241708E-2,1.8355448E-2],"split_indices":[48,4,36,0,0,7,0,0,0],"split_type":[0,0,0,0,0,0,0,0,0],"sum_hessian":[1.7985756E1,3.3966808E0,1.4589076E1,2.305108E0,1.0915726E0,1.3521755E1,1.0673203E0,1.248945E1,1.0323049E0],"tree_param":{"num_deleted":"0","num_feature":"61","num_nodes":"9","size_leaf_vector":"1"}},{"base_weights":[7.4578696E-3,-5.0093003E-2,3.3163226E-1,-2.9083624E-1,6.9648457E-1,1.7711041E-2,-4.402881E-2,9.60569E-1,-3.3943485E-2,-3.028742E-2,1.2480835E-1],"categories":[],"categories_nodes":[],"categories_segments":[],"categories_sizes":[],"default_left":[0,0,0,0,0,0,0,0,0,0,0],"id":41,"left_children":[1,-1,3,5,7,-1,-1,9,-1,-1,-1],"loss_changes":[3.5432365E0,0E0,3.18095E0,4.6623865E-1,2.668542E0,0E0,0E0,2.9514575E0,0E0,0E0,0E0],"parents":[2147483647,0,0,2,2,3,3,4,4,7,7],"right_children":[2,-1,4,6,8,-1,-1,10,-1,-1,-1],"split_conditions":[4.005E-1,-5.0093003E-2,4.9590704E-1,2.2397263E-1,7.425338E-1,1.7711041E-2,-4.402881E-2,1.15117E-1,-3.3943485E-2,-3.028742E-2,1.2480835E-1],"split_indices":[15,0,37,14,20,0,0,10,0,0,0],"split_type":[0,0,0,0,0,0,0,0,0,0,0],"sum_hessian":[1.9491398E1,7.3770537E0,1.2114345E1,4.551674E0,7.56267E0,1.0570118E0,3.4946623E0,6.0843415E0,1.4783287E0,1.1180036E0,4.9663377E0],"tree_param":{"num_deleted":"0","num_feature":"61","num_nodes":"11","size_leaf_vector":"1"}},{"base_weights":[6.169223E-2,6.9766045E-1,-2.5716972E-1,-3.378907E-2,9.9224216E-1,-5.0757576E-2,2.8984508E-1,1.21935226E-1,1.0567336E-2,-3.8420506E-2,8.843293E-2],"categories":[],"categories_nodes":[],"categories_segments":[],"categories_sizes":[],"default_left":[0,0,0,0,0,0,0,0,0,0,0],"id":42,"left_children":[1,3,5,-1,7,-1,9,-1,-1,-1,-1],"loss_changes":[4.285726E0,2.4802802E0,2.094626E0,0E0,1.0245395E0,0E0,2.3838863E0,0E0,0E0,0E0,0E0],"parents":[2147483647,0,0,1,1,2,2,4,4,6,6],"right_children":[2,4,6,-1,8,-1,10,-1,-1,-1,-1],"split_conditions":[2.6428995E-1,3.3848712E-1,7.026561E-1,-3.378907E-2,4.622428E-1,-5.0757576E-2,5.892025E-1,1.21935226E-1,1.0567336E-2,-3.8420506E-2,8.843293E-2],"split_indices":[9,51,1,0,56,0,47,0,0,0,0],"split_type":[0,0,0,0,0,0,0,0,0,0,0],"sum_hessian":[1.9249464E1,6.031568E0,1.32178955E1,1.3032387E0,4.728329E0,9.116672E0,4.101224E0,3.4652767E0,1.2630526E0,2.0877576E0,2.0134664E0],"tree_param":{"num_deleted":"0","num_feature":"61","num_nodes":"11","size_leaf_vector":"1"}},{"base_weights":[-1.693124E-1,-3.4077346E-1,5.409485E-1,1.3362888E-1,-5.130884E-2,1.0122942E-1,-2.1424403E-3,7.0034295E-2,-3.9413836E-2],"categories":[],"categories_nodes":[],"categories_segments":[],"categories_sizes":[],"default_left":[0,0,0,0,0,0,0,0,0],"id":43,"left_children":[1,3,5,7,-1,-1,-1,-1,-1],"loss_changes":[2.4169774E0,1.3259474E0,1.069136E0,1.7391063E0,0E0,0E0,0E0,0E0,0E0],"parents":[2147483647,0,0,1,1,2,2,3,3],"right_children":[2,4,6,8,-1,-1,-1,-1,-1],"split_conditions":[8.659257E-1,3.4597632E-1,3.434923E-1,3.717347E-1,-5.130884E-2,1.0122942E-1,-2.1424403E-3,7.0034295E-2,-3.9413836E-2],"split_indices":[56,42,17,15,0,0,0,0,0],"split_type":[0,0,0,0,0,0,0,0,0],"sum_hessian":[1.7333044E1,1.4381485E1,2.9515593E0,3.8917017E0,1.0489783E1,1.1704885E0,1.781071E0,1.71893E0,2.1727715E0],"tree_param":{"num_deleted":"0","num_feature":"61","num_nodes":"9","size_leaf_vector":"1"}},{"base_weights":[-9.267507E-2,-3.729649E-1,4.584793E-1,-5.1524993E-2,4.3859668E-2,8.8190675E-1,-3.7658323E-2,1.0307555E-2,1.1149406E-1],"categories":[],"categories_nodes":[],"categories_segments":[],"categories_sizes":[],"default_left":[0,0,0,0,0,0,0,0,0],"id":44,"left_children":[1,3,5,-1,-1,7,-1,-1,-1],"loss_changes":[3.1046314E0,1.7432662E0,2.7543116E0,0E0,0E0,7.6436615E-1,0E0,0E0,0E0],"parents":[2147483647,0,0,1,1,2,2,5,5],"right_children":[2,4,6,-1,-1,8,-1,-1,-1],"split_conditions":[8.2677853E-1,8.931586E-1,6.575002E-1,-5.1524993E-2,4.3859668E-2,2.2626479E-1,-3.7658323E-2,1.0307555E-2,1.1149406E-1],"split_indices":[11,47,7,0,0,19,0,0,0],"split_type":[0,0,0,0,0,0,0,0,0],"sum_hessian":[1.7990023E1,1.2139684E1,5.85034E0,1.063946E1,1.5002241E0,3.8447309E0,2.005609E0,1.2176145E0,2.6271164E0],"tree_param":{"num_deleted":"0","num_feature":"61","num_nodes":"9","size_leaf_vector":"1"}},{"base_weights":[1.6417135E-1,-2.1143936E-1,5.897423E-1,-4.235804E-1,7.0660405E-2,8.569351E-1,-3.7438802E-2,1.8477758E-2,-5.1003147E-2,1.0945088E0,-3.0572033E-2,1.7584411E-2,1.2223629E-1],"categories":[],"categories_nodes":[],"categories_segments":[],"categories_sizes":[],"default_left":[0,0,0,0,0,0,0,0,0,0,0,0,0],"id":45,"left_children":[1,3,5,7,-1,9,-1,-1,-1,11,-1,-1,-1],"loss_changes":[3.509201E0,2.6330147E0,2.945942E0,6.3904476E-1,0E0,2.6225429E0,0E0,0E0,0E0,6.1852455E-1,0E0,0E0,0E0],"parents":[2147483647,0,0,1,1,2,2,3,3,5,5,9,9],"right_children":[2,4,6,8,-1,10,-1,-1,-1,12,-1,-1,-1],"split_conditions":[6.2773937E-1,8.6623716E-1,6.6370356E-1,7.848852E-2,7.0660405E-2,7.746472E-1,-3.7438802E-2,1.8477758E-2,-5.1003147E-2,2.3507242E-1,-3.0572033E-2,1.7584411E-2,1.2223629E-1],"split_indices":[7,44,13,41,0,43,0,0,0,10,0,0,0],"split_type":[0,0,0,0,0,0,0,0,0,0,0,0,0],"sum_hessian":[2.0173145E1,1.0982822E1,9.190323E0,9.358801E0,1.624022E0,7.283112E0,1.9072106E0,1.0229449E0,8.3358555E0,6.0960712E0,1.1870408E0,1.0349609E0,5.06111E0],"tree_param":{"num_deleted":"0","num_feature":"61","num_nodes":"13","size_leaf_vector":"1"}},{"base_weights":[1.1262026E-1,3.014095E-1,-4.699886E-2,-4.3069385E-2,5.028643E-1,7.95603E-2,9.582149E-1,-4.3968234E-2,5.864369E-1,1.11528635E-1,1.2025887E-2,-3.7956361E-3,1.01641476E-1],"categories":[],"categories_nodes":[],"categories_segments":[],"categories_sizes":[],"default_left":[0,0,0,0,0,0,0,0,0,0,0,0,0],"id":46,"left_children":[1,3,-1,-1,5,7,9,-1,11,-1,-1,-1,-1],"loss_changes":[2.473198E0,2.6676617E0,0E0,0E0,2.524789E0,2.385415E0,7.096143E-1,0E0,1.2518348E0,0E0,0E0,0E0,0E0],"parents":[2147483647,0,0,1,1,4,4,5,5,6,6,8,8],"right_children":[2,4,-1,-1,6,8,10,-1,12,-1,-1,-1,-1],"split_conditions":[7.4020547E-1,2.0134231E-1,-4.699886E-2,-4.3069385E-2,6.271656E-1,6.9768184E-1,7.499346E-1,-4.3968234E-2,5.939525E-1,1.11528635E-1,1.2025887E-2,-3.7956361E-3,1.01641476E-1],"split_indices":[36,7,0,0,19,8,58,0,49,0,0,0,0],"split_type":[0,0,0,0,0,0,0,0,0,0,0,0,0],"sum_hessian":[2.0197681E1,1.5619103E1,4.578577E0,3.1249306E0,1.2494173E1,7.0837164E0,5.4104567E0,3.5646582E0,3.5190582E0,4.277665E0,1.1327915E0,1.8068957E0,1.7121625E0],"tree_param":{"num_deleted":"0","num_feature":"61","num_nodes":"13","size_leaf_vector":"1"}},{"base_weights":[-1.2494162E-1,5.9473896E-1,-3.3356932E-1,9.658467E-2,-3.139043E-2,-4.5380917E-1,6.1261833E-2,-5.19009E-2,1.9408755E-2],"categories":[],"categories_nodes":[],"categories_segments":[],"categories_sizes":[],"default_left":[0,0,0,0,0,0,0,0,0],"id":47,"left_children":[1,3,5,-1,-1,7,-1,-1,-1],"loss_changes":[2.992663E0,1.8347136E0,1.9923632E0,0E0,0E0,6.897702E-1,0E0,0E0,0E0],"parents":[2147483647,0,0,1,1,2,2,5,5],"right_children":[2,4,6,-1,-1,8,-1,-1,-1],"split_conditions":[1.266691E-1,6.077398E-1,8.70514E-1,9.658467E-2,-3.139043E-2,9.84568E-1,6.1261833E-2,-5.19009E-2,1.9408755E-2],"split_indices":[48,4,36,0,0,2,0,0,0],"split_type":[0,0,0,0,0,0,0,0,0],"sum_hessian":[1.7610481E1,3.541844E0,1.4068638E1,2.4700658E0,1.0717779E0,1.2944105E1,1.1245329E0,1.1941344E1,1.0027609E0],"tree_param":{"num_deleted":"0","num_feature":"61","num_nodes":"9","size_leaf_vector":"1"}},{"base_weights":[3.7755854E-3,-4.953028E-2,3.0870563E-1,-2.8459606E-1,6.4197075E-1,-4.3864973E-2,1.6912349E-2,8.7620467E-1,-3.3237826E-2,-2.9754786E-2,1.12794496E-1],"categories":[],"categories_nodes":[],"categories_segments":[],"categories_sizes":[],"default_left":[0,0,0,0,0,0,0,0,0,0,0],"id":48,"left_children":[1,-1,3,5,7,-1,-1,9,-1,-1,-1],"loss_changes":[3.2400723E0,0E0,2.794314E0,4.546735E-1,2.2915492E0,0E0,0E0,2.5047421E0,0E0,0E0,0E0],"parents":[2147483647,0,0,2,2,3,3,4,4,7,7],"right_children":[2,-1,4,6,8,-1,-1,10,-1,-1,-1],"split_conditions":[4.005E-1,-4.953028E-2,4.9590704E-1,8.6345816E-1,7.425338E-1,-4.3864973E-2,1.6912349E-2,1.15117E-1,-3.3237826E-2,-2.9754786E-2,1.12794496E-1],"split_indices":[15,0,37,52,20,0,0,10,0,0,0],"split_type":[0,0,0,0,0,0,0,0,0,0,0],"sum_hessian":[1.928577E1,7.0775857E0,1.2208186E1,4.443535E0,7.7646513E0,3.3420172E0,1.1015177E0,6.341E0,1.423651E0,1.0876786E0,5.2533216E0],"tree_param":{"num_deleted":"0","num_feature":"61","num_nodes":"11","size_leaf_vector":"1"}},{"base_weights":[5.9595123E-2,6.478587E-1,-2.5001377E-1,-3.3280913E-2,9.1623384E-1,-5.018255E-2,2.7259633E-1,1.1145707E-1,1.0482739E-2,-3.7835266E-2,8.147212E-2],"categories":[],"categories_nodes":[],"categories_segments":[],"categories_sizes":[],"default_left":[0,0,0,0,0,0,0,0,0,0,0],"id":49,"left_children":[1,3,5,-1,7,-1,9,-1,-1,-1,-1],"loss_changes":[3.807899E0,2.194925E0,1.957722E0,0E0,8.334093E-1,0E0,2.1246827E0,0E0,0E0,0E0,0E0],"parents":[2147483647,0,0,1,1,2,2,4,4,6,6],"right_children":[2,4,6,-1,8,-1,10,-1,-1,-1,-1],"split_conditions":[2.6428995E-1,3.3848712E-1,7.026561E-1,-3.3280913E-2,4.622428E-1,-5.018255E-2,5.892025E-1,1.1145707E-1,1.0482739E-2,-3.7835266E-2,8.147212E-2],"split_indices":[9,51,1,0,56,0,47,0,0,0,0],"split_type":[0,0,0,0,0,0,0,0,0,0,0],"sum_hessian":[1.901808E1,6.1811857E0,1.2836893E1,1.2765317E0,4.904654E0,8.689675E0,4.1472173E0,3.641028E0,1.2636263E0,2.0217373E0,2.1254802E0],"tree_param":{"num_deleted":"0","num_feature":"61","num_nodes":"11","size_leaf_vector":"1"}},{"base_weights":[-1.6194078E-1,-2.9427102E-1,7.046245E-2,-4.000521E-1,6.452564E-2,-5.221638E-2,5.68837E-2],"categories":[],"categories_nodes":[],"categories_segments":[],"categories_sizes":[],"default_left":[0,0,0,0,0,0,0],"id":50,"left_children":[1,3,-1,5,-1,-1,-1],"loss_changes":[2.260254E0,1.8717426E0,0E0,2.0965984E0,0E0,0E0,0E0],"parents":[2147483647,0,0,1,1,3,3],"right_children":[2,4,-1,6,-1,-1,-1],"split_conditions":[9.541935E-1,9.1568196E-1,7.046245E-2,9.412554E-1,6.452564E-2,-5.221638E-2,5.68837E-2],"split_indices":[20,57,0,49,0,0,0],"split_type":[0,0,0,0,0,0,0],"sum_hessian":[1.690227E1,1.5236041E1,1.6662275E0,1.4210306E1,1.0257351E0,1.3029263E1,1.1810434E0],"tree_param":{"num_deleted":"0","num_feature":"61","num_nodes":"7","size_leaf_vector":"1"}},{"base_weights":[-8.892895E-2,-3.6462316E-1,4.3180895E-1,-5.0849438E-2,4.2482946E-2,8.122053E-1,-3.6800414E-2,1.0273937E-1,8.946265E-3],"categories":[],"categories_nodes":[],"categories_segments":[],"categories_sizes":[],"default_left":[0,0,0,0,0,0,0,0,0],"id":51,"left_children":[1,3,5,-1,-1,7,-1,-1,-1],"loss_changes":[2.8276508E0,1.6588398E0,2.3970351E0,0E0,0E0,6.834266E-1,0E0,0E0,0E0],"parents":[2147483647,0,0,1,1,2,2,5,5],"right_children":[2,4,6,-1,-1,8,-1,-1,-1],"split_conditions":[8.2677853E-1,9.1348875E-1,6.575002E-1,-5.0849438E-2,4.2482946E-2,7.8715175E-1,-3.6800414E-2,1.0273937E-1,8.946265E-3],"split_indices":[11,34,7,0,0,58,0,0,0],"split_type":[0,0,0,0,0,0,0,0,0],"sum_hessian":[1.7599337E1,1.1703139E1,5.896197E0,1.0200138E1,1.5030011E0,3.9852784E0,1.9109185E0,2.746129E0,1.2391495E0],"tree_param":{"num_deleted":"0","num_feature":"61","num_nodes":"9","size_leaf_vector":"1"}},{"base_weights":[1.5534063E-1,-2.0359668E-1,5.440881E-1,-4.160376E-1,6.6644095E-2,7.870453E-1,-3.6981326E-2,1.8438881E-2,-5.0448906E-2,9.715923E-1,-2.8683856E-2,1.124107E-1,1.0865379E-2],"categories":[],"categories_nodes":[],"categories_segments":[],"categories_sizes":[],"default_left":[0,0,0,0,0,0,0,0,0,0,0,0,0],"id":52,"left_children":[1,3,5,7,-1,9,-1,-1,-1,11,-1,-1,-1],"loss_changes":[3.0544033E0,2.4390848E0,2.6001925E0,6.249794E-1,0E0,1.9702263E0,0E0,0E0,0E0,8.6645746E-1,0E0,0E0,0E0],"parents":[2147483647,0,0,1,1,2,2,3,3,5,5,9,9],"right_children":[2,4,6,8,-1,10,-1,-1,-1,12,-1,-1,-1],"split_conditions":[6.2773937E-1,8.6623716E-1,6.271656E-1,1.1706583E-1,6.6644095E-2,6.6370356E-1,-3.6981326E-2,1.8438881E-2,-5.0448906E-2,7.96266E-1,-2.8683856E-2,1.124107E-1,1.0865379E-2],"split_indices":[7,44,19,49,0,13,0,0,0,34,0,0,0],"split_type":[0,0,0,0,0,0,0,0,0,0,0,0,0],"sum_hessian":[2.0095839E1,1.0696162E1,9.399676E0,9.016404E0,1.6797583E0,7.535263E0,1.8644137E0,1.0184342E0,7.99797E0,6.5115128E0,1.02375E0,5.276331E0,1.2351823E0],"tree_param":{"num_deleted":"0","num_feature":"61","num_nodes":"13","size_leaf_vector":"1"}},{"base_weights":[1.05606794E-1,2.8399634E-1,-4.6382077E-2,-4.2319432E-2,4.6984094E-1,7.581348E-2,8.7489414E-1,-4.327436E-2,5.463222E-1,1.0987781E-2,1.0337825E-1,-4.2264685E-3,9.427179E-2],"categories":[],"categories_nodes":[],"categories_segments":[],"categories_sizes":[],"default_left":[0,0,0,0,0,0,0,0,0,0,0,0,0],"id":53,"left_children":[1,3,-1,-1,5,7,9,-1,11,-1,-1,-1,-1],"loss_changes":[2.2696915E0,2.3866622E0,0E0,0E0,2.1132433E0,2.1547859E0,6.934023E-1,0E0,1.1145772E0,0E0,0E0,0E0,0E0],"parents":[2147483647,0,0,1,1,4,4,5,5,6,6,8,8],"right_children":[2,4,-1,-1,6,8,10,-1,12,-1,-1,-1,-1],"split_conditions":[7.4020547E-1,2.0134231E-1,-4.6382077E-2,-4.2319432E-2,6.271656E-1,6.9768184E-1,3.3588666E-1,-4.327436E-2,5.637359E-1,1.0987781E-2,1.0337825E-1,-4.2264685E-3,9.427179E-2],"split_indices":[36,7,0,0,19,8,57,0,24,0,0,0,0],"split_type":[0,0,0,0,0,0,0,0,0,0,0,0,0],"sum_hessian":[2.004715E1,1.5646647E1,4.4005017E0,2.9903579E0,1.2656289E1,7.0172358E0,5.639054E0,3.410839E0,3.6063967E0,1.260678E0,4.3783755E0,1.8108857E0,1.795511E0],"tree_param":{"num_deleted":"0","num_feature":"61","num_nodes":"13","size_leaf_vector":"1"}},{"base_weights":[-1.1786702E-1,7.134398E-1,-2.8503895E-1,1.3506456E-2,9.2901774E-2,2.764285E-1,-5.1161405E-2,8.326341E-1,-3.824853E-2,1.8234931E-2,1.0590144E-1],"categories":[],"categories_nodes":[],"categories_segments":[],"categories_sizes":[],"default_left":[0,0,0,0,0,0,0,0,0,0,0],"id":54,"left_children":[1,3,5,-1,-1,7,-1,9,-1,-1,-1],"loss_changes":[2.7344708E0,2.9032838E-1,2.1613839E0,0E0,0E0,2.2295446E0,0E0,2.6948833E-1,0E0,0E0,0E0],"parents":[2147483647,0,0,1,1,2,2,5,5,7,7],"right_children":[2,4,6,-1,-1,8,-1,10,-1,-1,-1],"split_conditions":[9.485185E-2,6.214728E-1,3.4171894E-1,1.3506456E-2,9.2901774E-2,4.178187E-1,-5.1161405E-2,5.953488E-1,-3.824853E-2,1.8234931E-2,1.0590144E-1],"split_indices":[48,25,38,0,0,29,0,10,0,0,0],"split_type":[0,0,0,0,0,0,0,0,0,0,0],"sum_hessian":[1.721322E1,2.3348513E0,1.487837E1,1.075611E0,1.2592403E0,4.2145114E0,1.0663858E1,2.142406E0,2.0721052E0,1.0194638E0,1.1229423E0],"tree_param":{"num_deleted":"0","num_feature":"61","num_nodes":"11","size_leaf_vector":"1"}},{"base_weights":[3.558312E-4,-4.8939954E-2,2.8755015E-1,-4.253395E-2,5.2845824E-1,7.3132175E-1,-3.565195E-2,9.2899996E-1,-3.0159274E-2,6.5704943E-3,1.1219193E-1],"categories":[],"categories_nodes":[],"categories_segments":[],"categories_sizes":[],"default_left":[0,0,0,0,0,0,0,0,0,0,0],"id":55,"left_children":[1,-1,3,-1,5,7,-1,9,-1,-1,-1],"loss_changes":[2.9560993E0,0E0,2.4998631E0,0E0,2.1183617E0,2.0658493E0,0E0,1.189641E0,0E0,0E0,0E0],"parents":[2147483647,0,0,2,2,4,4,5,5,7,7],"right_children":[2,-1,4,-1,6,8,-1,10,-1,-1,-1],"split_conditions":[4.005E-1,-4.8939954E-2,4.1958678E-1,-4.253395E-2,8.064344E-1,7.425338E-1,-3.565195E-2,4.0963E-1,-3.0159274E-2,6.5704943E-3,1.1219193E-1],"split_indices":[15,0,42,0,56,20,0,37,0,0,0],"split_type":[0,0,0,0,0,0,0,0,0,0,0],"sum_hessian":[1.9016163E1,6.7689433E0,1.2247219E1,2.9000099E0,9.347209E0,7.745365E0,1.6018438E0,6.5856185E0,1.1597466E0,1.447734E0,5.1378846E0],"tree_param":{"num_deleted":"0","num_feature":"61","num_nodes":"11","size_leaf_vector":"1"}},{"base_weights":[5.704643E-2,6.045916E-1,-2.436437E-1,-3.279411E-2,8.519089E-1,-4.9620654E-2,2.552465E-1,1.02582686E-1,1.0622909E-2,-3.7292626E-2,7.528515E-2],"categories":[],"categories_nodes":[],"categories_segments":[],"categories_sizes":[],"default_left":[0,0,0,0,0,0,0,0,0,0,0],"id":56,"left_children":[1,3,5,-1,7,-1,9,-1,-1,-1,-1],"loss_changes":[3.3991184E0,1.9603813E0,1.8229041E0,0E0,6.7418337E-1,0E0,1.9014815E0,0E0,0E0,0E0,0E0],"parents":[2147483647,0,0,1,1,2,2,4,4,6,6],"right_children":[2,4,6,-1,8,-1,10,-1,-1,-1,-1],"split_conditions":[2.6428995E-1,3.3848712E-1,7.026561E-1,-3.279411E-2,4.622428E-1,-4.9620654E-2,5.892025E-1,1.02582686E-1,1.0622909E-2,-3.7292626E-2,7.528515E-2],"split_indices":[9,51,1,0,56,0,47,0,0,0,0],"split_type":[0,0,0,0,0,0,0,0,0,0,0],"sum_hessian":[1.875088E1,6.2887063E0,1.2462173E1,1.2498895E0,5.038817E0,8.277217E0,4.184957E0,3.7812157E0,1.2576014E0,1.9605416E0,2.2244153E0],"tree_param":{"num_deleted":"0","num_feature":"61","num_nodes":"11","size_leaf_vector":"1"}},{"base_weights":[-1.5324481E-1,-3.2465798E-1,4.9358872E-1,1.3994125E-1,-5.032993E-2,-2.014546E-3,8.975286E-2,6.237457E-2,-3.684981E-2],"categories":[],"categories_nodes":[],"categories_segments":[],"categories_sizes":[],"default_left":[0,0,0,0,0,0,0,0,0],"id":57,"left_children":[1,3,5,7,-1,-1,-1,-1,-1],"loss_changes":[2.0917873E0,1.2634704E0,8.5774314E-1,1.4043186E0,0E0,0E0,0E0,0E0,0E0],"parents":[2147483647,0,0,1,1,2,2,3,3],"right_children":[2,4,6,8,-1,-1,-1,-1,-1],"split_conditions":[8.659257E-1,2.593184E-1,4.9222583E-1,3.4597632E-1,-5.032993E-2,-2.014546E-3,8.975286E-2,6.237457E-2,-3.684981E-2],"split_indices":[56,34,20,42,0,0,0,0,0],"split_type":[0,0,0,0,0,0,0,0,0],"sum_hessian":[1.6420755E1,1.3374537E1,3.0462184E0,3.7745523E0,9.599985E0,1.7591034E0,1.2871151E0,1.8179247E0,1.9566275E0],"tree_param":{"num_deleted":"0","num_feature":"61","num_nodes":"9","size_leaf_vector":"1"}},{"base_weights":[-8.5621856E-2,-3.5678545E-1,4.086761E-1,-5.057138E-2,4.1165493E-2,7.5328505E-1,-3.592658E-2,7.7284104E-3,9.545897E-2],"categories":[],"categories_nodes":[],"categories_segments":[],"categories_sizes":[],"default_left":[0,0,0,0,0,0,0,0,0],"id":58,"left_children":[1,3,5,-1,-1,7,-1,-1,-1],"loss_changes":[2.5834599E0,1.613295E0,2.0989394E0,0E0,0E0,6.191087E-1,0E0,0E0,0E0],"parents":[2147483647,0,0,1,1,2,2,5,5],"right_children":[2,4,6,-1,-1,8,-1,-1,-1],"split_conditions":[8.2677853E-1,8.931586E-1,6.575002E-1,-5.057138E-2,4.1165493E-2,2.7803332E-1,-3.592658E-2,7.7284104E-3,9.545897E-2],"split_indices":[11,47,7,0,0,29,0,0,0],"split_type":[0,0,0,0,0,0,0,0,0],"sum_hessian":[1.7186586E1,1.1277911E1,5.9086757E0,9.733414E0,1.5444978E0,4.0916567E0,1.8170186E0,1.256413E0,2.835244E0],"tree_param":{"num_deleted":"0","num_feature":"61","num_nodes":"9","size_leaf_vector":"1"}},{"base_weights":[1.4685845E-1,-1.9612221E-1,5.04088E-1,-4.087931E-1,6.302824E-2,7.243963E-1,-3.6370248E-2,1.8197102E-2,-4.991582E-2,9.465659E-1,-5.3583435E-3,1.0915863E-1,1.3002331E-2],"categories":[],"categories_nodes":[],"categories_segments":[],"categories_sizes":[],"default_left":[0,0,0,0,0,0,0,0,0,0,0,0,0],"id":59,"left_children":[1,3,5,7,-1,9,-1,-1,-1,11,-1,-1,-1],"loss_changes":[2.6668644E0,2.2634888E0,2.2797647E0,6.0778224E-1,0E0,1.5623074E0,0E0,0E0,0E0,6.69961E-1,0E0,0E0,0E0],"parents":[2147483647,0,0,1,1,2,2,3,3,5,5,9,9],"right_children":[2,4,6,8,-1,10,-1,-1,-1,12,-1,-1,-1],"split_conditions":[6.2773937E-1,8.6623716E-1,6.271656E-1,7.848852E-2,6.302824E-2,4.9711373E-1,-3.6370248E-2,1.8197102E-2,-4.991582E-2,7.556066E-1,-5.3583435E-3,1.0915863E-1,1.3002331E-2],"split_indices":[7,44,19,41,0,13,0,0,0,43,0,0,0],"split_type":[0,0,0,0,0,0,0,0,0,0,0,0,0],"sum_hessian":[1.9959373E1,1.0412851E1,9.546522E0,8.683527E0,1.7293243E0,7.7454133E0,1.8011091E0,1.0175483E0,7.6659784E0,5.856314E0,1.8890994E0,4.687042E0,1.1692717E0],"tree_param":{"num_deleted":"0","num_feature":"61","num_nodes":"13","size_leaf_vector":"1"}},{"base_weights":[9.8798625E-2,2.6830325E-1,-4.5782354E-2,-4.17024E-2,4.426254E-1,-3.5740428E-2,5.888016E-1,-2.9717172E-2,7.041293E-1,2.7512724E-2,1.0233974E-1],"categories":[],"categories_nodes":[],"categories_segments":[],"categories_sizes":[],"default_left":[0,0,0,0,0,0,0,0,0,0,0],"id":60,"left_children":[1,3,-1,-1,5,-1,7,-1,9,-1,-1],"loss_changes":[2.0877047E0,2.1670833E0,0E0,0E0,1.8142834E0,0E0,1.4326644E0,0E0,1.2101655E0,0E0,0E0],"parents":[2147483647,0,0,1,1,4,4,6,6,8,8],"right_children":[2,4,-1,-1,6,-1,8,-1,10,-1,-1],"split_conditions":[7.4020547E-1,2.0134231E-1,-4.5782354E-2,-4.17024E-2,2.0675837E-1,-3.5740428E-2,1.0978483E-1,-2.9717172E-2,6.271656E-1,2.7512724E-2,1.0233974E-1],"split_indices":[36,7,0,0,49,0,53,0,19,0,0],"split_type":[0,0,0,0,0,0,0,0,0,0,0],"sum_hessian":[1.9825314E1,1.5594422E1,4.2308908E0,2.879955E0,1.2714467E1,1.7409791E0,1.0973488E1,1.0822942E0,9.891193E0,5.014683E0,4.876511E0],"tree_param":{"num_deleted":"0","num_feature":"61","num_nodes":"11","size_leaf_vector":"1"}},{"base_weights":[-1.1055059E-1,6.674699E-1,-2.7614993E-1,8.7634794E-2,1.1909414E-2,2.653481E-1,-5.0607096E-2,-3.7698757E-2,7.821882E-1,1.746279E-2,9.868753E-2],"categories":[],"categories_nodes":[],"categories_segments":[],"categories_sizes":[],"default_left":[0,0,0,0,0,0,0,0,0,0,0],"id":61,"left_children":[1,3,5,-1,-1,7,-1,-1,9,-1,-1],"loss_changes":[2.4742222E0,2.8642547E-1,2.0468206E0,0E0,0E0,2.032655E0,0E0,0E0,2.288276E-1,0E0,0E0],"parents":[2147483647,0,0,1,1,2,2,5,5,8,8],"right_children":[2,4,6,-1,-1,8,-1,-1,10,-1,-1],"split_conditions":[9.485185E-2,4.7067508E-1,3.4171894E-1,8.7634794E-2,1.1909414E-2,6.880885E-1,-5.0607096E-2,-3.7698757E-2,7.3706913E-1,1.746279E-2,9.868753E-2],"split_indices":[48,4,38,0,0,42,0,0,26,0,0],"split_type":[0,0,0,0,0,0,0,0,0,0,0],"sum_hessian":[1.6773252E1,2.4117434E0,1.4361509E1,1.31339E0,1.0983535E0,4.2345157E0,1.0126993E1,2.0086858E0,2.2258298E0,1.0279056E0,1.1979243E0],"tree_param":{"num_deleted":"0","num_feature":"61","num_nodes":"11","size_leaf_vector":"1"}},{"base_weights":[-3.5874844E-3,-4.8360553E-2,2.6784208E-1,-4.1870512E-2,4.920885E-1,6.803236E-1,-3.5148244E-2,8.582737E-1,-2.9425545E-2,6.5639056E-3,1.0293738E-1],"categories":[],"categories_nodes":[],"categories_segments":[],"categories_sizes":[],"default_left":[0,0,0,0,0,0,0,0,0,0,0],"id":62,"left_children":[1,-1,3,-1,5,7,-1,9,-1,-1,-1],"loss_changes":[2.6949353E0,0E0,2.2415242E0,0E0,1.8946228E0,1.7898726E0,0E0,9.836292E-1,0E0,0E0,0E0],"parents":[2147483647,0,0,2,2,4,4,5,5,7,7],"right_children":[2,-1,4,-1,6,8,-1,10,-1,-1,-1],"split_conditions":[4.005E-1,-4.8360553E-2,4.1958678E-1,-4.1870512E-2,8.064344E-1,7.425338E-1,-3.5148244E-2,4.0963E-1,-2.9425545E-2,6.5639056E-3,1.0293738E-1],"split_indices":[15,0,42,0,56,20,0,37,0,0,0],"split_type":[0,0,0,0,0,0,0,0,0,0,0],"sum_hessian":[1.8689798E1,6.468565E0,1.2221232E1,2.7954836E0,9.425749E0,7.8643994E0,1.5613492E0,6.7510524E0,1.1133473E0,1.4442196E0,5.306833E0],"tree_param":{"num_deleted":"0","num_feature":"61","num_nodes":"11","size_leaf_vector":"1"}},{"base_weights":[5.505436E-2,5.653061E-1,-2.3651513E-1,-3.2350067E-2,7.954357E-1,-4.9041428E-2,2.4064334E-1,9.474959E-2,7.76783E-3,-3.6782473E-2,7.030871E-2],"categories":[],"categories_nodes":[],"categories_segments":[],"categories_sizes":[],"default_left":[0,0,0,0,0,0,0,0,0,0,0],"id":63,"left_children":[1,3,5,-1,7,-1,9,-1,-1,-1,-1],"loss_changes":[3.02398E0,1.7626221E0,1.7011936E0,0E0,5.9598017E-1,0E0,1.7244354E0,0E0,0E0,0E0,0E0],"parents":[2147483647,0,0,1,1,2,2,4,4,6,6],"right_children":[2,4,6,-1,8,-1,10,-1,-1,-1,-1],"split_conditions":[2.6428995E-1,3.3848712E-1,7.026561E-1,-3.2350067E-2,7.6746726E-1,-4.9041428E-2,5.892025E-1,9.474959E-2,7.76783E-3,-3.6782473E-2,7.030871E-2],"split_indices":[9,51,1,0,23,0,47,0,0,0,0],"split_type":[0,0,0,0,0,0,0,0,0,0,0],"sum_hessian":[1.8427315E1,6.3594046E0,1.2067909E1,1.2244807E0,5.134924E0,7.858546E0,4.209364E0,3.9731221E0,1.1618017E0,1.9060514E0,2.3033125E0],"tree_param":{"num_deleted":"0","num_feature":"61","num_nodes":"11","size_leaf_vector":"1"}},{"base_weights":[-1.4649117E-1,-4.9063966E-2,1.7490846E-1,7.229145E-1,-1.9102262E-1,1.0321041E-1,5.459595E-3,-4.5487147E-2,6.0439765E-2],"categories":[],"categories_nodes":[],"categories_segments":[],"categories_sizes":[],"default_left":[0,0,0,0,0,0,0,0,0],"id":64,"left_children":[1,-1,3,5,7,-1,-1,-1,-1],"loss_changes":[1.963297E0,0E0,2.046016E0,7.7400875E-1,1.6382126E0,0E0,0E0,0E0,0E0],"parents":[2147483647,0,0,2,2,3,3,4,4],"right_children":[2,-1,4,6,8,-1,-1,-1,-1],"split_conditions":[4.622428E-1,-4.9063966E-2,2.6976675E-1,7.463568E-1,8.867177E-1,1.0321041E-1,5.459595E-3,-4.5487147E-2,6.0439765E-2],"split_indices":[56,0,11,45,28,0,0,0,0],"split_type":[0,0,0,0,0,0,0,0,0],"sum_hessian":[1.5973996E1,7.459711E0,8.514285E0,3.0184333E0,5.495852E0,1.691535E0,1.3268983E0,4.4484076E0,1.0474445E0],"tree_param":{"num_deleted":"0","num_feature":"61","num_nodes":"9","size_leaf_vector":"1"}},{"base_weights":[-8.236581E-2,-3.4864193E-1,3.8785693E-1,-4.9881738E-2,3.936108E-2,7.0202833E-1,-3.503209E-2,6.9655003E-3,8.887624E-2],"categories":[],"categories_nodes":[],"categories_segments":[],"categories_sizes":[],"default_left":[0,0,0,0,0,0,0,0,0],"id":65,"left_children":[1,3,5,-1,-1,7,-1,-1,-1],"loss_changes":[2.3575857E0,1.5182104E0,1.8439369E0,0E0,0E0,5.48156E-1,0E0,0E0,0E0],"parents":[2147483647,0,0,1,1,2,2,5,5],"right_children":[2,4,6,-1,-1,8,-1,-1,-1],"split_conditions":[8.2677853E-1,9.1348875E-1,6.575002E-1,-4.9881738E-2,3.936108E-2,2.2626479E-1,-3.503209E-2,6.9655003E-3,8.887624E-2],"split_indices":[11,34,7,0,0,19,0,0,0],"split_type":[0,0,0,0,0,0,0,0,0],"sum_hessian":[1.674921E1,1.0858727E1,5.890483E0,9.304228E0,1.5544994E0,4.166272E0,1.7242107E0,1.2628063E0,2.9034657E0],"tree_param":{"num_deleted":"0","num_feature":"61","num_nodes":"9","size_leaf_vector":"1"}},{"base_weights":[1.4110833E-1,-1.8929224E-1,4.753011E-1,-4.0150225E-1,5.9438087E-2,6.8026066E-1,-3.582145E-2,-4.936775E-2,1.7885229E-2,8.638831E-1,-2.9839013E-2,1.5638709E-2,9.547342E-2],"categories":[],"categories_nodes":[],"categories_segments":[],"categories_sizes":[],"default_left":[0,0,0,0,0,0,0,0,0,0,0,0,0],"id":66,"left_children":[1,3,5,7,-1,9,-1,-1,-1,11,-1,-1,-1],"loss_changes":[2.3781261E0,2.0905454E0,2.052345E0,5.8898306E-1,0E0,1.8467908E0,0E0,0E0,0E0,3.4576702E-1,0E0,0E0,0E0],"parents":[2147483647,0,0,1,1,2,2,3,3,5,5,9,9],"right_children":[2,4,6,8,-1,10,-1,-1,-1,12,-1,-1,-1],"split_conditions":[6.2773937E-1,8.6623716E-1,6.6370356E-1,8.993829E-1,5.9438087E-2,7.746472E-1,-3.582145E-2,-4.936775E-2,1.7885229E-2,2.4743813E-1,-2.9839013E-2,1.5638709E-2,9.547342E-2],"split_indices":[7,44,13,54,0,43,0,0,0,16,0,0,0],"split_type":[0,0,0,0,0,0,0,0,0,0,0,0,0],"sum_hessian":[1.9722765E1,1.0135681E1,9.587085E0,8.359647E0,1.7760339E0,7.842498E0,1.7445868E0,7.3427773E0,1.0168698E0,6.7022405E0,1.1402575E0,1.0723959E0,5.6298447E0],"tree_param":{"num_deleted":"0","num_feature":"61","num_nodes":"13","size_leaf_vector":"1"}},{"base_weights":[9.0408884E-2,2.904758E-1,-3.4913173E-1,-3.928138E-2,4.497305E-1,-4.6556447E-2,1.6080925E-2,6.1861706E-1,-3.623E-2,8.0919284E-1,5.176876E-2,2.8837347E-2,1.0156335E-1,-3.48073E-2,5.1430482E-2],"categories":[],"categories_nodes":[],"categories_segments":[],"categories_sizes":[],"default_left":[0,0,0,0,0,0,0,0,0,0,0,0,0,0,0],"id":67,"left_children":[1,3,5,-1,7,-1,-1,9,-1,11,13,-1,-1,-1,-1],"loss_changes":[1.9160712E0,1.7791895E0,4.8507684E-1,0E0,1.9259665E0,0E0,0E0,1.1077628E0,0E0,5.561013E-1,8.7181336E-1,0E0,0E0,0E0,0E0],"parents":[2147483647,0,0,1,1,2,2,4,4,7,7,9,9,10,10],"right_children":[2,4,6,-1,8,-1,-1,10,-1,12,14,-1,-1,-1,-1],"split_conditions":[6.639498E-1,2.129235E-1,9.004003E-1,-3.928138E-2,8.001116E-1,-4.6556447E-2,1.6080925E-2,6.3120097E-1,-3.623E-2,3.694638E-1,4.3291074E-1,2.8837347E-2,1.0156335E-1,-3.48073E-2,5.1430482E-2],"split_indices":[47,49,34,0,14,0,0,18,0,21,27,0,0,0,0],"split_type":[0,0,0,0,0,0,0,0,0,0,0,0,0,0,0],"sum_hessian":[1.9635752E1,1.3726816E1,5.9089346E0,2.317387E0,1.140943E1,4.881406E0,1.0275285E0,9.6422205E0,1.7672093E0,6.896178E0,2.7460423E0,2.6379354E0,4.258242E0,1.6055685E0,1.1404737E0],"tree_param":{"num_deleted":"0","num_feature":"61","num_nodes":"15","size_leaf_vector":"1"}},{"base_weights":[-1.03079736E-1,4.960929E-1,-3.0663967E-1,7.9583816E-2,-3.0510534E-2,-4.3519437E-1,6.371384E-2,-5.045885E-2,1.776835E-2],"categories":[],"categories_nodes":[],"categories_segments":[],"categories_sizes":[],"default_left":[0,0,0,0,0,0,0,0,0],"id":68,"left_children":[1,3,5,-1,-1,7,-1,-1,-1],"loss_changes":[2.2642093E0,1.3891367E0,1.9204786E0,0E0,0E0,6.218815E-1,0E0,0E0,0E0],"parents":[2147483647,0,0,1,1,2,2,5,5],"right_children":[2,4,6,-1,-1,8,-1,-1,-1],"split_conditions":[1.266691E-1,6.077398E-1,8.7275976E-1,7.9583816E-2,-3.0510534E-2,9.516098E-1,6.371384E-2,-5.045885E-2,1.776835E-2],"split_indices":[48,4,36,0,0,43,0,0,0],"split_type":[0,0,0,0,0,0,0,0,0],"sum_hessian":[1.6316801E1,3.7732544E0,1.2543548E1,2.7508087E0,1.0224456E0,1.1514065E1,1.0294831E0,1.0501684E1,1.0123806E0],"tree_param":{"num_deleted":"0","num_feature":"61","num_nodes":"9","size_leaf_vector":"1"}},{"base_weights":[-6.5218206E-3,-4.777122E-2,2.5114977E-1,-4.1171085E-2,4.6099856E-1,6.366376E-1,-3.4575086E-2,8.011491E-1,-2.8918153E-2,6.6345595E-3,9.5539875E-2],"categories":[],"categories_nodes":[],"categories_segments":[],"categories_sizes":[],"default_left":[0,0,0,0,0,0,0,0,0,0,0],"id":69,"left_children":[1,-1,3,-1,5,7,-1,9,-1,-1,-1],"loss_changes":[2.4635558E0,0E0,2.0167546E0,0E0,1.7005172E0,1.5920451E0,0E0,8.262763E-1,0E0,0E0,0E0],"parents":[2147483647,0,0,2,2,4,4,5,5,7,7],"right_children":[2,-1,4,-1,6,8,-1,10,-1,-1,-1],"split_conditions":[4.005E-1,-4.777122E-2,4.1958678E-1,-4.1171085E-2,8.064344E-1,7.425338E-1,-3.4575086E-2,4.0963E-1,-2.8918153E-2,6.6345595E-3,9.5539875E-2],"split_indices":[15,0,42,0,56,20,0,37,0,0,0],"split_type":[0,0,0,0,0,0,0,0,0,0,0],"sum_hessian":[1.8302633E1,6.168559E0,1.2134075E1,2.686414E0,9.44766E0,7.931696E0,1.5159647E0,6.8492856E0,1.0824103E0,1.4364666E0,5.4128194E0],"tree_param":{"num_deleted":"0","num_feature":"61","num_nodes":"11","size_leaf_vector":"1"}},{"base_weights":[5.2287966E-2,6.6979194E-1,-1.665929E-1,8.757069E-2,3.3986547E-3,3.043705E-1,-4.0903065E-1,6.2058496E-1,-3.3700638E-2,-4.9458753E-2,1.8514303E-2,8.415997E-3,8.1222765E-2],"categories":[],"categories_nodes":[],"categories_segments":[],"categories_sizes":[],"default_left":[0,0,0,0,0,0,0,0,0,0,0,0,0],"id":70,"left_children":[1,3,5,-1,-1,7,9,11,-1,-1,-1,-1,-1],"loss_changes":[2.6917214E0,6.503625E-1,1.8251579E0,0E0,0E0,1.3520019E0,6.1312306E-1,3.5582304E-1,0E0,0E0,0E0,0E0,0E0],"parents":[2147483647,0,0,1,1,2,2,5,5,6,6,7,7],"right_children":[2,4,6,-1,-1,8,10,12,-1,-1,-1,-1,-1],"split_conditions":[1.408864E-1,5.8810246E-1,2.318223E-1,8.757069E-2,3.3986547E-3,6.422592E-1,9.090781E-1,4.925121E-1,-3.3700638E-2,-4.9458753E-2,1.8514303E-2,8.415997E-3,8.1222765E-2],"split_indices":[9,10,25,0,0,43,16,51,0,0,0,0,0],"split_type":[0,0,0,0,0,0,0,0,0,0,0,0,0],"sum_hessian":[1.8089544E1,4.194892E0,1.3894652E1,2.883658E0,1.311234E0,4.6350574E0,9.259595E0,3.1261883E0,1.5088694E0,8.240608E0,1.0189863E0,1.2016928E0,1.9244952E0],"tree_param":{"num_deleted":"0","num_feature":"61","num_nodes":"13","size_leaf_vector":"1"}},{"base_weights":[-1.3929325E-1,-4.8444252E-2,1.7083505E-1,6.750159E-1,-1.8393585E-1,9.571422E-2,4.986431E-3,-4.4843744E-2,5.7137776E-2],"categories":[],"categories_nodes":[],"categories_segments":[],"categories_sizes":[],"default_left":[0,0,0,0,0,0,0,0,0],"id":71,"left_children":[1,-1,3,5,7,-1,-1,-1,-1],"loss_changes":[1.8493867E0,0E0,1.8113323E0,6.7716193E-1,1.5193375E0,0E0,0E0,0E0,0E0],"parents":[2147483647,0,0,2,2,3,3,4,4],"right_children":[2,-1,4,6,8,-1,-1,-1,-1],"split_conditions":[4.622428E-1,-4.8444252E-2,2.6976675E-1,7.463568E-1,8.867177E-1,9.571422E-2,4.986431E-3,-4.4843744E-2,5.7137776E-2],"split_indices":[56,0,11,45,28,0,0,0,0],"split_type":[0,0,0,0,0,0,0,0,0],"sum_hessian":[1.5504278E1,7.0718145E0,8.432465E0,3.1100092E0,5.322455E0,1.7770042E0,1.333005E0,4.2429247E0,1.0795304E0],"tree_param":{"num_deleted":"0","num_feature":"61","num_nodes":"9","size_leaf_vector":"1"}},{"base_weights":[-7.888818E-2,-2.3479313E-1,6.636368E-2,-4.2670068E-1,3.5385358E-1,1.8841371E-2,-5.0273158E-2,-3.1760048E-2,7.5490914E-2],"categories":[],"categories_nodes":[],"categories_segments":[],"categories_sizes":[],"default_left":[0,0,0,0,0,0,0,0,0],"id":72,"left_children":[1,3,-1,5,7,-1,-1,-1,-1],"loss_changes":[2.157091E0,1.8484538E0,0E0,6.458931E-1,1.3818347E0,0E0,0E0,0E0,0E0],"parents":[2147483647,0,0,1,1,3,3,4,4],"right_children":[2,4,-1,6,8,-1,-1,-1,-1],"split_conditions":[9.397287E-1,7.7557594E-1,6.636368E-2,5.9560366E-2,8.339144E-1,1.8841371E-2,-5.0273158E-2,-3.1760048E-2,7.5490914E-2],"split_indices":[48,10,0,22,11,0,0,0,0],"split_type":[0,0,0,0,0,0,0,0,0],"sum_hessian":[1.628763E1,1.4026363E1,2.2612674E0,1.0785309E1,3.2410548E0,1.0238569E0,9.761452E0,1.2897768E0,1.9512781E0],"tree_param":{"num_deleted":"0","num_feature":"61","num_nodes":"9","size_leaf_vector":"1"}},{"base_weights":[1.343526E-1,-4.6599463E-2,6.9144005E-1,5.995631E-1,-2.5297764E-1,8.7917954E-2,3.6309164E-3,6.4975617E-4,8.954338E-2,-4.938009E-2,2.528121E-1,6.114588E-2,-3.370517E-2],"categories":[],"categories_nodes":[],"categories_segments":[],"categories_sizes":[],"default_left":[0,0,0,0,0,0,0,0,0,0,0,0,0],"id":73,"left_children":[1,3,5,7,9,-1,-1,-1,-1,-1,11,-1,-1],"loss_changes":[2.0943196E0,2.3356843E0,5.927088E-1,7.419176E-1,1.7224727E0,0E0,0E0,0E0,0E0,0E0,1.2410265E0,0E0,0E0],"parents":[2147483647,0,0,1,1,2,2,3,3,4,4,10,10],"right_children":[2,4,6,8,10,-1,-1,-1,-1,-1,12,-1,-1],"split_conditions":[8.638554E-1,2.2833532E-1,6.501199E-1,4.631726E-1,8.0720717E-1,8.7917954E-2,3.6309164E-3,6.4975617E-4,8.954338E-2,-4.938009E-2,7.126578E-1,6.114588E-2,-3.370517E-2],"split_indices":[44,20,3,15,9,0,0,0,0,0,5,0,0],"split_type":[0,0,0,0,0,0,0,0,0,0,0,0,0],"sum_hessian":[1.9456089E1,1.5377539E1,4.0785503E0,3.2613144E0,1.2116224E1,2.9042847E0,1.1742657E0,1.4256315E0,1.835683E0,8.224141E0,3.8920832E0,2.397658E0,1.494425E0],"tree_param":{"num_deleted":"0","num_feature":"61","num_nodes":"13","size_leaf_vector":"1"}},{"base_weights":[8.50289E-2,2.3909336E-1,-4.4647336E-2,-4.0576357E-2,3.9451542E-1,-3.419027E-2,5.192612E-1,6.217156E-1,-2.9205164E-2,7.783263E-2,8.090405E-3],"categories":[],"categories_nodes":[],"categories_segments":[],"categories_sizes":[],"default_left":[0,0,0,0,0,0,0,0,0,0,0],"id":74,"left_children":[1,3,-1,-1,5,-1,7,9,-1,-1,-1],"loss_changes":[1.771843E0,1.8053715E0,0E0,0E0,1.43929E0,0E0,1.190872E0,8.7720585E-1,0E0,0E0,0E0],"parents":[2147483647,0,0,1,1,4,4,6,6,7,7],"right_children":[2,4,-1,-1,6,-1,8,10,-1,-1,-1],"split_conditions":[7.4020547E-1,2.0134231E-1,-4.4647336E-2,-4.0576357E-2,2.0675837E-1,-3.419027E-2,8.001116E-1,6.9937074E-1,-2.9205164E-2,7.783263E-2,8.090405E-3],"split_indices":[36,7,0,0,49,0,14,7,0,0,0],"split_type":[0,0,0,0,0,0,0,0,0,0,0],"sum_hessian":[1.9334393E1,1.5415978E1,3.9184136E0,2.681117E0,1.2734861E1,1.5925688E0,1.1142293E1,1.0100473E1,1.0418192E0,7.491786E0,2.6086876E0],"tree_param":{"num_deleted":"0","num_feature":"61","num_nodes":"11","size_leaf_vector":"1"}},{"base_weights":[-9.754726E-2,-3.4654108E-1,3.6940598E-1,5.3789534E-2,-5.013137E-2,-3.813037E-2,8.237181E-2],"categories":[],"categories_nodes":[],"categories_segments":[],"categories_sizes":[],"default_left":[0,0,0,0,0,0,0],"id":75,"left_children":[1,3,5,-1,-1,-1,-1],"loss_changes":[2.091884E0,1.848292E0,2.4826465E0,0E0,0E0,0E0,0E0],"parents":[2147483647,0,0,1,1,2,2],"right_children":[2,4,6,-1,-1,-1,-1],"split_conditions":[6.7569584E-1,9.5147416E-2,5.9022826E-1,5.3789534E-2,-5.013137E-2,-3.813037E-2,8.237181E-2],"split_indices":[39,37,0,0,0,0,0],"split_type":[0,0,0,0,0,0,0],"sum_hessian":[1.5890816E1,1.0532455E1,5.358361E0,1.1999636E0,9.332492E0,2.0807726E0,3.2775881E0],"tree_param":{"num_deleted":"0","num_feature":"61","num_nodes":"7","size_leaf_vector":"1"}},{"base_weights":[-8.74789E-3,-4.7179073E-2,2.369622E-1,-4.048957E-2,4.3502018E-1,6.0127294E-1,-3.4060836E-2,7.538833E-1,-2.8272117E-2,6.751758E-3,8.949774E-2],"categories":[],"categories_nodes":[],"categories_segments":[],"categories_sizes":[],"default_left":[0,0,0,0,0,0,0,0,0,0,0],"id":76,"left_children":[1,-1,3,-1,5,7,-1,9,-1,-1,-1],"loss_changes":[2.2592726E0,0E0,1.8283834E0,0E0,1.5477253E0,1.4188905E0,0E0,7.04103E-1,0E0,0E0,0E0],"parents":[2147483647,0,0,2,2,4,4,5,5,7,7],"right_children":[2,-1,4,-1,6,8,-1,10,-1,-1,-1],"split_conditions":[4.005E-1,-4.7179073E-2,4.1958678E-1,-4.048957E-2,8.064344E-1,7.425338E-1,-3.4060836E-2,4.0963E-1,-2.8272117E-2,6.751758E-3,8.949774E-2],"split_indices":[15,0,42,0,56,20,0,37,0,0,0],"split_type":[0,0,0,0,0,0,0,0,0,0,0],"sum_hessian":[1.7874878E1,5.8778696E0,1.1997008E1,2.5827177E0,9.41429E0,7.9376755E0,1.4766154E0,6.8945966E0,1.0430789E0,1.4277407E0,5.4668555E0],"tree_param":{"num_deleted":"0","num_feature":"61","num_nodes":"11","size_leaf_vector":"1"}},{"base_weights":[5.181212E-2,5.026383E-1,-2.2406073E-1,-3.1685617E-2,7.0945334E-1,-4.8013244E-2,2.2490689E-1,8.375676E-2,6.9171614E-3,-3.5336718E-2,6.280436E-2],"categories":[],"categories_nodes":[],"categories_segments":[],"categories_sizes":[],"default_left":[0,0,0,0,0,0,0,0,0,0,0],"id":77,"left_children":[1,3,5,-1,7,-1,9,-1,-1,-1,-1],"loss_changes":[2.4377356E0,1.4798933E0,1.5208955E0,0E0,4.524386E-1,0E0,1.42126E0,0E0,0E0,0E0,0E0],"parents":[2147483647,0,0,1,1,2,2,4,4,6,6],"right_children":[2,4,6,-1,8,-1,10,-1,-1,-1,-1],"split_conditions":[2.6428995E-1,3.3848712E-1,7.026561E-1,-3.1685617E-2,7.6746726E-1,-4.8013244E-2,5.892025E-1,8.375676E-2,6.9171614E-3,-3.5336718E-2,6.280436E-2],"split_indices":[9,51,1,0,23,0,47,0,0,0,0],"split_type":[0,0,0,0,0,0,0,0,0,0,0],"sum_hessian":[1.769503E1,6.4054203E0,1.1289609E1,1.1835575E0,5.221863E0,7.144997E0,4.144612E0,4.0944743E0,1.1273887E0,1.7532054E0,2.391406E0],"tree_param":{"num_deleted":"0","num_feature":"61","num_nodes":"11","size_leaf_vector":"1"}},{"base_weights":[-1.330269E-1,-4.7865808E-2,1.671185E-1,5.3214085E-1,-2.5966802E-1,-2.8418118E-2,7.956051E-2,1.7458705E-2,-4.1365072E-2],"categories":[],"categories_nodes":[],"categories_segments":[],"categories_sizes":[],"default_left":[0,0,0,0,0,0,0,0,0],"id":78,"left_children":[1,-1,3,5,7,-1,-1,-1,-1],"loss_changes":[1.7445619E0,0E0,1.5915335E0,1.3780974E0,4.04736E-1,0E0,0E0,0E0,0E0],"parents":[2147483647,0,0,2,2,3,3,4,4],"right_children":[2,-1,4,6,8,-1,-1,-1,-1],"split_conditions":[4.622428E-1,-4.7865808E-2,3.6590055E-1,1.9144584E-1,2.878108E-1,-2.8418118E-2,7.956051E-2,1.7458705E-2,-4.1365072E-2],"split_indices":[56,0,44,36,13,0,0,0,0],"split_type":[0,0,0,0,0,0,0,0,0],"sum_hessian":[1.5045648E1,6.716517E0,8.32913E0,4.3563623E0,3.972768E0,1.0437515E0,3.3126109E0,1.0049222E0,2.967846E0],"tree_param":{"num_deleted":"0","num_feature":"61","num_nodes":"9","size_leaf_vector":"1"}},{"base_weights":[-7.480685E-2,-3.3147982E-1,3.5350707E-1,-4.912987E-2,3.8701158E-2,6.2635034E-1,-3.3574115E-2,5.8095898E-3,7.9078965E-2],"categories":[],"categories_nodes":[],"categories_segments":[],"categories_sizes":[],"default_left":[0,0,0,0,0,0,0,0,0],"id":79,"left_children":[1,3,5,-1,-1,7,-1,-1,-1],"loss_changes":[1.9653811E0,1.4564793E0,1.4859562E0,0E0,0E0,4.4077086E-1,0E0,0E0,0E0],"parents":[2147483647,0,0,1,1,2,2,5,5],"right_children":[2,4,6,-1,-1,8,-1,-1,-1],"split_conditions":[8.2677853E-1,8.931586E-1,6.575002E-1,-4.912987E-2,3.8701158E-2,2.7803332E-1,-3.3574115E-2,5.8095898E-3,7.9078965E-2],"split_indices":[11,47,7,0,0,29,0,0,0],"split_type":[0,0,0,0,0,0,0,0,0],"sum_hessian":[1.5811511E1,1.00281105E1,5.7834005E0,8.462049E0,1.5660621E0,4.2086396E0,1.574761E0,1.2482717E0,2.960368E0],"tree_param":{"num_deleted":"0","num_feature":"61","num_nodes":"9","size_leaf_vector":"1"}},{"base_weights":[1.3091043E-1,-1.7870575E-1,4.2997593E-1,-3.8864943E-1,5.2845843E-2,6.143089E-1,-3.4875732E-2,1.704966E-2,-4.8481166E-2,7.8896874E-1,-4.7836355E-3,9.218594E-3,8.902742E-2],"categories":[],"categories_nodes":[],"categories_segments":[],"categories_sizes":[],"default_left":[0,0,0,0,0,0,0,0,0,0,0,0,0],"id":80,"left_children":[1,3,5,7,-1,9,-1,-1,-1,11,-1,-1,-1],"loss_changes":[1.9389541E0,1.7772126E0,1.7247798E0,5.5258775E-1,0E0,1.0636744E0,0E0,0E0,0E0,4.1745043E-1,0E0,0E0,0E0],"parents":[2147483647,0,0,1,1,2,2,3,3,5,5,9,9],"right_children":[2,4,6,8,-1,10,-1,-1,-1,12,-1,-1,-1],"split_conditions":[6.2773937E-1,8.6623716E-1,6.271656E-1,6.1036143E-2,5.2845843E-2,4.9711373E-1,-3.4875732E-2,1.704966E-2,-4.8481166E-2,2.7662233E-1,-4.7836355E-3,9.218594E-3,8.902742E-2],"split_indices":[7,44,19,36,0,13,0,0,0,9,0,0,0],"split_type":[0,0,0,0,0,0,0,0,0,0,0,0,0],"sum_hessian":[1.9110207E1,9.587217E0,9.52299E0,7.7398214E0,1.8473957E0,7.8709993E0,1.651991E0,1.0223343E0,6.7174873E0,6.0765896E0,1.7944095E0,1.0137763E0,5.0628133E0],"tree_param":{"num_deleted":"0","num_feature":"61","num_nodes":"13","size_leaf_vector":"1"}},{"base_weights":[7.653657E-2,2.2257496E-1,-4.404098E-2,-3.992752E-2,3.6796758E-1,-3.3480324E-2,4.832236E-1,-2.857914E-2,5.786233E-1,8.705045E-2,2.4553511E-2],"categories":[],"categories_nodes":[],"categories_segments":[],"categories_sizes":[],"default_left":[0,0,0,0,0,0,0,0,0,0,0],"id":81,"left_children":[1,3,-1,-1,5,-1,7,-1,9,-1,-1],"loss_changes":[1.6144128E0,1.6229954E0,0E0,0E0,1.2757286E0,0E0,1.0621822E0,0E0,8.7570834E-1,0E0,0E0],"parents":[2147483647,0,0,1,1,4,4,6,6,8,8],"right_children":[2,4,-1,-1,6,-1,8,-1,10,-1,-1],"split_conditions":[7.4020547E-1,2.0134231E-1,-4.404098E-2,-3.992752E-2,2.0675837E-1,-3.3480324E-2,1.0978483E-1,-2.857914E-2,3.9367357E-1,8.705045E-2,2.4553511E-2],"split_indices":[36,7,0,0,49,0,53,0,53,0,0],"split_type":[0,0,0,0,0,0,0,0,0,0,0],"sum_hessian":[1.9086208E1,1.532602E1,3.7601883E0,2.5733805E0,1.2752639E1,1.5283984E0,1.1224241E1,1.0184898E0,1.0205751E1,4.579422E0,5.626329E0],"tree_param":{"num_deleted":"0","num_feature":"61","num_nodes":"11","size_leaf_vector":"1"}},{"base_weights":[-9.297507E-2,2.0416091E-1,-4.8072614E-2,-1.9605821E-1,7.711025E-2,6.2481284E-2,-4.5441777E-2],"categories":[],"categories_nodes":[],"categories_segments":[],"categories_sizes":[],"default_left":[0,0,0,0,0,0,0],"id":82,"left_children":[1,3,-1,5,-1,-1,-1],"loss_changes":[1.9962422E0,2.426759E0,0E0,1.6998084E0,0E0,0E0,0E0],"parents":[2147483647,0,0,1,1,3,3],"right_children":[2,4,-1,6,-1,-1,-1],"split_conditions":[5.037796E-1,6.257347E-1,-4.8072614E-2,9.951962E-2,7.711025E-2,6.2481284E-2,-4.5441777E-2],"split_indices":[29,39,0,37,0,0,0],"split_type":[0,0,0,0,0,0,0],"sum_hessian":[1.547442E1,9.028953E0,6.445467E0,5.6761737E0,3.352779E0,1.0192821E0,4.656892E0],"tree_param":{"num_deleted":"0","num_feature":"61","num_nodes":"7","size_leaf_vector":"1"}},{"base_weights":[-1.1653174E-2,-4.66084E-2,2.2324531E-1,-3.986767E-2,4.1120467E-1,5.690545E-1,-3.3524424E-2,7.1177924E-1,-2.7657926E-2,6.7234123E-3,8.429362E-2],"categories":[],"categories_nodes":[],"categories_segments":[],"categories_sizes":[],"default_left":[0,0,0,0,0,0,0,0,0,0,0],"id":83,"left_children":[1,-1,3,-1,5,7,-1,9,-1,-1,-1],"loss_changes":[2.0713382E0,0E0,1.6632123E0,0E0,1.4092607E0,1.2718673E0,0E0,6.1121225E-1,0E0,0E0,0E0],"parents":[2147483647,0,0,2,2,4,4,5,5,7,7],"right_children":[2,-1,4,-1,6,8,-1,10,-1,-1,-1],"split_conditions":[4.005E-1,-4.66084E-2,4.1958678E-1,-3.986767E-2,8.064344E-1,7.425338E-1,-3.3524424E-2,4.0963E-1,-2.7657926E-2,6.7234123E-3,8.429362E-2],"split_indices":[15,0,42,0,56,20,0,37,0,0,0],"split_type":[0,0,0,0,0,0,0,0,0,0,0],"sum_hessian":[1.7429762E1,5.6040545E0,1.18257065E1,2.4843576E0,9.34135E0,7.9069386E0,1.4344109E0,6.9005613E0,1.0063772E0,1.4225144E0,5.478047E0],"tree_param":{"num_deleted":"0","num_feature":"61","num_nodes":"11","size_leaf_vector":"1"}},{"base_weights":[5.0212316E-2,4.7515416E-1,-2.1815957E-1,-3.1114925E-2,6.6997856E-1,-4.744196E-2,2.124042E-1,7.877748E-2,6.744755E-3,-3.4710642E-2,5.881662E-1,1.1700801E-2,7.358597E-2],"categories":[],"categories_nodes":[],"categories_segments":[],"categories_sizes":[],"default_left":[0,0,0,0,0,0,0,0,0,0,0,0,0],"id":84,"left_children":[1,3,5,-1,7,-1,9,-1,-1,-1,11,-1,-1],"loss_changes":[2.1896758E0,1.3413223E0,1.413385E0,0E0,3.9002204E-1,0E0,1.2825834E0,0E0,0E0,0E0,1.5325856E-1,0E0,0E0],"parents":[2147483647,0,0,1,1,2,2,4,4,6,6,10,10],"right_children":[2,4,6,-1,8,-1,10,-1,-1,-1,12,-1,-1],"split_conditions":[2.6428995E-1,3.3848712E-1,7.026561E-1,-3.1114925E-2,7.6746726E-1,-4.744196E-2,5.892025E-1,7.877748E-2,6.744755E-3,-3.4710642E-2,4.3949562E-1,1.1700801E-2,7.358597E-2],"split_indices":[9,51,1,0,23,0,47,0,0,0,2,0,0],"split_type":[0,0,0,0,0,0,0,0,0,0,0,0,0],"sum_hessian":[1.7291578E1,6.395072E0,1.0896506E1,1.1513191E0,5.243753E0,6.7670703E0,4.1294355E0,4.1290684E0,1.1146848E0,1.689711E0,2.4397247E0,1.0099883E0,1.4297364E0],"tree_param":{"num_deleted":"0","num_feature":"61","num_nodes":"13","size_leaf_vector":"1"}},{"base_weights":[-1.2888074E-1,-4.7270197E-2,1.5851547E-1,5.9607E-1,-1.744088E-1,8.3989635E-2,3.710907E-3,-4.3776087E-2,5.2036297E-2],"categories":[],"categories_nodes":[],"categories_segments":[],"categories_sizes":[],"default_left":[0,0,0,0,0,0,0,0,0],"id":85,"left_children":[1,-1,3,5,7,-1,-1,-1,-1],"loss_changes":[1.6185086E0,0E0,1.452549E0,5.4487467E-1,1.3312962E0,0E0,0E0,0E0,0E0],"parents":[2147483647,0,0,2,2,3,3,4,4],"right_children":[2,-1,4,6,8,-1,-1,-1,-1],"split_conditions":[4.622428E-1,-4.7270197E-2,2.6976675E-1,7.463568E-1,8.867177E-1,8.3989635E-2,3.710907E-3,-4.3776087E-2,5.2036297E-2],"split_indices":[56,0,11,45,28,0,0,0,0],"split_type":[0,0,0,0,0,0,0,0,0],"sum_hessian":[1.4621216E1,6.3635383E0,8.257677E0,3.2266111E0,5.031066E0,1.8966596E0,1.3299516E0,3.91646E0,1.1146061E0],"tree_param":{"num_deleted":"0","num_feature":"61","num_nodes":"9","size_leaf_vector":"1"}},{"base_weights":[-7.1394354E-2,-2.2341903E-1,5.9734758E-2,-4.1301474E-1,3.2740748E-1,1.853474E-2,-4.9311157E-2,-3.022853E-2,6.798178E-2],"categories":[],"categories_nodes":[],"categories_segments":[],"categories_sizes":[],"default_left":[0,0,0,0,0,0,0,0,0],"id":86,"left_children":[1,3,-1,5,7,-1,-1,-1,-1],"loss_changes":[1.7933773E0,1.6005318E0,0E0,6.128551E-1,1.1265643E0,0E0,0E0,0E0,0E0],"parents":[2147483647,0,0,1,1,3,3,4,4],"right_children":[2,4,-1,6,8,-1,-1,-1,-1],"split_conditions":[9.397287E-1,7.7557594E-1,5.9734758E-2,5.9560366E-2,8.339144E-1,1.853474E-2,-4.9311157E-2,-3.022853E-2,6.798178E-2],"split_indices":[48,10,0,22,11,0,0,0,0],"split_type":[0,0,0,0,0,0,0,0,0],"sum_hessian":[1.5327292E1,1.3030898E1,2.2963943E0,9.880276E0,3.150622E0,1.0113044E0,8.868972E0,1.1815834E0,1.9690385E0],"tree_param":{"num_deleted":"0","num_feature":"61","num_nodes":"9","size_leaf_vector":"1"}},{"base_weights":[1.2729912E-1,-1.710696E-1,4.0847093E-1,-3.8081354E-1,5.0400306E-2,5.823977E-1,-3.431027E-2,1.6375802E-2,-4.7881167E-2,7.3137254E-1,-2.8038576E-2,1.2808402E-2,8.0289215E-2],"categories":[],"categories_nodes":[],"categories_segments":[],"categories_sizes":[],"default_left":[0,0,0,0,0,0,0,0,0,0,0,0,0],"id":87,"left_children":[1,3,5,7,-1,9,-1,-1,-1,11,-1,-1,-1],"loss_changes":[1.7273388E0,1.6489358E0,1.5680226E0,5.277858E-1,0E0,1.3452165E0,0E0,0E0,0E0,2.354989E-1,0E0,0E0,0E0],"parents":[2147483647,0,0,1,1,2,2,3,3,5,5,9,9],"right_children":[2,4,6,8,-1,10,-1,-1,-1,12,-1,-1,-1],"split_conditions":[6.2773937E-1,8.6623716E-1,6.6370356E-1,6.1036143E-2,5.0400306E-2,7.746472E-1,-3.431027E-2,1.6375802E-2,-4.7881167E-2,2.3507242E-1,-2.8038576E-2,1.2808402E-2,8.0289215E-2],"split_indices":[7,44,13,36,0,43,0,0,0,10,0,0,0],"split_type":[0,0,0,0,0,0,0,0,0,0,0,0,0],"sum_hessian":[1.8756884E1,9.290134E0,9.466749E0,7.420492E0,1.8696418E0,7.870483E0,1.5962665E0,1.0293585E0,6.391134E0,6.8414893E0,1.0289938E0,1.020889E0,5.8206E0],"tree_param":{"num_deleted":"0","num_feature":"61","num_nodes":"13","size_leaf_vector":"1"}},{"base_weights":[7.067613E-2,2.1004072E-1,-4.3433525E-2,-3.920545E-2,3.4651253E-1,3.970356E-2,6.375427E-1,-4.140331E-2,4.1479185E-1,7.021849E-3,7.560621E-2,-6.533328E-3,7.186409E-2],"categories":[],"categories_nodes":[],"categories_segments":[],"categories_sizes":[],"default_left":[0,0,0,0,0,0,0,0,0,0,0,0,0],"id":88,"left_children":[1,3,-1,-1,5,7,9,-1,11,-1,-1,-1,-1],"loss_changes":[1.4831306E0,1.4648138E0,0E0,0E0,1.1993822E0,1.4895835E0,4.157338E-1,0E0,7.3824304E-1,0E0,0E0,0E0,0E0],"parents":[2147483647,0,0,1,1,4,4,5,5,6,6,8,8],"right_children":[2,4,-1,-1,6,8,10,-1,12,-1,-1,-1,-1],"split_conditions":[7.4020547E-1,2.0134231E-1,-4.3433525E-2,-3.920545E-2,6.271656E-1,6.9768184E-1,3.3588666E-1,-4.140331E-2,5.939525E-1,7.021849E-3,7.560621E-2,-6.533328E-3,7.186409E-2],"split_indices":[36,7,0,0,19,8,57,0,49,0,0,0,0],"split_type":[0,0,0,0,0,0,0,0,0,0,0,0,0],"sum_hessian":[1.8776766E1,1.5173518E1,3.6032467E0,2.4576979E0,1.271582E1,6.743321E0,5.9724994E0,3.004731E0,3.7385902E0,1.3072875E0,4.6652117E0,1.7532245E0,1.9853656E0],"tree_param":{"num_deleted":"0","num_feature":"61","num_nodes":"13","size_leaf_vector":"1"}},{"base_weights":[-8.800057E-2,1.973934E-1,-4.741762E-2,-2.860189E-1,6.070175E-1,-4.1775238E-2,1.2994385E-2,-2.8015047E-3,8.799753E-2],"categories":[],"categories_nodes":[],"categories_segments":[],"categories_sizes":[],"default_left":[0,0,0,0,0,0,0,0,0],"id":89,"left_children":[1,3,-1,5,7,-1,-1,-1,-1],"loss_changes":[1.8594351E0,2.1378229E0,0E0,3.4084675E-1,1.0108981E0,0E0,0E0,0E0,0E0],"parents":[2147483647,0,0,1,1,3,3,4,4],"right_children":[2,4,-1,6,8,-1,-1,-1,-1],"split_conditions":[5.037796E-1,5.8810246E-1,-4.741762E-2,8.0054295E-1,5.6601936E-1,-4.1775238E-2,1.2994385E-2,-2.8015047E-3,8.799753E-2],"split_indices":[29,10,0,7,43,0,0,0,0],"split_type":[0,0,0,0,0,0,0,0,0],"sum_hessian":[1.5022145E1,8.919356E0,6.1027894E0,4.229602E0,4.6897545E0,3.2090182E0,1.0205836E0,1.6795859E0,3.0101683E0],"tree_param":{"num_deleted":"0","num_feature":"61","num_nodes":"9","size_leaf_vector":"1"}},{"base_weights":[-1.3508299E-2,-4.6005663E-2,2.114532E-1,4.406895E-1,-2.7568564E-1,-3.3830456E-2,6.485594E-1,9.860431E-3,-4.051982E-2,7.717379E-2,1.2146886E-3],"categories":[],"categories_nodes":[],"categories_segments":[],"categories_sizes":[],"default_left":[0,0,0,0,0,0,0,0,0,0,0],"id":90,"left_children":[1,-1,3,5,7,-1,9,-1,-1,-1,-1],"loss_changes":[1.8994207E0,0E0,1.5301819E0,1.6707743E0,2.6545265E-1,0E0,5.7212687E-1,0E0,0E0,0E0,0E0],"parents":[2147483647,0,0,2,2,3,3,4,4,6,6],"right_children":[2,-1,4,6,8,-1,10,-1,-1,-1,-1],"split_conditions":[4.005E-1,-4.6005663E-2,5.7476515E-1,4.873355E-1,1.550231E-1,-3.3830456E-2,8.376415E-1,9.860431E-3,-4.051982E-2,7.717379E-2,1.2146886E-3],"split_indices":[15,0,19,42,12,0,42,0,0,0,0],"split_type":[0,0,0,0,0,0,0,0,0,0,0],"sum_hessian":[1.6939568E1,5.3248005E0,1.1614768E1,7.962942E0,3.6518257E0,1.5451179E0,6.4178243E0,1.0001248E0,2.6517007E0,5.1989264E0,1.2188977E0],"tree_param":{"num_deleted":"0","num_feature":"61","num_nodes":"11","size_leaf_vector":"1"}},{"base_weights":[4.8736256E-2,5.719737E-1,-1.541261E-1,7.509808E-2,1.4064175E-3,2.7095875E-1,-3.9032304E-1,5.3785837E-1,-3.161995E-2,1.68679E-2,-4.8055705E-2,7.4578966E-3,6.888458E-2],"categories":[],"categories_nodes":[],"categories_segments":[],"categories_sizes":[],"default_left":[0,0,0,0,0,0,0,0,0,0,0,0,0],"id":91,"left_children":[1,3,5,-1,-1,7,9,11,-1,-1,-1,-1,-1],"loss_changes":[1.9838071E0,5.089444E-1,1.4769957E0,0E0,0E0,1.0270268E0,5.445553E-1,2.3749435E-1,0E0,0E0,0E0,0E0,0E0],"parents":[2147483647,0,0,1,1,2,2,5,5,6,6,7,7],"right_children":[2,4,6,-1,-1,8,10,12,-1,-1,-1,-1,-1],"split_conditions":[1.408864E-1,5.8810246E-1,2.318223E-1,7.509808E-2,1.4064175E-3,6.422592E-1,1.316702E-1,4.925121E-1,-3.161995E-2,1.68679E-2,-4.8055705E-2,7.4578966E-3,6.888458E-2],"split_indices":[9,10,25,0,0,43,18,51,0,0,0,0,0],"split_type":[0,0,0,0,0,0,0,0,0,0,0,0,0],"sum_hessian":[1.685904E1,4.2018375E0,1.2657203E1,2.919155E0,1.2826825E0,4.4683385E0,8.188864E0,3.1296728E0,1.3386658E0,1.0173017E0,7.1715627E0,1.1364892E0,1.9931836E0],"tree_param":{"num_deleted":"0","num_feature":"61","num_nodes":"13","size_leaf_vector":"1"}},{"base_weights":[-1.23198666E-1,-4.6695124E-2,1.5565886E-1,4.812057E-1,-2.47991E-1,-6.650851E-3,8.04423E-2,-4.0360745E-2,1.6451713E-2],"categories":[],"categories_nodes":[],"categories_segments":[],"categories_sizes":[],"default_left":[0,0,0,0,0,0,0,0,0],"id":92,"left_children":[1,-1,3,5,7,-1,-1,-1,-1],"loss_changes":[1.5250267E0,0E0,1.3171185E0,1.0069484E0,3.699884E-1,0E0,0E0,0E0,0E0],"parents":[2147483647,0,0,2,2,3,3,4,4],"right_children":[2,-1,4,6,8,-1,-1,-1,-1],"split_conditions":[4.622428E-1,-4.6695124E-2,3.6590055E-1,4.2683426E-1,7.272568E-1,-6.650851E-3,8.04423E-2,-4.0360745E-2,1.6451713E-2],"split_indices":[56,0,44,36,9,0,0,0,0],"split_type":[0,0,0,0,0,0,0,0,0],"sum_hessian":[1.4150971E1,6.035898E0,8.115073E0,4.3857746E0,3.7292988E0,1.9223864E0,2.4633882E0,2.723464E0,1.0058348E0],"tree_param":{"num_deleted":"0","num_feature":"61","num_nodes":"9","size_leaf_vector":"1"}},{"base_weights":[-6.736908E-2,-3.141905E-1,3.2581717E-1,-4.7986068E-2,3.7276506E-2,5.670629E-1,-3.2067392E-2,5.6193103E-3,7.0994124E-2],"categories":[],"categories_nodes":[],"categories_segments":[],"categories_sizes":[],"default_left":[0,0,0,0,0,0,0,0,0],"id":93,"left_children":[1,3,5,-1,-1,7,-1,-1,-1],"loss_changes":[1.6390185E0,1.3438951E0,1.2107947E0,0E0,0E0,3.3716643E-1,0E0,0E0,0E0],"parents":[2147483647,0,0,1,1,2,2,5,5],"right_children":[2,4,6,-1,-1,8,-1,-1,-1],"split_conditions":[8.2677853E-1,9.1348875E-1,6.575002E-1,-4.7986068E-2,3.7276506E-2,2.7803332E-1,-3.2067392E-2,5.6193103E-3,7.0994124E-2],"split_indices":[11,34,7,0,0,29,0,0,0],"split_type":[0,0,0,0,0,0,0,0,0],"sum_hessian":[1.4834113E1,9.23671E0,5.5974035E0,7.6848536E0,1.5518558E0,4.165761E0,1.4316423E0,1.2149456E0,2.9508157E0],"tree_param":{"num_deleted":"0","num_feature":"61","num_nodes":"9","size_leaf_vector":"1"}},{"base_weights":[1.2217829E-1,-4.2331066E-2,5.922554E-1,5.27882E-1,-2.4211988E-1,7.608127E-2,6.0548785E-4,2.2023449E-4,7.65348E-2,-4.80617E-2,2.2217661E-1,5.2800655E-2,-3.1835746E-2],"categories":[],"categories_nodes":[],"categories_segments":[],"categories_sizes":[],"default_left":[0,0,0,0,0,0,0,0,0,0,0,0,0],"id":94,"left_children":[1,3,5,7,9,-1,-1,-1,-1,-1,11,-1,-1],"loss_changes":[1.524678E0,1.8705899E0,4.987042E-1,5.330577E-1,1.4371595E0,0E0,0E0,0E0,0E0,0E0,9.5513797E-1,0E0,0E0],"parents":[2147483647,0,0,1,1,2,2,3,3,4,4,10,10],"right_children":[2,4,6,8,10,-1,-1,-1,-1,-1,12,-1,-1],"split_conditions":[8.638554E-1,2.2833532E-1,6.501199E-1,4.631726E-1,8.0720717E-1,7.608127E-2,6.0548785E-4,2.2023449E-4,7.65348E-2,-4.80617E-2,5.3860116E-1,5.2800655E-2,-3.1835746E-2],"split_indices":[44,20,3,15,9,0,0,0,0,0,48,0,0],"split_type":[0,0,0,0,0,0,0,0,0,0,0,0,0],"sum_hessian":[1.8391785E1,1.4297978E1,4.093807E0,3.283736E0,1.1014242E1,2.9482036E0,1.1456037E0,1.3358445E0,1.9478914E0,7.253272E0,3.7609699E0,2.4167614E0,1.3442086E0],"tree_param":{"num_deleted":"0","num_feature":"61","num_nodes":"13","size_leaf_vector":"1"}},{"base_weights":[6.642264E-2,2.0036037E-1,-4.2776965E-2,-3.856999E-2,3.309782E-1,-3.2227915E-2,4.3387285E-1,-1.2070469E-1,5.5770093E-1,1.0920044E-2,-2.8795993E-2,7.652052E-2,1.8773767E-3],"categories":[],"categories_nodes":[],"categories_segments":[],"categories_sizes":[],"default_left":[0,0,0,0,0,0,0,0,0,0,0,0,0],"id":95,"left_children":[1,3,-1,-1,5,-1,7,9,11,-1,-1,-1,-1],"loss_changes":[1.3654435E0,1.3442179E0,0E0,0E0,1.0495447E0,0E0,8.9953065E-1,1.4811376E-1,1.1133871E0,0E0,0E0,0E0,0E0],"parents":[2147483647,0,0,1,1,4,4,6,6,7,7,8,8],"right_children":[2,4,-1,-1,6,-1,8,10,12,-1,-1,-1,-1],"split_conditions":[7.4020547E-1,2.0134231E-1,-4.2776965E-2,-3.856999E-2,2.0675837E-1,-3.2227915E-2,1.860964E-1,3.79991E-1,6.9937074E-1,1.0920044E-2,-2.8795993E-2,7.652052E-2,1.8773767E-3],"split_indices":[36,7,0,0,49,0,41,8,7,0,0,0,0],"split_type":[0,0,0,0,0,0,0,0,0,0,0,0,0],"sum_hessian":[1.833398E1,1.4892369E1,3.4416125E0,2.358279E0,1.253409E1,1.4154643E0,1.1118626E1,2.0340652E0,9.08456E0,1.002776E0,1.0312893E0,6.2559514E0,2.828609E0],"tree_param":{"num_deleted":"0","num_feature":"61","num_nodes":"13","size_leaf_vector":"1"}},{"base_weights":[-8.483115E-2,1.8807617E-1,-4.6785943E-2,-1.8691163E-1,6.814955E-1,5.6418844E-2,-4.446149E-2,1.2176456E-2,8.0855235E-2],"categories":[],"categories_nodes":[],"categories_segments":[],"categories_sizes":[],"default_left":[0,0,0,0,0,0,0,0,0],"id":96,"left_children":[1,3,-1,5,7,-1,-1,-1,-1],"loss_changes":[1.7201566E0,1.9463745E0,0E0,1.4839531E0,2.187581E-1,0E0,0E0,0E0,0E0],"parents":[2147483647,0,0,1,1,3,3,4,4],"right_children":[2,4,-1,6,8,-1,-1,-1,-1],"split_conditions":[5.037796E-1,6.257347E-1,-4.6785943E-2,9.951962E-2,3.9470503E-1,5.6418844E-2,-4.446149E-2,1.2176456E-2,8.0855235E-2],"split_indices":[29,39,0,37,9,0,0,0,0],"split_type":[0,0,0,0,0,0,0,0,0],"sum_hessian":[1.4614125E1,8.831012E0,5.783113E0,5.3706374E0,3.4603746E0,1.0681424E0,4.302495E0,1.0024719E0,2.4579027E0],"tree_param":{"num_deleted":"0","num_feature":"61","num_nodes":"9","size_leaf_vector":"1"}},{"base_weights":[-1.5216611E-2,-4.5426317E-2,2.0050968E-1,-3.8519572E-2,3.7105444E-1,5.1686853E-1,-3.2590635E-2,6.643365E-1,-7.807529E-3,7.737919E-2,3.4842242E-3],"categories":[],"categories_nodes":[],"categories_segments":[],"categories_sizes":[],"default_left":[0,0,0,0,0,0,0,0,0,0,0],"id":97,"left_children":[1,-1,3,-1,5,7,-1,9,-1,-1,-1],"loss_changes":[1.7466334E0,0E0,1.3829836E0,0E0,1.1973277E0,8.203535E-1,0E0,4.6392536E-1,0E0,0E0,0E0],"parents":[2147483647,0,0,2,2,4,4,5,5,7,7],"right_children":[2,-1,4,-1,6,8,-1,10,-1,-1,-1],"split_conditions":[4.005E-1,-4.5426317E-2,4.1958678E-1,-3.8519572E-2,8.064344E-1,8.376415E-1,-3.2590635E-2,8.178617E-1,-7.807529E-3,7.737919E-2,3.4842242E-3],"split_indices":[15,0,42,0,56,42,0,24,0,0,0],"split_type":[0,0,0,0,0,0,0,0,0,0,0],"sum_hessian":[1.6479477E1,5.0651455E0,1.1414331E1,2.2902522E0,9.12408E0,7.7591515E0,1.3649281E0,6.1244535E0,1.6346979E0,5.0220075E0,1.102446E0],"tree_param":{"num_deleted":"0","num_feature":"61","num_nodes":"11","size_leaf_vector":"1"}},{"base_weights":[4.84337E-2,4.3175763E-1,-2.0686387E-1,-3.0146966E-2,6.10288E-1,-4.6396237E-2,1.9964595E-1,7.63112E-2,1.4516735E-2,-3.3418503E-2,5.386573E-2],"categories":[],"categories_nodes":[],"categories_segments":[],"categories_sizes":[],"default_left":[0,0,0,0,0,0,0,0,0,0,0],"id":98,"left_children":[1,3,5,-1,7,-1,9,-1,-1,-1,-1],"loss_changes":[1.7927353E0,1.1372703E0,1.2552357E0,0E0,